{"learner":{"attributes":{"best_iteration":"74","best_ntree_limit":"75","scikit_learn":"{\"use_label_encoder\": null, \"n_estimators\": 75, \"objective\": \"binary:logistic\", \"max_depth\": 3, \"max_leaves\": null, \"max_bin\": null, \"grow_policy\": null, \"learning_rate\": 0.02, \"verbosity\": null, \"booster\": null, \"tree_method\": null, \"gamma\": null, \"min_child_weight\": null, \"max_delta_step\": null, \"subsample\": null, \"sampling_method\": null, \"colsample_bytree\": null, \"colsample_bylevel\": null, \"colsample_bynode\": null, \"reg_alpha\": null, \"reg_lambda\": null, \"scale_pos_weight\": null, \"base_score\": null, \"missing\": NaN, \"num_parallel_tree\": null, \"random_state\": 2022, \"n_jobs\": -1, \"monotone_constraints\": null, \"interaction_constraints\": null, \"importance_type\": null, \"gpu_id\": null, \"validate_parameters\": null, \"predictor\": null, \"enable_categorical\": false, \"feature_types\": null, \"max_cat_to_onehot\": null, \"max_cat_threshold\": null, \"eval_metric\": null, \"early_stopping_rounds\": null, \"callbacks\": null, \"classes_\": [0.0, 1.0], \"n_classes_\": 2, \"evals_result_\": {\"validation_0\": {\"logloss\": [0.6918109244392032, 0.6905249657706609, 0.6892871368877471, 0.688090679759071, 0.6869418656636799, 0.6858680680063036, 0.6848382517648122, 0.6839017566802009, 0.6828677806778559, 0.6819760025493682, 0.6809926762278118, 0.6800762576148623, 0.6792812658113146, 0.6784538461670043, 0.6775877630899823, 0.6767089934576125, 0.6759794743855795, 0.67529497241217, 0.6745477403345562, 0.673895339038637, 0.6732559855968233, 0.6724792638657585, 0.6718723951445685, 0.6712092943986256, 0.6706164209426395, 0.670041827701387, 0.6693603868143899, 0.6686173750105359, 0.6680667058059148, 0.6675336535204025, 0.666817952470174, 0.666309880302066, 0.6656656860926795, 0.6649274018454173, 0.6644252241414691, 0.6639629425699749, 0.6635173012718322, 0.6628477338192955, 0.6624111049137418, 0.662050183254575, 0.6614629460327209, 0.6611147470890529, 0.6605146975933559, 0.6601768071689303, 0.6596123430653223, 0.6589372460993509, 0.6585232789554293, 0.6579798990015, 0.6577678089293223, 0.6574574399940551, 0.6567825809357658, 0.6563819080496591, 0.6560540048281351, 0.6555327717273954, 0.6552126860618591, 0.654694652897971, 0.6543031536586701, 0.6540165862393758, 0.6536956297972846, 0.6529994954570891, 0.652695462911848, 0.6523974507952494, 0.6520901373454503, 0.6515994804813748, 0.6513049701849619, 0.6510184049795544, 0.6505436189212497, 0.6502738338046604, 0.6500882367860703, 0.6494188309851147, 0.6491568030251397, 0.6487820085457393, 0.6484814513486529, 0.6481905429136186, 0.6479153539642455]}, \"validation_1\": {\"logloss\": [0.6939437735806867, 0.6948174390998588, 0.6957636171488593, 0.6967779994010925, 0.6976617014952723, 0.6977087946107545, 0.6977597647512019, 0.6977581638975192, 0.6987060623120536, 0.698704708348676, 0.6998998630167869, 0.700090232083035, 0.7001209360391355, 0.7001213278564705, 0.7001936635390151, 0.7014347564447955, 0.7014613950313046, 0.7011531928771644, 0.7011545801223232, 0.700871657901609, 0.7006894024798107, 0.7008935860570917, 0.7007330190106696, 0.7007673857780883, 0.7005216790939951, 0.7003745541052164, 0.7003770786796124, 0.7004567717537662, 0.7003224445176004, 0.700246458731327, 0.7004550796777463, 0.7004124891334379, 0.7004142385448902, 0.7017926302960682, 0.7016836359416168, 0.7016288483808488, 0.7017235261232114, 0.7016402154707061, 0.7015996532240495, 0.701658825130027, 0.7016460213261813, 0.7015960130292147, 0.7015980419319898, 0.7016635687671943, 0.701650359833301, 0.7020924424913328, 0.7022032957845533, 0.7021894606993283, 0.7022246465767701, 0.7022501509352989, 0.7037221560926001, 0.7037553974819667, 0.7037792764793193, 0.703763456514039, 0.7037888674566588, 0.7037686173080793, 0.703782163673851, 0.7038044168561848, 0.7037956020251144, 0.7052476085382064, 0.705272793694196, 0.7053392475782917, 0.7053329204847365, 0.705315417369005, 0.7053393016611864, 0.7054087257929865, 0.7053909525653432, 0.705411628342522, 0.7057952923218006, 0.7074283502126103, 0.7074528765406101, 0.7074770405510356, 0.7074792334422242, 0.7075538155693694, 0.707578022014066]}}, \"_estimator_type\": \"classifier\"}"},"feature_names":["Close_Ratio_2","Trend_2","Close_Ratio_5","Trend_5","Close_Ratio_15","Trend_15","Close_Ratio_30","Trend_30","Close_Ratio_60","Trend_60","Close_Ratio_90","Trend_90","Close_Ratio_250","Trend_250","US_inflation","SE_inflation","US_inflation_75","SE_inflation_75","US_inflation_90","SE_inflation_90","US_inflation_250","SE_inflation_250"],"feature_types":["float","float","float","float","float","float","float","float","float","float","float","float","float","float","float","float","float","float","float","float","float","float"],"gradient_booster":{"model":{"gbtree_model_param":{"num_parallel_tree":"1","num_trees":"75","size_leaf_vector":"0"},"tree_info":[0,0,0,0,0,0,0,0,0,0,0,0,0,0,0,0,0,0,0,0,0,0,0,0,0,0,0,0,0,0,0,0,0,0,0,0,0,0,0,0,0,0,0,0,0,0,0,0,0,0,0,0,0,0,0,0,0,0,0,0,0,0,0,0,0,0,0,0,0,0,0,0,0,0,0],"trees":[{"base_weights":[8.233059E-2,2.3237339E-1,-1.8055555E-1,1.3215859E-1,1.1067961E0,-4.2285714E-1,1.9130434E-1,2.675862E-1,-3.957219E-1,1.4133333E0,2.5E-1,1E0,-5.398773E-1,1.2173913E0,-6.382979E-2],"categories":[],"categories_nodes":[],"categories_segments":[],"categories_sizes":[],"default_left":[1,1,1,1,0,1,1,0,0,0,0,0,0,0,0],"id":0,"left_children":[1,3,5,7,9,11,13,-1,-1,-1,-1,-1,-1,-1,-1],"loss_changes":[1.5612544E1,2.1914602E1,1.3055618E1,1.6334028E1,6.409645E0,1.5108886E1,1.513062E1,0E0,0E0,0E0,0E0,0E0,0E0,0E0,0E0],"parents":[2147483647,0,0,1,1,2,2,3,3,4,4,5,5,6,6],"right_children":[2,4,6,8,10,12,14,-1,-1,-1,-1,-1,-1,-1,-1],"split_conditions":[2.2576485E0,2.356734E0,1.777937E3,2.1721506E0,2.3716545E0,1.1757359E2,2.8339758E3,5.351724E-3,-7.914438E-3,2.8266665E-2,5E-3,2E-2,-1.0797545E-2,2.4347825E-2,-1.2765958E-3],"split_indices":[20,16,13,14,12,7,3,0,0,0,0,0,0,0,0],"split_type":[0,0,0,0,0,0,0,0,0,0,0,0,0,0,0],"sum_hessian":[3.9375E2,2.5075E2,1.43E2,2.26E2,2.475E1,8.65E1,5.65E1,1.8025E2,4.575E1,1.775E1,7E0,6E0,8.05E1,1.05E1,4.6E1],"tree_param":{"num_deleted":"0","num_feature":"22","num_nodes":"15","size_leaf_vector":"0"}},{"base_weights":[8.084569E-2,2.2785306E-1,-1.767258E-1,1.2950525E-1,1.0861049E0,-4.143088E-1,1.8788485E-1,2.6226583E-1,-3.8798264E-1,1.3868382E0,2.4562645E-1,9.829418E-1,-5.292275E-1,1.1953236E0,-6.258042E-2],"categories":[],"categories_nodes":[],"categories_segments":[],"categories_sizes":[],"default_left":[1,1,1,1,0,1,1,0,0,0,0,0,0,0,0],"id":1,"left_children":[1,3,5,7,9,11,13,-1,-1,-1,-1,-1,-1,-1,-1],"loss_changes":[1.4987055E1,2.1108381E1,1.2551492E1,1.5696966E1,6.167015E0,1.4569626E1,1.4583288E1,0E0,0E0,0E0,0E0,0E0,0E0,0E0,0E0],"parents":[2147483647,0,0,1,1,2,2,3,3,4,4,5,5,6,6],"right_children":[2,4,6,8,10,12,14,-1,-1,-1,-1,-1,-1,-1,-1],"split_conditions":[2.2576485E0,2.356734E0,1.777937E3,2.1721506E0,2.3716545E0,1.1757359E2,2.8339758E3,5.2453163E-3,-7.7596526E-3,2.7736763E-2,4.9125287E-3,1.9658836E-2,-1.058455E-2,2.3906471E-2,-1.2516084E-3],"split_indices":[20,16,13,14,12,7,3,0,0,0,0,0,0,0,0],"split_type":[0,0,0,0,0,0,0,0,0,0,0,0,0,0,0],"sum_hessian":[3.9373987E2,2.507444E2,1.4299548E2,2.25998E2,2.474641E1,8.6497055E1,5.649842E1,1.8024872E2,4.5749283E1,1.7746454E1,6.999956E0,5.9994E0,8.049765E1,1.0498445E1,4.5999977E1],"tree_param":{"num_deleted":"0","num_feature":"22","num_nodes":"15","size_leaf_vector":"0"}},{"base_weights":[7.939181E-2,2.2343071E-1,-1.7298667E-1,1.2690733E-1,1.0660902E0,-4.0595922E-1,1.8453686E-1,2.5705487E-1,-3.8040635E-1,1.3613405E0,2.4133176E-1,9.6633685E-1,-5.1881707E-1,1.1739653E0,-6.1355427E-2],"categories":[],"categories_nodes":[],"categories_segments":[],"categories_sizes":[],"default_left":[1,1,1,1,0,1,1,0,0,0,0,0,0,0,0],"id":2,"left_children":[1,3,5,7,9,11,13,-1,-1,-1,-1,-1,-1,-1,-1],"loss_changes":[1.4387285E1,2.0339348E1,1.2067653E1,1.5085083E1,5.938423E0,1.4051069E1,1.4059862E1,0E0,0E0,0E0,0E0,0E0,0E0,0E0,0E0],"parents":[2147483647,0,0,1,1,2,2,3,3,4,4,5,5,6,6],"right_children":[2,4,6,8,10,12,14,-1,-1,-1,-1,-1,-1,-1,-1],"split_conditions":[2.2576485E0,2.356734E0,1.777937E3,2.1721506E0,2.3716545E0,1.1757359E2,2.8339758E3,5.141097E-3,-7.608127E-3,2.722681E-2,4.826635E-3,1.9326737E-2,-1.0376341E-2,2.3479307E-2,-1.2271085E-3],"split_indices":[20,16,13,14,12,7,3,0,0,0,0,0,0,0,0],"split_type":[0,0,0,0,0,0,0,0,0,0,0,0,0,0,0],"sum_hessian":[3.937103E2,2.5072804E2,1.4298225E2,2.2599213E2,2.4735918E1,8.648844E1,5.6493813E1,1.8024493E2,4.574719E1,1.773609E1,6.9998283E0,5.9976416E0,8.04908E1,1.049389E1,4.5999924E1],"tree_param":{"num_deleted":"0","num_feature":"22","num_nodes":"15","size_leaf_vector":"0"}},{"base_weights":[7.7968165E-2,2.1910362E-1,-1.6933511E-1,1.2587635E-1,1.060573E0,-3.9780146E-1,1.8125795E-1,2.5424474E-1,-3.699279E-1,1.3681186E0,2.3711482E-1,9.5016354E-1,-5.086379E-1,1.1532768E0,-6.015474E-2],"categories":[],"categories_nodes":[],"categories_segments":[],"categories_sizes":[],"default_left":[1,1,1,1,0,1,1,0,0,0,0,0,0,0,0],"id":3,"left_children":[1,3,5,7,9,11,13,-1,-1,-1,-1,-1,-1,-1,-1],"loss_changes":[1.3812107E1,1.9611954E1,1.1603182E1,1.4588148E1,5.9993267E0,1.35522995E1,1.3558987E1,0E0,0E0,0E0,0E0,0E0,0E0,0E0,0E0],"parents":[2147483647,0,0,1,1,2,2,3,3,4,4,5,5,6,6],"right_children":[2,4,6,8,10,12,14,-1,-1,-1,-1,-1,-1,-1,-1],"split_conditions":[2.2576485E0,2.360314E0,1.777937E3,2.1721506E0,2.3716545E0,1.1757359E2,2.8339758E3,5.0848946E-3,-7.3985583E-3,2.7362373E-2,4.7422964E-3,1.900327E-2,-1.0172758E-2,2.3065535E-2,-1.2030947E-3],"split_indices":[20,16,13,14,12,7,3,0,0,0,0,0,0,0,0],"split_type":[0,0,0,0,0,0,0,0,0,0,0,0,0,0,0],"sum_hessian":[3.9366238E2,2.5070155E2,1.4296083E2,2.2673134E2,2.3970213E1,8.647449E1,5.648634E1,1.804884E2,4.6242935E1,1.6970594E1,6.99962E0,5.994784E0,8.0479706E1,1.0486505E1,4.5999836E1],"tree_param":{"num_deleted":"0","num_feature":"22","num_nodes":"15","size_leaf_vector":"0"}},{"base_weights":[7.6575585E-2,2.1487147E-1,-1.6576815E-1,1.2182383E-1,1.0283799E0,-3.8982928E-1,1.7804654E-1,2.4690543E-1,-3.6578405E-1,1.3136859E0,2.3297352E-1,9.3440276E-1,-4.9868298E-1,1.0750687E0,-7.547295E-2],"categories":[],"categories_nodes":[],"categories_segments":[],"categories_sizes":[],"default_left":[1,1,1,1,0,1,1,0,0,0,0,0,0,0,0],"id":4,"left_children":[1,3,5,7,9,11,13,-1,-1,-1,-1,-1,-1,-1,-1],"loss_changes":[1.3260614E1,1.8924583E1,1.1157256E1,1.3933371E1,5.5253067E0,1.3072469E1,1.315194E1,0E0,0E0,0E0,0E0,0E0,0E0,0E0,0E0],"parents":[2147483647,0,0,1,1,2,2,3,3,4,4,5,5,6,6],"right_children":[2,4,6,8,10,12,14,-1,-1,-1,-1,-1,-1,-1,-1],"split_conditions":[2.2576485E0,2.356734E0,1.777937E3,2.1721506E0,2.3716545E0,1.1757359E2,2.8760059E3,4.9381084E-3,-7.315681E-3,2.6273718E-2,4.65947E-3,1.8688055E-2,-9.973659E-3,2.1501373E-2,-1.509459E-3],"split_indices":[20,16,13,14,12,7,5,0,0,0,0,0,0,0,0],"split_type":[0,0,0,0,0,0,0,0,0,0,0,0,0,0,0],"sum_hessian":[3.9359763E2,2.5066594E2,1.4293167E2,2.259697E2,2.4696257E1,8.645551E1,5.647616E1,1.8023045E2,4.573923E1,1.769692E1,6.999336E0,5.9908857E0,8.046463E1,1.1730352E1,4.4745808E1],"tree_param":{"num_deleted":"0","num_feature":"22","num_nodes":"15","size_leaf_vector":"0"}},{"base_weights":[7.520527E-2,2.1072653E-1,-1.6229112E-1,1.2083945E-1,1.0236081E0,-4.5889878E-1,9.099364E-2,2.4427384E-1,-3.5596225E-1,1.3212086E0,2.2890699E-1,9.190363E-1,-6.105258E-1,2.218637E-1,-6.523539E-1],"categories":[],"categories_nodes":[],"categories_segments":[],"categories_sizes":[],"default_left":[1,1,1,1,0,1,0,0,0,0,0,0,0,0,0],"id":5,"left_children":[1,3,5,7,9,11,13,-1,-1,-1,-1,-1,-1,-1,-1],"loss_changes":[1.273211E1,1.8261642E1,1.0852254E1,1.3488033E1,5.5911407E0,1.44437895E1,7.776684E0,0E0,0E0,0E0,0E0,0E0,0E0,0E0,0E0],"parents":[2147483647,0,0,1,1,2,2,3,3,4,4,5,5,6,6],"right_children":[2,4,6,8,10,12,14,-1,-1,-1,-1,-1,-1,-1,-1],"split_conditions":[2.2576485E0,2.360314E0,2.5986805E0,2.1721506E0,2.3716545E0,1.1757359E2,1.5879384E0,4.8854765E-3,-7.119245E-3,2.6424171E-2,4.5781396E-3,1.8380726E-2,-1.2210515E-2,4.437274E-3,-1.3047078E-2],"split_indices":[20,16,20,14,12,7,12,0,0,0,0,0,0,0,0],"split_type":[0,0,0,0,0,0,0,0,0,0,0,0,0,0,0],"sum_hessian":[3.9351892E2,2.506211E2,1.4289783E2,2.2670148E2,2.3919615E1,6.5445946E1,7.745188E1,1.8046928E2,4.6232193E1,1.6920635E1,6.9989805E0,5.986002E0,5.945994E1,6.645388E1,1.0998005E1],"tree_param":{"num_deleted":"0","num_feature":"22","num_nodes":"15","size_leaf_vector":"0"}},{"base_weights":[7.378412E-2,2.0667157E-1,-1.5909463E-1,1.1695042E-1,9.929071E-1,-4.498108E-1,8.906626E-2,2.3716648E-1,-3.51754E-1,1.2692629E0,2.2491316E-1,9.040468E-1,-5.987276E-1,2.1749358E-1,-6.404801E-1],"categories":[],"categories_nodes":[],"categories_segments":[],"categories_sizes":[],"default_left":[1,1,1,1,0,1,0,0,0,0,0,0,0,0,0],"id":6,"left_children":[1,3,5,7,9,11,13,-1,-1,-1,-1,-1,-1,-1,-1],"loss_changes":[1.2239391E1,1.7629986E1,1.0419402E1,1.2870223E1,5.155018E0,1.393217E1,7.4895597E0,0E0,0E0,0E0,0E0,0E0,0E0,0E0,0E0],"parents":[2147483647,0,0,1,1,2,2,3,3,4,4,5,5,6,6],"right_children":[2,4,6,8,10,12,14,-1,-1,-1,-1,-1,-1,-1,-1],"split_conditions":[2.2576485E0,2.356734E0,2.5986805E0,2.1721506E0,2.3716545E0,1.1757359E2,1.5879384E0,4.7433292E-3,-7.03508E-3,2.5385257E-2,4.4982634E-3,1.8080935E-2,-1.1974552E-2,4.3498715E-3,-1.2809602E-2],"split_indices":[20,16,20,14,12,7,12,0,0,0,0,0,0,0,0],"split_type":[0,0,0,0,0,0,0,0,0,0,0,0,0,0,0],"sum_hessian":[3.934371E2,2.5056813E2,1.4286899E2,2.259344E2,2.463372E1,6.541908E1,7.74499E1,1.8020769E2,4.5726727E1,1.7635164E1,6.9985566E0,5.9801865E0,5.9438896E1,6.645349E1,1.0996409E1],"tree_param":{"num_deleted":"0","num_feature":"22","num_nodes":"15","size_leaf_vector":"0"}},{"base_weights":[7.239109E-2,2.2696188E-1,-1.21629626E-1,6.1303943E-1,1.068003E-1,8.850523E-1,-1.7958419E-1,4.13424E-1,1.520701E0,-1.5001261E-2,5.4644555E-1,1.1700829E0,-2.6716897E-1,-8.258871E-1,-6.5361834E-3],"categories":[],"categories_nodes":[],"categories_segments":[],"categories_sizes":[],"default_left":[1,0,1,0,1,1,1,0,0,0,0,0,0,0,0],"id":7,"left_children":[1,3,5,7,9,11,13,-1,-1,-1,-1,-1,-1,-1,-1],"loss_changes":[1.1853863E1,1.0132956E1,1.0398388E1,8.787197E0,9.050785E0,3.5056992E0,1.8648098E1,0E0,0E0,0E0,0E0,0E0,0E0,0E0,0E0],"parents":[2147483647,0,0,1,1,2,2,3,3,4,4,5,5,6,6],"right_children":[2,4,6,8,10,12,14,-1,-1,-1,-1,-1,-1,-1,-1],"split_conditions":[2.0712461E0,9.8086214E-1,1.1771506E2,1.1141027E0,2.1181881E0,2.2282293E0,2.3454173E0,8.268479E-3,3.041402E-2,-3.0002522E-4,1.0928911E-2,2.3401657E-2,-5.3433795E-3,-1.6517742E-2,-1.3072367E-4],"split_indices":[20,2,7,6,18,21,16,0,0,0,0,0,0,0,0],"split_type":[0,0,0,0,0,0,0,0,0,0,0,0,0,0,0],"sum_hessian":[3.9334088E2,2.1883304E2,1.7450784E2,5.0968884E1,1.6786415E2,8.722629E0,1.6578522E2,4.2973515E1,7.9953713E0,1.3220364E2,3.5660496E1,6.980361E0,1.7422677E0,3.4217285E1,1.3156793E2],"tree_param":{"num_deleted":"0","num_feature":"22","num_nodes":"15","size_leaf_vector":"0"}},{"base_weights":[7.107963E-2,1.9986163E-1,-1.546098E-1,1.13529444E-1,9.831253E-1,-3.6724427E-1,1.7135456E-1,2.3199463E-1,-3.440676E-1,1.2722067E0,2.1533771E-1,8.773892E-1,-4.6927267E-1,1.0512366E0,-7.697742E-2],"categories":[],"categories_nodes":[],"categories_segments":[],"categories_sizes":[],"default_left":[1,1,1,1,0,1,1,0,0,0,0,0,0,0,0],"id":8,"left_children":[1,3,5,7,9,11,13,-1,-1,-1,-1,-1,-1,-1,-1],"loss_changes":[1.149111E1,1.689394E1,1.0030973E1,1.2420431E1,5.238558E0,1.1504958E1,1.26359E1,0E0,0E0,0E0,0E0,0E0,0E0,0E0,0E0],"parents":[2147483647,0,0,1,1,2,2,3,3,4,4,5,5,6,6],"right_children":[2,4,6,8,10,12,14,-1,-1,-1,-1,-1,-1,-1,-1],"split_conditions":[2.2576485E0,2.360314E0,1.777937E3,2.1721506E0,2.3716545E0,1.1757359E2,2.8760059E3,4.6398924E-3,-6.881352E-3,2.5444133E-2,4.306754E-3,1.7547784E-2,-9.385454E-3,2.1024732E-2,-1.5395483E-3],"split_indices":[20,16,13,14,12,7,5,0,0,0,0,0,0,0,0],"split_type":[0,0,0,0,0,0,0,0,0,0,0,0,0,0,0],"sum_hessian":[3.932994E2,2.504838E2,1.4281563E2,2.266474E2,2.3836384E1,8.635652E1,5.6459103E1,1.804298E2,4.6217617E1,1.6839231E1,6.997153E0,5.9669437E0,8.038958E1,1.1715592E1,4.474351E1],"tree_param":{"num_deleted":"0","num_feature":"22","num_nodes":"15","size_leaf_vector":"0"}},{"base_weights":[6.982093E-2,2.191024E-1,-1.17602676E-1,5.989877E-1,1.00905426E-1,8.5861516E-1,-1.7373416E-1,4.03133E-1,1.4904312E0,-1.8143427E-2,5.310828E-1,1.1409148E0,-2.7506793E-1,-8.0540353E-1,-4.6649063E-3],"categories":[],"categories_nodes":[],"categories_segments":[],"categories_sizes":[],"default_left":[1,0,1,0,1,1,1,0,0,0,0,0,0,0,0],"id":9,"left_children":[1,3,5,7,9,11,13,-1,-1,-1,-1,-1,-1,-1,-1],"loss_changes":[1.1054448E1,9.807295E0,9.761241E0,8.469036E0,8.655089E0,3.4201174E0,1.7799944E1,0E0,0E0,0E0,0E0,0E0,0E0,0E0,0E0],"parents":[2147483647,0,0,1,1,2,2,3,3,4,4,5,5,6,6],"right_children":[2,4,6,8,10,12,14,-1,-1,-1,-1,-1,-1,-1,-1],"split_conditions":[2.0712461E0,9.8086214E-1,1.1771506E2,1.1141027E0,2.1181881E0,2.2282293E0,2.3454173E0,8.06266E-3,2.9808624E-2,-3.6286854E-4,1.0621656E-2,2.2818295E-2,-5.5013583E-3,-1.610807E-2,-9.329813E-5],"split_indices":[20,2,7,6,18,21,16,0,0,0,0,0,0,0,0],"split_type":[0,0,0,0,0,0,0,0,0,0,0,0,0,0,0],"sum_hessian":[3.931789E2,2.1876512E2,1.7441377E2,5.0948578E1,1.6781654E2,8.705987E0,1.6570778E2,4.2961864E1,7.986715E0,1.3219127E2,3.562527E1,6.9651966E0,1.7407904E0,3.4193127E1,1.3151465E2],"tree_param":{"num_deleted":"0","num_feature":"22","num_nodes":"15","size_leaf_vector":"0"}},{"base_weights":[6.8559974E-2,1.933106E-1,-1.5008266E-1,1.07497625E-1,9.4841707E-1,-3.5794258E-1,1.6839898E-1,2.2259517E-1,-3.4116343E-1,1.2175434E0,2.0608185E-1,8.5195035E-1,-4.5692083E-1,1.0961746E0,-6.120601E-2],"categories":[],"categories_nodes":[],"categories_segments":[],"categories_sizes":[],"default_left":[1,1,1,1,0,1,1,0,0,0,0,0,0,0,0],"id":10,"left_children":[1,3,5,7,9,11,13,-1,-1,-1,-1,-1,-1,-1,-1],"loss_changes":[1.0778983E1,1.6186867E1,9.57596E0,1.1790644E1,4.848423E0,1.0843284E1,1.2304349E1,0E0,0E0,0E0,0E0,0E0,0E0,0E0,0E0],"parents":[2147483647,0,0,1,1,2,2,3,3,4,4,5,5,6,6],"right_children":[2,4,6,8,10,12,14,-1,-1,-1,-1,-1,-1,-1,-1],"split_conditions":[2.2576485E0,2.356734E0,1.777937E3,2.1721506E0,2.3716545E0,1.1757359E2,2.8339758E3,4.4519035E-3,-6.8232683E-3,2.4350867E-2,4.121637E-3,1.7039007E-2,-9.1384165E-3,2.1923492E-2,-1.2241201E-3],"split_indices":[20,16,13,14,12,7,3,0,0,0,0,0,0,0,0],"split_type":[0,0,0,0,0,0,0,0,0,0,0,0,0,0,0],"sum_hessian":[3.931211E2,2.5037871E2,1.4274237E2,2.258542E2,2.452451E1,8.6296364E1,5.6446007E1,1.8014458E2,4.5709633E1,1.7529287E1,6.9952216E0,5.9505415E0,8.0345825E1,1.0449212E1,4.5996796E1],"tree_param":{"num_deleted":"0","num_feature":"22","num_nodes":"15","size_leaf_vector":"0"}},{"base_weights":[6.735314E-2,1.8961032E-1,-1.4694205E-1,1.06668845E-1,9.452212E-1,-4.225874E-1,8.794247E-2,1.7738138E-1,-5.9843636E-1,1.2267339E0,2.0249514E-1,8.385242E-1,-5.6065893E-1,7.5261104E-1,-5.2332696E-2],"categories":[],"categories_nodes":[],"categories_segments":[],"categories_sizes":[],"default_left":[1,1,1,1,0,1,0,0,0,0,0,0,0,0,0],"id":11,"left_children":[1,3,5,7,9,11,13,-1,-1,-1,-1,-1,-1,-1,-1],"loss_changes":[1.0349862E1,1.56484995E1,9.339887E0,1.1452784E1,4.922085E0,1.2010669E1,7.3495965E0,0E0,0E0,0E0,0E0,0E0,0E0,0E0,0E0],"parents":[2147483647,0,0,1,1,2,2,3,3,4,4,5,5,6,6],"right_children":[2,4,6,8,10,12,14,-1,-1,-1,-1,-1,-1,-1,-1],"split_conditions":[2.2576485E0,2.360314E0,2.5986805E0,7.309678E2,2.3716545E0,1.1757359E2,9.16211E-1,3.5476275E-3,-1.1968727E-2,2.4534678E-2,4.049903E-3,1.6770484E-2,-1.1213179E-2,1.5052221E-2,-1.0466538E-3],"split_indices":[20,16,20,13,12,7,4,0,0,0,0,0,0,0,0],"split_type":[0,0,0,0,0,0,0,0,0,0,0,0,0,0,0],"sum_hessian":[3.9298264E2,2.5029976E2,1.4268289E2,2.2657083E2,2.3728931E1,6.527786E1,7.740502E1,2.0660005E2,1.9970768E1,1.6734465E1,6.994467E0,5.941012E0,5.9336853E1,1.2728425E1,6.46766E1],"tree_param":{"num_deleted":"0","num_feature":"22","num_nodes":"15","size_leaf_vector":"0"}},{"base_weights":[6.61294E-2,2.0787303E-1,-1.1191653E-1,5.827039E-1,9.13184E-2,-1.9117792E-1,5.26346E-1,3.9067456E-1,1.4582995E0,-2.4351917E-2,5.1021665E-1,1.0980855E0,-2.4498554E-1,-1.8586442E-1,9.091414E-1],"categories":[],"categories_nodes":[],"categories_segments":[],"categories_sizes":[],"default_left":[1,0,0,0,1,1,1,0,0,0,0,0,0,0,0],"id":12,"left_children":[1,3,5,7,9,11,13,-1,-1,-1,-1,-1,-1,-1,-1],"loss_changes":[9.962959E0,9.54218E0,8.965078E0,8.158468E0,8.187738E0,1.1132729E1,5.518668E0,0E0,0E0,0E0,0E0,0E0,0E0,0E0,0E0],"parents":[2147483647,0,0,1,1,2,2,3,3,4,4,5,5,6,6],"right_children":[2,4,6,8,10,12,14,-1,-1,-1,-1,-1,-1,-1,-1],"split_conditions":[2.0712461E0,9.8086214E-1,1.1388003E0,1.1141027E0,2.1181881E0,1.1757359E2,5.9050146E2,7.813491E-3,2.9165989E-2,-4.8703834E-4,1.0204333E-2,2.196171E-2,-4.8997104E-3,-3.7172884E-3,1.8182827E-2],"split_indices":[20,2,4,6,18,7,9,0,0,0,0,0,0,0,0],"split_type":[0,0,0,0,0,0,0,0,0,0,0,0,0,0,0],"sum_hessian":[3.9285602E2,2.1863312E2,1.742229E2,5.091024E1,1.6772287E2,1.5560043E2,1.8622467E1,4.2939285E1,7.970953E0,1.3216895E2,3.5553925E1,5.456308E0,1.5014412E2,6.689943E0,1.1932525E1],"tree_param":{"num_deleted":"0","num_feature":"22","num_nodes":"15","size_leaf_vector":"0"}},{"base_weights":[6.501924E-2,2.0362023E-1,-1.0998435E-1,5.720178E-1,8.94481E-2,8.125866E-1,-1.6303211E-1,3.8310748E-1,1.4348056E0,6.6540825E-1,2.7073314E-3,1.0918804E0,-2.934169E-1,-7.8591084E-1,1.1669961E-3],"categories":[],"categories_nodes":[],"categories_segments":[],"categories_sizes":[],"default_left":[1,0,1,0,1,1,1,0,0,0,0,0,0,0,0],"id":13,"left_children":[1,3,5,7,9,11,13,-1,-1,-1,-1,-1,-1,-1,-1],"loss_changes":[9.573799E0,9.20621E0,8.681609E0,7.907427E0,8.451699E0,3.3059936E0,1.6980747E1,0E0,0E0,0E0,0E0,0E0,0E0,0E0,0E0],"parents":[2147483647,0,0,1,1,2,2,3,3,4,4,5,5,6,6],"right_children":[2,4,6,8,10,12,14,-1,-1,-1,-1,-1,-1,-1,-1],"split_conditions":[2.074284E0,9.8086214E-1,1.1771506E2,1.1141027E0,1.6087518E2,2.2282293E0,2.3454173E0,7.6621496E-3,2.8696112E-2,1.3308165E-2,5.414663E-5,2.1837609E-2,-5.8683376E-3,-1.5718216E-2,2.333992E-5],"split_indices":[20,2,7,6,11,21,16,0,0,0,0,0,0,0,0],"split_type":[0,0,0,0,0,0,0,0,0,0,0,0,0,0,0],"sum_hessian":[3.9278024E2,2.1909544E2,1.7368478E2,5.0887463E1,1.68208E2,8.665323E0,1.6501947E2,4.29315E1,7.9559636E0,2.1143509E1,1.4706448E2,6.9284773E0,1.7368464E0,3.363624E1,1.3138322E2],"tree_param":{"num_deleted":"0","num_feature":"22","num_nodes":"15","size_leaf_vector":"0"}},{"base_weights":[6.3859865E-2,1.7988734E-1,-1.3952427E-1,9.9075384E-2,9.18623E-1,-4.0855265E-1,8.935068E-2,2.1098278E-1,-3.329881E-1,1.1978452E0,1.8681464E-1,8.0791974E-1,-5.413277E-1,2.1490979E-1,-6.2399113E-1],"categories":[],"categories_nodes":[],"categories_segments":[],"categories_sizes":[],"default_left":[1,1,1,1,0,1,0,0,0,0,0,0,0,0,0],"id":14,"left_children":[1,3,5,7,9,11,13,-1,-1,-1,-1,-1,-1,-1,-1],"loss_changes":[9.315657E0,1.4900691E1,8.877013E0,1.1069244E1,4.8113422E0,1.1126231E1,7.1559167E0,0E0,0E0,0E0,0E0,0E0,0E0,0E0,0E0],"parents":[2147483647,0,0,1,1,2,2,3,3,4,4,5,5,6,6],"right_children":[2,4,6,8,10,12,14,-1,-1,-1,-1,-1,-1,-1,-1],"split_conditions":[2.2576485E0,2.360314E0,2.5986805E0,2.1721506E0,2.3716545E0,1.1757359E2,1.5879384E0,4.2196554E-3,-6.659762E-3,2.3956904E-2,3.7362927E-3,1.6158395E-2,-1.0826554E-2,4.2981957E-3,-1.2479822E-2],"split_indices":[20,16,20,14,12,7,12,0,0,0,0,0,0,0,0],"split_type":[0,0,0,0,0,0,0,0,0,0,0,0,0,0,0],"sum_hessian":[3.926986E2,2.5012291E2,1.425757E2,2.2648167E2,2.3641228E1,6.517797E1,7.739773E1,1.8029558E2,4.61861E1,1.665114E1,6.9900885E0,5.9135666E0,5.9264404E1,6.6407684E1,1.0990044E1],"tree_param":{"num_deleted":"0","num_feature":"22","num_nodes":"15","size_leaf_vector":"0"}},{"base_weights":[6.2665194E-2,1.764587E-1,-1.3681003E-1,9.7097464E-2,9.036094E-1,-3.340279E-1,1.6473992E-1,2.0681351E-1,-3.265379E-1,1.1792402E0,1.8356855E-1,7.954489E-1,-4.2592174E-1,1.0704235E0,-5.894594E-2],"categories":[],"categories_nodes":[],"categories_segments":[],"categories_sizes":[],"default_left":[1,1,1,1,0,1,1,0,0,0,0,0,0,0,0],"id":15,"left_children":[1,3,5,7,9,11,13,-1,-1,-1,-1,-1,-1,-1,-1],"loss_changes":[8.957261E0,1.4398568E1,8.590164E0,1.0639247E1,4.6620216E0,9.379034E0,1.1695331E1,0E0,0E0,0E0,0E0,0E0,0E0,0E0,0E0],"parents":[2147483647,0,0,1,1,2,2,3,3,4,4,5,5,6,6],"right_children":[2,4,6,8,10,12,14,-1,-1,-1,-1,-1,-1,-1,-1],"split_conditions":[2.2576485E0,2.360314E0,1.777937E3,2.1721506E0,2.3716545E0,1.1757359E2,2.8339758E3,4.1362704E-3,-6.530758E-3,2.3584804E-2,3.671371E-3,1.5908977E-2,-8.518434E-3,2.1408468E-2,-1.1789188E-3],"split_indices":[20,16,13,14,12,7,3,0,0,0,0,0,0,0,0],"split_type":[0,0,0,0,0,0,0,0,0,0,0,0,0,0,0],"sum_hessian":[3.925471E2,2.5002953E2,1.4251756E2,2.2644847E2,2.3581059E1,8.6099556E1,5.6418007E1,1.8027214E2,4.6176323E1,1.659194E1,6.989118E0,5.901947E0,8.019761E1,1.0424554E1,4.5993454E1],"tree_param":{"num_deleted":"0","num_feature":"22","num_nodes":"15","size_leaf_vector":"0"}},{"base_weights":[6.157438E-2,1.9292827E-1,-1.060792E-1,5.5703336E-1,8.083857E-2,-1.8199393E-1,5.0049794E-1,3.7186608E-1,1.4049486E0,1.9359568E-2,8.079298E-1,1.0502921E0,-2.3370352E-1,-2.0527753E-1,8.8134146E-1],"categories":[],"categories_nodes":[],"categories_segments":[],"categories_sizes":[],"default_left":[1,0,0,0,1,1,1,0,0,0,0,0,0,0,0],"id":16,"left_children":[1,3,5,7,9,11,13,-1,-1,-1,-1,-1,-1,-1,-1],"loss_changes":[8.683345E0,8.971255E0,8.07835E0,7.6154594E0,7.587449E0,1.011548E1,5.438536E0,0E0,0E0,0E0,0E0,0E0,0E0,0E0,0E0],"parents":[2147483647,0,0,1,1,2,2,3,3,4,4,5,5,6,6],"right_children":[2,4,6,8,10,12,14,-1,-1,-1,-1,-1,-1,-1,-1],"split_conditions":[2.0789938E0,9.8086214E-1,1.1388003E0,1.1141027E0,2.3573043E0,1.1757359E2,5.9050146E2,7.4373214E-3,2.809897E-2,3.8719137E-4,1.6158596E-2,2.1005843E-2,-4.6740705E-3,-4.1055507E-3,1.762683E-2],"split_indices":[20,2,4,6,16,7,9,0,0,0,0,0,0,0,0],"split_type":[0,0,0,0,0,0,0,0,0,0,0,0,0,0,0],"sum_hessian":[3.9237473E2,2.199201E2,1.7245464E2,5.08318E1,1.690883E2,1.5389432E2,1.8560314E1,4.2901546E1,7.9302506E0,1.5685233E2,1.2235978E1,5.41998E0,1.4847433E2,6.6666803E0,1.1893633E1],"tree_param":{"num_deleted":"0","num_feature":"22","num_nodes":"15","size_leaf_vector":"0"}},{"base_weights":[6.0569875E-2,2.9349926E-1,-3.070533E-2,-6.699725E-2,4.906405E-1,-1.22334756E-1,3.5669938E-1,-5.9824806E-1,2.161226E-1,5.991643E-1,2.8341066E-2,3.9746225E-2,-3.340154E-1,1.215996E0,1.611603E-1],"categories":[],"categories_nodes":[],"categories_segments":[],"categories_sizes":[],"default_left":[0,0,1,0,0,1,0,0,0,0,0,0,0,0,0],"id":17,"left_children":[1,3,5,7,9,11,13,-1,-1,-1,-1,-1,-1,-1,-1],"loss_changes":[8.370119E0,7.908226E0,1.0105557E1,6.153959E0,3.5831356E0,7.9037137E0,8.957104E0,0E0,0E0,0E0,0E0,0E0,0E0,0E0,0E0],"parents":[2147483647,0,0,1,1,2,2,3,3,4,4,5,5,6,6],"right_children":[2,4,6,8,10,12,14,-1,-1,-1,-1,-1,-1,-1,-1],"split_conditions":[9.910084E-1,8.3911026E-1,1.0561135E0,9.682662E-1,1.3860526E0,2.074284E0,1.0088964E0,-1.1964961E-2,4.322452E-3,1.1983286E-2,5.668213E-4,7.949245E-4,-6.680308E-3,2.431992E-2,3.223206E-3],"split_indices":[0,10,2,0,10,20,0,0,0,0,0,0,0,0,0],"split_type":[0,0,0,0,0,0,0,0,0,0,0,0,0,0,0],"sum_hessian":[3.9226624E2,1.0981323E2,2.82453E2,3.9055565E1,7.075767E1,2.2897885E2,5.3474133E1,1.3190895E1,2.5864672E1,5.7065586E1,1.36920805E1,1.3014264E2,9.883621E1,8.945303E0,4.452883E1],"tree_param":{"num_deleted":"0","num_feature":"22","num_nodes":"15","size_leaf_vector":"0"}},{"base_weights":[5.94343E-2,1.8608645E-1,-1.0222235E-1,5.4223573E-1,7.652778E-2,7.696473E-1,-1.524679E-1,3.5970122E-1,1.3807966E0,7.762043E-1,1.37316445E-2,1.0453707E0,-3.0666512E-1,-7.5776136E-1,3.7520924E-3],"categories":[],"categories_nodes":[],"categories_segments":[],"categories_sizes":[],"default_left":[1,0,1,0,0,1,1,0,0,0,0,0,0,0,0],"id":18,"left_children":[1,3,5,7,9,11,13,-1,-1,-1,-1,-1,-1,-1,-1],"loss_changes":[8.069742E0,8.575201E0,7.7127743E0,7.4301443E0,7.4606147E0,3.1733208E0,1.5583204E1,0E0,0E0,0E0,0E0,0E0,0E0,0E0,0E0],"parents":[2147483647,0,0,1,1,2,2,3,3,4,4,5,5,6,6],"right_children":[2,4,6,8,10,12,14,-1,-1,-1,-1,-1,-1,-1,-1],"split_conditions":[2.0789938E0,9.8086214E-1,1.1771506E2,1.1141027E0,9.50277E-1,2.2282293E0,2.3454173E0,7.194024E-3,2.761593E-2,1.5524086E-2,2.7463288E-4,2.0907413E-2,-6.133302E-3,-1.5155227E-2,7.504185E-5],"split_indices":[20,2,7,6,4,21,16,0,0,0,0,0,0,0,0],"split_type":[0,0,0,0,0,0,0,0,0,0,0,0,0,0,0],"sum_hessian":[3.9221362E2,2.1983205E2,1.7238159E2,5.0786827E1,1.6904523E2,8.612815E0,1.6376877E2,4.2881504E1,7.905321E0,1.2986668E1,1.5605856E2,6.8792715E0,1.7335433E0,3.280627E1,1.3096251E2],"tree_param":{"num_deleted":"0","num_feature":"22","num_nodes":"15","size_leaf_vector":"0"}},{"base_weights":[5.838812E-2,2.8547987E-1,-3.057468E-2,-6.4163975E-2,4.7666666E-1,-1.20362975E-1,3.4912932E-1,-5.842335E-1,2.1279217E-1,5.839588E-1,2.0059267E-2,3.6343567E-2,-3.2506275E-1,1.1949519E0,1.569059E-1],"categories":[],"categories_nodes":[],"categories_segments":[],"categories_sizes":[],"default_left":[0,0,1,0,0,1,0,0,0,0,0,0,0,0,0],"id":19,"left_children":[1,3,5,7,9,11,13,-1,-1,-1,-1,-1,-1,-1,-1],"loss_changes":[7.9508467E0,7.4340687E0,9.702916E0,5.8905196E0,3.5018425E0,7.387128E0,8.66527E0,0E0,0E0,0E0,0E0,0E0,0E0,0E0,0E0],"parents":[2147483647,0,0,1,1,2,2,3,3,4,4,5,5,6,6],"right_children":[2,4,6,8,10,12,14,-1,-1,-1,-1,-1,-1,-1,-1],"split_conditions":[9.910084E-1,8.3911026E-1,1.0561135E0,9.682662E-1,1.3860526E0,2.074284E0,1.0088964E0,-1.168467E-2,4.2558433E-3,1.1679176E-2,4.0118533E-4,7.268713E-4,-6.501255E-3,2.3899037E-2,3.138118E-3],"split_indices":[0,10,2,0,10,20,0,0,0,0,0,0,0,0,0],"split_type":[0,0,0,0,0,0,0,0,0,0,0,0,0,0,0],"sum_hessian":[3.9212128E2,1.0975222E2,2.8236905E2,3.9032913E1,7.071931E1,2.2891963E2,5.3449425E1,1.3177904E1,2.585501E1,5.7037834E1,1.3681475E1,1.3012543E2,9.87942E1,8.931688E0,4.451774E1],"tree_param":{"num_deleted":"0","num_feature":"22","num_nodes":"15","size_leaf_vector":"0"}},{"base_weights":[5.729591E-2,2.7987143E-1,-2.9892052E-2,-7.627754E-4,5.1072556E-1,-1.1799165E-1,3.4277123E-1,1.05975755E-1,-1.0034688E0,6.530224E-1,1.968565E-2,-9.293231E-1,-7.897783E-2,1.1751952E0,1.538547E-1],"categories":[],"categories_nodes":[],"categories_segments":[],"categories_sizes":[],"default_left":[0,0,1,1,0,1,0,0,0,0,0,0,0,0,0],"id":20,"left_children":[1,3,5,7,9,11,13,-1,-1,-1,-1,-1,-1,-1,-1],"loss_changes":[7.6360083E0,7.1740284E0,9.342548E0,5.5620327E0,4.232256E0,7.2036357E0,8.378719E0,0E0,0E0,0E0,0E0,0E0,0E0,0E0,0E0],"parents":[2147483647,0,0,1,1,2,2,3,3,4,4,5,5,6,6],"right_children":[2,4,6,8,10,12,14,-1,-1,-1,-1,-1,-1,-1,-1],"split_conditions":[9.910084E-1,9.558665E-1,1.0561135E0,2.7908804E3,1.3860526E0,9.386366E-1,1.0088964E0,2.119515E-3,-2.0069374E-2,1.3060448E-2,3.93713E-4,-1.858646E-2,-1.5795566E-3,2.3503903E-2,3.077094E-3],"split_indices":[0,10,2,3,10,2,0,0,0,0,0,0,0,0,0],"split_type":[0,0,0,0,0,0,0,0,0,0,0,0,0,0,0],"sum_hessian":[3.9205777E2,1.0972899E2,2.8232877E2,4.997471E1,5.975428E1,2.2889917E2,5.3429607E1,4.5974964E1,3.9997463E0,4.6073048E1,1.3681235E1,9.454891E0,2.1944427E2,8.91716E0,4.4512447E1],"tree_param":{"num_deleted":"0","num_feature":"22","num_nodes":"15","size_leaf_vector":"0"}},{"base_weights":[5.6161694E-2,1.6058983E-1,-1.2688437E-1,8.224558E-2,8.5879886E-1,-3.8534346E-1,9.2412315E-2,1.8756296E-1,-3.277472E-1,1.1185769E0,1.5826784E-1,7.666781E-1,-5.105115E-1,7.42579E-1,-4.4905934E-2],"categories":[],"categories_nodes":[],"categories_segments":[],"categories_sizes":[],"default_left":[1,1,1,1,0,1,0,0,0,0,0,0,0,0,0],"id":21,"left_children":[1,3,5,7,9,11,13,-1,-1,-1,-1,-1,-1,-1,-1],"loss_changes":[7.532934E0,1.3642269E1,8.159208E0,9.841786E0,4.4062824E0,9.905765E0,7.0278625E0,0E0,0E0,0E0,0E0,0E0,0E0,0E0,0E0],"parents":[2147483647,0,0,1,1,2,2,3,3,4,4,5,5,6,6],"right_children":[2,4,6,8,10,12,14,-1,-1,-1,-1,-1,-1,-1,-1],"split_conditions":[2.2576485E0,2.356734E0,2.5986805E0,2.1721506E0,2.3716545E0,1.1757359E2,9.16211E-1,3.751259E-3,-6.554944E-3,2.2371538E-2,3.1653568E-3,1.5333561E-2,-1.021023E-2,1.4851579E-2,-8.9811865E-4],"split_indices":[20,16,20,14,12,7,4,0,0,0,0,0,0,0,0],"split_type":[0,0,0,0,0,0,0,0,0,0,0,0,0,0,0],"sum_hessian":[3.920157E2,2.4968983E2,1.4232585E2,2.2550436E2,2.4185472E1,6.498203E1,7.734383E1,1.7984818E2,4.565619E1,1.7207615E1,6.977857E0,5.866134E0,5.91159E1,1.2718286E1,6.462554E1],"tree_param":{"num_deleted":"0","num_feature":"22","num_nodes":"15","size_leaf_vector":"0"}},{"base_weights":[5.5170875E-2,2.7414256E-1,-3.0592155E-2,-6.1399553E-2,4.5764703E-1,-1.165721E-1,3.333526E-1,-5.7157093E-1,2.101132E-1,5.611291E-1,1.7666044E-2,-9.1179276E-1,-7.834159E-2,1.152521E0,1.4784838E-1],"categories":[],"categories_nodes":[],"categories_segments":[],"categories_sizes":[],"default_left":[0,0,1,0,0,1,0,0,0,0,0,0,0,0,0],"id":22,"left_children":[1,3,5,7,9,11,13,-1,-1,-1,-1,-1,-1,-1,-1],"loss_changes":[7.385833E0,6.841813E0,8.900182E0,5.661449E0,3.2525654E0,6.915101E0,8.09235E0,0E0,0E0,0E0,0E0,0E0,0E0,0E0,0E0],"parents":[2147483647,0,0,1,1,2,2,3,3,4,4,5,5,6,6],"right_children":[2,4,6,8,10,12,14,-1,-1,-1,-1,-1,-1,-1,-1],"split_conditions":[9.910084E-1,8.3911026E-1,1.0561135E0,9.682662E-1,1.3860526E0,9.386366E-1,1.0088964E0,-1.1431418E-2,4.202264E-3,1.1222581E-2,3.5332088E-4,-1.8235855E-2,-1.5668317E-3,2.305042E-2,2.9569676E-3],"split_indices":[0,10,2,0,10,2,0,0,0,0,0,0,0,0,0],"split_type":[0,0,0,0,0,0,0,0,0,0,0,0,0,0,0],"sum_hessian":[3.9184207E2,1.0965991E2,2.8218216E2,3.900457E1,7.065535E1,2.2880737E2,5.337478E1,1.3164115E1,2.5840454E1,5.697878E1,1.3676568E1,9.447296E0,2.1936008E2,8.892677E0,4.44821E1],"tree_param":{"num_deleted":"0","num_feature":"22","num_nodes":"15","size_leaf_vector":"0"}},{"base_weights":[5.410307E-2,1.7380619E-1,-9.8736174E-2,5.2087194E-1,6.721056E-2,-1.703195E-1,4.7416258E-1,3.4077156E-1,1.3522148E0,5.7165354E-1,-1.7820235E-2,1.0070522E0,-2.1946123E-1,-2.207862E-1,8.511138E-1],"categories":[],"categories_nodes":[],"categories_segments":[],"categories_sizes":[],"default_left":[1,0,0,0,1,1,1,0,0,0,0,0,0,0,0],"id":23,"left_children":[1,3,5,7,9,11,13,-1,-1,-1,-1,-1,-1,-1,-1],"loss_changes":[7.2032623E0,8.127407E0,7.181712E0,7.2789583E0,7.29939E0,9.169071E0,5.2952337E0,0E0,0E0,0E0,0E0,0E0,0E0,0E0,0E0],"parents":[2147483647,0,0,1,1,2,2,3,3,4,4,5,5,6,6],"right_children":[2,4,6,8,10,12,14,-1,-1,-1,-1,-1,-1,-1,-1],"split_conditions":[2.0789938E0,9.8086214E-1,1.1388003E0,1.1141027E0,1.631519E2,1.1757359E2,5.9050146E2,6.815431E-3,2.7044296E-2,1.14330705E-2,-3.564047E-4,2.0141043E-2,-4.3892246E-3,-4.415724E-3,1.7022276E-2],"split_indices":[20,2,4,6,9,7,9,0,0,0,0,0,0,0,0],"split_type":[0,0,0,0,0,0,0,0,0,0,0,0,0,0,0],"sum_hessian":[3.9178326E2,2.196315E2,1.7215176E2,5.0693058E1,1.6893845E2,1.5365533E2,1.8496428E1,4.2825363E1,7.867694E0,2.3543623E1,1.4539482E2,5.3753834E0,1.4827995E2,6.650262E0,1.1846166E1],"tree_param":{"num_deleted":"0","num_feature":"22","num_nodes":"15","size_leaf_vector":"0"}},{"base_weights":[5.3224668E-2,2.6736125E-1,-3.061276E-2,-6.53875E-4,4.8792022E-1,-1.14618726E-1,3.252049E-1,1.0481719E-1,-9.904216E-1,6.266063E-1,1.0147445E-2,3.4520898E-2,-3.0958503E-1,1.130707E0,1.432287E-1],"categories":[],"categories_nodes":[],"categories_segments":[],"categories_sizes":[],"default_left":[0,0,1,1,0,1,0,0,0,0,0,0,0,0,0],"id":24,"left_children":[1,3,5,7,9,11,13,-1,-1,-1,-1,-1,-1,-1,-1],"loss_changes":[7.057684E0,6.5372915E0,8.498987E0,5.419454E0,4.0132666E0,6.6913896E0,7.801875E0,0E0,0E0,0E0,0E0,0E0,0E0,0E0,0E0],"parents":[2147483647,0,0,1,1,2,2,3,3,4,4,5,5,6,6],"right_children":[2,4,6,8,10,12,14,-1,-1,-1,-1,-1,-1,-1,-1],"split_conditions":[9.910084E-1,9.558665E-1,1.0561135E0,2.7908804E3,1.3860526E0,2.074284E0,1.0088964E0,2.0963438E-3,-1.9808432E-2,1.2532125E-2,2.029489E-4,6.9041795E-4,-6.1917007E-3,2.261414E-2,2.8645738E-3],"split_indices":[0,10,2,3,10,20,0,0,0,0,0,0,0,0,0],"split_type":[0,0,0,0,0,0,0,0,0,0,0,0,0,0,0],"sum_hessian":[3.9167154E2,1.0958408E2,2.8208746E2,4.9920074E1,5.9664005E1,2.2875737E2,5.333008E1,4.5920788E1,3.9992857E0,4.5999832E1,1.3664173E1,1.3007745E2,9.867991E1,8.867106E0,4.4462975E1],"tree_param":{"num_deleted":"0","num_feature":"22","num_nodes":"15","size_leaf_vector":"0"}},{"base_weights":[5.2209575E-2,2.6203278E-1,-2.9934725E-2,-9.887965E-4,4.7858652E-1,-1.1236247E-1,3.1933343E-1,1.0276233E-1,-9.747471E-1,6.146941E-1,9.958397E-3,-8.948008E-1,-7.478662E-2,1.1128204E0,1.404449E-1],"categories":[],"categories_nodes":[],"categories_segments":[],"categories_sizes":[],"default_left":[0,0,1,1,0,1,0,0,0,0,0,0,0,0,0],"id":25,"left_children":[1,3,5,7,9,11,13,-1,-1,-1,-1,-1,-1,-1,-1],"loss_changes":[6.774505E0,6.2976565E0,8.184316E0,5.2446055E0,3.8615465E0,6.6874123E0,7.551789E0,0E0,0E0,0E0,0E0,0E0,0E0,0E0,0E0],"parents":[2147483647,0,0,1,1,2,2,3,3,4,4,5,5,6,6],"right_children":[2,4,6,8,10,12,14,-1,-1,-1,-1,-1,-1,-1,-1],"split_conditions":[9.910084E-1,9.558665E-1,1.0561135E0,2.7908804E3,1.3860526E0,9.386366E-1,1.0088964E0,2.0552464E-3,-1.9494941E-2,1.2293882E-2,1.9916793E-4,-1.7896015E-2,-1.4957323E-3,2.2256408E-2,2.808898E-3],"split_indices":[0,10,2,3,10,2,0,0,0,0,0,0,0,0,0],"split_type":[0,0,0,0,0,0,0,0,0,0,0,0,0,0,0],"sum_hessian":[3.915938E2,1.0955778E2,2.8203604E2,4.9920647E1,5.963713E1,2.2873305E2,5.3303005E1,4.5922234E1,3.9984128E0,4.597309E1,1.3664038E1,9.435951E0,2.1929709E2,8.845724E0,4.4457283E1],"tree_param":{"num_deleted":"0","num_feature":"22","num_nodes":"15","size_leaf_vector":"0"}},{"base_weights":[5.1176555E-2,1.6612437E-1,-9.559744E-2,5.043105E-1,6.2396117E-2,7.3347735E-1,-1.4317273E-1,3.262642E-1,1.3296696E0,7.52698E-1,4.937583E-4,1.0676124E0,-1.6149996E-1,-7.265755E-1,7.087831E-3],"categories":[],"categories_nodes":[],"categories_segments":[],"categories_sizes":[],"default_left":[1,0,1,0,0,0,1,0,0,0,0,0,0,0,0],"id":26,"left_children":[1,3,5,7,9,11,13,-1,-1,-1,-1,-1,-1,-1,-1],"loss_changes":[6.6383843E0,7.7034283E0,6.930041E0,7.1510773E0,7.258895E0,3.029396E0,1.4423813E1,0E0,0E0,0E0,0E0,0E0,0E0,0E0,0E0],"parents":[2147483647,0,0,1,1,2,2,3,3,4,4,5,5,6,6],"right_children":[2,4,6,8,10,12,14,-1,-1,-1,-1,-1,-1,-1,-1],"split_conditions":[2.0789938E0,9.8086214E-1,1.1771506E2,1.1141027E0,9.50277E-1,1.1827257E0,2.3454173E0,6.5252837E-3,2.659339E-2,1.505396E-2,9.875166E-6,2.1352248E-2,-3.2299992E-3,-1.453151E-2,1.4175661E-4],"split_indices":[20,2,7,6,4,4,16,0,0,0,0,0,0,0,0],"split_type":[0,0,0,0,0,0,0,0,0,0,0,0,0,0,0],"sum_hessian":[3.9152954E2,2.1949643E2,1.7203311E2,5.061478E1,1.6888165E2,8.553723E0,1.6347939E2,4.2781307E1,7.833474E0,1.2979688E1,1.5590196E2,6.087933E0,2.4657907E0,3.2696453E1,1.3078293E2],"tree_param":{"num_deleted":"0","num_feature":"22","num_nodes":"15","size_leaf_vector":"0"}},{"base_weights":[5.0300606E-2,1.4724077E-1,-1.1958338E-1,7.1912564E-2,8.4453505E-1,-3.714749E-1,9.367866E-2,1.7525707E-1,-3.2633835E-1,1.1186899E0,1.4166111E-1,-1.3892193E-1,-1.0277091E0,2.1757165E-1,-6.104606E-1],"categories":[],"categories_nodes":[],"categories_segments":[],"categories_sizes":[],"default_left":[1,1,1,1,0,0,0,0,0,0,0,0,0,0,0],"id":27,"left_children":[1,3,5,7,9,11,13,-1,-1,-1,-1,-1,-1,-1,-1],"loss_changes":[6.480179E0,1.3086323E1,7.7231393E0,9.399285E0,4.525976E0,9.901868E0,6.9637523E0,0E0,0E0,0E0,0E0,0E0,0E0,0E0,0E0],"parents":[2147483647,0,0,1,1,2,2,3,3,4,4,5,5,6,6],"right_children":[2,4,6,8,10,12,14,-1,-1,-1,-1,-1,-1,-1,-1],"split_conditions":[2.2576485E0,2.360314E0,2.5986805E0,2.1721506E0,2.3716545E0,1.0015154E0,1.5879384E0,3.5051415E-3,-6.526767E-3,2.2373797E-2,2.833222E-3,-2.7784386E-3,-2.0554181E-2,4.351433E-3,-1.22092115E-2],"split_indices":[20,16,20,14,12,6,12,0,0,0,0,0,0,0,0],"split_type":[0,0,0,0,0,0,0,0,0,0,0,0,0,0,0],"sum_hessian":[3.9141818E2,2.4929648E2,1.4212169E2,2.2598645E2,2.3310028E1,6.481934E1,7.7302345E1,1.7987067E2,4.611578E1,1.6343628E1,6.9664006E0,4.8753887E1,1.6065458E1,6.632372E1,1.0978621E1],"tree_param":{"num_deleted":"0","num_feature":"22","num_nodes":"15","size_leaf_vector":"0"}},{"base_weights":[4.92913E-2,2.5447842E-1,-3.0999186E-2,-3.69669E-4,4.6442744E-1,-1.1155906E-1,3.1058314E-1,1.0223551E-1,-9.6297616E-1,5.9905326E-1,1.552917E-3,-8.79571E-1,-7.4704014E-2,1.091693E0,1.3503909E-1],"categories":[],"categories_nodes":[],"categories_segments":[],"categories_sizes":[],"default_left":[0,0,1,1,0,1,0,0,0,0,0,0,0,0,0],"id":28,"left_children":[1,3,5,7,9,11,13,-1,-1,-1,-1,-1,-1,-1,-1],"loss_changes":[6.470456E0,5.909054E0,7.817775E0,5.124096E0,3.7724085E0,6.4331245E0,7.289947E0,0E0,0E0,0E0,0E0,0E0,0E0,0E0,0E0],"parents":[2147483647,0,0,1,1,2,2,3,3,4,4,5,5,6,6],"right_children":[2,4,6,8,10,12,14,-1,-1,-1,-1,-1,-1,-1,-1],"split_conditions":[9.910084E-1,9.558665E-1,1.0561135E0,2.7908804E3,1.3860526E0,9.386366E-1,1.0088964E0,2.04471E-3,-1.9259524E-2,1.1981065E-2,3.105834E-5,-1.759142E-2,-1.4940803E-3,2.1833861E-2,2.7007817E-3],"split_indices":[0,10,2,3,10,2,0,0,0,0,0,0,0,0,0],"split_type":[0,0,0,0,0,0,0,0,0,0,0,0,0,0,0],"sum_hessian":[3.9127524E2,1.09435875E2,2.818394E2,4.988313E1,5.955275E1,2.285992E2,5.324017E1,4.58859E1,3.99723E0,4.5906704E1,1.3646044E1,9.420586E0,2.1917862E2,8.811803E0,4.4428364E1],"tree_param":{"num_deleted":"0","num_feature":"22","num_nodes":"15","size_leaf_vector":"0"}},{"base_weights":[4.8315946E-2,2.4942072E-1,-3.0363228E-2,-5.7441056E-2,4.1755632E-1,-1.09414466E-1,3.050033E-1,-5.576187E-1,2.085079E-1,3.0907544E-1,8.7671715E-1,-8.6432916E-1,-7.3216304E-2,1.0748668E0,1.3241498E-1],"categories":[],"categories_nodes":[],"categories_segments":[],"categories_sizes":[],"default_left":[0,0,1,0,0,1,0,0,0,0,0,0,0,0,0],"id":29,"left_children":[1,3,5,7,9,11,13,-1,-1,-1,-1,-1,-1,-1,-1],"loss_changes":[6.2133117E0,5.720089E0,7.5307674E0,5.4315643E0,3.2876415E0,6.210684E0,7.0604124E0,0E0,0E0,0E0,0E0,0E0,0E0,0E0,0E0],"parents":[2147483647,0,0,1,1,2,2,3,3,4,4,5,5,6,6],"right_children":[2,4,6,8,10,12,14,-1,-1,-1,-1,-1,-1,-1,-1],"split_conditions":[9.910084E-1,8.3911026E-1,1.0561135E0,9.682662E-1,1.0826379E0,9.386366E-1,1.0088964E0,-1.1152374E-2,4.170158E-3,6.181509E-3,1.7534344E-2,-1.7286582E-2,-1.464326E-3,2.1497335E-2,2.6482996E-3],"split_indices":[0,10,2,0,4,2,0,0,0,0,0,0,0,0,0],"split_type":[0,0,0,0,0,0,0,0,0,0,0,0,0,0,0],"sum_hessian":[3.9120334E2,1.0940161E2,2.8180173E2,3.895811E1,7.04435E1,2.2859256E2,5.320917E1,1.3142997E1,2.5815115E1,5.8334564E1,1.2108934E1,9.41269E0,2.1917987E2,8.786657E0,4.4422512E1],"tree_param":{"num_deleted":"0","num_feature":"22","num_nodes":"15","size_leaf_vector":"0"}},{"base_weights":[4.7417395E-2,1.4178315E-1,-1.17877975E-1,6.81042E-2,8.264301E-1,-3.6435214E-1,9.0748E-2,1.3131903E-1,-5.618997E-1,1.098406E0,1.3333832E-1,-1.3555919E-1,-1.0102047E0,7.319513E-1,-4.4658728E-2],"categories":[],"categories_nodes":[],"categories_segments":[],"categories_sizes":[],"default_left":[1,1,1,1,0,0,0,0,0,0,0,0,0,0,0],"id":30,"left_children":[1,3,5,7,9,11,13,-1,-1,-1,-1,-1,-1,-1,-1],"loss_changes":[6.133044E0,1.2558182E1,7.388765E0,9.108684E0,4.4166336E0,9.582478E0,6.8286304E0,0E0,0E0,0E0,0E0,0E0,0E0,0E0,0E0],"parents":[2147483647,0,0,1,1,2,2,3,3,4,4,5,5,6,6],"right_children":[2,4,6,8,10,12,14,-1,-1,-1,-1,-1,-1,-1,-1],"split_conditions":[2.2576485E0,2.360314E0,2.5986805E0,7.309678E2,2.3716545E0,1.0015154E0,9.16211E-1,2.6263807E-3,-1.1237994E-2,2.1968119E-2,2.6667663E-3,-2.7111836E-3,-2.0204093E-2,1.4639026E-2,-8.9317455E-4],"split_indices":[20,16,20,13,12,6,4,0,0,0,0,0,0,0,0],"split_type":[0,0,0,0,0,0,0,0,0,0,0,0,0,0,0],"sum_hessian":[3.911172E2,2.4906837E2,1.4204881E2,2.2586154E2,2.3206837E1,6.477551E1,7.72733E1,2.0598453E2,1.987701E1,1.6246687E1,6.9601493E0,4.8724705E1,1.605081E1,1.2704935E1,6.456837E1],"tree_param":{"num_deleted":"0","num_feature":"22","num_nodes":"15","size_leaf_vector":"0"}},{"base_weights":[4.6505094E-2,2.4431412E-1,-3.0862723E-2,-1.4086235E-3,4.4695157E-1,-8.4970313E-1,4.1577E-4,1.0009652E-1,-9.5329577E-1,1.0749085E0,3.3858785E-1,5.135205E-1,-1.1327106E0,4.5218146E-1,-5.958423E-2],"categories":[],"categories_nodes":[],"categories_segments":[],"categories_sizes":[],"default_left":[0,0,1,1,0,1,0,0,0,0,0,0,0,0,0],"id":31,"left_children":[1,3,5,7,9,11,13,-1,-1,-1,-1,-1,-1,-1,-1],"loss_changes":[6.0063453E0,5.493681E0,7.2397766E0,5.0091615E0,3.7504177E0,4.5941257E0,7.433808E0,0E0,0E0,0E0,0E0,0E0,0E0,0E0,0E0],"parents":[2147483647,0,0,1,1,2,2,3,3,4,4,5,5,6,6],"right_children":[2,4,6,8,10,12,14,-1,-1,-1,-1,-1,-1,-1,-1],"split_conditions":[9.910084E-1,9.558665E-1,9.386366E-1,2.7908804E3,1.0045583E0,1.9188292E2,8.0838525E-1,2.0019303E-3,-1.9065915E-2,2.149817E-2,6.771757E-3,1.0270409E-2,-2.2654211E-2,9.043629E-3,-1.1916846E-3],"split_indices":[0,10,2,3,10,7,8,0,0,0,0,0,0,0,0],"split_type":[0,0,0,0,0,0,0,0,0,0,0,0,0,0,0],"sum_hessian":[3.9097498E2,1.0931855E2,2.8165643E2,4.9855587E1,5.9462963E1,9.400289E0,2.7225613E2,4.5860107E1,3.99548E0,7.438448E0,5.2024513E1,1.4760009E0,7.924288E0,3.1153294E1,2.4110284E2],"tree_param":{"num_deleted":"0","num_feature":"22","num_nodes":"15","size_leaf_vector":"0"}},{"base_weights":[4.559655E-2,1.5435484E-1,-9.329339E-2,4.8562086E-1,5.2960347E-2,7.3180646E-1,-1.4067622E-1,3.110865E-1,1.2991855E0,7.346157E-1,-8.13111E-3,1.0543994E0,-1.349613E-1,-7.046955E-1,4.3816846E-3],"categories":[],"categories_nodes":[],"categories_segments":[],"categories_sizes":[],"default_left":[1,0,1,0,0,0,1,0,0,0,0,0,0,0,0],"id":32,"left_children":[1,3,5,7,9,11,13,-1,-1,-1,-1,-1,-1,-1,-1],"loss_changes":[5.934775E0,7.3701043E0,6.8566256E0,6.905616E0,7.0732493E0,2.8106065E0,1.3437605E1,0E0,0E0,0E0,0E0,0E0,0E0,0E0,0E0],"parents":[2147483647,0,0,1,1,2,2,3,3,4,4,5,5,6,6],"right_children":[2,4,6,8,10,12,14,-1,-1,-1,-1,-1,-1,-1,-1],"split_conditions":[2.0789938E0,9.8086214E-1,1.1771506E2,1.1141027E0,9.50277E-1,1.1827257E0,2.3454173E0,6.22173E-3,2.598371E-2,1.4692313E-2,-1.626222E-4,2.1087987E-2,-2.6992261E-3,-1.409391E-2,8.763369E-5],"split_indices":[20,2,7,6,4,4,16,0,0,0,0,0,0,0,0],"split_type":[0,0,0,0,0,0,0,0,0,0,0,0,0,0,0],"sum_hessian":[3.909368E2,2.1918883E2,1.7174797E2,5.04791E1,1.6870973E2,8.54284E0,1.6320512E2,4.2700844E1,7.778255E0,1.2969695E1,1.5574004E2,6.067989E0,2.4748514E0,3.259808E1,1.3060704E2],"tree_param":{"num_deleted":"0","num_feature":"22","num_nodes":"15","size_leaf_vector":"0"}},{"base_weights":[4.483008E-2,1.3644256E-1,-1.1558187E-1,6.395107E-2,8.122102E-1,-2.965955E-1,1.6017495E-1,1.636416E-1,-3.2008845E-1,1.0810366E0,1.3036136E-1,-1.9640993E-1,-1.3351065E0,1.0397443E0,-5.6565054E-2],"categories":[],"categories_nodes":[],"categories_segments":[],"categories_sizes":[],"default_left":[1,1,1,1,0,0,1,0,0,0,0,0,0,0,0],"id":33,"left_children":[1,3,5,7,9,11,13,-1,-1,-1,-1,-1,-1,-1,-1],"loss_changes":[5.773778E0,1.218738E1,7.183891E0,8.732631E0,4.2801886E0,8.75444E0,1.0983578E1,0E0,0E0,0E0,0E0,0E0,0E0,0E0,0E0],"parents":[2147483647,0,0,1,1,2,2,3,3,4,4,5,5,6,6],"right_children":[2,4,6,8,10,12,14,-1,-1,-1,-1,-1,-1,-1,-1],"split_conditions":[2.2576485E0,2.360314E0,1.777937E3,2.1721506E0,2.3716545E0,1.0915544E0,2.8339758E3,3.272832E-3,-6.401769E-3,2.1620732E-2,2.6072273E-3,-3.9281985E-3,-2.6702128E-2,2.0794885E-2,-1.131301E-3],"split_indices":[20,16,13,14,12,10,3,0,0,0,0,0,0,0,0],"split_type":[0,0,0,0,0,0,0,0,0,0,0,0,0,0,0],"sum_hessian":[3.9081485E2,2.4884628E2,1.4196858E2,2.257266E2,2.311969E1,8.56622E1,5.6306374E1,1.7966287E2,4.606372E1,1.616214E1,6.95755E0,7.9209915E1,6.4522877E0,1.0381048E1,4.5925327E1],"tree_param":{"num_deleted":"0","num_feature":"22","num_nodes":"15","size_leaf_vector":"0"}},{"base_weights":[4.398186E-2,2.3796861E-1,-3.183831E-2,-5.699871E-4,4.3477467E-1,-1.0872937E-1,2.946998E-1,9.939514E-2,-9.377408E-1,5.6859636E-1,-2.3479441E-2,-8.344384E-1,-7.3990606E-2,1.052534E0,1.2552038E-1],"categories":[],"categories_nodes":[],"categories_segments":[],"categories_sizes":[],"default_left":[0,0,1,1,0,1,0,0,0,0,0,0,0,0,0],"id":34,"left_children":[1,3,5,7,9,11,13,-1,-1,-1,-1,-1,-1,-1,-1],"loss_changes":[5.7677655E0,5.172434E0,7.124011E0,4.852819E0,3.7154207E0,5.7203655E0,6.8046365E0,0E0,0E0,0E0,0E0,0E0,0E0,0E0,0E0],"parents":[2147483647,0,0,1,1,2,2,3,3,4,4,5,5,6,6],"right_children":[2,4,6,8,10,12,14,-1,-1,-1,-1,-1,-1,-1,-1],"split_conditions":[9.910084E-1,9.558665E-1,1.0561135E0,2.7908804E3,1.3860526E0,9.386366E-1,1.0088964E0,1.9879027E-3,-1.8754816E-2,1.1371927E-2,-4.6958882E-4,-1.6688768E-2,-1.4798121E-3,2.1050679E-2,2.5104075E-3],"split_indices":[0,10,2,3,10,2,0,0,0,0,0,0,0,0,0],"split_type":[0,0,0,0,0,0,0,0,0,0,0,0,0,0,0],"sum_hessian":[3.9063354E2,1.09173454E2,2.8146008E2,4.9804752E1,5.9368702E1,2.2835545E2,5.3104626E1,4.581206E1,3.9926903E0,4.5763752E1,1.3604952E1,9.380114E0,2.1897534E2,8.738658E0,4.436597E1],"tree_param":{"num_deleted":"0","num_feature":"22","num_nodes":"15","size_leaf_vector":"0"}},{"base_weights":[4.3111604E-2,2.3324576E-1,-3.1186614E-2,1.9069983E-1,1.3977672E0,-1.0663917E-1,2.8943157E-1,-1.3366437E-1,3.6594498E-1,3.0672412E-2,-2.8646764E-1,1.036717E0,1.2308161E-1],"categories":[],"categories_nodes":[],"categories_segments":[],"categories_sizes":[],"default_left":[0,0,1,0,0,1,0,0,0,0,0,0,0],"id":35,"left_children":[1,3,5,7,-1,9,11,-1,-1,-1,-1,-1,-1],"loss_changes":[5.5385137E0,5.190002E0,6.8629007E0,6.154335E0,0E0,5.671897E0,6.5939035E0,0E0,0E0,0E0,0E0,0E0,0E0],"parents":[2147483647,0,0,1,1,2,2,3,3,5,5,6,6],"right_children":[2,4,6,8,-1,10,12,-1,-1,-1,-1,-1,-1],"split_conditions":[9.910084E-1,9.907131E-1,1.0561135E0,8.3911026E-1,2.7955344E-2,2.074284E0,1.0088964E0,-2.6732874E-3,7.3188995E-3,6.134482E-4,-5.7293526E-3,2.073434E-2,2.4616322E-3],"split_indices":[0,0,2,10,0,20,0,0,0,0,0,0,0],"split_type":[0,0,0,0,0,0,0,0,0,0,0,0,0],"sum_hessian":[3.9054706E2,1.0913188E2,2.814152E2,1.0640801E2,2.7238717E0,2.2834508E2,5.3070103E1,3.7407368E1,6.900065E1,1.2994922E2,9.839586E1,8.710085E0,4.436002E1],"tree_param":{"num_deleted":"0","num_feature":"22","num_nodes":"13","size_leaf_vector":"0"}},{"base_weights":[4.239169E-2,2.2896995E-1,-3.0505031E-2,1.8699884E-1,1.3790232E0,-8.18171E-1,-4.8778462E-4,-1.3107178E-1,3.5891798E-1,5.230806E-1,-1.0989944E0,4.45956E-1,-5.9742603E-2],"categories":[],"categories_nodes":[],"categories_segments":[],"categories_sizes":[],"default_left":[0,0,1,0,0,1,0,0,0,0,0,0,0],"id":36,"left_children":[1,3,5,7,-1,9,11,-1,-1,-1,-1,-1,-1],"loss_changes":[5.330913E0,5.055958E0,6.675367E0,5.9182215E0,0E0,4.478706E0,7.2481923E0,0E0,0E0,0E0,0E0,0E0,0E0],"parents":[2147483647,0,0,1,1,2,2,3,3,5,5,6,6],"right_children":[2,4,6,8,-1,10,12,-1,-1,-1,-1,-1,-1],"split_conditions":[9.910084E-1,9.907131E-1,9.386366E-1,8.3911026E-1,2.7580462E-2,1.9188292E2,8.0838525E-1,-2.6214356E-3,7.1783597E-3,1.0461612E-2,-2.1979887E-2,8.91912E-3,-1.194852E-3],"split_indices":[0,0,2,10,0,7,8,0,0,0,0,0,0],"split_type":[0,0,0,0,0,0,0,0,0,0,0,0,0],"sum_hessian":[3.9043817E2,1.09087944E2,2.8135025E2,1.0636863E2,2.719314E0,9.364513E0,2.7198572E2,3.740415E1,6.896448E1,1.4718907E0,7.8926225E0,3.1105019E1,2.408807E2],"tree_param":{"num_deleted":"0","num_feature":"22","num_nodes":"13","size_leaf_vector":"0"}},{"base_weights":[4.1621912E-2,1.2973304E-1,-1.1260989E-1,5.742894E-2,7.8435785E-1,-3.5114852E-1,8.9104295E-2,1.1843321E-1,-5.4863924E-1,1.0387849E0,1.18065454E-1,-1.2678906E-1,-9.852429E-1,6.7538357E-1,-5.9445973E-2],"categories":[],"categories_nodes":[],"categories_segments":[],"categories_sizes":[],"default_left":[1,1,1,1,1,0,1,0,0,0,0,0,0,0,0],"id":37,"left_children":[1,3,5,7,9,11,13,-1,-1,-1,-1,-1,-1,-1,-1],"loss_changes":[5.3333664E0,1.1766695E1,6.904058E0,8.413715E0,4.071786E0,9.214293E0,6.8497877E0,0E0,0E0,0E0,0E0,0E0,0E0,0E0,0E0],"parents":[2147483647,0,0,1,1,2,2,3,3,4,4,5,5,6,6],"right_children":[2,4,6,8,10,12,14,-1,-1,-1,-1,-1,-1,-1,-1],"split_conditions":[2.2576485E0,2.356734E0,2.5986805E0,7.309678E2,2.2E0,1.0015154E0,2.2778801E3,2.3686641E-3,-1.0972785E-2,2.0775696E-2,2.361309E-3,-2.5357811E-3,-1.9704858E-2,1.3507671E-2,-1.1889194E-3],"split_indices":[20,16,20,13,15,6,9,0,0,0,0,0,0,0,0],"split_type":[0,0,0,0,0,0,0,0,0,0,0,0,0,0,0],"sum_hessian":[3.9038614E2,2.4855049E2,1.4183565E2,2.248079E2,2.3742579E1,6.464655E1,7.718909E1,2.0498006E2,1.9827843E1,1.6777107E1,6.9654717E0,4.863733E1,1.6009226E1,1.4887299E1,6.230179E1],"tree_param":{"num_deleted":"0","num_feature":"22","num_nodes":"15","size_leaf_vector":"0"}},{"base_weights":[4.081676E-2,2.2535266E-1,-3.1254996E-2,1.8396184E-1,1.3607326E0,-1.04790546E-1,2.814875E-1,-1.267169E-1,3.5194767E-1,2.8910216E-2,-2.7998042E-1,1.0181514E0,1.1816489E-1],"categories":[],"categories_nodes":[],"categories_segments":[],"categories_sizes":[],"default_left":[0,0,1,0,0,1,0,0,0,0,0,0,0],"id":38,"left_children":[1,3,5,7,-1,9,11,-1,-1,-1,-1,-1,-1],"loss_changes":[5.210579E0,4.9194846E0,6.5203457E0,5.6443453E0,0E0,5.377544E0,6.3767595E0,0E0,0E0,0E0,0E0,0E0,0E0],"parents":[2147483647,0,0,1,1,2,2,3,3,5,5,6,6],"right_children":[2,4,6,8,-1,10,12,-1,-1,-1,-1,-1,-1],"split_conditions":[9.910084E-1,9.907131E-1,1.0561135E0,8.3911026E-1,2.721465E-2,2.074284E0,1.0088964E0,-2.5343378E-3,7.0389532E-3,5.782043E-4,-5.599608E-3,2.0363027E-2,2.3632976E-3],"split_indices":[0,0,2,10,0,20,0,0,0,0,0,0,0],"split_type":[0,0,0,0,0,0,0,0,0,0,0,0,0],"sum_hessian":[3.9024838E2,1.0900924E2,2.8123914E2,1.0629619E2,2.7130516E0,2.2823814E2,5.3001E1,3.739053E1,6.890566E1,1.2992072E2,9.831743E1,8.668388E0,4.433261E1],"tree_param":{"num_deleted":"0","num_feature":"22","num_nodes":"13","size_leaf_vector":"0"}},{"base_weights":[4.01398E-2,5.4010335E-2,-9.0116596E-1,3.1268853E-1,2.2125205E-3,-8.28631E-2,-1.4026312E0,7.008155E-2,8.787906E-1,-6.776139E-1,3.2565244E-2],"categories":[],"categories_nodes":[],"categories_segments":[],"categories_sizes":[],"default_left":[1,0,1,0,1,0,0,0,0,0,0],"id":39,"left_children":[1,3,5,7,9,-1,-1,-1,-1,-1,-1],"loss_changes":[5.155465E0,5.1766224E0,2.23769E0,8.79093E0,6.685796E0,0E0,0E0,0E0,0E0,0E0,0E0],"parents":[2147483647,0,0,1,1,2,2,3,3,4,4],"right_children":[2,4,6,8,10,-1,-1,-1,-1,-1,-1],"split_conditions":[4.3992837E3,9.8141664E-1,4.2573447E3,9.757408E-1,9.8495346E-1,-1.657262E-3,-2.8052622E-2,1.4016309E-3,1.7575812E-2,-1.3552278E-2,6.5130484E-4],"split_indices":[3,0,7,0,0,0,0,0,0,0,0],"split_type":[0,0,0,0,0,0,0,0,0,0,0],"sum_hessian":[3.9013297E2,3.853966E2,4.736357E0,6.3456795E1,3.2193982E2,2.242399E0,2.4939582E0,4.520687E1,1.8249922E1,1.2848151E1,3.0909167E2],"tree_param":{"num_deleted":"0","num_feature":"22","num_nodes":"11","size_leaf_vector":"0"}},{"base_weights":[3.927885E-2,5.879441E-1,1.5599311E-2,9.486106E-1,-1.1389005E0,1.8597816E-1,-8.4480286E-2,-2.525895E-1,1.199931E0,7.273073E-1,6.2028375E-2,-7.933286E-1,-2.7240887E-2],"categories":[],"categories_nodes":[],"categories_segments":[],"categories_sizes":[],"default_left":[1,0,1,1,0,0,1,0,0,0,0,0,0],"id":40,"left_children":[1,3,5,7,-1,9,11,-1,-1,-1,-1,-1,-1],"loss_changes":[5.072254E0,1.1141516E1,6.4263906E0,4.501978E0,0E0,9.310431E0,9.615911E0,0E0,0E0,0E0,0E0,0E0,0E0],"parents":[2147483647,0,0,1,1,2,2,3,3,5,5,6,6],"right_children":[2,4,6,8,-1,10,12,-1,-1,-1,-1,-1,-1],"split_conditions":[1.6559488E2,1.5552614E0,1.5782671E0,1.6425806E0,-2.277801E-2,9.975486E-1,1.6481733E0,-5.05179E-3,2.399862E-2,1.4546146E-2,1.2405674E-3,-1.5866572E-2,-5.448177E-4],"split_indices":[13,10,21,14,0,10,21,0,0,0,0,0,0],"split_type":[0,0,0,0,0,0,0,0,0,0,0,0,0],"sum_hessian":[3.9011533E2,1.51543045E1,3.7496103E2,1.2908848E1,2.245457E0,1.384318E2,2.3652922E2,2.232662E0,1.0676186E1,2.4884651E1,1.1354714E2,1.6711796E1,2.1981743E2],"tree_param":{"num_deleted":"0","num_feature":"22","num_nodes":"13","size_leaf_vector":"0"}},{"base_weights":[3.8486492E-2,5.214119E-2,-8.882136E-1,3.0588755E-1,1.3537725E-3,-8.134667E-2,-1.3829861E0,6.764384E-2,8.6242306E-1,-6.027657E-1,3.4332525E-2],"categories":[],"categories_nodes":[],"categories_segments":[],"categories_sizes":[],"default_left":[1,0,1,0,1,0,0,0,0,0,0],"id":41,"left_children":[1,3,5,7,9,-1,-1,-1,-1,-1,-1],"loss_changes":[4.994911E0,4.9784184E0,2.1766725E0,8.483995E0,6.4541736E0,0E0,0E0,0E0,0E0,0E0,0E0],"parents":[2147483647,0,0,1,1,2,2,3,3,4,4],"right_children":[2,4,6,8,10,-1,-1,-1,-1,-1,-1],"split_conditions":[4.3992837E3,9.8141664E-1,4.2573447E3,9.757408E-1,9.4194746E-1,-1.6269333E-3,-2.7659722E-2,1.3528769E-3,1.7248461E-2,-1.2055313E-2,6.8665046E-4],"split_indices":[3,0,7,0,2,0,0,0,0,0,0],"split_type":[0,0,0,0,0,0,0,0,0,0,0],"sum_hessian":[3.9007584E2,3.8534167E2,4.7341795E0,6.3426163E1,3.219155E2,2.2421424E0,2.492037E0,4.519883E1,1.8227331E1,1.5769286E1,3.061462E2],"tree_param":{"num_deleted":"0","num_feature":"22","num_nodes":"11","size_leaf_vector":"0"}},{"base_weights":[3.766468E-2,1.3657987E-1,-8.86759E-2,4.5799077E-1,3.85535E-2,7.258519E-1,-1.3547616E-1,2.8775272E-1,1.2587843E0,7.1337533E-1,-2.1845598E-2,1.040358E0,-1.1942459E-1,-6.798137E-1,4.2799492E-3],"categories":[],"categories_nodes":[],"categories_segments":[],"categories_sizes":[],"default_left":[1,0,1,0,0,0,1,0,0,0,0,0,0,0,0],"id":42,"left_children":[1,3,5,7,9,11,13,-1,-1,-1,-1,-1,-1,-1,-1],"loss_changes":[4.898855E0,6.9048448E0,6.6671305E0,6.6254864E0,6.9224353E0,2.655139E0,1.2463772E1,0E0,0E0,0E0,0E0,0E0,0E0,0E0,0E0],"parents":[2147483647,0,0,1,1,2,2,3,3,4,4,5,5,6,6],"right_children":[2,4,6,8,10,12,14,-1,-1,-1,-1,-1,-1,-1,-1],"split_conditions":[2.0789938E0,9.8086214E-1,1.1771506E2,1.1141027E0,9.50277E-1,1.1827257E0,2.3454173E0,5.7550543E-3,2.5175685E-2,1.4267506E-2,-4.3691194E-4,2.0807158E-2,-2.3884918E-3,-1.3596273E-2,8.5598986E-5],"split_indices":[20,2,7,6,4,4,16,0,0,0,0,0,0,0,0],"split_type":[0,0,0,0,0,0,0,0,0,0,0,0,0,0,0],"sum_hessian":[3.9003326E2,2.1871489E2,1.7131837E2,5.0257484E1,1.684574E2,8.5202055E0,1.6279817E2,4.2567528E1,7.689956E0,1.2950799E1,1.5550659E2,6.041519E0,2.4786868E0,3.246921E1,1.3032896E2],"tree_param":{"num_deleted":"0","num_feature":"22","num_nodes":"15","size_leaf_vector":"0"}},{"base_weights":[3.7052225E-2,5.050834E-2,-8.7609076E-1,2.9811302E-1,9.924328E-4,-8.02854E-2,-1.3644159E0,6.423228E-2,8.4524035E-1,-6.657526E-1,3.077521E-2],"categories":[],"categories_nodes":[],"categories_segments":[],"categories_sizes":[],"default_left":[1,0,1,0,1,0,0,0,0,0,0],"id":43,"left_children":[1,3,5,7,9,-1,-1,-1,-1,-1,-1],"loss_changes":[4.8473873E0,4.7342863E0,2.1176648E0,8.180458E0,6.430828E0,0E0,0E0,0E0,0E0,0E0,0E0],"parents":[2147483647,0,0,1,1,2,2,3,3,4,4],"right_children":[2,4,6,8,10,-1,-1,-1,-1,-1,-1],"split_conditions":[4.3992837E3,9.8141664E-1,4.2573447E3,9.757408E-1,9.8495346E-1,-1.6057079E-3,-2.7288318E-2,1.2846456E-3,1.6904807E-2,-1.3315052E-2,6.1550416E-4],"split_indices":[3,0,7,0,0,0,0,0,0,0,0],"split_type":[0,0,0,0,0,0,0,0,0,0,0],"sum_hessian":[3.8990073E2,3.8516956E2,4.731189E0,6.3352806E1,3.2181674E2,2.2419598E0,2.489229E0,4.5163956E1,1.8188852E1,1.284748E1,3.0896927E2],"tree_param":{"num_deleted":"0","num_feature":"22","num_nodes":"11","size_leaf_vector":"0"}},{"base_weights":[3.625417E-2,5.724674E-1,1.3145114E-2,9.277038E-1,-1.1219667E0,1.7871237E-1,-8.409189E-2,-2.55895E-1,1.1763124E0,7.1059316E-1,5.6984782E-2,-7.825171E-1,-2.7669441E-2],"categories":[],"categories_nodes":[],"categories_segments":[],"categories_sizes":[],"default_left":[1,0,1,1,0,0,1,0,0,0,0,0,0],"id":44,"left_children":[1,3,5,7,-1,9,11,-1,-1,-1,-1,-1,-1],"loss_changes":[4.8359594E0,1.0747474E1,6.064316E0,4.384801E0,0E0,8.98143E0,9.333652E0,0E0,0E0,0E0,0E0,0E0,0E0],"parents":[2147483647,0,0,1,1,2,2,3,3,5,5,6,6],"right_children":[2,4,6,8,-1,10,12,-1,-1,-1,-1,-1,-1],"split_conditions":[1.6559488E2,1.5552614E0,1.5782671E0,1.6425806E0,-2.2439335E-2,9.975486E-1,1.6481733E0,-5.1178997E-3,2.3526248E-2,1.4211863E-2,1.1396956E-3,-1.5650341E-2,-5.533888E-4],"split_indices":[13,10,21,14,0,10,21,0,0,0,0,0,0],"split_type":[0,0,0,0,0,0,0,0,0,0,0,0,0],"sum_hessian":[3.8987527E2,1.5125971E1,3.747493E2,1.2878504E1,2.2474663E0,1.383464E2,2.3640291E2,2.2304175E0,1.0648087E1,2.4864597E1,1.13481804E2,1.6708452E1,2.1969446E2],"tree_param":{"num_deleted":"0","num_feature":"22","num_nodes":"13","size_leaf_vector":"0"}},{"base_weights":[3.552168E-2,1.2119978E-1,-1.05887875E-1,4.9204204E-2,9.113947E-1,-4.2651393E-2,-8.0619216E-1,7.375254E-2,-1.4187032E0,1.3200043E0,1.10444985E-1,-2.4000213E-1,3.247426E-1,-2.6618665E-1,-1.3720127E0],"categories":[],"categories_nodes":[],"categories_segments":[],"categories_sizes":[],"default_left":[1,1,0,1,1,1,1,0,0,0,0,0,0,0,0],"id":45,"left_children":[1,3,5,7,9,11,13,-1,-1,-1,-1,-1,-1,-1,-1],"loss_changes":[4.7479925E0,1.3827266E1,6.5193043E0,8.19566E0,6.4992886E0,9.995892E0,3.3626504E0,0E0,0E0,0E0,0E0,0E0,0E0,0E0,0E0],"parents":[2147483647,0,0,1,1,2,2,3,3,4,4,5,5,6,6],"right_children":[2,4,6,8,10,12,14,-1,-1,-1,-1,-1,-1,-1,-1],"split_conditions":[2.2239623E0,2.360314E0,1.2886202E0,1.7878779E3,2.2E0,1.777937E3,3.5390034E3,1.4750507E-3,-2.8374063E-2,2.6400086E-2,2.2088997E-3,-4.8000426E-3,6.494852E-3,-5.323733E-3,-2.7440254E-2],"split_indices":[20,16,10,5,15,13,5,0,0,0,0,0,0,0,0],"split_type":[0,0,0,0,0,0,0,0,0,0,0,0,0,0,0],"sum_hessian":[3.8982828E2,2.4283862E2,1.4698965E2,2.2353441E2,1.930421E1,1.35789E2,1.120065E1,2.207918E2,2.7426229E0,1.2353794E1,6.950416E0,8.856294E1,4.7226063E1,6.4834476E0,4.7172027E0],"tree_param":{"num_deleted":"0","num_feature":"22","num_nodes":"15","size_leaf_vector":"0"}},{"base_weights":[3.4749527E-2,2.1093525E-1,-3.397587E-2,1.699433E-1,1.3395045E0,-7.926174E-1,-5.122513E-3,-1.2934473E-1,3.3209452E-1,5.314785E-1,-1.071848E0,4.3536472E-1,-6.352591E-2],"categories":[],"categories_nodes":[],"categories_segments":[],"categories_sizes":[],"default_left":[0,0,1,0,0,1,0,0,0,0,0,0,0],"id":46,"left_children":[1,3,5,7,-1,9,11,-1,-1,-1,-1,-1,-1],"loss_changes":[4.7379045E0,4.8507442E0,6.167073E0,5.239135E0,0E0,4.386378E0,7.040574E0,0E0,0E0,0E0,0E0,0E0,0E0],"parents":[2147483647,0,0,1,1,2,2,3,3,5,5,6,6],"right_children":[2,4,6,8,-1,10,12,-1,-1,-1,-1,-1,-1],"split_conditions":[9.910084E-1,9.907131E-1,9.386366E-1,8.3911026E-1,2.679009E-2,1.9188292E2,8.0838525E-1,-2.5868947E-3,6.6418904E-3,1.062957E-2,-2.143696E-2,8.707294E-3,-1.2705182E-3],"split_indices":[0,0,2,10,0,7,8,0,0,0,0,0,0],"split_type":[0,0,0,0,0,0,0,0,0,0,0,0,0],"sum_hessian":[3.8969778E2,1.0877385E2,2.8092395E2,1.0607169E2,2.702157E0,9.323025E0,2.7160092E2,3.734502E1,6.872667E1,1.466343E0,7.856682E0,3.1039778E1,2.4056113E2],"tree_param":{"num_deleted":"0","num_feature":"22","num_nodes":"13","size_leaf_vector":"0"}},{"base_weights":[3.413022E-2,5.5948627E-1,1.1515076E-2,9.0987813E-1,-1.1067511E0,1.7322996E-1,-8.342372E-2,-2.5430205E-1,1.1551788E0,6.959042E-1,5.3628765E-2,-7.691024E-1,-2.8026666E-2],"categories":[],"categories_nodes":[],"categories_segments":[],"categories_sizes":[],"default_left":[1,0,1,1,0,0,1,0,0,0,0,0,0],"id":47,"left_children":[1,3,5,7,-1,9,11,-1,-1,-1,-1,-1,-1],"loss_changes":[4.634722E0,1.0407272E1,5.7800717E0,4.2495766E0,0E0,8.666904E0,8.9920635E0,0E0,0E0,0E0,0E0,0E0,0E0],"parents":[2147483647,0,0,1,1,2,2,3,3,5,5,6,6],"right_children":[2,4,6,8,-1,10,12,-1,-1,-1,-1,-1,-1],"split_conditions":[1.6559488E2,1.5552614E0,1.5782671E0,1.6425806E0,-2.2135021E-2,9.975486E-1,1.6481733E0,-5.086041E-3,2.3103574E-2,1.3918083E-2,1.0725752E-3,-1.5382048E-2,-5.605333E-4],"split_indices":[13,10,21,14,0,10,21,0,0,0,0,0,0],"split_type":[0,0,0,0,0,0,0,0,0,0,0,0,0],"sum_hessian":[3.896375E2,1.51008625E1,3.7453665E2,1.285213E1,2.2487328E0,1.3823985E2,2.362968E2,2.2303498E0,1.0621779E1,2.4845024E1,1.1339483E2,1.6700642E1,2.1959616E2],"tree_param":{"num_deleted":"0","num_feature":"22","num_nodes":"13","size_leaf_vector":"0"}},{"base_weights":[3.3440147E-2,4.6589635E-2,-8.588509E-1,5.565922E-2,-1.2380046E0,-6.7071915E-2,-1.3481979E0,3.141537E-1,4.4393474E-3],"categories":[],"categories_nodes":[],"categories_segments":[],"categories_sizes":[],"default_left":[1,1,1,0,0,0,0,0,0],"id":48,"left_children":[1,3,5,7,-1,-1,-1,-1,-1],"loss_changes":[4.622796E0,4.564456E0,2.1272888E0,5.0842624E0,0E0,0E0,0E0,0E0,0E0],"parents":[2147483647,0,0,1,1,2,2,3,3],"right_children":[2,4,6,8,-1,-1,-1,-1,-1],"split_conditions":[4.3992837E3,4.11609E3,4.2573447E3,9.8141664E-1,-2.4760092E-2,-1.3414383E-3,-2.6963959E-2,6.2830737E-3,8.878695E-5],"split_indices":[3,11,7,0,0,0,0,0,0],"split_type":[0,0,0,0,0,0,0,0,0],"sum_hessian":[3.895835E2,3.8485968E2,4.7238026E0,3.8311148E2,1.7481999E0,2.2386541E0,2.4851484E0,6.250917E1,3.2060233E2],"tree_param":{"num_deleted":"0","num_feature":"22","num_nodes":"9","size_leaf_vector":"0"}},{"base_weights":[3.2653887E-2,7.1645105E-1,1.556758E-2,9.687722E-1,-2.5841045E-1,-9.9855655E-1,3.753411E-2,1.3488201E0,1.8160094E-1,-1.8110465E-1,-1.323255E0,5.1102504E-2,-8.4731877E-1],"categories":[],"categories_nodes":[],"categories_segments":[],"categories_sizes":[],"default_left":[1,1,1,0,0,0,1,0,0,0,0,0,0],"id":49,"left_children":[1,3,5,7,-1,9,11,-1,-1,-1,-1,-1,-1],"loss_changes":[4.551957E0,2.5868645E0,8.548529E0,2.075481E0,0E0,1.9199581E0,4.5446343E0,0E0,0E0,0E0,0E0,0E0,0E0],"parents":[2147483647,0,0,1,1,2,2,3,3,5,5,6,6],"right_children":[2,4,6,8,-1,10,12,-1,-1,-1,-1,-1,-1],"split_conditions":[1.1771506E2,2.2282293E0,1.2873048E2,9.9525285E-1,-5.168209E-3,9.9330115E-1,4.3992837E3,2.6976401E-2,3.6320188E-3,-3.6220928E-3,-2.6465097E-2,1.02205E-3,-1.6946375E-2],"split_indices":[7,21,7,8,0,0,3,0,0,0,0,0,0],"split_type":[0,0,0,0,0,0,0,0,0,0,0,0,0],"sum_hessian":[3.89558E2,8.498905E0,3.810591E2,6.756407E0,1.7424985E0,7.1363983E0,3.739227E2,4.0753274E0,2.6810794E0,2.4716363E0,4.664762E0,3.6920355E2,4.7191453E0],"tree_param":{"num_deleted":"0","num_feature":"22","num_nodes":"13","size_leaf_vector":"0"}},{"base_weights":[3.1952616E-2,1.1310177E-1,-1.0993099E-1,4.3922156E-2,7.6492715E-1,-2.852832E-1,1.5713926E-1,6.793005E-2,-1.4019896E0,1.0348339E0,9.336614E-2,-1.8723238E-1,-1.304012E0,1.009007E0,-5.2242044E-2],"categories":[],"categories_nodes":[],"categories_segments":[],"categories_sizes":[],"default_left":[1,1,1,1,0,0,1,0,0,0,0,0,0,0,0],"id":50,"left_children":[1,3,5,7,9,11,13,-1,-1,-1,-1,-1,-1,-1,-1],"loss_changes":[4.5086102E0,1.1190747E1,6.7225246E0,7.943675E0,4.2213707E0,8.389137E0,1.0248038E1,0E0,0E0,0E0,0E0,0E0,0E0,0E0,0E0],"parents":[2147483647,0,0,1,1,2,2,3,3,4,4,5,5,6,6],"right_children":[2,4,6,8,10,12,14,-1,-1,-1,-1,-1,-1,-1,-1],"split_conditions":[2.2576485E0,2.360314E0,1.777937E3,1.7878779E3,2.3716545E0,1.0915544E0,2.8339758E3,1.3586009E-3,-2.803979E-2,2.0696677E-2,1.8673227E-3,-3.7446474E-3,-2.6080238E-2,2.018014E-2,-1.0448409E-3],"split_indices":[20,16,13,5,12,10,3,0,0,0,0,0,0,0,0],"split_type":[0,0,0,0,0,0,0,0,0,0,0,0,0,0,0],"sum_hessian":[3.8950555E2,2.479153E2,1.4159026E2,2.2509308E2,2.2822224E1,8.5430405E1,5.6159847E1,2.2235413E2,2.7389455E0,1.5893527E1,6.928696E0,7.900966E1,6.420748E0,1.0326695E1,4.5833153E1],"tree_param":{"num_deleted":"0","num_feature":"22","num_nodes":"15","size_leaf_vector":"0"}},{"base_weights":[3.1291213E-2,2.0224024E-1,-3.534841E-2,1.6171975E-1,1.3211122E0,-1.0604916E-1,2.6580584E-1,-1.3142917E-1,3.207782E-1,8.9030194E-1,-1.2759833E-1,9.9256575E-1,1.0572626E-1],"categories":[],"categories_nodes":[],"categories_segments":[],"categories_sizes":[],"default_left":[0,0,1,0,0,1,0,0,0,0,0,0,0],"id":51,"left_children":[1,3,5,7,-1,9,11,-1,-1,-1,-1,-1,-1],"loss_changes":[4.453866E0,4.7567577E0,6.0262165E0,5.0285273E0,0E0,5.0273466E0,6.1594534E0,0E0,0E0,0E0,0E0,0E0,0E0],"parents":[2147483647,0,0,1,1,2,2,3,3,5,5,6,6],"right_children":[2,4,6,8,-1,10,12,-1,-1,-1,-1,-1,-1],"split_conditions":[9.910084E-1,9.907131E-1,1.0561135E0,8.3911026E-1,2.6422242E-2,-2E-3,1.0088964E0,-2.6285832E-3,6.4155636E-3,1.7806038E-2,-2.5519666E-3,1.9851314E-2,2.114525E-3],"split_indices":[0,0,2,10,0,15,0,0,0,0,0,0,0],"split_type":[0,0,0,0,0,0,0,0,0,0,0,0,0],"sum_hessian":[3.893375E2,1.0863189E2,2.807056E2,1.05939766E2,2.692123E0,2.2785977E2,5.2845837E1,3.7324123E1,6.861564E1,3.9703681E0,2.238894E2,8.600265E0,4.4245575E1],"tree_param":{"num_deleted":"0","num_feature":"22","num_nodes":"13","size_leaf_vector":"0"}},{"base_weights":[3.0847518E-2,7.078816E-1,1.3960894E-2,1.015865E0,-1.1531237E-1,-9.827812E-1,3.551928E-2,1.34225E0,7.422116E-3,5.6634223E-1,-7.432729E-1,-1.7752251E-1,-1.3034917E0,4.4687346E-2,-1.2221267E0],"categories":[],"categories_nodes":[],"categories_segments":[],"categories_sizes":[],"default_left":[1,0,1,0,0,0,1,0,0,0,0,0,0,0,0],"id":52,"left_children":[1,3,5,7,9,11,13,-1,-1,-1,-1,-1,-1,-1,-1],"loss_changes":[4.4516444E0,2.5196857E0,8.238271E0,2.2934308E0,1.9097857E0,1.8648944E0,4.374339E0,0E0,0E0,0E0,0E0,0E0,0E0,0E0,0E0],"parents":[2147483647,0,0,1,1,2,2,3,3,4,4,5,5,6,6],"right_children":[2,4,6,8,10,12,14,-1,-1,-1,-1,-1,-1,-1,-1],"split_conditions":[1.1771506E2,1.1827257E0,1.2873048E2,1.005526E0,1.2578042E0,9.9330115E-1,4.11609E3,2.6844999E-2,1.4844231E-4,1.1326845E-2,-1.4865458E-2,-3.55045E-3,-2.6069833E-2,8.937469E-4,-2.4442533E-2],"split_indices":[7,4,7,10,6,0,11,0,0,0,0,0,0,0,0],"split_type":[0,0,0,0,0,0,0,0,0,0,0,0,0,0,0],"sum_hessian":[3.8923856E2,8.476371E0,3.8076218E2,5.998199E0,2.4781716E0,7.1171474E0,3.7364502E2,4.2814755E0,1.716723E0,1.235334E0,1.2428375E0,2.4696743E0,4.6474733E0,3.718984E2,1.7466214E0],"tree_param":{"num_deleted":"0","num_feature":"22","num_nodes":"15","size_leaf_vector":"0"}},{"base_weights":[3.0158715E-2,5.4446363E-1,8.050137E-3,8.9034367E-1,-1.0939056E0,1.6484396E-1,-8.3976194E-2,-2.5486335E-1,1.1326572E0,6.7810464E-1,4.7438364E-2,-7.5708956E-1,-2.9552301E-2],"categories":[],"categories_nodes":[],"categories_segments":[],"categories_sizes":[],"default_left":[1,0,1,1,0,0,1,0,0,0,0,0,0],"id":53,"left_children":[1,3,5,7,-1,9,11,-1,-1,-1,-1,-1,-1],"loss_changes":[4.432262E0,1.0078663E1,5.426518E0,4.1229963E0,0E0,8.348516E0,8.661383E0,0E0,0E0,0E0,0E0,0E0,0E0],"parents":[2147483647,0,0,1,1,2,2,3,3,5,5,6,6],"right_children":[2,4,6,8,-1,10,12,-1,-1,-1,-1,-1,-1],"split_conditions":[1.6559488E2,1.5552614E0,1.5782671E0,1.6425806E0,-2.187811E-2,9.975486E-1,1.6481733E0,-5.0972668E-3,2.2653142E-2,1.3562093E-2,9.487673E-4,-1.5141791E-2,-5.91046E-4],"split_indices":[13,10,21,14,0,10,21,0,0,0,0,0,0],"split_type":[0,0,0,0,0,0,0,0,0,0,0,0,0],"sum_hessian":[3.8918735E2,1.506678E1,3.7412057E2,1.2817429E1,2.2493513E0,1.3807614E2,2.3604443E2,2.2293622E0,1.0588067E1,2.4815363E1,1.1326077E2,1.6691643E1,2.193528E2],"tree_param":{"num_deleted":"0","num_feature":"22","num_nodes":"13","size_leaf_vector":"0"}},{"base_weights":[2.9546864E-2,6.9855195E-1,1.2901661E-2,1.0034277E0,-1.13599725E-1,-9.6821976E-1,3.408592E-2,1.3271363E0,7.701511E-3,5.607304E-1,-7.3430866E-1,-1.316247E-1,-1.2658868E0,4.7385477E-2,-8.3303195E-1],"categories":[],"categories_nodes":[],"categories_segments":[],"categories_sizes":[],"default_left":[1,0,1,0,0,1,1,0,0,0,0,0,0,0,0],"id":54,"left_children":[1,3,5,7,9,11,13,-1,-1,-1,-1,-1,-1,-1,-1],"loss_changes":[4.3353314E0,2.4543796E0,7.96585E0,2.2376714E0,1.8675563E0,1.8507195E0,4.3591638E0,0E0,0E0,0E0,0E0,0E0,0E0,0E0,0E0],"parents":[2147483647,0,0,1,1,2,2,3,3,4,4,5,5,6,6],"right_children":[2,4,6,8,10,12,14,-1,-1,-1,-1,-1,-1,-1,-1],"split_conditions":[1.1771506E2,1.1827257E0,1.2873048E2,1.005526E0,1.2578042E0,1.2137161E2,4.3992837E3,2.6542725E-2,1.5403022E-4,1.1214607E-2,-1.4686173E-2,-2.6324939E-3,-2.5317736E-2,9.477095E-4,-1.6660638E-2],"split_indices":[7,4,7,10,6,11,3,0,0,0,0,0,0,0,0],"split_type":[0,0,0,0,0,0,0,0,0,0,0,0,0,0,0],"sum_hessian":[3.8912662E2,8.4521E0,3.8067453E2,5.9739904E0,2.4781098E0,7.1008987E0,3.735736E2,4.257163E0,1.716827E0,1.2340659E0,1.2440441E0,2.2419825E0,4.8589163E0,3.688615E2,4.7121196E0],"tree_param":{"num_deleted":"0","num_feature":"22","num_nodes":"15","size_leaf_vector":"0"}},{"base_weights":[2.89083E-2,5.3336114E-1,7.2569433E-3,8.747339E-1,-1.0793077E0,1.9958971E-1,-6.5239236E-2,-2.5194785E-1,1.1138889E0,-7.799744E-2,5.67292E-1,-1.0055553E0,-3.773383E-2],"categories":[],"categories_nodes":[],"categories_segments":[],"categories_sizes":[],"default_left":[1,0,1,1,0,1,1,0,0,0,0,0,0],"id":55,"left_children":[1,3,5,7,-1,9,11,-1,-1,-1,-1,-1,-1],"loss_changes":[4.256447E0,9.773899E0,5.2421474E0,3.9961853E0,0E0,1.0548059E1,7.0258904E0,0E0,0E0,0E0,0E0,0E0,0E0],"parents":[2147483647,0,0,1,1,2,2,3,3,5,5,6,6],"right_children":[2,4,6,8,-1,10,12,-1,-1,-1,-1,-1,-1],"split_conditions":[1.6559488E2,1.5552614E0,1.3661046E0,1.6425806E0,-2.1586154E-2,6.016129E-1,1.4013262E0,-5.038957E-3,2.2277776E-2,-1.5599488E-3,1.1345839E-2,-2.0111104E-2,-7.546766E-4],"split_indices":[13,10,17,14,0,15,19,0,0,0,0,0,0],"split_type":[0,0,0,0,0,0,0,0,0,0,0,0,0],"sum_hessian":[3.8906442E2,1.5038964E1,3.7402545E2,1.2789289E1,2.249675E0,1.019085E2,2.7211694E2,2.2300093E0,1.055928E1,5.8519E1,4.3389503E1,6.7229724E0,2.6539398E2],"tree_param":{"num_deleted":"0","num_feature":"22","num_nodes":"13","size_leaf_vector":"0"}},{"base_weights":[2.8296804E-2,1.9559248E-1,-3.6880556E-2,1.5567563E-1,1.3012512E0,-7.77966E-1,-8.708706E-3,-1.3084592E-1,3.1126705E-1,5.3440046E-1,-1.0555212E0,3.7216327E-1,-7.515975E-2],"categories":[],"categories_nodes":[],"categories_segments":[],"categories_sizes":[],"default_left":[0,0,1,0,0,1,0,0,0,0,0,0,0],"id":56,"left_children":[1,3,5,7,-1,9,11,-1,-1,-1,-1,-1,-1],"loss_changes":[4.259731E0,4.6301928E0,5.8702884E0,4.802861E0,0E0,4.3150773E0,6.917203E0,0E0,0E0,0E0,0E0,0E0,0E0],"parents":[2147483647,0,0,1,1,2,2,3,3,5,5,6,6],"right_children":[2,4,6,8,-1,10,12,-1,-1,-1,-1,-1,-1],"split_conditions":[9.910084E-1,9.907131E-1,9.386366E-1,8.3911026E-1,2.6025023E-2,1.9188292E2,9.500258E-1,-2.6169184E-3,6.225341E-3,1.0688009E-2,-2.1110425E-2,7.443265E-3,-1.503195E-3],"split_indices":[0,0,2,10,0,7,4,0,0,0,0,0,0],"split_type":[0,0,0,0,0,0,0,0,0,0,0,0,0],"sum_hessian":[3.89E2,1.0850109E2,2.804989E2,1.0582149E2,2.6796024E0,9.297771E0,2.7120114E2,3.729739E1,6.852409E1,1.4615815E0,7.83619E0,3.9604237E1,2.315969E2],"tree_param":{"num_deleted":"0","num_feature":"22","num_nodes":"13","size_leaf_vector":"0"}},{"base_weights":[2.7799306E-2,6.902391E-1,1.1357461E-2,9.353459E-1,-2.4804413E-1,-9.547177E-1,3.2176405E-2,1.3129948E0,1.6378576E-1,-1.6215163E-1,-1.2733536E0,4.1213978E-2,-1.2068206E0],"categories":[],"categories_nodes":[],"categories_segments":[],"categories_sizes":[],"default_left":[1,1,1,0,0,0,1,0,0,0,0,0,0],"id":57,"left_children":[1,3,5,7,-1,9,11,-1,-1,-1,-1,-1,-1],"loss_changes":[4.2393436E0,2.4001102E0,7.704068E0,2.0240088E0,0E0,1.8342719E0,4.242511E0,0E0,0E0,0E0,0E0,0E0,0E0],"parents":[2147483647,0,0,1,1,2,2,3,3,5,5,6,6],"right_children":[2,4,6,8,-1,10,12,-1,-1,-1,-1,-1,-1],"split_conditions":[1.1771506E2,2.2282293E0,1.2873048E2,9.9525285E-1,-4.9608825E-3,9.9330115E-1,4.11609E3,2.6259895E-2,3.275715E-3,-3.2430326E-3,-2.5467072E-2,8.2427956E-4,-2.4136411E-2],"split_indices":[7,21,7,8,0,0,11,0,0,0,0,0,0],"split_type":[0,0,0,0,0,0,0,0,0,0,0,0,0],"sum_hessian":[3.8894562E2,8.427371E0,3.8051825E2,6.684354E0,1.743017E0,7.0808907E0,3.7343738E2,4.0166287E0,2.6677248E0,2.463111E0,4.6177797E0,3.7169287E2,1.7444907E0],"tree_param":{"num_deleted":"0","num_feature":"22","num_nodes":"13","size_leaf_vector":"0"}},{"base_weights":[2.7176872E-2,7.3682725E-1,1.2001338E-2,-3.2115576E-1,1.1847658E0,1.8915468E-1,-5.7409372E-2,1.4290758E0,1.4453311E-1,1.07916966E-1,7.4587315E-1,-1.2615952E-1,2.5527045E-1],"categories":[],"categories_nodes":[],"categories_segments":[],"categories_sizes":[],"default_left":[1,1,0,0,0,0,1,0,0,0,0,0,0],"id":58,"left_children":[1,3,5,-1,7,9,11,-1,-1,-1,-1,-1,-1],"loss_changes":[4.1900306E0,4.2412276E0,4.7172275E0,0E0,1.3021746E0,4.80308E0,5.960271E0,0E0,0E0,0E0,0E0,0E0,0E0],"parents":[2147483647,0,0,1,1,2,2,4,4,5,5,6,6],"right_children":[2,4,6,-1,8,10,12,-1,-1,-1,-1,-1,-1],"split_conditions":[-3.3333334E-3,1.4230978E2,9.910084E-1,-6.423115E-3,1.1991372E0,1.0826379E0,1.057781E0,2.8581517E-2,2.8906623E-3,2.1583394E-3,1.4917463E-2,-2.5231903E-3,5.105409E-3],"split_indices":[15,7,0,0,6,4,2,0,0,0,0,0,0],"split_type":[0,0,0,0,0,0,0,0,0,0,0,0,0],"sum_hessian":[3.88892E2,7.146532E0,3.8174548E2,2.2099357E0,4.9365964E0,1.0698024E2,2.7476523E2,3.6949847E0,1.2416117E0,9.439913E1,1.2581106E1,2.2572969E2,4.9035557E1],"tree_param":{"num_deleted":"0","num_feature":"22","num_nodes":"13","size_leaf_vector":"0"}},{"base_weights":[2.6754024E-2,1.069494E-1,-1.0555779E-1,3.712438E-2,8.796701E-1,-2.6743364E-1,1.5578651E-1,9.632927E-2,-5.46745E-1,1.2859356E0,9.0840615E-2,-1.2703682E-1,-8.647979E-1,9.9189115E-1,-4.9326755E-2],"categories":[],"categories_nodes":[],"categories_segments":[],"categories_sizes":[],"default_left":[1,1,1,1,1,0,1,0,0,0,0,0,0,0,0],"id":59,"left_children":[1,3,5,7,9,11,13,-1,-1,-1,-1,-1,-1,-1,-1],"loss_changes":[4.1475973E0,1.3089688E1,6.2864685E0,7.799217E0,6.3284082E0,7.5658274E0,9.839939E0,0E0,0E0,0E0,0E0,0E0,0E0,0E0,0E0],"parents":[2147483647,0,0,1,1,2,2,3,3,4,4,5,5,6,6],"right_children":[2,4,6,8,10,12,14,-1,-1,-1,-1,-1,-1,-1,-1],"split_conditions":[2.2239623E0,2.360314E0,1.777937E3,7.309678E2,2.2E0,9.980178E-1,2.8339758E3,1.9265854E-3,-1.09349E-2,2.5718711E-2,1.8168123E-3,-2.5407365E-3,-1.7295957E-2,1.9837823E-2,-9.865351E-4],"split_indices":[20,16,13,13,15,10,3,0,0,0,0,0,0,0,0],"split_type":[0,0,0,0,0,0,0,0,0,0,0,0,0,0,0],"sum_hessian":[3.8882077E2,2.4220801E2,1.4661275E2,2.2309648E2,1.9111525E1,9.052102E1,5.6091732E1,2.0331516E2,1.9781328E1,1.2198719E1,6.9128056E0,7.427665E1,1.6244366E1,1.0294081E1,4.5797653E1],"tree_param":{"num_deleted":"0","num_feature":"22","num_nodes":"15","size_leaf_vector":"0"}},{"base_weights":[2.6277704E-2,6.81488E-1,1.0051815E-2,9.8222864E-1,-1.1391531E-1,-9.406844E-1,3.0499889E-2,1.3023049E0,6.701386E-3,5.4972374E-1,-7.2242635E-1,-1.2008718E-1,-1.235903E0,4.3521367E-2,-8.1838685E-1],"categories":[],"categories_nodes":[],"categories_segments":[],"categories_sizes":[],"default_left":[1,0,1,0,0,1,1,0,0,0,0,0,0,0,0],"id":60,"left_children":[1,3,5,7,9,11,13,-1,-1,-1,-1,-1,-1,-1,-1],"loss_changes":[4.13573E0,2.3608103E0,7.4405603E0,2.1538577E0,1.8006431E0,1.8038363E0,4.1718926E0,0E0,0E0,0E0,0E0,0E0,0E0,0E0,0E0],"parents":[2147483647,0,0,1,1,2,2,3,3,4,4,5,5,6,6],"right_children":[2,4,6,8,10,12,14,-1,-1,-1,-1,-1,-1,-1,-1],"split_conditions":[1.1771506E2,1.1827257E0,1.2873048E2,1.005526E0,1.2578042E0,1.2137161E2,4.3992837E3,2.6046097E-2,1.3402772E-4,1.0994474E-2,-1.4448526E-2,-2.4017435E-3,-2.471806E-2,8.7042735E-4,-1.6367737E-2],"split_indices":[7,4,7,10,6,11,3,0,0,0,0,0,0,0,0],"split_type":[0,0,0,0,0,0,0,0,0,0,0,0,0,0,0],"sum_hessian":[3.8865628E2,8.401441E0,3.8025482E2,5.925963E0,2.475478E0,7.0586424E0,3.731962E2,4.209745E0,1.7162179E0,1.2303132E0,1.2451648E0,2.2397501E0,4.818892E0,3.6849243E2,4.70375E0],"tree_param":{"num_deleted":"0","num_feature":"22","num_nodes":"15","size_leaf_vector":"0"}},{"base_weights":[2.5705598E-2,3.424942E-2,-1.1922046E0,2.7652672E-1,-1.3406409E-2,4.5787614E-2,8.583069E-1,-6.754503E-1,1.5913809E-2],"categories":[],"categories_nodes":[],"categories_segments":[],"categories_sizes":[],"default_left":[1,0,0,0,1,0,0,0,0],"id":61,"left_children":[1,3,-1,5,7,-1,-1,-1,-1],"loss_changes":[4.094751E0,4.4817705E0,0E0,8.52466E0,6.320417E0,0E0,0E0,0E0,0E0],"parents":[2147483647,0,0,1,1,3,3,4,4],"right_children":[2,4,-1,6,8,-1,-1,-1,-1],"split_conditions":[4.11609E3,9.8141664E-1,-2.3844091E-2,9.762151E-1,9.8495346E-1,9.1575226E-4,1.7166138E-2,-1.3509006E-2,3.1827617E-4],"split_indices":[11,0,0,0,0,0,0,0,0],"split_type":[0,0,0,0,0,0,0,0,0],"sum_hessian":[3.8858984E2,3.8684793E2,1.7419176E0,6.279616E1,3.2405176E2,4.573569E1,1.7060472E1,1.2808213E1,3.1124356E2],"tree_param":{"num_deleted":"0","num_feature":"22","num_nodes":"9","size_leaf_vector":"0"}},{"base_weights":[2.514536E-2,7.2396E-1,1.0216289E-2,-3.1774235E-1,1.1664795E0,1.8428805E-1,-5.7955846E-2,1.4080855E0,1.4124075E-1,1.052929E-1,7.274586E-1,-1.24732204E-1,2.4610114E-1],"categories":[],"categories_nodes":[],"categories_segments":[],"categories_sizes":[],"default_left":[1,1,0,0,0,0,1,0,0,0,0,0,0],"id":62,"left_children":[1,3,5,-1,7,9,11,-1,-1,-1,-1,-1,-1],"loss_changes":[4.056766E0,4.1201906E0,4.54889E0,0E0,1.2682505E0,4.5515213E0,5.6257358E0,0E0,0E0,0E0,0E0,0E0,0E0],"parents":[2147483647,0,0,1,1,2,2,4,4,5,5,6,6],"right_children":[2,4,6,-1,8,10,12,-1,-1,-1,-1,-1,-1],"split_conditions":[-3.3333334E-3,1.4230978E2,9.910084E-1,-6.354847E-3,1.1991372E0,1.0826379E0,1.057781E0,2.8161708E-2,2.8248148E-3,2.105858E-3,1.4549172E-2,-2.494644E-3,4.9220226E-3],"split_indices":[15,7,0,0,6,4,2,0,0,0,0,0,0],"split_type":[0,0,0,0,0,0,0,0,0,0,0,0,0],"sum_hessian":[3.8856168E2,7.1339803E0,3.8142767E2,2.2110593E0,4.9229207E0,1.0686182E2,2.7456586E2,3.6818423E0,1.2410785E0,9.433605E1,1.2525766E1,2.2560806E2,4.8957798E1],"tree_param":{"num_deleted":"0","num_feature":"22","num_nodes":"13","size_leaf_vector":"0"}},{"base_weights":[2.4760598E-2,5.175881E-1,3.6514835E-3,8.5521704E-1,-1.0695033E0,1.5265436E-1,-8.3767794E-2,-2.520089E-1,1.0914354E0,5.9322244E-1,1.996746E-2,-7.452889E-1,-3.0221613E-2],"categories":[],"categories_nodes":[],"categories_segments":[],"categories_sizes":[],"default_left":[1,0,1,1,0,0,1,0,0,0,0,0,0],"id":63,"left_children":[1,3,5,7,-1,9,11,-1,-1,-1,-1,-1,-1],"loss_changes":[4.050005E0,9.48311E0,4.8908787E0,3.8690014E0,0E0,8.103706E0,8.360743E0,0E0,0E0,0E0,0E0,0E0,0E0],"parents":[2147483647,0,0,1,1,2,2,3,3,5,5,6,6],"right_children":[2,4,6,8,-1,10,12,-1,-1,-1,-1,-1,-1],"split_conditions":[1.6559488E2,1.5552614E0,1.5782671E0,1.6425806E0,-2.1390066E-2,1.1821783E0,1.6481733E0,-5.0401776E-3,2.1828707E-2,1.1864449E-2,3.9934917E-4,-1.4905778E-2,-6.0443225E-4],"split_indices":[13,10,21,14,0,12,21,0,0,0,0,0,0],"split_type":[0,0,0,0,0,0,0,0,0,0,0,0,0],"sum_hessian":[3.884872E2,1.4990454E1,3.7349677E2,1.274112E1,2.2493334E0,1.3782796E2,2.3566882E2,2.2285228E0,1.0512598E1,3.1098604E1,1.0672935E2,1.668014E1,2.1898868E2],"tree_param":{"num_deleted":"0","num_feature":"22","num_nodes":"13","size_leaf_vector":"0"}},{"base_weights":[2.4251621E-2,6.6959083E-1,8.326398E-3,9.6797425E-1,-1.15115345E-1,-9.2831886E-1,2.8425729E-2,4.714824E-2,1.307716E0,5.413389E-1,-7.151464E-1,-2.825172E-1,-1.3451383E0,4.119811E-2,-8.0473965E-1],"categories":[],"categories_nodes":[],"categories_segments":[],"categories_sizes":[],"default_left":[1,0,1,1,0,0,1,0,0,0,0,0,0,0,0],"id":64,"left_children":[1,3,5,7,9,11,13,-1,-1,-1,-1,-1,-1,-1,-1],"loss_changes":[3.9964008E0,2.3042822E0,7.199807E0,2.0943346E0,1.7554519E0,1.7827492E0,4.0131245E0,0E0,0E0,0E0,0E0,0E0,0E0,0E0,0E0],"parents":[2147483647,0,0,1,1,2,2,3,3,4,4,5,5,6,6],"right_children":[2,4,6,8,10,12,14,-1,-1,-1,-1,-1,-1,-1,-1],"split_conditions":[1.1771506E2,1.1827257E0,1.2873048E2,1.237773E2,1.2578042E0,9.9783134E-1,4.3992837E3,9.4296475E-4,2.6154319E-2,1.0826779E-2,-1.4302928E-2,-5.650344E-3,-2.6902765E-2,8.2396215E-4,-1.6094793E-2],"split_indices":[7,4,7,9,6,0,3,0,0,0,0,0,0,0,0],"split_type":[0,0,0,0,0,0,0,0,0,0,0,0,0,0,0],"sum_hessian":[3.8840448E2,8.365432E0,3.8003903E2,5.8916063E0,2.473825E0,7.0345955E0,3.7300446E2,1.8947929E0,3.9968135E0,1.2280796E0,1.2457453E0,3.4174862E0,3.6171093E0,3.6830884E2,4.695602E0],"tree_param":{"num_deleted":"0","num_feature":"22","num_nodes":"15","size_leaf_vector":"0"}},{"base_weights":[2.3708299E-2,3.2139897E-2,-1.1781739E0,2.6694104E-1,-1.400827E-2,4.0794577E-2,8.38662E-1,-6.6752654E-1,1.4955408E-2],"categories":[],"categories_nodes":[],"categories_segments":[],"categories_sizes":[],"default_left":[1,0,0,0,1,0,0,0,0],"id":65,"left_children":[1,3,-1,5,7,-1,-1,-1,-1],"loss_changes":[3.9833877E0,4.203679E0,0E0,8.203922E0,6.1595435E0,0E0,0E0,0E0,0E0],"parents":[2147483647,0,0,1,1,3,3,4,4],"right_children":[2,4,-1,6,8,-1,-1,-1,-1],"split_conditions":[4.11609E3,9.8141664E-1,-2.3563478E-2,9.762151E-1,9.8495346E-1,8.1589154E-4,1.677324E-2,-1.33505305E-2,2.9910816E-4],"split_indices":[11,0,0,0,0,0,0,0,0],"split_type":[0,0,0,0,0,0,0,0,0],"sum_hessian":[3.8834308E2,3.866042E2,1.7388971E0,6.271695E1,3.2388724E2,4.5708233E1,1.7008715E1,1.280972E1,3.110775E2],"tree_param":{"num_deleted":"0","num_feature":"22","num_nodes":"9","size_leaf_vector":"0"}},{"base_weights":[2.3187846E-2,5.069352E-1,2.5092561E-3,8.400948E-1,-1.0545818E0,1.4843938E-1,-8.309332E-2,-2.5062987E-1,1.0736991E0,6.3510644E-1,3.0647378E-2,-7.32784E-1,-3.0512715E-2],"categories":[],"categories_nodes":[],"categories_segments":[],"categories_sizes":[],"default_left":[1,0,1,1,0,0,1,0,0,0,0,0,0],"id":66,"left_children":[1,3,5,7,-1,9,11,-1,-1,-1,-1,-1,-1],"loss_changes":[3.8930938E0,9.18607E0,4.6888E0,3.7612953E0,0E0,7.9354E0,8.059834E0,0E0,0E0,0E0,0E0,0E0,0E0],"parents":[2147483647,0,0,1,1,2,2,3,3,5,5,6,6],"right_children":[2,4,6,8,-1,10,12,-1,-1,-1,-1,-1,-1],"split_conditions":[1.6559488E2,1.5552614E0,1.5782671E0,1.6425806E0,-2.1091634E-2,1.0033152E0,1.6481733E0,-5.0125974E-3,2.1473981E-2,1.2702129E-2,6.1294757E-4,-1.4655679E-2,-6.102543E-4],"split_indices":[13,10,21,14,0,10,21,0,0,0,0,0,0],"split_type":[0,0,0,0,0,0,0,0,0,0,0,0,0],"sum_hessian":[3.8831155E2,1.4954582E1,3.7335696E2,1.2705733E1,2.248849E0,1.3776665E2,2.3559033E2,2.228365E0,1.0477368E1,2.5990997E1,1.1177564E2,1.6670595E1,2.1891974E2],"tree_param":{"num_deleted":"0","num_feature":"22","num_nodes":"13","size_leaf_vector":"0"}},{"base_weights":[2.2712497E-2,6.601561E-1,7.0259203E-3,1.2071474E0,1.7356823E-1,-9.1639847E-1,2.6803378E-2,-4.4937125E-1,7.1685356E-1,-1.09412126E-1,-1.2099211E0,3.548649E-2,-1.1643407E0],"categories":[],"categories_nodes":[],"categories_segments":[],"categories_sizes":[],"default_left":[1,0,1,0,1,1,1,0,0,0,0,0,0],"id":67,"left_children":[1,3,5,-1,7,9,11,-1,-1,-1,-1,-1,-1],"loss_changes":[3.8874736E0,2.2758155E0,6.9809413E0,0E0,2.389855E0,1.7661939E0,3.9083498E0,0E0,0E0,0E0,0E0,0E0,0E0],"parents":[2147483647,0,0,1,1,2,2,4,4,5,5,6,6],"right_children":[2,4,6,-1,8,10,12,-1,-1,-1,-1,-1,-1],"split_conditions":[1.1771506E2,1.0601456E0,1.2873048E2,2.4142947E-2,1.14775925E2,1.2137161E2,4.11609E3,-8.987425E-3,1.4337071E-2,-2.1882425E-3,-2.4198422E-2,7.097298E-4,-2.3286814E-2],"split_indices":[7,6,7,0,5,11,11,0,0,0,0,0,0],"split_type":[0,0,0,0,0,0,0,0,0,0,0,0,0],"sum_hessian":[3.8823816E2,8.337784E0,3.7990036E2,3.2281077E0,5.109676E0,7.0152984E0,3.7288507E2,2.4608686E0,2.6488073E0,2.2372227E0,4.7780757E0,3.711497E2,1.7353704E0],"tree_param":{"num_deleted":"0","num_feature":"22","num_nodes":"13","size_leaf_vector":"0"}},{"base_weights":[2.2211632E-2,3.4212537E-2,-7.9287964E-1,4.2582773E-2,-1.1512097E0,-1.536667E-2,-1.2877378E0,-5.3820346E-4,3.257193E-1],"categories":[],"categories_nodes":[],"categories_segments":[],"categories_sizes":[],"default_left":[1,1,1,1,0,0,0,0,0],"id":68,"left_children":[1,3,5,7,-1,-1,-1,-1,-1],"loss_changes":[3.8339984E0,3.8640285E0,2.1688116E0,4.673315E0,0E0,0E0,0E0,0E0,0E0],"parents":[2147483647,0,0,1,1,2,2,3,3],"right_children":[2,4,6,8,-1,-1,-1,-1,-1],"split_conditions":[4.3992837E3,4.11609E3,4.2573447E3,1.777937E3,-2.3024194E-2,-3.073334E-4,-2.5754757E-2,-1.0764069E-5,6.514386E-3],"split_indices":[3,11,7,13,0,0,0,0,0],"split_type":[0,0,0,0,0,0,0,0,0],"sum_hessian":[3.881778E2,3.8348956E2,4.688239E0,3.8175806E2,1.7315056E0,2.2243812E0,2.463858E0,3.3216782E2,4.959022E1],"tree_param":{"num_deleted":"0","num_feature":"22","num_nodes":"9","size_leaf_vector":"0"}},{"base_weights":[2.1658989E-2,9.9393256E-2,-1.0659213E-1,3.0837452E-2,8.6162585E-1,-2.6610562E-1,1.5099011E-1,5.4490037E-2,-1.3786685E0,1.2637345E0,8.645145E-2,-1.2820587E-1,-8.520158E-1,1.2997025E0,6.8669836E-3],"categories":[],"categories_nodes":[],"categories_segments":[],"categories_sizes":[],"default_left":[1,1,1,1,1,0,1,0,0,0,0,0,0,0,0],"id":69,"left_children":[1,3,5,7,9,11,13,-1,-1,-1,-1,-1,-1,-1,-1],"loss_changes":[3.8902755E0,1.2661786E1,6.0940948E0,7.536748E0,6.1247215E0,7.271883E0,9.425584E0,0E0,0E0,0E0,0E0,0E0,0E0,0E0,0E0],"parents":[2147483647,0,0,1,1,2,2,3,3,4,4,5,5,6,6],"right_children":[2,4,6,8,10,12,14,-1,-1,-1,-1,-1,-1,-1,-1],"split_conditions":[2.2239623E0,2.360314E0,1.777937E3,1.7878779E3,2.2E0,9.980178E-1,2.605665E3,1.0898007E-3,-2.757337E-2,2.5274688E-2,1.7290289E-3,-2.5641173E-3,-1.7040316E-2,2.599405E-2,1.3733967E-4],"split_indices":[20,16,13,5,15,10,5,0,0,0,0,0,0,0,0],"split_type":[0,0,0,0,0,0,0,0,0,0,0,0,0,0,0],"sum_hessian":[3.8815475E2,2.4181393E2,1.463408E2,2.228143E2,1.8999638E1,9.0354004E1,5.5986797E1,2.2008249E2,2.7318108E0,1.2095199E1,6.904439E0,7.412643E1,1.6227573E1,5.347481E0,5.0639317E1],"tree_param":{"num_deleted":"0","num_feature":"22","num_nodes":"15","size_leaf_vector":"0"}},{"base_weights":[2.1254508E-2,6.549623E-1,5.687617E-3,1.196614E0,1.7448051E-1,-9.031303E-1,2.5099393E-2,-4.3750796E-1,7.086389E-1,-1.354575E-1,-1.2178833E0,3.746764E-2,-7.827238E-1],"categories":[],"categories_nodes":[],"categories_segments":[],"categories_sizes":[],"default_left":[1,0,1,0,1,0,1,0,0,0,0,0,0],"id":70,"left_children":[1,3,5,-1,7,9,11,-1,-1,-1,-1,-1,-1],"loss_changes":[3.833815E0,2.2162845E0,6.7387667E0,0E0,2.3069205E0,1.7652335E0,3.7631428E0,0E0,0E0,0E0,0E0,0E0,0E0],"parents":[2147483647,0,0,1,1,2,2,4,4,5,5,6,6],"right_children":[2,4,6,-1,8,10,12,-1,-1,-1,-1,-1,-1],"split_conditions":[1.1771506E2,1.0601456E0,1.2873048E2,2.393228E-2,1.14775925E2,9.9330115E-1,4.3992837E3,-8.750159E-3,1.41727775E-2,-2.7091498E-3,-2.4357667E-2,7.493528E-4,-1.5654474E-2],"split_indices":[7,6,7,0,5,0,3,0,0,0,0,0,0],"split_type":[0,0,0,0,0,0,0,0,0,0,0,0,0],"sum_hessian":[3.880111E2,8.318099E0,3.79693E2,3.209525E0,5.1085744E0,6.9883533E0,3.7270465E2,2.4651625E0,2.6434119E0,2.4480345E0,4.5403185E0,3.6802362E2,4.6810374E0],"tree_param":{"num_deleted":"0","num_feature":"22","num_nodes":"13","size_leaf_vector":"0"}},{"base_weights":[2.0800425E-2,1.7880017E-1,-4.0662266E-2,1.3941973E-1,1.2757465E0,-7.628607E-1,-1.3215954E-2,-1.401287E-1,2.9163334E-1,5.416415E-1,-1.0396365E0,3.673996E-1,-7.9644464E-2],"categories":[],"categories_nodes":[],"categories_segments":[],"categories_sizes":[],"default_left":[0,0,1,0,0,1,0,0,0,0,0,0,0],"id":71,"left_children":[1,3,5,7,-1,9,11,-1,-1,-1,-1,-1,-1],"loss_changes":[3.7843697E0,4.53566E0,5.556504E0,4.5706463E0,0E0,4.2691026E0,6.895532E0,0E0,0E0,0E0,0E0,0E0,0E0],"parents":[2147483647,0,0,1,1,2,2,3,3,5,5,6,6],"right_children":[2,4,6,8,-1,10,12,-1,-1,-1,-1,-1,-1],"split_conditions":[9.910084E-1,9.907131E-1,9.386366E-1,8.3911026E-1,2.5514929E-2,1.9188292E2,9.500258E-1,-2.802574E-3,5.8326665E-3,1.0832829E-2,-2.079273E-2,7.3479917E-3,-1.5928892E-3],"split_indices":[0,0,2,10,0,7,4,0,0,0,0,0,0],"split_type":[0,0,0,0,0,0,0,0,0,0,0,0,0],"sum_hessian":[3.8794702E2,1.0811385E2,2.7983316E2,1.0545511E2,2.6587462E0,9.264353E0,2.705688E2,3.720519E1,6.8249916E1,1.4540659E0,7.8102865E0,3.9531925E1,2.3103688E2],"tree_param":{"num_deleted":"0","num_feature":"22","num_nodes":"13","size_leaf_vector":"0"}},{"base_weights":[2.0450085E-2,1.1909719E0,1.2118622E-2,-7.2038746E-1,2.9847503E-2,9.892553E-1,-1.1074787E0,7.9569054E-1,3.3118369E-3],"categories":[],"categories_nodes":[],"categories_segments":[],"categories_sizes":[],"default_left":[1,0,1,0,1,0,0,0,0],"id":72,"left_children":[1,-1,3,5,7,-1,-1,-1,-1],"loss_changes":[3.7780828E0,0E0,5.0492506E0,7.176487E0,7.69871E0,0E0,0E0,0E0,0E0],"parents":[2147483647,0,0,2,2,3,3,4,4],"right_children":[2,-1,4,6,8,-1,-1,-1,-1],"split_conditions":[1.9733223E-1,2.3819437E-2,4.5055342E-1,9.708443E-1,8.159579E-1,1.9785106E-2,-2.2149574E-2,1.591381E-2,6.623674E-5],"split_indices":[19,0,16,4,18,0,0,0,0],"split_type":[0,0,0,0,0,0,0,0,0],"sum_hessian":[3.878898E2,1.7381718E0,3.861516E2,8.188605E0,3.77963E2,1.2245586E0,6.9640465E0,1.1686768E1,3.6627625E2],"tree_param":{"num_deleted":"0","num_feature":"22","num_nodes":"9","size_leaf_vector":"0"}},{"base_weights":[2.0138517E-2,6.936338E-1,5.7988176E-3,-3.323268E-1,1.1339365E0,1.7361534E-1,-5.9851892E-2,1.373912E0,1.2828848E-1,1.3421652E-1,1.2599163E0,-1.2441234E-1,2.3452409E-1],"categories":[],"categories_nodes":[],"categories_segments":[],"categories_sizes":[],"default_left":[1,1,0,0,0,0,1,0,0,0,0,0,0],"id":73,"left_children":[1,3,5,-1,7,9,11,-1,-1,-1,-1,-1,-1],"loss_changes":[3.7516665E0,4.03532E0,4.216573E0,0E0,1.2460132E0,4.43661E0,5.2587595E0,0E0,0E0,0E0,0E0,0E0,0E0],"parents":[2147483647,0,0,1,1,2,2,4,4,5,5,6,6],"right_children":[2,4,6,-1,8,10,12,-1,-1,-1,-1,-1,-1],"split_conditions":[-3.3333334E-3,1.4230978E2,9.910084E-1,-6.646536E-3,1.1991372E0,9.907131E-1,1.057781E0,2.7478239E-2,2.5657695E-3,2.6843303E-3,2.5198326E-2,-2.488247E-3,4.690482E-3],"split_indices":[15,7,0,0,6,0,2,0,0,0,0,0,0],"split_type":[0,0,0,0,0,0,0,0,0,0,0,0,0],"sum_hessian":[3.8787946E2,7.0987673E0,3.8078067E2,2.2053218E0,4.8934455E0,1.0661264E2,2.7416806E2,3.6550531E0,1.2383926E0,1.03965485E2,2.6471486E0,2.2532806E2,4.883998E1],"tree_param":{"num_deleted":"0","num_feature":"22","num_nodes":"13","size_leaf_vector":"0"}},{"base_weights":[1.987778E-2,6.4656967E-1,4.525532E-3,9.3884706E-1,-1.1312282E-1,-8.912025E-1,2.3614824E-2,1.255467E0,-4.172878E-3,5.406879E-1,-7.112397E-1,-9.773322E-2,-1.1834489E0,-7.35471E-1,3.6719948E-2],"categories":[],"categories_nodes":[],"categories_segments":[],"categories_sizes":[],"default_left":[1,0,1,0,0,1,1,0,0,0,0,0,0,0,0],"id":74,"left_children":[1,3,5,7,9,11,13,-1,-1,-1,-1,-1,-1,-1,-1],"loss_changes":[3.7378926E0,2.168978E0,6.527534E0,2.0404892E0,1.7429274E0,1.7315841E0,3.7431166E0,0E0,0E0,0E0,0E0,0E0,0E0,0E0,0E0],"parents":[2147483647,0,0,1,1,2,2,3,3,4,4,5,5,6,6],"right_children":[2,4,6,8,10,12,14,-1,-1,-1,-1,-1,-1,-1,-1],"split_conditions":[1.1771506E2,1.1827257E0,1.2873048E2,1.005526E0,1.2578042E0,1.2137161E2,1.2858557E2,2.5109341E-2,-8.3457555E-5,1.0813758E-2,-1.4224794E-2,-1.9546645E-3,-2.3668978E-2,-1.470942E-2,7.3439896E-4],"split_indices":[7,4,7,10,6,11,5,0,0,0,0,0,0,0,0],"split_type":[0,0,0,0,0,0,0,0,0,0,0,0,0,0,0],"sum_hessian":[3.8781284E2,8.290056E0,3.795228E2,5.8164577E0,2.473598E0,6.9660983E0,3.725567E2,4.1064024E0,1.7100554E0,1.2276504E0,1.2459475E0,2.2342834E0,4.7318153E0,5.3873158E0,3.6716937E2],"tree_param":{"num_deleted":"0","num_feature":"22","num_nodes":"15","size_leaf_vector":"0"}}]},"name":"gbtree"},"learner_model_param":{"base_score":"5E-1","boost_from_average":"0","num_class":"0","num_feature":"22","num_target":"1"},"objective":{"name":"binary:logistic","reg_loss_param":{"scale_pos_weight":"1"}}},"version":[1,7,1]}