{"learner":{"attributes":{"best_iteration":"74","best_ntree_limit":"75","scikit_learn":"{\"use_label_encoder\": null, \"n_estimators\": 75, \"objective\": \"binary:logistic\", \"max_depth\": 3, \"max_leaves\": null, \"max_bin\": null, \"grow_policy\": null, \"learning_rate\": 0.02, \"verbosity\": null, \"booster\": null, \"tree_method\": null, \"gamma\": null, \"min_child_weight\": null, \"max_delta_step\": null, \"subsample\": null, \"sampling_method\": null, \"colsample_bytree\": null, \"colsample_bylevel\": null, \"colsample_bynode\": null, \"reg_alpha\": null, \"reg_lambda\": null, \"scale_pos_weight\": null, \"base_score\": null, \"missing\": NaN, \"num_parallel_tree\": null, \"random_state\": 2022, \"n_jobs\": -1, \"monotone_constraints\": null, \"interaction_constraints\": null, \"importance_type\": null, \"gpu_id\": null, \"validate_parameters\": null, \"predictor\": null, \"enable_categorical\": false, \"feature_types\": null, \"max_cat_to_onehot\": null, \"max_cat_threshold\": null, \"eval_metric\": null, \"early_stopping_rounds\": null, \"callbacks\": null, \"classes_\": [0.0, 1.0], \"n_classes_\": 2, \"evals_result_\": {\"validation_0\": {\"logloss\": [0.6924421492102512, 0.691695098385148, 0.6910774380178654, 0.6904813250160462, 0.6897793654674601, 0.6891021706750956, 0.6884796679745417, 0.6879360019435186, 0.6872975607089398, 0.6866815752665405, 0.6861083237961422, 0.6856197575817193, 0.6850471705064646, 0.6845235545462633, 0.6839892735548465, 0.6834902876008404, 0.6829771598052856, 0.6824029041054461, 0.681798973578356, 0.6813245507710107, 0.6808484938952649, 0.6802731951714173, 0.6798234293660929, 0.6792722496369342, 0.6787083326701091, 0.6781792670278347, 0.6777596336996456, 0.6772492231465852, 0.6767557550515219, 0.6762301329234561, 0.6755625188999799, 0.6750885591645946, 0.6746959936191148, 0.6742379990508356, 0.6738604240162414, 0.6735005269327048, 0.6731704220910778, 0.6727870273368622, 0.6724419659868713, 0.6720889810756717, 0.6718354459797091, 0.6715235262059157, 0.6711558960211117, 0.6708238090291228, 0.6704916744603323, 0.670274785357664, 0.6700769193771174, 0.669827708806234, 0.6694764323069605, 0.6692389152242464, 0.6690797562365498, 0.6688503792925877, 0.6685306423562677, 0.6682288905583003, 0.668042952685231, 0.667823694288387, 0.6674847418226393, 0.6671586282584699, 0.6669465307048466, 0.6666658551054533, 0.6664882413780437, 0.6662827104540073, 0.6659891819587356, 0.6656944726538306, 0.6654266126449103, 0.665255977357526, 0.6650577784348267, 0.6647560565728243, 0.6644773355170293, 0.6642851999541416, 0.6641216675949585, 0.6638331530110948, 0.6636456365790755, 0.663248303148855, 0.6629782196308541]}, \"validation_1\": {\"logloss\": [0.6928612452638728, 0.6928289480831312, 0.6926286496469737, 0.6924386333931437, 0.6923777439710125, 0.6923548120366948, 0.6921092768764252, 0.6919409391825156, 0.691892357281102, 0.6918800773523043, 0.691661086686127, 0.6916432373054192, 0.6916838573372882, 0.6915989024254977, 0.6914023487159359, 0.6913238992471524, 0.691157657472069, 0.6911305661701486, 0.6913146350694739, 0.6911283748229141, 0.6910824402214011, 0.6912800273322084, 0.691099831515261, 0.6913110488820868, 0.690944195860792, 0.6911715397139644, 0.6909502323936013, 0.6909089564057567, 0.6911612968615559, 0.6908162967933108, 0.6909518671767486, 0.6909438376231571, 0.6909732230179145, 0.691243158734363, 0.6912793178692498, 0.6912909729401474, 0.6910417400052785, 0.6911984209514335, 0.6912223949761647, 0.6913341550570925, 0.6913440398243077, 0.6911113164613923, 0.6911618796455891, 0.6912053969814954, 0.6913189743181019, 0.6911457854768505, 0.6910217791567068, 0.6910421650123109, 0.6910988020774959, 0.6909358070024749, 0.6908193700148931, 0.6908406164030285, 0.6909063543809955, 0.6909652128243995, 0.6908301973281918, 0.6908509255675099, 0.6909342560621784, 0.6911312306628508, 0.6911516788670474, 0.690893313921321, 0.6907790356584828, 0.6908002367714787, 0.690897437922485, 0.690967510423392, 0.6907227089642869, 0.6905906515962937, 0.6906123810716908, 0.6908099971463918, 0.6908154358034548, 0.6908628477159974, 0.6907505377784104, 0.6909515392749815, 0.6909720321445514, 0.690969811223657, 0.690868606347867]}}, \"_estimator_type\": \"classifier\"}"},"feature_names":["Close_Ratio_2","Trend_2","Close_Ratio_5","Trend_5","Close_Ratio_15","Trend_15","Close_Ratio_30","Trend_30","Close_Ratio_60","Trend_60","Close_Ratio_90","Trend_90","Close_Ratio_250","Trend_250","US_inflation","SE_inflation","US_inflation_75","SE_inflation_75","US_inflation_90","SE_inflation_90","US_inflation_250","SE_inflation_250"],"feature_types":["float","float","float","float","float","float","float","float","float","float","float","float","float","float","float","float","float","float","float","float","float","float"],"gradient_booster":{"model":{"gbtree_model_param":{"num_parallel_tree":"1","num_trees":"75","size_leaf_vector":"0"},"tree_info":[0,0,0,0,0,0,0,0,0,0,0,0,0,0,0,0,0,0,0,0,0,0,0,0,0,0,0,0,0,0,0,0,0,0,0,0,0,0,0,0,0,0,0,0,0,0,0,0,0,0,0,0,0,0,0,0,0,0,0,0,0,0,0,0,0,0,0,0,0,0,0,0,0,0,0],"trees":[{"base_weights":[-4.9840257E-2,3.1268436E-1,-1.495935E-1,6.424242E-1,-0E0,-6.666667E-1,-1.0396476E-1,4.680851E-1,1.4285715E0,-1.2E0,1.4814815E-1,-3.4285715E-1,-1.2727273E0,6.666667E-1,-1.3528337E-1],"categories":[],"categories_nodes":[],"categories_segments":[],"categories_sizes":[],"default_left":[0,0,1,0,1,0,1,0,0,0,0,0,0,0,0],"id":0,"left_children":[1,3,5,7,9,11,13,-1,-1,-1,-1,-1,-1,-1,-1],"loss_changes":[1.4195552E1,8.738107E0,7.1856594E0,4.9848766E0,8.088889E0,4.420779E0,6.9385242E0,0E0,0E0,0E0,0E0,0E0,0E0,0E0,0E0],"parents":[2147483647,0,0,1,1,2,2,3,3,4,4,5,5,6,6],"right_children":[2,4,6,8,10,12,14,-1,-1,-1,-1,-1,-1,-1,-1],"split_conditions":[9.786925E-1,6.3920724E-1,9.836992E-1,4.956703E-1,2.1919355E0,9.8260224E-1,1.6935484E-1,9.361702E-3,2.8571429E-2,-2.4E-2,2.962963E-3,-6.857143E-3,-2.5454544E-2,1.3333334E-2,-2.7056672E-3],"split_indices":[0,5,0,3,14,0,15,0,0,0,0,0,0,0,0],"split_type":[0,0,0,0,0,0,0,0,0,0,0,0,0,0,0],"sum_hessian":[3.9025E2,8.375E1,3.065E2,4.025E1,4.35E1,2.375E1,2.8275E2,3.425E1,6E0,4E0,3.95E1,1.65E1,7.25E0,1.025E1,2.725E2],"tree_param":{"num_deleted":"0","num_feature":"22","num_nodes":"15","size_leaf_vector":"0"}},{"base_weights":[-4.8856303E-2,3.3744007E-1,-1.3889715E-1,7.654699E-1,8.02792E-2,6.997184E-1,-1.6769259E-1,8.850596E-1,-7.96409E-1,-8.002616E-1,3.0689546E-1,2.0723946E-3,1.3059961E0,-4.1167665E-1,-5.831346E-2],"categories":[],"categories_nodes":[],"categories_segments":[],"categories_sizes":[],"default_left":[0,1,0,0,1,0,1,0,0,0,0,0,0,0,0],"id":1,"left_children":[1,3,5,7,9,11,13,-1,-1,-1,-1,-1,-1,-1,-1],"loss_changes":[1.3655331E1,8.111178E0,7.796433E0,5.887945E0,9.723724E0,4.544141E0,8.202121E0,0E0,0E0,0E0,0E0,0E0,0E0,0E0,0E0],"parents":[2147483647,0,0,1,1,2,2,3,3,4,4,5,5,6,6],"right_children":[2,4,6,8,10,12,14,-1,-1,-1,-1,-1,-1,-1,-1],"split_conditions":[9.7563386E-1,2.1092591E0,5.345638E-1,1.3890295E0,2.1919355E0,8.6540353E-1,9.6266365E-1,1.7701192E-2,-1.5928179E-2,-1.6005231E-2,6.1379094E-3,4.1447893E-5,2.6119921E-2,-8.233532E-3,-1.1662692E-3],"split_indices":[0,18,10,1,14,13,4,0,0,0,0,0,0,0,0],"split_type":[0,0,0,0,0,0,0,0,0,0,0,0,0,0,0],"sum_hessian":[3.9024503E2,7.324767E1,3.1699734E2,2.6748941E1,4.649873E1,9.749881E0,3.0724747E2,2.5249016E1,1.4999257E0,8.999375E0,3.749935E1,4.9998975E0,4.7499833E0,9.42491E1,2.1299837E2],"tree_param":{"num_deleted":"0","num_feature":"22","num_nodes":"15","size_leaf_vector":"0"}},{"base_weights":[-4.7858156E-2,3.0109197E-1,-1.4386863E-1,6.225827E-1,-3.6544024E-3,-1.2437451E-1,-1.3602031E0,4.5099378E-1,1.3978456E0,-1.1711524E0,1.4053395E-1,-2.0250528E-1,1.5472975E-1],"categories":[],"categories_nodes":[],"categories_segments":[],"categories_sizes":[],"default_left":[0,0,0,0,1,1,0,0,0,0,0,0,0],"id":2,"left_children":[1,3,5,7,9,11,-1,-1,-1,-1,-1,-1,-1],"loss_changes":[1.3150817E1,8.304646E0,7.1219263E0,4.8560696E0,7.6553164E0,6.6549683E0,0E0,0E0,0E0,0E0,0E0,0E0,0E0],"parents":[2147483647,0,0,1,1,2,2,3,3,4,4,5,5],"right_children":[2,4,6,8,10,12,-1,-1,-1,-1,-1,-1,-1],"split_conditions":[9.786925E-1,6.3920724E-1,1.8390431E0,4.956703E-1,2.1919355E0,2.9048388E0,-2.7204063E-2,9.019875E-3,2.7956912E-2,-2.3423046E-2,2.810679E-3,-4.0501053E-3,3.094595E-3],"split_indices":[0,5,5,3,14,14,0,0,0,0,0,0,0],"split_type":[0,0,0,0,0,0,0,0,0,0,0,0,0],"sum_hessian":[3.902352E2,8.37413E1,3.064939E2,4.0243584E1,4.3497723E1,3.0274408E2,3.7498064E0,3.4245712E1,5.9978714E0,3.9985938E0,3.9499126E1,2.3674544E2,6.599865E1],"tree_param":{"num_deleted":"0","num_feature":"22","num_nodes":"13","size_leaf_vector":"0"}},{"base_weights":[-4.693277E-2,2.9530013E-1,-1.4108486E-1,6.111425E-1,-4.0452126E-3,-1.218914E-1,-1.3390756E0,4.4227323E-1,1.3747199E0,-1.1529404E0,1.3779455E-1,-1.9847517E-1,1.5168037E-1],"categories":[],"categories_nodes":[],"categories_segments":[],"categories_sizes":[],"default_left":[0,0,0,0,1,1,0,0,0,0,0,0,0],"id":3,"left_children":[1,3,5,7,9,11,-1,-1,-1,-1,-1,-1,-1],"loss_changes":[1.2647541E1,8.013434E0,6.9070625E0,4.709155E0,7.409723E0,6.393826E0,0E0,0E0,0E0,0E0,0E0,0E0,0E0],"parents":[2147483647,0,0,1,1,2,2,3,3,4,4,5,5],"right_children":[2,4,6,8,10,12,-1,-1,-1,-1,-1,-1,-1],"split_conditions":[9.786925E-1,6.3920724E-1,1.8390431E0,4.956703E-1,2.1919355E0,2.9048388E0,-2.678151E-2,8.845464E-3,2.7494397E-2,-2.3058807E-2,2.755891E-3,-3.969503E-3,3.0336073E-3],"split_indices":[0,5,5,3,14,14,0,0,0,0,0,0,0],"split_type":[0,0,0,0,0,0,0,0,0,0,0,0,0],"sum_hessian":[3.9022028E2,8.3730896E1,3.0648935E2,4.0235943E1,4.3494953E1,3.0274078E2,3.7485785E0,3.424229E1,5.9936547E0,3.9963384E0,3.9498615E1,2.3674173E2,6.5999054E1],"tree_param":{"num_deleted":"0","num_feature":"22","num_nodes":"13","size_leaf_vector":"0"}},{"base_weights":[-4.602676E-2,3.1925884E-1,-1.31142E-1,7.328236E-1,7.101722E-2,6.898399E-1,-1.5934543E-1,8.4901315E-1,-7.8006434E-1,-7.865465E-1,2.918285E-1,6.078878E-3,1.2833724E0,1.5964098E-1,-2.4153012E-1],"categories":[],"categories_nodes":[],"categories_segments":[],"categories_sizes":[],"default_left":[0,1,0,0,1,0,0,0,0,0,0,0,0,0,0],"id":4,"left_children":[1,3,5,7,9,11,13,-1,-1,-1,-1,-1,-1,-1,-1],"loss_changes":[1.2204726E1,7.567505E0,7.472567E0,5.5370216E0,9.221577E0,4.354296E0,8.119066E0,0E0,0E0,0E0,0E0,0E0,0E0,0E0,0E0],"parents":[2147483647,0,0,1,1,2,2,3,3,4,4,5,5,6,6],"right_children":[2,4,6,8,10,12,14,-1,-1,-1,-1,-1,-1,-1,-1],"split_conditions":[9.7563386E-1,2.1092591E0,5.345638E-1,1.3890295E0,2.1919355E0,8.6540353E-1,2.539212E-1,1.6980262E-2,-1.5601287E-2,-1.573093E-2,5.83657E-3,1.21577556E-4,2.5667448E-2,3.1928197E-3,-4.830602E-3],"split_indices":[0,18,10,1,14,13,9,0,0,0,0,0,0,0,0],"split_type":[0,0,0,0,0,0,0,0,0,0,0,0,0,0,0],"sum_hessian":[3.901972E2,7.32183E1,3.169789E2,2.6731758E1,4.648654E1,9.7484665E0,3.0723044E2,2.5232704E1,1.4990541E0,8.994105E0,3.749244E1,4.9993544E0,4.749112E0,6.274675E1,2.4448369E2],"tree_param":{"num_deleted":"0","num_feature":"22","num_nodes":"15","size_leaf_vector":"0"}},{"base_weights":[-4.5068998E-2,3.1283155E-1,-1.2844695E-1,7.185498E-1,6.939468E-2,6.785926E-1,-1.5616743E-1,8.3307236E-1,-7.7085704E-1,-7.725179E-1,2.8616285E-1,5.9774076E-3,1.2626888E0,-3.952092E-1,-4.9050625E-2],"categories":[],"categories_nodes":[],"categories_segments":[],"categories_sizes":[],"default_left":[0,1,0,0,1,0,1,0,0,0,0,0,0,0,0],"id":5,"left_children":[1,3,5,7,9,11,13,-1,-1,-1,-1,-1,-1,-1,-1],"loss_changes":[1.17131195E1,7.278768E0,7.2194376E0,5.3702374E0,8.886587E0,4.214304E0,7.8727937E0,0E0,0E0,0E0,0E0,0E0,0E0,0E0,0E0],"parents":[2147483647,0,0,1,1,2,2,3,3,4,4,5,5,6,6],"right_children":[2,4,6,8,10,12,14,-1,-1,-1,-1,-1,-1,-1,-1],"split_conditions":[9.7563386E-1,2.1092591E0,5.345638E-1,1.3890295E0,2.1919355E0,8.6540353E-1,9.6266365E-1,1.6661447E-2,-1.541714E-2,-1.5450358E-2,5.723257E-3,1.19548145E-4,2.5253775E-2,-7.904184E-3,-9.810125E-4],"split_indices":[0,18,10,1,14,13,4,0,0,0,0,0,0,0,0],"split_type":[0,0,0,0,0,0,0,0,0,0,0,0,0,0,0],"sum_hessian":[3.9017087E2,7.3201385E1,3.1696948E2,2.6719044E1,4.648234E1,9.746125E0,3.0722336E2,2.5220474E1,1.4985691E0,8.992458E0,3.7489883E1,4.9993563E0,4.746769E0,9.423628E1,2.1298709E2],"tree_param":{"num_deleted":"0","num_feature":"22","num_nodes":"15","size_leaf_vector":"0"}},{"base_weights":[-4.415086E-2,2.791928E-1,-1.3305826E-1,5.850316E-1,-1.0335506E-2,-6.3904935E-1,-8.846228E-2,4.18573E-1,1.3408026E0,-1.1169415E0,1.2623051E-1,-3.223369E-1,-1.2335912E0,1.411227E-1,-1.932446E-1],"categories":[],"categories_nodes":[],"categories_segments":[],"categories_sizes":[],"default_left":[0,0,1,0,1,0,0,0,0,0,0,0,0,0,0],"id":6,"left_children":[1,3,5,7,9,11,13,-1,-1,-1,-1,-1,-1,-1,-1],"loss_changes":[1.1281358E1,7.5040383E0,6.8813276E0,4.6213684E0,6.8631153E0,4.2613726E0,6.8524737E0,0E0,0E0,0E0,0E0,0E0,0E0,0E0,0E0],"parents":[2147483647,0,0,1,1,2,2,3,3,4,4,5,5,6,6],"right_children":[2,4,6,8,10,12,14,-1,-1,-1,-1,-1,-1,-1,-1],"split_conditions":[9.786925E-1,6.3920724E-1,9.836992E-1,4.956703E-1,2.1919355E0,9.8260224E-1,9.9933267E-1,8.371459E-3,2.681605E-2,-2.2338828E-2,2.5246101E-3,-6.4467383E-3,-2.4671823E-2,2.8224539E-3,-3.864892E-3],"split_indices":[0,5,0,3,14,0,0,0,0,0,0,0,0,0,0],"split_type":[0,0,0,0,0,0,0,0,0,0,0,0,0,0,0],"sum_hessian":[3.9013495E2,8.36762E1,3.0645877E2,4.0195576E1,4.348062E1,2.3742617E1,2.8271613E2,3.4213814E1,5.9817615E0,3.9878635E0,3.949276E1,1.6496887E1,7.24573E0,8.848746E1,1.9422868E2],"tree_param":{"num_deleted":"0","num_feature":"22","num_nodes":"15","size_leaf_vector":"0"}},{"base_weights":[-4.331455E-2,2.7386934E-1,-1.3050644E-1,5.744338E-1,-1.0577047E-2,-1.11676484E-1,-1.3084853E0,4.1053298E-1,1.3196596E0,-1.1002544E0,1.237719E-1,-1.8695559E-1,1.5710373E-1],"categories":[],"categories_nodes":[],"categories_segments":[],"categories_sizes":[],"default_left":[0,0,0,0,1,1,0,0,0,0,0,0,0],"id":7,"left_children":[1,3,5,7,9,11,-1,-1,-1,-1,-1,-1,-1],"loss_changes":[1.0851964E1,7.24337E0,6.673471E0,4.4878473E0,6.647066E0,6.174384E0,0E0,0E0,0E0,0E0,0E0,0E0,0E0],"parents":[2147483647,0,0,1,1,2,2,3,3,4,4,5,5],"right_children":[2,4,6,8,10,12,-1,-1,-1,-1,-1,-1,-1],"split_conditions":[9.786925E-1,6.3920724E-1,1.8390431E0,4.956703E-1,2.1919355E0,2.9048388E0,-2.6169704E-2,8.210659E-3,2.6393192E-2,-2.2005089E-2,2.475438E-3,-3.7391116E-3,3.1420747E-3],"split_indices":[0,5,5,3,14,14,0,0,0,0,0,0,0],"split_type":[0,0,0,0,0,0,0,0,0,0,0,0,0],"sum_hessian":[3.901005E2,8.365219E1,3.064483E2,4.017802E1,4.347417E1,3.027044E2,3.743916E0,3.420586E1,5.972162E0,3.982597E0,3.9491573E1,2.3671144E2,6.599296E1],"tree_param":{"num_deleted":"0","num_feature":"22","num_nodes":"13","size_leaf_vector":"0"}},{"base_weights":[-4.2482592E-2,2.9613125E-1,-1.2130373E-1,6.8865895E-1,6.097454E-2,6.7008626E-1,-1.4849235E-1,8.0006206E-1,-7.5541884E-1,-7.5954384E-1,2.722462E-1,9.548638E-3,1.2433107E0,1.6477378E-1,-2.2924389E-1],"categories":[],"categories_nodes":[],"categories_segments":[],"categories_sizes":[],"default_left":[0,1,0,0,1,0,0,0,0,0,0,0,0,0,0],"id":8,"left_children":[1,3,5,7,9,11,13,-1,-1,-1,-1,-1,-1,-1,-1],"loss_changes":[1.0473245E1,6.8007336E0,6.9402795E0,5.056674E0,8.433344E0,4.0551248E0,7.833872E0,0E0,0E0,0E0,0E0,0E0,0E0,0E0,0E0],"parents":[2147483647,0,0,1,1,2,2,3,3,4,4,5,5,6,6],"right_children":[2,4,6,8,10,12,14,-1,-1,-1,-1,-1,-1,-1,-1],"split_conditions":[9.7563386E-1,2.1092591E0,5.345638E-1,1.3890295E0,2.1919355E0,8.6540353E-1,2.539212E-1,1.6001241E-2,-1.5108377E-2,-1.5190876E-2,5.444924E-3,1.9097276E-4,2.4866214E-2,3.2954754E-3,-4.5848778E-3],"split_indices":[0,18,10,1,14,13,9,0,0,0,0,0,0,0,0],"split_type":[0,0,0,0,0,0,0,0,0,0,0,0,0,0,0],"sum_hessian":[3.9005853E2,7.313126E1,3.1692728E2,2.6675516E1,4.645575E1,9.741172E0,3.071861E2,2.5179052E1,1.4964638E0,8.981005E0,3.7474743E1,4.9982495E0,4.7429223E0,6.274269E1,2.444434E2],"tree_param":{"num_deleted":"0","num_feature":"22","num_nodes":"15","size_leaf_vector":"0"}},{"base_weights":[-4.1599568E-2,2.9021257E-1,-1.18809566E-1,6.754831E-1,5.955952E-2,6.5934163E-1,-1.4553288E-1,7.853376E-1,-7.466471E-1,-7.461525E-1,2.669738E-1,9.389499E-3,1.2238921E0,-3.8019887E-1,-4.043159E-2],"categories":[],"categories_nodes":[],"categories_segments":[],"categories_sizes":[],"default_left":[0,1,0,0,1,0,1,0,0,0,0,0,0,0,0],"id":9,"left_children":[1,3,5,7,9,11,13,-1,-1,-1,-1,-1,-1,-1,-1],"loss_changes":[1.0051834E1,6.5446014E0,6.706806E0,4.9064646E0,8.128472E0,3.9278712E0,7.5853176E0,0E0,0E0,0E0,0E0,0E0,0E0,0E0,0E0],"parents":[2147483647,0,0,1,1,2,2,3,3,4,4,5,5,6,6],"right_children":[2,4,6,8,10,12,14,-1,-1,-1,-1,-1,-1,-1,-1],"split_conditions":[9.7563386E-1,2.1092591E0,5.345638E-1,1.3890295E0,2.1919355E0,8.6540353E-1,9.6266365E-1,1.5706751E-2,-1.4932942E-2,-1.492305E-2,5.339476E-3,1.8778998E-4,2.4477841E-2,-7.6039773E-3,-8.0863177E-4],"split_indices":[0,18,10,1,14,13,4,0,0,0,0,0,0,0,0],"split_type":[0,0,0,0,0,0,0,0,0,0,0,0,0,0,0],"sum_hessian":[3.900094E2,7.310025E1,3.1690912E2,2.6652601E1,4.644765E1,9.735983E0,3.0717316E2,2.5157082E1,1.495521E0,8.977329E0,3.747032E1,4.998255E0,4.7377276E0,9.420918E1,2.1296396E2],"tree_param":{"num_deleted":"0","num_feature":"22","num_nodes":"15","size_leaf_vector":"0"}},{"base_weights":[-4.0754054E-2,2.5904655E-1,-1.23088896E-1,5.504115E-1,-1.6241973E-2,-6.195924E-1,-7.937204E-2,3.8869175E-1,1.2890598E0,-1.1704361E0,1.0243302E-1,-3.0895236E-1,-1.2040324E0,1.4701127E-1,-1.82738E-1],"categories":[],"categories_nodes":[],"categories_segments":[],"categories_sizes":[],"default_left":[0,0,1,0,1,0,0,0,0,0,0,0,0,0,0],"id":10,"left_children":[1,3,5,7,9,11,13,-1,-1,-1,-1,-1,-1,-1,-1],"loss_changes":[9.682157E0,6.7911716E0,6.6230135E0,4.4094048E0,6.208258E0,4.117531E0,6.664757E0,0E0,0E0,0E0,0E0,0E0,0E0,0E0,0E0],"parents":[2147483647,0,0,1,1,2,2,3,3,4,4,5,5,6,6],"right_children":[2,4,6,8,10,12,14,-1,-1,-1,-1,-1,-1,-1,-1],"split_conditions":[9.786925E-1,6.3920724E-1,9.836992E-1,4.956703E-1,2.167742E0,9.8260224E-1,9.9933267E-1,7.7738347E-3,2.5781194E-2,-2.3408722E-2,2.0486603E-3,-6.1790473E-3,-2.4080647E-2,2.9402252E-3,-3.65476E-3],"split_indices":[0,5,0,3,14,0,0,0,0,0,0,0,0,0,0],"split_type":[0,0,0,0,0,0,0,0,0,0,0,0,0,0,0],"sum_hessian":[3.899519E2,8.355654E1,3.0639536E2,4.0107464E1,4.344908E1,2.372877E1,2.826666E2,3.4155643E1,5.951822E0,3.2246504E0,4.022443E1,1.6491747E1,7.237023E0,8.847468E1,1.9419193E2],"tree_param":{"num_deleted":"0","num_feature":"22","num_nodes":"15","size_leaf_vector":"0"}},{"base_weights":[-3.9992128E-2,2.5411353E-1,-1.2073478E-1,3.148266E-1,-9.7447014E-1,-1.02258734E-1,-1.2797315E0,1.9365514E-2,6.7434955E-1,-1.2757415E0,-1.3704571E-1,-1.762687E-1,1.6186649E-1],"categories":[],"categories_nodes":[],"categories_segments":[],"categories_sizes":[],"default_left":[0,0,0,0,1,1,0,0,0,0,0,0,0],"id":11,"left_children":[1,3,5,7,9,11,-1,-1,-1,-1,-1,-1,-1],"loss_changes":[9.313366E0,6.611423E0,6.4512477E0,8.62285E0,8.909373E-1,5.964104E0,0E0,0E0,0E0,0E0,0E0,0E0,0E0],"parents":[2147483647,0,0,1,1,2,2,3,3,4,4,5,5],"right_children":[2,4,6,8,10,12,-1,-1,-1,-1,-1,-1,-1],"split_conditions":[9.786925E-1,1.8795037E0,1.8390431E0,9.225964E-1,2.0326E0,2.9048388E0,-2.559463E-2,3.8731025E-4,1.3486991E-2,-2.5514828E-2,-2.7409142E-3,-3.5253738E-3,3.2373297E-3],"split_indices":[0,8,5,6,21,14,0,0,0,0,0,0,0],"split_type":[0,0,0,0,0,0,0,0,0,0,0,0,0],"sum_hessian":[3.8990143E2,8.35226E1,3.0637885E2,8.029824E1,3.2243614E0,3.0264252E2,3.7363193E0,4.465444E1,3.5643795E1,1.9863443E0,1.238017E0,2.366609E2,6.5981606E1],"tree_param":{"num_deleted":"0","num_feature":"22","num_nodes":"13","size_leaf_vector":"0"}},{"base_weights":[-3.9299607E-2,2.7441537E-1,-1.12225175E-1,3.8415378E-1,-4.69305E-1,6.518653E-1,-1.3846627E-1,8.165749E-2,7.7204424E-1,-1.3743042E0,-2.8176615E-2,1.3691748E-2,1.205908E0,1.6912511E-1,-2.1779767E-1],"categories":[],"categories_nodes":[],"categories_segments":[],"categories_sizes":[],"default_left":[0,0,0,0,0,0,0,0,0,0,0,0,0,0,0],"id":12,"left_children":[1,3,5,7,9,11,13,-1,-1,-1,-1,-1,-1,-1,-1],"loss_changes":[8.972795E0,6.2207036E0,6.4632783E0,7.5690184E0,3.9401345E0,3.776844E0,7.5554376E0,0E0,0E0,0E0,0E0,0E0,0E0,0E0,0E0],"parents":[2147483647,0,0,1,1,2,2,3,3,4,4,5,5,6,6],"right_children":[2,4,6,8,10,12,14,-1,-1,-1,-1,-1,-1,-1,-1],"split_conditions":[9.7563386E-1,1.3978395E0,5.345638E-1,9.223845E-1,1.5731393E0,8.6540353E-1,2.539212E-1,1.6331498E-3,1.5440884E-2,-2.7486082E-2,-5.635323E-4,2.7383494E-4,2.4118159E-2,3.3825021E-3,-4.355953E-3],"split_indices":[0,1,10,6,3,13,9,0,0,0,0,0,0,0,0],"split_type":[0,0,0,0,0,0,0,0,0,0,0,0,0,0,0],"sum_hessian":[3.898585E2,7.301139E1,3.168471E2,6.404483E1,8.966558E0,9.728562E0,3.0711853E2,3.66634E1,2.738143E1,2.2451274E0,6.721431E0,4.9972253E0,4.7313375E0,6.273694E1,2.443816E2],"tree_param":{"num_deleted":"0","num_feature":"22","num_nodes":"15","size_leaf_vector":"0"}},{"base_weights":[-3.848657E-2,2.6762465E-1,-1.1021471E-1,6.533259E-1,3.6871415E-2,-9.2553586E-2,-1.2580845E0,7.943238E-1,-4.7207546E-1,-7.688383E-1,2.499981E-1,6.4157254E-1,-1.1814936E-1],"categories":[],"categories_nodes":[],"categories_segments":[],"categories_sizes":[],"default_left":[0,1,0,0,1,0,0,0,0,0,0,0,0],"id":13,"left_children":[1,3,5,7,9,11,-1,-1,-1,-1,-1,-1,-1],"loss_changes":[8.6103115E0,6.6048675E0,6.316557E0,4.7894697E0,8.376458E0,5.96841E0,0E0,0E0,0E0,0E0,0E0,0E0,0E0],"parents":[2147483647,0,0,1,1,2,2,3,3,4,4,5,5],"right_children":[2,4,6,8,10,12,-1,-1,-1,-1,-1,-1,-1],"split_conditions":[9.7575015E-1,2.1092591E0,1.8390431E0,1.1147296E0,2.1919355E0,5.345638E-1,-2.5161691E-2,1.5886476E-2,-9.441509E-3,-1.5376765E-2,4.9999617E-3,1.283145E-2,-2.3629873E-3],"split_indices":[0,18,5,4,14,10,0,0,0,0,0,0,0],"split_type":[0,0,0,0,0,0,0,0,0,0,0,0,0],"sum_hessian":[3.8980466E2,7.348113E1,3.1632352E2,2.6820208E1,4.6660927E1,3.1259457E2,3.7289495E0,2.4095541E1,2.724666E0,9.215392E0,3.7445534E1,9.720827E0,3.0287372E2],"tree_param":{"num_deleted":"0","num_feature":"22","num_nodes":"13","size_leaf_vector":"0"}},{"base_weights":[-3.7770282E-2,2.3982564E-1,-1.1391212E-1,5.210354E-1,-2.5222534E-2,-6.016204E-1,-7.101909E-2,3.6165434E-1,1.2537006E0,-1.1414346E0,8.941741E-2,-2.969859E-1,-1.1761764E0,1.5155466E-1,-1.7269121E-1],"categories":[],"categories_nodes":[],"categories_segments":[],"categories_sizes":[],"default_left":[0,0,1,0,1,0,0,0,0,0,0,0,0,0,0],"id":14,"left_children":[1,3,5,7,9,11,13,-1,-1,-1,-1,-1,-1,-1,-1],"loss_changes":[8.286266E0,6.3059597E0,6.386015E0,4.335634E0,5.7857885E0,3.975461E0,6.4439774E0,0E0,0E0,0E0,0E0,0E0,0E0,0E0,0E0],"parents":[2147483647,0,0,1,1,2,2,3,3,4,4,5,5,6,6],"right_children":[2,4,6,8,10,12,14,-1,-1,-1,-1,-1,-1,-1,-1],"split_conditions":[9.786925E-1,6.3920724E-1,9.836992E-1,4.956703E-1,2.167742E0,9.8260224E-1,9.9933267E-1,7.2330865E-3,2.5074013E-2,-2.282869E-2,1.7883482E-3,-5.939718E-3,-2.3523528E-2,3.0310932E-3,-3.4538242E-3],"split_indices":[0,5,0,3,14,0,0,0,0,0,0,0,0,0,0],"split_type":[0,0,0,0,0,0,0,0,0,0,0,0,0,0,0],"sum_hessian":[3.897404E2,8.3428665E1,3.0631174E2,4.001155E1,4.341711E1,2.3708784E1,2.8260294E2,3.4089478E1,5.9220734E0,3.2095985E0,4.020751E1,1.6485126E1,7.223657E0,8.846052E1,1.9414243E2],"tree_param":{"num_deleted":"0","num_feature":"22","num_nodes":"15","size_leaf_vector":"0"}},{"base_weights":[-3.706852E-2,2.579263E-1,-1.0612924E-1,6.343948E-1,3.3045158E-2,-8.876185E-2,-1.2374595E0,7.72897E-1,-4.679645E-1,-7.562936E-1,2.417697E-1,6.317091E-1,-1.1387959E-1],"categories":[],"categories_nodes":[],"categories_segments":[],"categories_sizes":[],"default_left":[0,1,0,0,1,0,0,0,0,0,0,0,0],"id":15,"left_children":[1,3,5,7,9,11,-1,-1,-1,-1,-1,-1,-1],"loss_changes":[7.986469E0,6.277988E0,6.1240597E0,4.6013756E0,8.030716E0,5.746226E0,0E0,0E0,0E0,0E0,0E0,0E0,0E0],"parents":[2147483647,0,0,1,1,2,2,3,3,4,4,5,5],"right_children":[2,4,6,8,10,12,-1,-1,-1,-1,-1,-1,-1],"split_conditions":[9.7575015E-1,2.1092591E0,1.8390431E0,1.1147296E0,2.1919355E0,5.345638E-1,-2.474919E-2,1.5457939E-2,-9.35929E-3,-1.5125872E-2,4.8353937E-3,1.2634181E-2,-2.2775917E-3],"split_indices":[0,18,5,4,14,10,0,0,0,0,0,0,0],"split_type":[0,0,0,0,0,0,0,0,0,0,0,0,0],"sum_hessian":[3.896773E2,7.3402336E1,3.1627496E2,2.6768599E1,4.663374E1,3.125553E2,3.719671E0,2.4046259E1,2.7223406E0,9.203862E0,3.742988E1,9.715938E0,3.0283936E2],"tree_param":{"num_deleted":"0","num_feature":"22","num_nodes":"13","size_leaf_vector":"0"}},{"base_weights":[-3.6381084E-2,2.3094828E-1,-1.09642565E-1,5.064069E-1,-2.8309913E-2,-5.88801E-1,-6.753466E-2,3.4928572E-1,1.2311795E0,-1.1193162E0,8.35025E-2,-3.5599166E-1,-1.3413306E0,6.733858E-1,-9.778291E-2],"categories":[],"categories_nodes":[],"categories_segments":[],"categories_sizes":[],"default_left":[0,0,1,0,1,0,1,0,0,0,0,0,0,0,0],"id":16,"left_children":[1,3,5,7,9,11,13,-1,-1,-1,-1,-1,-1,-1,-1],"loss_changes":[7.6753044E0,6.03758E0,6.159698E0,4.232786E0,5.5091853E0,3.8482943E0,6.4211416E0,0E0,0E0,0E0,0E0,0E0,0E0,0E0,0E0],"parents":[2147483647,0,0,1,1,2,2,3,3,4,4,5,5,6,6],"right_children":[2,4,6,8,10,12,14,-1,-1,-1,-1,-1,-1,-1,-1],"split_conditions":[9.786925E-1,6.3920724E-1,9.836992E-1,4.956703E-1,2.167742E0,9.8311925E-1,1.6935484E-1,6.985714E-3,2.462359E-2,-2.2386324E-2,1.67005E-3,-7.119833E-3,-2.6826613E-2,1.3467716E-2,-1.9556582E-3],"split_indices":[0,5,0,3,14,0,15,0,0,0,0,0,0,0,0],"split_type":[0,0,0,0,0,0,0,0,0,0,0,0,0,0,0],"sum_hessian":[3.8960522E2,8.3341545E1,3.0626367E2,3.994606E1,4.339549E1,2.3691202E1,2.8257248E2,3.4047035E1,5.899027E0,3.1963673E0,4.019912E1,1.9218618E1,4.4725857E0,1.0249616E1,2.7232285E2],"tree_param":{"num_deleted":"0","num_feature":"22","num_nodes":"15","size_leaf_vector":"0"}},{"base_weights":[-3.5689272E-2,2.4860908E-1,-1.0217901E-1,6.161601E-1,2.9424708E-2,1.726524E-1,-1.7059824E-1,7.5225693E-1,-4.638458E-1,-7.44029E-1,2.3385282E-1,2.9094398E-1,-6.040786E-1,-8.222874E-1,-1.264023E-1],"categories":[],"categories_nodes":[],"categories_segments":[],"categories_sizes":[],"default_left":[0,1,0,0,1,0,1,0,0,0,0,0,0,0,0],"id":17,"left_children":[1,3,5,7,9,11,13,-1,-1,-1,-1,-1,-1,-1,-1],"loss_changes":[7.4076633E0,5.968783E0,5.9943905E0,4.4220963E0,7.700856E0,6.031103E0,7.225966E0,0E0,0E0,0E0,0E0,0E0,0E0,0E0,0E0],"parents":[2147483647,0,0,1,1,2,2,3,3,4,4,5,5,6,6],"right_children":[2,4,6,8,10,12,14,-1,-1,-1,-1,-1,-1,-1,-1],"split_conditions":[9.7575015E-1,2.1092591E0,2.539212E-1,1.1147296E0,2.1919355E0,1.4782631E0,2.607901E-1,1.5045138E-2,-9.276915E-3,-1.4880579E-2,4.6770563E-3,5.8188797E-3,-1.2081572E-2,-1.6445747E-2,-2.528046E-3],"split_indices":[0,18,9,4,14,10,11,0,0,0,0,0,0,0,0],"split_type":[0,0,0,0,0,0,0,0,0,0,0,0,0,0,0],"sum_hessian":[3.895354E2,7.331488E1,3.1622052E2,2.6711363E1,4.660352E1,6.2727722E1,2.534928E2,2.3991539E1,2.7198226E0,9.190752E0,3.741277E1,5.498001E1,7.747709E0,1.4981297E1,2.3851149E2],"tree_param":{"num_deleted":"0","num_feature":"22","num_nodes":"15","size_leaf_vector":"0"}},{"base_weights":[-3.5057373E-2,1.0031967E-1,-1.7012112E-1,2.106999E-1,-3.2548428E-1,-9.947344E-1,-1.07415795E-1,2.9654336E-1,-1.6485943E-1,-4.8743936E-1,2.776536E-1,-1.1872838E0,2.0764022E-1,-2.0422852E-1,3.435943E-1],"categories":[],"categories_nodes":[],"categories_segments":[],"categories_sizes":[],"default_left":[0,1,1,0,0,1,1,0,0,0,0,0,0,0,0],"id":18,"left_children":[1,3,5,7,9,11,13,-1,-1,-1,-1,-1,-1,-1,-1],"loss_changes":[7.1565557E0,9.263535E0,1.0019066E1,5.0772157E0,4.10775E0,3.4224567E0,8.0654955E0,0E0,0E0,0E0,0E0,0E0,0E0,0E0,0E0],"parents":[2147483647,0,0,1,1,2,2,3,3,4,4,5,5,6,6],"right_children":[2,4,6,8,10,12,14,-1,-1,-1,-1,-1,-1,-1,-1],"split_conditions":[9.9933267E-1,2.2272317E0,9.5844597E-1,1.1062679E0,9.99004E-1,1.3141749E0,5.1514664E0,5.930867E-3,-3.2971886E-3,-9.748787E-3,5.553072E-3,-2.3745675E-2,4.152804E-3,-4.0845703E-3,6.871886E-3],"split_indices":[0,19,2,5,2,11,16,0,0,0,0,0,0,0,0],"split_type":[0,0,0,0,0,0,0,0,0,0,0,0,0,0,0],"sum_hessian":[3.894661E2,1.9463593E2,1.9483015E2,1.5496886E2,3.9667072E1,1.2717936E1,1.8211223E2,1.26308334E2,2.8660522E1,3.1421556E1,8.245516E0,1.0973224E1,1.744711E0,1.5037933E2,3.1732885E1],"tree_param":{"num_deleted":"0","num_feature":"22","num_nodes":"15","size_leaf_vector":"0"}},{"base_weights":[-3.4406964E-2,2.4795806E-1,-9.797397E-2,6.340947E-1,2.6435494E-2,-8.10887E-2,-1.2103809E0,7.999505E-1,-2.8869775E-1,1.9527957E-1,-9.684594E-1,6.258965E-1,-1.0557113E-1],"categories":[],"categories_nodes":[],"categories_segments":[],"categories_sizes":[],"default_left":[0,1,0,0,0,0,0,0,0,0,0,0,0],"id":19,"left_children":[1,3,5,7,9,11,-1,-1,-1,-1,-1,-1,-1],"loss_changes":[7.032124E0,6.144248E0,5.901262E0,4.2429857E0,8.052827E0,5.5303936E0,0E0,0E0,0E0,0E0,0E0,0E0,0E0],"parents":[2147483647,0,0,1,1,2,2,3,3,4,4,5,5],"right_children":[2,4,6,8,10,12,-1,-1,-1,-1,-1,-1,-1],"split_conditions":[9.7503763E-1,1.9735193E0,1.8390431E0,1.3903226E0,1.2694478E0,5.345638E-1,-2.4207618E-2,1.599901E-2,-5.773955E-3,3.9055913E-3,-1.9369189E-2,1.251793E-2,-2.1114226E-3],"split_indices":[0,20,5,1,10,10,0,0,0,0,0,0,0],"split_type":[0,0,0,0,0,0,0,0,0,0,0,0,0],"sum_hessian":[3.8942795E2,7.102661E1,3.1840134E2,2.5213844E1,4.5812767E1,3.1469742E2,3.7039113E0,2.148535E1,3.728495E0,3.9853012E1,5.9597545E0,9.710809E0,3.049866E2],"tree_param":{"num_deleted":"0","num_feature":"22","num_nodes":"13","size_leaf_vector":"0"}},{"base_weights":[-3.377369E-2,2.1736546E-1,-1.024899E-1,2.735524E-1,-9.2010653E-1,-5.7613766E-1,-6.091597E-2,-8.463435E-3,6.1824834E-1,-1.2297748E0,-9.239611E-2,-2.8171185E-1,-1.1338062E0,6.596472E-1,-9.035734E-2],"categories":[],"categories_nodes":[],"categories_segments":[],"categories_sizes":[],"default_left":[0,0,1,0,1,0,1,0,0,0,0,0,0,0,0],"id":20,"left_children":[1,3,5,7,9,11,13,-1,-1,-1,-1,-1,-1,-1,-1],"loss_changes":[6.758711E0,5.6318436E0,6.013514E0,7.878256E0,9.6077394E-1,3.7308407E0,6.0739293E0,0E0,0E0,0E0,0E0,0E0,0E0,0E0,0E0],"parents":[2147483647,0,0,1,1,2,2,3,3,4,4,5,5,6,6],"right_children":[2,4,6,8,10,12,14,-1,-1,-1,-1,-1,-1,-1,-1],"split_conditions":[9.786925E-1,1.8795037E0,9.836992E-1,9.225964E-1,2.0326E0,9.8260224E-1,1.6935484E-1,-1.692687E-4,1.2364967E-2,-2.4595495E-2,-1.8479222E-3,-5.6342366E-3,-2.2676123E-2,1.3192944E-2,-1.8071468E-3],"split_indices":[0,8,0,6,21,0,15,0,0,0,0,0,0,0,0],"split_type":[0,0,0,0,0,0,0,0,0,0,0,0,0,0,0],"sum_hessian":[3.8935196E2,8.318179E1,3.0617017E2,7.999009E1,3.1917076E0,2.3667742E1,2.825024E2,4.453162E1,3.5458466E1,1.9692167E0,1.2224908E0,1.647486E1,7.1928816E0,1.024934E1,2.7225308E2],"tree_param":{"num_deleted":"0","num_feature":"22","num_nodes":"15","size_leaf_vector":"0"}},{"base_weights":[-3.318374E-2,9.766366E-2,-1.6368462E-1,2.0560718E-1,-3.185435E-1,-9.7246146E-1,-1.0226982E-1,2.883744E-1,-1.5653157E-1,-4.7766584E-1,2.7382326E-1,-1.1620858E0,2.0822693E-1,-1.9728695E-1,3.4018344E-1],"categories":[],"categories_nodes":[],"categories_segments":[],"categories_sizes":[],"default_left":[0,1,1,0,0,1,1,0,0,0,0,0,0,0,0],"id":21,"left_children":[1,3,5,7,9,11,13,-1,-1,-1,-1,-1,-1,-1,-1],"loss_changes":[6.6803946E0,8.849174E0,9.624884E0,4.716612E0,3.9629521E0,3.3091354E0,7.7637424E0,0E0,0E0,0E0,0E0,0E0,0E0,0E0,0E0],"parents":[2147483647,0,0,1,1,2,2,3,3,4,4,5,5,6,6],"right_children":[2,4,6,8,10,12,14,-1,-1,-1,-1,-1,-1,-1,-1],"split_conditions":[9.9933267E-1,2.2272317E0,9.5844597E-1,1.1062679E0,9.99004E-1,1.3141749E0,5.1514664E0,5.767488E-3,-3.1306313E-3,-9.553317E-3,5.476465E-3,-2.3241716E-2,4.164539E-3,-3.945739E-3,6.8036686E-3],"split_indices":[0,19,2,5,2,11,16,0,0,0,0,0,0,0,0],"split_type":[0,0,0,0,0,0,0,0,0,0,0,0,0,0,0],"sum_hessian":[3.8928607E2,1.945106E2,1.9477547E2,1.548549E2,3.9655693E1,1.2699559E1,1.8207591E2,1.2621258E2,2.8642328E1,3.141152E1,8.244174E0,1.0955765E1,1.7437937E0,1.5034363E2,3.1732288E1],"tree_param":{"num_deleted":"0","num_feature":"22","num_nodes":"15","size_leaf_vector":"0"}},{"base_weights":[-3.256981E-2,2.3778698E-1,-9.337011E-2,6.128585E-1,2.3144832E-2,-7.6826856E-2,-1.1873195E0,7.749149E-1,-2.8553936E-1,1.8871413E-1,-9.524356E-1,6.18386E-1,-1.0090346E-1],"categories":[],"categories_nodes":[],"categories_segments":[],"categories_sizes":[],"default_left":[0,1,0,0,0,0,0,0,0,0,0,0,0],"id":22,"left_children":[1,3,5,7,9,11,-1,-1,-1,-1,-1,-1,-1],"loss_changes":[6.4368467E0,5.7765813E0,5.6874638E0,4.0272303E0,7.7372346E0,5.3453755E0,0E0,0E0,0E0,0E0,0E0,0E0,0E0],"parents":[2147483647,0,0,1,1,2,2,3,3,4,4,5,5],"right_children":[2,4,6,8,10,12,-1,-1,-1,-1,-1,-1,-1],"split_conditions":[9.7503763E-1,1.9735193E0,1.8390431E0,1.3903226E0,1.2694478E0,5.345638E-1,-2.374639E-2,1.5498298E-2,-5.710787E-3,3.7742825E-3,-1.9048711E-2,1.2367719E-2,-2.0180691E-3],"split_indices":[0,20,5,1,10,10,0,0,0,0,0,0,0],"split_type":[0,0,0,0,0,0,0,0,0,0,0,0,0],"sum_hessian":[3.8923804E2,7.092949E1,3.1830856E2,2.5141428E1,4.5788063E1,3.1462094E2,3.6876276E0,2.141581E1,3.7256186E0,3.9834217E1,5.953847E0,9.704987E0,3.0491595E2],"tree_param":{"num_deleted":"0","num_feature":"22","num_nodes":"13","size_leaf_vector":"0"}},{"base_weights":[-3.1973176E-2,9.5150396E-2,-1.5874122E-1,2.0095332E-1,-3.1265488E-1,-9.5349514E-1,-9.8474205E-2,2.4062678E-1,-4.96373E-1,-4.692008E-1,2.6997018E-1,-1.1403968E0,2.0758459E-1,-1.9828759E-1,3.079408E-1],"categories":[],"categories_nodes":[],"categories_segments":[],"categories_sizes":[],"default_left":[0,1,1,0,0,1,1,0,0,0,0,0,0,0,0],"id":23,"left_children":[1,3,5,7,9,11,13,-1,-1,-1,-1,-1,-1,-1,-1],"loss_changes":[6.3025303E0,8.495024E0,9.28085E0,4.4291453E0,3.8342218E0,3.205554E0,7.4863873E0,0E0,0E0,0E0,0E0,0E0,0E0,0E0,0E0],"parents":[2147483647,0,0,1,1,2,2,3,3,4,4,5,5,6,6],"right_children":[2,4,6,8,10,12,14,-1,-1,-1,-1,-1,-1,-1,-1],"split_conditions":[9.9933267E-1,2.2272317E0,9.5844597E-1,1.0465585E0,9.99004E-1,1.3141749E0,2.3435483E0,4.8125354E-3,-9.92746E-3,-9.384016E-3,5.3994036E-3,-2.2807935E-2,4.1516917E-3,-3.9657517E-3,6.158816E-3],"split_indices":[0,19,2,2,2,11,15,0,0,0,0,0,0,0,0],"split_type":[0,0,0,0,0,0,0,0,0,0,0,0,0,0,0],"sum_hessian":[3.8915485E2,1.9442949E2,1.9472537E2,1.5477989E2,3.9649597E1,1.2680729E1,1.8204463E2,1.4706761E2,7.712288E0,3.1405823E1,8.243774E0,1.0937851E1,1.7428781E0,1.465619E2,3.548273E1],"tree_param":{"num_deleted":"0","num_feature":"22","num_nodes":"15","size_leaf_vector":"0"}},{"base_weights":[-3.1403698E-2,2.3138778E-1,-9.045972E-2,5.98259E-1,2.1807235E-2,3.1293494E-1,-1.3363662E-1,7.579297E-1,-2.8412023E-1,1.8488222E-1,-9.391546E-1,1.1616814E0,1.16662435E-1,-4.455385E-1,-1.8182734E-2],"categories":[],"categories_nodes":[],"categories_segments":[],"categories_sizes":[],"default_left":[0,1,0,0,0,0,1,0,0,0,0,0,0,0,0],"id":24,"left_children":[1,3,5,7,9,11,13,-1,-1,-1,-1,-1,-1,-1,-1],"loss_changes":[6.075161E0,5.5123568E0,5.602211E0,3.8910322E0,7.503372E0,5.056203E0,1.0401725E1,0E0,0E0,0E0,0E0,0E0,0E0,0E0,0E0],"parents":[2147483647,0,0,1,1,2,2,3,3,4,4,5,5,6,6],"right_children":[2,4,6,8,10,12,14,-1,-1,-1,-1,-1,-1,-1,-1],"split_conditions":[9.7503763E-1,1.9735193E0,6.314271E-1,1.3903226E0,1.2694478E0,2.980087E-1,9.5882297E-1,1.5158594E-2,-5.6824046E-3,3.6976445E-3,-1.8783092E-2,2.3233628E-2,2.3332487E-3,-8.91077E-3,-3.6365466E-4],"split_indices":[0,20,10,1,10,3,4,0,0,0,0,0,0,0,0],"split_type":[0,0,0,0,0,0,0,0,0,0,0,0,0,0,0],"sum_hessian":[3.8910672E2,7.0862015E1,3.1824472E2,2.5089043E1,4.5772972E1,3.0165524E1,2.880792E2,2.1364138E1,3.7249043E0,3.982268E1,5.950292E0,4.7417836E0,2.542374E1,7.705472E1,2.1102446E2],"tree_param":{"num_deleted":"0","num_feature":"22","num_nodes":"15","size_leaf_vector":"0"}},{"base_weights":[-3.0754289E-2,9.321226E-2,-1.5435243E-1,1.9673003E-1,-3.0569434E-1,-9.332459E-1,-9.538128E-2,2.756928E-1,-1.4868276E-1,-4.5922685E-1,2.6549438E-1,-1.117263E0,2.0654109E-1,-1.8716931E-1,3.3176816E-1],"categories":[],"categories_nodes":[],"categories_segments":[],"categories_sizes":[],"default_left":[0,1,1,0,0,1,1,0,0,0,0,0,0,0,0],"id":25,"left_children":[1,3,5,7,9,11,13,-1,-1,-1,-1,-1,-1,-1,-1],"loss_changes":[5.9903708E0,8.12674E0,8.898981E0,4.2878337E0,3.6858854E0,3.095521E0,7.2378325E0,0E0,0E0,0E0,0E0,0E0,0E0,0E0,0E0],"parents":[2147483647,0,0,1,1,2,2,3,3,4,4,5,5,6,6],"right_children":[2,4,6,8,10,12,14,-1,-1,-1,-1,-1,-1,-1,-1],"split_conditions":[9.9933267E-1,2.2272317E0,9.5844597E-1,1.1062679E0,9.99004E-1,1.3141749E0,5.1514664E0,5.5138557E-3,-2.973655E-3,-9.1845365E-3,5.309887E-3,-2.2345258E-2,4.1308217E-3,-3.7433861E-3,6.6353627E-3],"split_indices":[0,19,2,5,2,11,16,0,0,0,0,0,0,0,0],"split_type":[0,0,0,0,0,0,0,0,0,0,0,0,0,0,0],"sum_hessian":[3.8902542E2,1.9434598E2,1.9467943E2,1.5470602E2,3.9639965E1,1.2658604E1,1.8202083E2,1.2608444E2,2.862157E1,3.1396713E1,8.243254E0,1.0915992E1,1.7426114E0,1.50288E2,3.1732828E1],"tree_param":{"num_deleted":"0","num_feature":"22","num_nodes":"15","size_leaf_vector":"0"}},{"base_weights":[-3.0187402E-2,2.2595066E-1,-8.770145E-2,5.840523E-1,2.1746315E-2,-7.1500264E-2,-1.1639816E0,7.4040174E-1,-2.7774954E-1,1.8189304E-1,-9.2251754E-1,7.051317E-1,-9.2695504E-2],"categories":[],"categories_nodes":[],"categories_segments":[],"categories_sizes":[],"default_left":[0,1,0,0,0,0,0,0,0,0,0,0,0],"id":26,"left_children":[1,3,5,7,9,11,-1,-1,-1,-1,-1,-1,-1],"loss_changes":[5.7645545E0,5.236754E0,5.4822407E0,3.7131166E0,7.238208E0,5.258902E0,0E0,0E0,0E0,0E0,0E0,0E0,0E0],"parents":[2147483647,0,0,1,1,2,2,3,3,4,4,5,5],"right_children":[2,4,6,8,10,12,-1,-1,-1,-1,-1,-1,-1],"split_conditions":[9.7503763E-1,1.9735193E0,1.8390431E0,1.3903226E0,1.2694478E0,1.6980478E-1,-2.3279632E-2,1.48080345E-2,-5.554991E-3,3.6378605E-3,-1.845035E-2,1.4102634E-2,-1.85391E-3],"split_indices":[0,20,5,1,10,7,0,0,0,0,0,0,0],"split_type":[0,0,0,0,0,0,0,0,0,0,0,0,0],"sum_hessian":[3.889619E2,7.0786514E1,3.181754E2,2.5030972E1,4.575554E1,3.1450757E2,3.667833E0,2.13064E1,3.7245724E0,3.9810986E1,5.9445543E0,7.4980245E0,3.0700955E2],"tree_param":{"num_deleted":"0","num_feature":"22","num_nodes":"13","size_leaf_vector":"0"}},{"base_weights":[-2.9632308E-2,9.082641E-2,-1.4971234E-1,1.9222671E-1,-2.997816E-1,-9.147582E-1,-9.189383E-2,2.31001E-1,-4.8881075E-1,-9.891439E-3,-6.0712206E-1,-1.096502E0,2.0706028E-1,-1.8860336E-1,3.016294E-1],"categories":[],"categories_nodes":[],"categories_segments":[],"categories_sizes":[],"default_left":[0,1,1,0,0,1,1,0,0,0,0,0,0,0,0],"id":27,"left_children":[1,3,5,7,9,11,13,-1,-1,-1,-1,-1,-1,-1,-1],"loss_changes":[5.6530476E0,7.7912035E0,8.569094E0,4.222401E0,3.6140597E0,3.0067396E0,7.0209928E0,0E0,0E0,0E0,0E0,0E0,0E0,0E0,0E0],"parents":[2147483647,0,0,1,1,2,2,3,3,4,4,5,5,6,6],"right_children":[2,4,6,8,10,12,14,-1,-1,-1,-1,-1,-1,-1,-1],"split_conditions":[9.9933267E-1,2.2272317E0,9.5844597E-1,1.0465585E0,9.404069E-1,1.3141749E0,2.3435483E0,4.62002E-3,-9.776215E-3,-1.9782878E-4,-1.2142441E-2,-2.1930039E-2,4.1412055E-3,-3.7720671E-3,6.032588E-3],"split_indices":[0,19,2,2,4,11,15,0,0,0,0,0,0,0,0],"split_type":[0,0,0,0,0,0,0,0,0,0,0,0,0,0,0],"sum_hessian":[3.888771E2,1.9425407E2,1.9462303E2,1.5462254E2,3.9631527E1,1.2633764E1,1.8198927E2,1.4691866E2,7.7038803E0,2.0925928E1,1.87056E1,1.0891775E1,1.7419884E0,1.4650577E2,3.5483505E1],"tree_param":{"num_deleted":"0","num_feature":"22","num_nodes":"15","size_leaf_vector":"0"}},{"base_weights":[-2.9129503E-2,8.892956E-2,-1.4682773E-1,1.8836904E-1,-2.9411927E-1,-8.992566E-1,-9.0051755E-2,2.2643542E-1,-4.802337E-1,-4.463022E-1,2.7088988E-1,-1.0784708E0,2.0441952E-1,-1.7880693E-1,3.2275862E-1],"categories":[],"categories_nodes":[],"categories_segments":[],"categories_sizes":[],"default_left":[0,1,1,0,0,1,1,0,0,0,0,0,0,0,0],"id":28,"left_children":[1,3,5,7,9,11,13,-1,-1,-1,-1,-1,-1,-1,-1],"loss_changes":[5.4297166E0,7.491887E0,8.274377E0,4.069119E0,3.6142464E0,2.9127321E0,6.7616777E0,0E0,0E0,0E0,0E0,0E0,0E0,0E0,0E0],"parents":[2147483647,0,0,1,1,2,2,3,3,4,4,5,5,6,6],"right_children":[2,4,6,8,10,12,14,-1,-1,-1,-1,-1,-1,-1,-1],"split_conditions":[9.9933267E-1,2.2272317E0,9.5844597E-1,1.0465585E0,9.99004E-1,1.3141749E0,5.1514664E0,4.5287083E-3,-9.604674E-3,-8.926044E-3,5.4177972E-3,-2.1569416E-2,4.08839E-3,-3.5761385E-3,6.4551723E-3],"split_indices":[0,19,2,2,2,11,16,0,0,0,0,0,0,0,0],"split_type":[0,0,0,0,0,0,0,0,0,0,0,0,0,0,0],"sum_hessian":[3.8881836E2,1.9423366E2,1.945847E2,1.5460614E2,3.9627518E1,1.2611462E1,1.8197324E2,1.4690363E2,7.7025166E0,3.1384363E1,8.243154E0,1.0869342E1,1.7421198E0,1.5023848E2,3.1734764E1],"tree_param":{"num_deleted":"0","num_feature":"22","num_nodes":"15","size_leaf_vector":"0"}},{"base_weights":[-2.8612295E-2,2.1742657E-1,-8.380862E-2,5.668402E-1,1.8671162E-2,3.1472957E-1,-1.264894E-1,7.210627E-1,-2.7918735E-1,1.7656651E-1,-9.1212577E-1,1.1470053E0,1.2187181E-1,-4.304789E-1,-1.4084104E-2],"categories":[],"categories_nodes":[],"categories_segments":[],"categories_sizes":[],"default_left":[0,1,0,0,0,0,1,0,0,0,0,0,0,0,0],"id":29,"left_children":[1,3,5,7,9,11,13,-1,-1,-1,-1,-1,-1,-1,-1],"loss_changes":[5.3111773E0,4.9683485E0,5.466916E0,3.588542E0,7.0292773E0,4.8601427E0,9.865835E0,0E0,0E0,0E0,0E0,0E0,0E0,0E0,0E0],"parents":[2147483647,0,0,1,1,2,2,3,3,4,4,5,5,6,6],"right_children":[2,4,6,8,10,12,14,-1,-1,-1,-1,-1,-1,-1,-1],"split_conditions":[9.7503763E-1,1.9735193E0,6.314271E-1,1.3903226E0,1.2694478E0,2.980087E-1,9.5882297E-1,1.4421254E-2,-5.583747E-3,3.5313303E-3,-1.8242516E-2,2.2940107E-2,2.437436E-3,-8.609578E-3,-2.816821E-4],"split_indices":[0,20,10,1,10,3,4,0,0,0,0,0,0,0,0],"split_type":[0,0,0,0,0,0,0,0,0,0,0,0,0,0,0],"sum_hessian":[3.8874838E2,7.069311E1,3.1805527E2,2.4960464E1,4.5732643E1,3.015011E1,2.8790515E2,2.1236893E1,3.723571E0,3.9792725E1,5.9399166E0,4.7413683E0,2.5408741E1,7.6955795E1,2.1094937E2],"tree_param":{"num_deleted":"0","num_feature":"22","num_nodes":"15","size_leaf_vector":"0"}},{"base_weights":[-2.8019061E-2,6.2217526E-2,-1.756666E-1,-3.102909E-2,6.627594E-1,1.6633622E-1,-3.10834E-1,7.186913E-1,-8.785398E-2,7.7597046E-1,-8.525789E-1,-1.3957095E-1,5.844286E-1,-6.059276E-1,-1.2524714E-1],"categories":[],"categories_nodes":[],"categories_segments":[],"categories_sizes":[],"default_left":[1,1,0,0,0,0,1,0,0,0,0,0,0,0,0],"id":30,"left_children":[1,3,5,7,9,11,13,-1,-1,-1,-1,-1,-1,-1,-1],"loss_changes":[5.2024035E0,1.3605045E1,6.8966227E0,9.049668E0,6.2625847E0,5.529359E0,5.7552624E0,0E0,0E0,0E0,0E0,0E0,0E0,0E0,0E0],"parents":[2147483647,0,0,1,1,2,2,3,3,4,4,5,5,6,6],"right_children":[2,4,6,8,10,12,14,-1,-1,-1,-1,-1,-1,-1,-1],"split_conditions":[1.9645295E0,2.3577316E0,7.705239E-1,2.2741295E-1,1.3264862E0,7.781627E-1,9.047402E-1,1.4373826E-2,-1.7570796E-3,1.55194085E-2,-1.7051578E-2,-2.791419E-3,1.1688572E-2,-1.2118552E-2,-2.5049427E-3],"split_indices":[19,16,8,13,4,6,13,0,0,0,0,0,0,0,0],"split_type":[0,0,0,0,0,0,0,0,0,0,0,0,0,0,0],"sum_hessian":[3.8865637E2,2.4158647E2,1.470699E2,2.0993762E2,3.1648851E1,4.1594975E1,1.0547492E2,1.3970469E1,1.9596716E2,2.9902737E1,1.7461133E0,2.4404799E1,1.7190176E1,3.9848545E1,6.562638E1],"tree_param":{"num_deleted":"0","num_feature":"22","num_nodes":"15","size_leaf_vector":"0"}},{"base_weights":[-2.7447052E-2,8.857895E-2,-1.4310232E-1,1.8541472E-1,-2.8444302E-1,-8.8018924E-1,-8.760914E-2,2.2275008E-1,-4.704502E-1,1.4912116E-3,-5.881635E-1,-1.0569628E0,2.0414379E-1,-1.8094085E-1,2.919644E-1],"categories":[],"categories_nodes":[],"categories_segments":[],"categories_sizes":[],"default_left":[0,1,1,0,0,1,1,0,0,0,0,0,0,0,0],"id":31,"left_children":[1,3,5,7,9,11,13,-1,-1,-1,-1,-1,-1,-1,-1],"loss_changes":[5.2411137E0,7.1008534E0,7.9198303E0,3.9128146E0,3.5274549E0,2.8184566E0,6.533365E0,0E0,0E0,0E0,0E0,0E0,0E0,0E0,0E0],"parents":[2147483647,0,0,1,1,2,2,3,3,4,4,5,5,6,6],"right_children":[2,4,6,8,10,12,14,-1,-1,-1,-1,-1,-1,-1,-1],"split_conditions":[9.9933267E-1,2.2272317E0,9.5844597E-1,1.0465585E0,9.404069E-1,1.3141749E0,2.3435483E0,4.4550016E-3,-9.409004E-3,2.982423E-5,-1.176327E-2,-2.1139257E-2,4.082876E-3,-3.6188168E-3,5.8392882E-3],"split_indices":[0,19,2,2,4,11,15,0,0,0,0,0,0,0,0],"split_type":[0,0,0,0,0,0,0,0,0,0,0,0,0,0,0],"sum_hessian":[3.8862894E2,1.941204E2,1.9450853E2,1.5451227E2,3.9608143E1,1.2578161E1,1.8193037E2,1.4681512E2,7.697136E0,2.091399E1,1.869415E1,1.08367405E1,1.7414206E0,1.4644496E2,3.5485416E1],"tree_param":{"num_deleted":"0","num_feature":"22","num_nodes":"15","size_leaf_vector":"0"}},{"base_weights":[-2.6984727E-2,-1.296949E-2,-9.755775E-1,7.3281616E-2,-1.698575E-1,-1.564336E-1,-1.1695799E0,-2.1809887E-2,6.25239E-1,1.6274007E-1,-3.1062055E-1],"categories":[],"categories_nodes":[],"categories_segments":[],"categories_sizes":[],"default_left":[0,1,0,1,0,0,0,0,0,0,0],"id":32,"left_children":[1,3,5,7,9,-1,-1,-1,-1,-1,-1],"loss_changes":[5.166431E0,5.2208257E0,7.162423E-1,1.3085882E1,6.4570856E0,0E0,0E0,0E0,0E0,0E0,0E0],"parents":[2147483647,0,0,1,1,2,2,3,3,4,4],"right_children":[2,4,6,8,10,-1,-1,-1,-1,-1,-1],"split_conditions":[2.011544E0,2.0028462E0,1.1071482E0,2.3577316E0,7.705239E-1,-3.1286718E-3,-2.3391597E-2,-4.3619773E-4,1.250478E-2,3.2548013E-3,-6.212411E-3],"split_indices":[1,19,4,16,8,0,0,0,0,0,0],"split_type":[0,0,0,0,0,0,0,0,0,0,0],"sum_hessian":[3.8855853E2,3.8390015E2,4.6583633E0,2.4805939E2,1.3584077E2,1.2378961E0,3.4204674E0,2.1242346E2,3.5635933E1,4.034848E1,9.549229E1],"tree_param":{"num_deleted":"0","num_feature":"22","num_nodes":"11","size_leaf_vector":"0"}},{"base_weights":[-2.6492078E-2,8.75128E-2,-1.4014547E-1,1.818558E-1,-2.7596655E-1,-8.6575556E-1,-8.562948E-2,2.5630873E-1,-1.4354455E-1,-4.264363E-1,2.8059128E-1,-1.0395932E0,1.9867243E-1,-1.7747286E-1,2.8780994E-1],"categories":[],"categories_nodes":[],"categories_segments":[],"categories_sizes":[],"default_left":[0,1,1,0,0,1,1,0,0,0,0,0,0,0,0],"id":33,"left_children":[1,3,5,7,9,11,13,-1,-1,-1,-1,-1,-1,-1,-1],"loss_changes":[5.059408E0,6.7397966E0,7.6573353E0,3.8036652E0,3.5194585E0,2.7135105E0,6.3242116E0,0E0,0E0,0E0,0E0,0E0,0E0,0E0,0E0],"parents":[2147483647,0,0,1,1,2,2,3,3,4,4,5,5,6,6],"right_children":[2,4,6,8,10,12,14,-1,-1,-1,-1,-1,-1,-1,-1],"split_conditions":[9.9933267E-1,2.2272317E0,9.5844597E-1,1.1062679E0,9.99004E-1,1.3141749E0,2.3435483E0,5.1261745E-3,-2.870891E-3,-8.528726E-3,5.6118253E-3,-2.0791864E-2,3.9734486E-3,-3.549457E-3,5.7561984E-3],"split_indices":[0,19,2,5,2,11,15,0,0,0,0,0,0,0,0],"split_type":[0,0,0,0,0,0,0,0,0,0,0,0,0,0,0],"sum_hessian":[3.8852902E2,1.940794E2,1.9444962E2,1.5448236E2,3.959704E1,1.254845E1,1.8190117E2,1.2589044E2,2.8591927E1,3.1354029E1,8.24301E0,1.0806855E1,1.7415957E0,1.464164E2,3.5484764E1],"tree_param":{"num_deleted":"0","num_feature":"22","num_nodes":"15","size_leaf_vector":"0"}},{"base_weights":[-2.6007796E-2,-1.2241174E-2,-9.598785E-1,7.1860686E-2,-1.6523367E-1,-1.5307373E-1,-1.1516714E0,-2.134914E-2,6.129318E-1,1.622276E-1,-3.0385754E-1],"categories":[],"categories_nodes":[],"categories_segments":[],"categories_sizes":[],"default_left":[0,1,0,1,0,0,0,0,0,0,0],"id":34,"left_children":[1,3,5,7,9,-1,-1,-1,-1,-1,-1],"loss_changes":[4.995066E0,4.963098E0,6.9716644E-1,1.2571044E1,6.259165E0,0E0,0E0,0E0,0E0,0E0,0E0],"parents":[2147483647,0,0,1,1,2,2,3,3,4,4],"right_children":[2,4,6,8,10,-1,-1,-1,-1,-1,-1],"split_conditions":[2.011544E0,2.0028462E0,1.1071482E0,2.3577316E0,7.705239E-1,-3.0614745E-3,-2.3033427E-2,-4.269828E-4,1.2258636E-2,3.2445518E-3,-6.0771503E-3],"split_indices":[1,19,4,16,8,0,0,0,0,0,0],"split_type":[0,0,0,0,0,0,0,0,0,0,0],"sum_hessian":[3.884463E2,3.838016E2,4.6446896E0,2.4800209E2,1.3579951E2,1.2374208E0,3.4072688E0,2.123767E2,3.5625397E1,4.033909E1,9.546042E1],"tree_param":{"num_deleted":"0","num_feature":"22","num_nodes":"11","size_leaf_vector":"0"}},{"base_weights":[-2.5534151E-2,7.82863E-1,-4.1249804E-2,-2.1300139E-2,1.190711E0,7.616804E-2,-1.5946974E-1,2.0709316E-1,-2.4024539E-1,2.2165452E-1,1.4536988E0,1.605699E-1,-2.9798046E-1,-9.088041E-1,-1.0299194E-1],"categories":[],"categories_nodes":[],"categories_segments":[],"categories_sizes":[],"default_left":[0,0,0,0,0,1,1,0,0,0,0,0,0,0,0],"id":35,"left_children":[1,3,5,7,9,11,13,-1,-1,-1,-1,-1,-1,-1,-1],"loss_changes":[4.9795694E0,2.4773288E0,5.3277245E0,2.2468059E-1,9.463978E-1,6.136127E0,7.995559E0,0E0,0E0,0E0,0E0,0E0,0E0,0E0,0E0],"parents":[2147483647,0,0,1,1,2,2,3,3,4,4,5,5,6,6],"right_children":[2,4,6,8,10,12,14,-1,-1,-1,-1,-1,-1,-1,-1],"split_conditions":[1.610878E-1,1.5236486E-1,9.9933267E-1,1.5278581E-1,1.5054241E-1,2.1890216E0,9.5844597E-1,4.141863E-3,-4.804908E-3,4.4330903E-3,2.9073974E-2,3.2113981E-3,-5.959609E-3,-1.8176083E-2,-2.0598387E-3],"split_indices":[3,5,0,3,3,21,2,0,0,0,0,0,0,0,0],"split_type":[0,0,0,0,0,0,0,0,0,0,0,0,0,0,0],"sum_hessian":[3.8841162E2,6.4760485E0,3.8193558E2,2.4981544E0,3.9778943E0,1.9179628E2,1.901393E2,1.2491906E0,1.2489637E0,1.2424717E0,2.7354226E0,1.5695958E2,3.4836704E1,1.2268766E1,1.7787053E2],"tree_param":{"num_deleted":"0","num_feature":"22","num_nodes":"15","size_leaf_vector":"0"}},{"base_weights":[-2.5002306E-2,7.132196E-1,-4.1837286E-2,-4.6376655E-1,1.0192515E0,1.8251312E-1,-1.04320996E-1,1.6445817E-1,1.2613243E0,2.353777E-1,-8.8268274E-1,-5.707101E-1,-6.3255735E-2],"categories":[],"categories_nodes":[],"categories_segments":[],"categories_sizes":[],"default_left":[0,0,0,0,0,0,1,0,0,0,0,0,0],"id":36,"left_children":[1,3,5,-1,7,9,11,-1,-1,-1,-1,-1,-1],"loss_changes":[4.8687315E0,3.619577E0,5.368668E0,0E0,1.2920175E0,4.9094763E0,5.692835E0,0E0,0E0,0E0,0E0,0E0,0E0],"parents":[2147483647,0,0,1,1,2,2,4,4,5,5,6,6],"right_children":[2,4,6,-1,8,10,12,-1,-1,-1,-1,-1,-1],"split_conditions":[1.6980478E-1,1.5812513E-1,9.786925E-1,-9.27533E-3,2.2357118E-1,1.8795037E0,9.836992E-1,3.2891633E-3,2.5226485E-2,4.707554E-3,-1.7653655E-2,-1.1414202E-2,-1.2651146E-3],"split_indices":[7,7,0,0,13,8,0,0,0,0,0,0,0],"split_type":[0,0,0,0,0,0,0,0,0,0,0,0,0],"sum_hessian":[3.883556E2,7.7366014E0,3.80619E2,1.4901452E0,6.246456E0,8.249527E1,2.9812372E2,1.7491906E0,4.4972653E0,7.933688E1,3.1583793E0,2.308165E1,2.7504205E2],"tree_param":{"num_deleted":"0","num_feature":"22","num_nodes":"13","size_leaf_vector":"0"}},{"base_weights":[-2.4522832E-2,-1.0998498E-2,-9.44615E-1,7.5532034E-2,-1.5148063E-1,-1.5323822E-1,-1.1326909E0,-1.7441576E-2,7.015676E-1,-4.1782674E-1,-1.238488E-3],"categories":[],"categories_nodes":[],"categories_segments":[],"categories_sizes":[],"default_left":[0,1,0,1,0,0,0,0,0,0,0],"id":37,"left_children":[1,3,5,7,9,-1,-1,-1,-1,-1,-1],"loss_changes":[4.8338265E0,4.6874294E0,6.640191E-1,1.390627E1,5.880124E0,0E0,0E0,0E0,0E0,0E0,0E0],"parents":[2147483647,0,0,1,1,2,2,3,3,4,4],"right_children":[2,4,6,8,10,-1,-1,-1,-1,-1,-1],"split_conditions":[2.011544E0,1.9645295E0,1.1071482E0,2.3577316E0,9.047402E-1,-3.0647644E-3,-2.2653818E-2,-3.4883153E-4,1.4031352E-2,-8.356535E-3,-2.4769759E-5],"split_indices":[1,19,4,16,13,0,0,0,0,0,0],"split_type":[0,0,0,0,0,0,0,0,0,0,0],"sum_hessian":[3.882927E2,3.836652E2,4.627499E0,2.3770944E2,1.4595575E2,1.2370532E0,3.390446E0,2.0781816E2,2.9891289E1,5.1996475E1,9.3959274E1],"tree_param":{"num_deleted":"0","num_feature":"22","num_nodes":"11","size_leaf_vector":"0"}},{"base_weights":[-2.408745E-2,7.6861763E-1,-3.950094E-2,-2.1075018E-2,1.1693039E0,7.576677E-2,-1.5555435E-1,2.0569338E-1,-2.3851834E-1,2.1946588E-1,1.4265794E0,1.646718E-1,-2.6175398E-1,-8.914085E-1,-1.0023315E-1],"categories":[],"categories_nodes":[],"categories_segments":[],"categories_sizes":[],"default_left":[0,0,0,0,0,1,1,0,0,0,0,0,0,0,0],"id":38,"left_children":[1,3,5,7,9,11,13,-1,-1,-1,-1,-1,-1,-1,-1],"loss_changes":[4.7864156E0,2.3893237E0,5.1323385E0,2.2153679E-1,9.0276146E-1,5.82591E0,7.688725E0,0E0,0E0,0E0,0E0,0E0,0E0,0E0,0E0],"parents":[2147483647,0,0,1,1,2,2,3,3,4,4,5,5,6,6],"right_children":[2,4,6,8,10,12,14,-1,-1,-1,-1,-1,-1,-1,-1],"split_conditions":[1.610878E-1,1.5236486E-1,9.9933267E-1,1.5278581E-1,1.5054241E-1,2.2272317E0,9.5844597E-1,4.1138674E-3,-4.770367E-3,4.3893177E-3,2.8531587E-2,3.2934358E-3,-5.235079E-3,-1.782817E-2,-2.004663E-3],"split_indices":[3,5,0,3,3,19,2,0,0,0,0,0,0,0,0],"split_type":[0,0,0,0,0,0,0,0,0,0,0,0,0,0,0],"sum_hessian":[3.88255E2,6.473258E0,3.8178174E2,2.4978237E0,3.975434E0,1.9171341E2,1.9006833E2,1.2491455E0,1.2486783E0,1.2422386E0,2.7331955E0,1.5214865E2,3.9564766E1,1.2233347E1,1.7783498E2],"tree_param":{"num_deleted":"0","num_feature":"22","num_nodes":"15","size_leaf_vector":"0"}},{"base_weights":[-2.3583325E-2,5.691244E-1,-4.389336E-2,-4.5829484E-1,7.4252135E-1,7.071896E-2,-1.6021104E-1,-2.221398E-1,9.3784124E-1,1.5187582E-1,-2.8446457E-1,-2.6102877E-1,2.2216178E-1],"categories":[],"categories_nodes":[],"categories_segments":[],"categories_sizes":[],"default_left":[1,0,0,0,1,1,1,0,0,0,0,0,0],"id":39,"left_children":[1,3,5,-1,7,9,11,-1,-1,-1,-1,-1,-1],"loss_changes":[4.7100086E0,2.6501913E0,5.0402603E0,0E0,2.3704815E0,5.5401926E0,7.287074E0,0E0,0E0,0E0,0E0,0E0,0E0],"parents":[2147483647,0,0,1,1,2,2,4,4,5,5,6,6],"right_children":[2,4,6,-1,8,10,12,-1,-1,-1,-1,-1,-1],"split_conditions":[1.735484E-1,1.5812513E-1,9.9933267E-1,-9.165897E-3,1.3279569E-1,2.1890216E0,2.3290322E0,-4.442796E-3,1.8756824E-2,3.0375165E-3,-5.6892913E-3,-5.2205753E-3,4.4432357E-3],"split_indices":[15,7,0,0,14,21,15,0,0,0,0,0,0],"split_type":[0,0,0,0,0,0,0,0,0,0,0,0,0],"sum_hessian":[3.881893E2,1.1965925E1,3.7622336E2,1.4906173E0,1.0475307E1,1.8969829E2,1.8652507E2,1.740732E0,8.734575E0,1.5488141E2,3.481688E1,1.4785774E2,3.866733E1],"tree_param":{"num_deleted":"0","num_feature":"22","num_nodes":"13","size_leaf_vector":"0"}},{"base_weights":[-2.31108E-2,-9.781325E-3,-9.3210256E-1,2.1685563E-1,-6.0490213E-2,-1.5357742E-1,-1.1170328E0,-4.1994217E-1,3.189699E-1,-8.8834584E-2,5.243357E-1],"categories":[],"categories_nodes":[],"categories_segments":[],"categories_sizes":[],"default_left":[0,0,0,0,1,0,0,0,0,0,0],"id":40,"left_children":[1,3,5,7,9,-1,-1,-1,-1,-1,-1],"loss_changes":[4.705754E0,4.4322023E0,6.365924E-1,4.719728E0,5.268129E0,0E0,0E0,0E0,0E0,0E0,0E0],"parents":[2147483647,0,0,1,1,2,2,3,3,4,4],"right_children":[2,4,6,8,10,-1,-1,-1,-1,-1,-1],"split_conditions":[2.011544E0,9.7503763E-1,1.1071482E0,6.045431E-1,2.340931E0,-3.0715482E-3,-2.2340655E-2,-8.398843E-3,6.379398E-3,-1.7766916E-3,1.0486714E-2],"split_indices":[1,0,4,8,12,0,0,0,0,0,0],"split_type":[0,0,0,0,0,0,0,0,0,0,0],"sum_hessian":[3.881319E2,3.8351874E2,4.6131663E0,6.952209E1,3.1399664E2,1.2368206E0,3.3763459E0,9.1775055E0,6.034458E1,3.0029077E2,1.3705895E1],"tree_param":{"num_deleted":"0","num_feature":"22","num_nodes":"11","size_leaf_vector":"0"}},{"base_weights":[-2.2699876E-2,6.935928E-1,-3.9043386E-2,-4.5247108E-1,9.920296E-1,1.7296393E-1,-9.804795E-2,1.5213718E-1,1.2316698E0,2.2502595E-1,-8.750962E-1,-5.584214E-1,-5.756737E-2],"categories":[],"categories_nodes":[],"categories_segments":[],"categories_sizes":[],"default_left":[0,0,0,0,0,0,1,0,0,0,0,0,0],"id":41,"left_children":[1,3,5,-1,7,9,11,-1,-1,-1,-1,-1,-1],"loss_changes":[4.58194E0,3.435732E0,4.787387E0,0E0,1.270196E0,4.746944E0,5.5393066E0,0E0,0E0,0E0,0E0,0E0,0E0],"parents":[2147483647,0,0,1,1,2,2,4,4,5,5,6,6],"right_children":[2,4,6,-1,8,10,12,-1,-1,-1,-1,-1,-1],"split_conditions":[1.6980478E-1,1.5812513E-1,9.786925E-1,-9.049421E-3,2.2357118E-1,1.8795037E0,9.836992E-1,3.0427435E-3,2.4633395E-2,4.500519E-3,-1.7501924E-2,-1.1168427E-2,-1.1513473E-3],"split_indices":[7,7,0,0,13,8,0,0,0,0,0,0,0],"split_type":[0,0,0,0,0,0,0,0,0,0,0,0,0],"sum_hessian":[3.8808035E2,7.732822E0,3.803475E2,1.4909819E0,6.24184E0,8.2388565E1,2.9795895E2,1.7485096E0,4.4933305E0,7.923775E1,3.150815E0,2.3047852E1,2.749111E2],"tree_param":{"num_deleted":"0","num_feature":"22","num_nodes":"13","size_leaf_vector":"0"}},{"base_weights":[-2.2267109E-2,-9.166331E-3,-9.181631E-1,7.3773555E-2,-1.4530434E-1,-1.5253368E-1,-1.1002877E0,-1.9529646E-2,6.880609E-1,1.6079937E-1,-2.6769903E-1],"categories":[],"categories_nodes":[],"categories_segments":[],"categories_sizes":[],"default_left":[0,1,0,1,0,0,0,0,0,0,0],"id":42,"left_children":[1,3,5,7,9,-1,-1,-1,-1,-1,-1],"loss_changes":[4.557408E0,4.351273E0,6.1254597E-1,1.374296E1,5.508197E0,0E0,0E0,0E0,0E0,0E0,0E0],"parents":[2147483647,0,0,1,1,2,2,3,3,4,4],"right_children":[2,4,6,8,10,-1,-1,-1,-1,-1,-1],"split_conditions":[2.011544E0,1.9686822E0,1.1071482E0,2.3577316E0,7.705239E-1,-3.0506735E-3,-2.2005754E-2,-3.905929E-4,1.3761218E-2,3.2159872E-3,-5.3539807E-3],"split_indices":[1,19,4,16,8,0,0,0,0,0,0],"split_type":[0,0,0,0,0,0,0,0,0,0,0],"sum_hessian":[3.8801328E2,3.8341678E2,4.5965114E0,2.385451E2,1.4487167E2,1.2363923E0,3.3601189E0,2.0793098E2,3.0614126E1,4.129098E1,1.0358069E2],"tree_param":{"num_deleted":"0","num_feature":"22","num_nodes":"11","size_leaf_vector":"0"}},{"base_weights":[-2.1860061E-2,7.4692833E-1,-3.6808748E-2,1.1483271E0,-3.9813988E-2,7.3137596E-2,-1.4749932E-1,1.2454097E-1,1.4516596E0,-2.6691374E-1,2.0433857E-1,1.586124E-1,-2.513703E-1,-8.7087286E-1,-9.33146E-2],"categories":[],"categories_nodes":[],"categories_segments":[],"categories_sizes":[],"default_left":[0,0,0,0,0,1,1,0,0,0,0,0,0,0,0],"id":43,"left_children":[1,3,5,7,9,11,13,-1,-1,-1,-1,-1,-1,-1,-1],"loss_changes":[4.4976635E0,2.4034595E0,4.6658497E0,1.3648682E0,2.4798326E-1,5.381088E0,7.4026814E0,0E0,0E0,0E0,0E0,0E0,0E0,0E0,0E0],"parents":[2147483647,0,0,1,1,2,2,3,3,4,4,5,5,6,6],"right_children":[2,4,6,8,10,12,14,-1,-1,-1,-1,-1,-1,-1,-1],"split_conditions":[1.610878E-1,1.0163589E0,9.9933267E-1,9.904957E-1,1.0084486E0,2.2272317E0,9.5844597E-1,2.4908194E-3,2.903319E-2,-5.338275E-3,4.086771E-3,3.172248E-3,-5.027406E-3,-1.7417457E-2,-1.866292E-3],"split_indices":[3,2,0,0,0,19,2,0,0,0,0,0,0,0,0],"split_type":[0,0,0,0,0,0,0,0,0,0,0,0,0,0,0],"sum_hessian":[3.8796826E2,6.46599E0,3.815023E2,3.9772072E0,2.4887831E0,1.9156477E2,1.8993752E2,1.231457E0,2.7457502E0,1.2411219E0,1.2476612E0,1.5203123E2,3.9533535E1,1.2185612E1,1.777519E2],"tree_param":{"num_deleted":"0","num_feature":"22","num_nodes":"15","size_leaf_vector":"0"}},{"base_weights":[-2.1403795E-2,5.5391526E-1,-4.1124802E-2,-4.4714132E-1,7.231019E-1,6.819338E-2,-1.5206453E-1,-2.1772307E-1,9.138199E-1,1.4634234E-1,-2.7383542E-1,-2.5143677E-1,2.2452237E-1],"categories":[],"categories_nodes":[],"categories_segments":[],"categories_sizes":[],"default_left":[1,0,0,0,1,1,1,0,0,0,0,0,0],"id":44,"left_children":[1,3,5,-1,7,9,11,-1,-1,-1,-1,-1,-1],"loss_changes":[4.4351926E0,2.5179949E0,4.5818214E0,0E0,2.2564826E0,5.1332936E0,7.0691314E0,0E0,0E0,0E0,0E0,0E0,0E0],"parents":[2147483647,0,0,1,1,2,2,4,4,5,5,6,6],"right_children":[2,4,6,-1,8,10,12,-1,-1,-1,-1,-1,-1],"split_conditions":[1.735484E-1,1.5812513E-1,9.9933267E-1,-8.942827E-3,1.3279569E-1,2.1890216E0,2.3290322E0,-4.3544616E-3,1.8276397E-2,2.9268467E-3,-5.476708E-3,-5.0287354E-3,4.490447E-3],"split_indices":[15,7,0,0,14,21,15,0,0,0,0,0,0],"split_type":[0,0,0,0,0,0,0,0,0,0,0,0,0],"sum_hessian":[3.8790027E2,1.195817E1,3.7594208E2,1.4913208E0,1.0466849E1,1.8954897E2,1.8639313E2,1.7402883E0,8.726561E0,1.5476044E2,3.4788532E1,1.4774033E2,3.8652794E1],"tree_param":{"num_deleted":"0","num_feature":"22","num_nodes":"13","size_leaf_vector":"0"}},{"base_weights":[-2.0974407E-2,-8.0609E-3,-9.0636927E-1,6.7408746E-1,-2.3846654E-2,-1.2011595E0,-3.1263486E-1,-4.417043E-1,9.652676E-1,8.851661E-2,-1.2867582E-1],"categories":[],"categories_nodes":[],"categories_segments":[],"categories_sizes":[],"default_left":[0,0,1,0,0,0,0,0,0,0,0],"id":45,"left_children":[1,3,5,7,9,-1,-1,-1,-1,-1,-1],"loss_changes":[4.438484E0,4.153836E0,6.012492E-1,3.2611537E0,4.446531E0,0E0,0E0,0E0,0E0,0E0,0E0],"parents":[2147483647,0,0,1,1,2,2,3,3,4,4],"right_children":[2,4,6,8,10,-1,-1,-1,-1,-1,-1],"split_conditions":[2.011544E0,1.6980478E-1,2.0360181E0,1.5812513E-1,9.9816525E-1,-2.4023188E-2,-6.2526967E-3,-8.834085E-3,1.9305352E-2,1.7703321E-3,-2.5735162E-3],"split_indices":[1,7,3,7,0,0,0,0,0,0,0],"split_type":[0,0,0,0,0,0,0,0,0,0,0],"sum_hessian":[3.878372E2,3.8325647E2,4.5807014E0,7.7252145E0,3.7553125E2,2.3773062E0,2.2033954E0,1.4917887E0,6.2334256E0,1.8132741E2,1.9420386E2],"tree_param":{"num_deleted":"0","num_feature":"22","num_nodes":"11","size_leaf_vector":"0"}},{"base_weights":[-2.0610645E-2,-7.875132E-3,-8.95651E-1,7.245797E-1,-2.2315662E-2,-1.1880476E0,-3.0848232E-1,-5.537442E-2,1.1273779E0,8.433414E-2,-1.2146342E-1],"categories":[],"categories_nodes":[],"categories_segments":[],"categories_sizes":[],"default_left":[0,0,1,0,0,0,0,0,0,0,0],"id":46,"left_children":[1,3,5,7,9,-1,-1,-1,-1,-1,-1],"loss_changes":[4.325659E0,4.0800967E0,5.895405E-1,2.4056048E0,4.0047464E0,0E0,0E0,0E0,0E0,0E0,0E0],"parents":[2147483647,0,0,1,1,2,2,3,3,4,4],"right_children":[2,4,6,8,10,-1,-1,-1,-1,-1,-1],"split_conditions":[2.011544E0,1.610878E-1,2.0360181E0,1.5236486E-1,9.9816525E-1,-2.3760952E-2,-6.169646E-3,-1.1074884E-3,2.2547556E-2,1.6866828E-3,-2.4292683E-3],"split_indices":[1,3,3,5,0,0,0,0,0,0,0],"split_type":[0,0,0,0,0,0,0,0,0,0,0],"sum_hessian":[3.8779025E2,3.8322177E2,4.568487E0,6.4584503E0,3.767633E2,2.366616E0,2.2018712E0,2.493232E0,3.9652183E0,1.8158646E2,1.9517685E2],"tree_param":{"num_deleted":"0","num_feature":"22","num_nodes":"11","size_leaf_vector":"0"}},{"base_weights":[-2.0224832E-2,-6.2609697E-3,-8.030899E-1,6.723207E-1,-2.1472502E-2,2.1214241E-1,-1.0682939E0,1.2556938E0,-5.3073384E-2,5.372269E-1,-4.1307073E-2,-1.3310734E0,-7.058455E-2],"categories":[],"categories_nodes":[],"categories_segments":[],"categories_sizes":[],"default_left":[0,0,0,1,1,0,1,0,0,0,0,0,0],"id":47,"left_children":[1,3,5,7,9,-1,11,-1,-1,-1,-1,-1,-1],"loss_changes":[4.2446547E0,3.9672422E0,2.0587292E0,3.6327286E0,4.1834583E0,0E0,1.3639941E0,0E0,0E0,0E0,0E0,0E0,0E0],"parents":[2147483647,0,0,1,1,2,2,3,3,4,4,6,6],"right_children":[2,4,6,8,10,-1,12,-1,-1,-1,-1,-1,-1],"split_conditions":[1.8390431E0,6.176212E-1,9.0571815E-1,1.9721806E0,1.735484E-1,4.242848E-3,2.32E0,2.5113875E-2,-1.0614677E-3,1.0744538E-2,-8.2614145E-4,-2.6621468E-2,-1.411691E-3],"split_indices":[5,6,2,21,15,0,15,0,0,0,0,0,0],"split_type":[0,0,0,0,0,0,0,0,0,0,0,0,0],"sum_hessian":[3.8774426E2,3.8193967E2,5.8046103E0,7.4269667E0,3.745127E2,1.2436913E0,4.560919E0,3.7112622E0,3.7157044E0,1.1945548E1,3.6256714E2,3.345613E0,1.215306E0],"tree_param":{"num_deleted":"0","num_feature":"22","num_nodes":"13","size_leaf_vector":"0"}},{"base_weights":[-1.9796124E-2,-7.318273E-3,-8.8010186E-1,7.298782E-2,-1.3769604E-1,-1.3703032E-1,-1.0606924E0,-1.7295286E-2,6.809022E-1,1.7092477E-1,-2.610295E-1],"categories":[],"categories_nodes":[],"categories_segments":[],"categories_sizes":[],"default_left":[0,1,0,1,0,0,0,0,0,0,0],"id":48,"left_children":[1,3,5,7,9,-1,-1,-1,-1,-1,-1],"loss_changes":[4.1662693E0,4.0322657E0,5.992627E-1,1.3095363E1,5.6314144E0,0E0,0E0,0E0,0E0,0E0,0E0],"parents":[2147483647,0,0,1,1,2,2,3,3,4,4],"right_children":[2,4,6,8,10,-1,-1,-1,-1,-1,-1],"split_conditions":[2.011544E0,1.9645295E0,1.1071482E0,2.3577316E0,7.705239E-1,-2.7406062E-3,-2.1213848E-2,-3.4590572E-4,1.3618044E-2,3.4184952E-3,-5.22059E-3],"split_indices":[1,19,4,16,8,0,0,0,0,0,0],"split_type":[0,0,0,0,0,0,0,0,0,0,0],"sum_hessian":[3.8770993E2,3.8316107E2,4.5488505E0,2.3738446E2,1.4577661E2,1.2332438E0,3.3156068E0,2.0753447E2,2.9849989E1,4.1512596E1,1.0426401E2],"tree_param":{"num_deleted":"0","num_feature":"22","num_nodes":"11","size_leaf_vector":"0"}},{"base_weights":[-1.9435061E-2,-5.7842177E-3,-7.8737104E-1,6.545406E-1,-2.110873E-2,2.1213451E-1,-1.0502219E0,-4.4244912E-1,9.422971E-1,8.704194E-2,-1.2106023E-1,-1.3125619E0,-6.2424213E-2],"categories":[],"categories_nodes":[],"categories_segments":[],"categories_sizes":[],"default_left":[0,0,0,0,0,0,1,0,0,0,0,0,0],"id":49,"left_children":[1,3,5,7,9,-1,11,-1,-1,-1,-1,-1,-1],"loss_changes":[4.069758E0,3.888231E0,2.0042353E0,3.1680691E0,4.0659914E0,0E0,1.3528891E0,0E0,0E0,0E0,0E0,0E0,0E0],"parents":[2147483647,0,0,1,1,2,2,3,3,4,4,6,6],"right_children":[2,4,6,8,10,-1,12,-1,-1,-1,-1,-1,-1],"split_conditions":[1.8390431E0,1.6980478E-1,9.0571815E-1,1.5812513E-1,9.9816525E-1,4.2426903E-3,2.32E0,-8.848982E-3,1.8845942E-2,1.7408388E-3,-2.4212045E-3,-2.6251236E-2,-1.2484842E-3],"split_indices":[5,7,2,7,0,0,15,0,0,0,0,0,0],"split_type":[0,0,0,0,0,0,0,0,0,0,0,0,0],"sum_hessian":[3.8765994E2,3.8187918E2,5.7807584E0,7.7153873E0,3.7416382E2,1.2438592E0,4.536899E0,1.4915801E0,6.223807E0,1.7977296E2,1.9439084E2,3.3250535E0,1.2118458E0],"tree_param":{"num_deleted":"0","num_feature":"22","num_nodes":"13","size_leaf_vector":"0"}},{"base_weights":[-1.9085284E-2,-6.8722335E-3,-8.6427265E-1,1.1834257E0,-1.5336597E-2,-1.1600583E0,-2.8445885E-1,6.4309305E-1,-3.0601062E-2],"categories":[],"categories_nodes":[],"categories_segments":[],"categories_sizes":[],"default_left":[0,0,1,0,0,0,0,0,0],"id":50,"left_children":[1,3,5,-1,7,-1,-1,-1,-1],"loss_changes":[4.005386E0,3.887796E0,6.179657E-1,0E0,3.8625662E0,0E0,0E0,0E0,0E0],"parents":[2147483647,0,0,1,1,2,2,4,4],"right_children":[2,4,6,-1,8,-1,-1,-1,-1],"split_conditions":[2.011544E0,1.4968124E-1,2.0360181E0,2.3668513E-2,1.6980478E-1,-2.3201164E-2,-5.6891767E-3,1.2861861E-2,-6.1202125E-4],"split_indices":[1,1,3,0,7,0,0,0,0],"split_type":[0,0,0,0,0,0,0,0,0],"sum_hessian":[3.876071E2,3.8307968E2,4.527413E0,1.7247493E0,3.8135492E2,2.335328E0,2.1920848E0,7.7087665E0,3.7364615E2],"tree_param":{"num_deleted":"0","num_feature":"22","num_nodes":"9","size_leaf_vector":"0"}},{"base_weights":[-1.8686973E-2,6.5876424E-1,-3.3598267E-2,1.2331421E0,-5.3563617E-2,-1.1188545E0,-2.2444978E-2,6.4896244E-1,-4.9257067E-1,2.7793946E-2,-2.3744327E-1],"categories":[],"categories_nodes":[],"categories_segments":[],"categories_sizes":[],"default_left":[0,1,1,0,0,0,0,0,0,0,0],"id":51,"left_children":[1,3,5,-1,7,-1,9,-1,-1,-1,-1],"loss_changes":[3.9474456E0,3.509957E0,4.5885515E0,0E0,1.7740818E0,0E0,4.0927916E0,0E0,0E0,0E0,0E0],"parents":[2147483647,0,0,1,1,2,2,4,4,6,6],"right_children":[2,4,6,-1,8,-1,10,-1,-1,-1,-1],"split_conditions":[6.176212E-1,1.9721806E0,6.392106E-1,2.4662843E-2,5.612993E-1,-2.237709E-2,1.0419087E0,1.2979249E-2,-9.851413E-3,5.558789E-4,-4.748865E-3],"split_indices":[6,21,6,0,6,0,7,0,0,0,0],"split_type":[0,0,0,0,0,0,0,0,0,0,0],"sum_hessian":[3.875804E2,7.4173164E0,3.801631E2,3.7015045E0,3.7158117E0,2.8569314E0,3.7730615E2,1.2450907E0,2.470721E0,3.0654593E2,7.076025E1],"tree_param":{"num_deleted":"0","num_feature":"22","num_nodes":"11","size_leaf_vector":"0"}},{"base_weights":[-1.8311432E-2,-6.320829E-3,-8.511206E-1,6.745677E-2,-1.4054954E-1,-1.1451852E0,-2.7834424E-1,-2.0496372E-2,5.7819164E-1,1.6883796E-1,-2.7173844E-1],"categories":[],"categories_nodes":[],"categories_segments":[],"categories_sizes":[],"default_left":[0,1,1,1,0,0,0,0,0,0,0],"id":52,"left_children":[1,3,5,7,9,-1,-1,-1,-1,-1,-1],"loss_changes":[3.874652E0,3.8126984E0,6.0887337E-1,1.1174814E1,5.58782E0,0E0,0E0,0E0,0E0,0E0,0E0],"parents":[2147483647,0,0,1,1,2,2,3,3,4,4],"right_children":[2,4,6,8,10,-1,-1,-1,-1,-1,-1],"split_conditions":[2.011544E0,2.0028462E0,2.0360181E0,2.3577316E0,7.705239E-1,-2.2903705E-2,-5.5668848E-3,-4.0992742E-4,1.1563833E-2,3.3767591E-3,-5.4347687E-3],"split_indices":[1,19,3,16,8,0,0,0,0,0,0],"split_type":[0,0,0,0,0,0,0,0,0,0,0],"sum_hessian":[3.8755164E2,3.8304425E2,4.507397E0,2.4750359E2,1.3554065E2,2.3179815E0,2.1894155E0,2.1196173E2,3.5541847E1,4.0274014E1,9.526664E1],"tree_param":{"num_deleted":"0","num_feature":"22","num_nodes":"11","size_leaf_vector":"0"}},{"base_weights":[-1.7997762E-2,6.940922E-1,-3.1820074E-2,1.0898004E0,-6.880261E-2,6.868315E-2,-1.330794E-1,9.132073E-2,1.3914976E0,1.793426E-1,-2.8590783E-1,1.4436603E-1,-2.6672286E-1,-8.4112614E-1,-8.04185E-2],"categories":[],"categories_nodes":[],"categories_segments":[],"categories_sizes":[],"default_left":[0,0,0,0,0,1,1,0,0,0,0,0,0,0,0],"id":53,"left_children":[1,3,5,7,9,11,13,-1,-1,-1,-1,-1,-1,-1,-1],"loss_changes":[3.8459918E0,2.321415E0,3.897313E0,1.3668437E0,2.3887098E-1,4.922609E0,7.0411577E0,0E0,0E0,0E0,0E0,0E0,0E0,0E0,0E0],"parents":[2147483647,0,0,1,1,2,2,3,3,4,4,5,5,6,6],"right_children":[2,4,6,8,10,12,14,-1,-1,-1,-1,-1,-1,-1,-1],"split_conditions":[1.610878E-1,1.0163589E0,9.9933267E-1,9.904957E-1,1.014779E0,2.1890216E0,9.5844597E-1,1.8264146E-3,2.7829953E-2,3.5868518E-3,-5.7181567E-3,2.8873205E-3,-5.334457E-3,-1.6822523E-2,-1.6083699E-3],"split_indices":[3,2,0,0,4,21,2,0,0,0,0,0,0,0,0],"split_type":[0,0,0,0,0,0,0,0,0,0,0,0,0,0,0],"sum_hessian":[3.875005E2,6.441389E0,3.810591E2,3.9592485E0,2.4821405E0,1.9140501E2,1.896541E2,1.2209973E0,2.7382512E0,1.2394363E0,1.2427042E0,1.5663141E2,3.47736E1,1.2092542E1,1.7756155E2],"tree_param":{"num_deleted":"0","num_feature":"22","num_nodes":"15","size_leaf_vector":"0"}},{"base_weights":[-1.7624432E-2,-4.4074627E-3,-7.6574177E-1,1.1537621E0,-1.26606105E-2,2.0985295E-1,-1.0247946E0,-6.4381264E-2,1.7551845E-1,-1.2889386E0,-4.6279922E-2],"categories":[],"categories_nodes":[],"categories_segments":[],"categories_sizes":[],"default_left":[0,0,0,0,1,0,1,0,0,0,0],"id":54,"left_children":[1,3,5,-1,7,-1,9,-1,-1,-1,-1],"loss_changes":[3.8373623E0,3.6725929E0,1.9178195E0,0E0,3.7192235E0,0E0,1.3603201E0,0E0,0E0,0E0,0E0],"parents":[2147483647,0,0,1,1,2,2,4,4,6,6],"right_children":[2,4,6,-1,8,-1,10,-1,-1,-1,-1],"split_conditions":[1.8390431E0,1.4968124E-1,9.0571815E-1,2.3075242E-2,3.8129032E0,4.1970587E-3,2.32E0,-1.2876253E-3,3.510369E-3,-2.5778772E-2,-9.2559843E-4],"split_indices":[5,1,2,0,14,0,15,0,0,0,0],"split_type":[0,0,0,0,0,0,0,0,0,0,0],"sum_hessian":[3.874302E2,3.8169275E2,5.7374644E0,1.7186372E0,3.799741E2,1.24368E0,4.4937844E0,2.9857047E2,8.140364E1,3.288763E0,1.2050214E0],"tree_param":{"num_deleted":"0","num_feature":"22","num_nodes":"11","size_leaf_vector":"0"}},{"base_weights":[-1.7266463E-2,6.4615625E-1,-3.1848278E-2,1.2064791E0,-4.850268E-2,-1.1003438E0,-2.0929761E-2,6.422271E-1,-4.816681E-1,2.8037062E-2,-2.3058975E-1],"categories":[],"categories_nodes":[],"categories_segments":[],"categories_sizes":[],"default_left":[0,1,1,0,0,0,0,0,0,0,0],"id":55,"left_children":[1,3,5,-1,7,-1,9,-1,-1,-1,-1],"loss_changes":[3.7779524E0,3.3282092E0,4.421893E0,0E0,1.7191498E0,0E0,3.8888824E0,0E0,0E0,0E0,0E0],"parents":[2147483647,0,0,1,1,2,2,4,4,6,6],"right_children":[2,4,6,-1,8,-1,10,-1,-1,-1,-1],"split_conditions":[6.176212E-1,1.9721806E0,6.392106E-1,2.412958E-2,5.612993E-1,-2.2006877E-2,1.0419087E0,1.2844542E-2,-9.633362E-3,5.6074123E-4,-4.611795E-3],"split_indices":[6,21,6,0,6,0,7,0,0,0,0],"split_type":[0,0,0,0,0,0,0,0,0,0,0],"sum_hessian":[3.8740283E2,7.400338E0,3.800025E2,3.6884127E0,3.7119255E0,2.834537E0,3.7716797E2,1.2446144E0,2.4673111E0,3.0645953E2,7.070843E1],"tree_param":{"num_deleted":"0","num_feature":"22","num_nodes":"11","size_leaf_vector":"0"}},{"base_weights":[-1.6919196E-2,5.130785E-1,-3.506751E-2,-4.4494578E-1,6.7697734E-1,3.0766043E-1,-6.5188974E-2,-3.385513E-1,8.3198E-1,-4.343593E-1,6.945564E-1,-5.9219694E-1,-3.533197E-2],"categories":[],"categories_nodes":[],"categories_segments":[],"categories_sizes":[],"default_left":[1,0,0,0,0,0,1,0,0,0,0,0,0],"id":56,"left_children":[1,3,5,-1,7,9,11,-1,-1,-1,-1,-1,-1],"loss_changes":[3.753565E0,2.3302777E0,3.9063118E0,0E0,2.0810432E0,9.082764E0,5.436902E0,0E0,0E0,0E0,0E0,0E0,0E0],"parents":[2147483647,0,0,1,1,2,2,4,4,5,5,6,6],"right_children":[2,4,6,-1,8,10,12,-1,-1,-1,-1,-1,-1],"split_conditions":[1.735484E-1,1.5812513E-1,9.1141117E-1,-8.898916E-3,9.8179746E-1,9.394108E-1,3.3935484E-1,-6.771026E-3,1.66396E-2,-8.687186E-3,1.3891128E-2,-1.1843938E-2,-7.066394E-4],"split_indices":[15,7,2,0,0,0,15,0,0,0,0,0,0],"split_type":[0,0,0,0,0,0,0,0,0,0,0,0,0],"sum_hessian":[3.873711E2,1.1922375E1,3.7544873E2,1.4912043E0,1.043117E1,2.9587082E1,3.4586163E2,1.2244953E0,9.206676E0,1.0097884E1,1.9489197E1,1.7533968E1,3.2832767E2],"tree_param":{"num_deleted":"0","num_feature":"22","num_nodes":"13","size_leaf_vector":"0"}},{"base_weights":[-1.659777E-2,-4.909653E-3,-8.330792E-1,7.128763E-2,-1.2864807E-1,-1.07645616E-1,-1.017083E0,-1.5918612E-2,6.587473E-1,-3.847241E-1,1.5519992E-2],"categories":[],"categories_nodes":[],"categories_segments":[],"categories_sizes":[],"default_left":[0,1,0,1,0,0,0,0,0,0,0],"id":57,"left_children":[1,3,5,7,9,-1,-1,-1,-1,-1,-1],"loss_changes":[3.701985E0,3.6285493E0,6.2132263E-1,1.2214549E1,5.420171E0,0E0,0E0,0E0,0E0,0E0,0E0],"parents":[2147483647,0,0,1,1,2,2,3,3,4,4],"right_children":[2,4,6,8,10,-1,-1,-1,-1,-1,-1],"split_conditions":[2.011544E0,1.9645295E0,1.1071482E0,2.3577316E0,9.047402E-1,-2.1529123E-3,-2.034166E-2,-3.1837224E-4,1.3174946E-2,-7.694482E-3,3.1039983E-4],"split_indices":[1,19,4,16,13,0,0,0,0,0,0],"split_type":[0,0,0,0,0,0,0,0,0,0,0],"sum_hessian":[3.8735004E2,3.828751E2,4.4749303E0,2.372203E2,1.4565479E2,1.2260919E0,3.2488384E0,2.0740474E2,2.9815573E1,5.1863876E1,9.379091E1],"tree_param":{"num_deleted":"0","num_feature":"22","num_nodes":"11","size_leaf_vector":"0"}},{"base_weights":[-1.631223E-2,6.387441E-1,-3.069148E-2,1.1899682E0,-4.4367544E-2,-1.0841198E0,-1.9964142E-2,6.3595986E-1,-4.7220147E-1,2.807885E-2,-2.2572258E-1],"categories":[],"categories_nodes":[],"categories_segments":[],"categories_sizes":[],"default_left":[0,1,1,0,0,0,0,0,0,0,0],"id":58,"left_children":[1,3,5,-1,7,-1,9,-1,-1,-1,-1],"loss_changes":[3.677043E0,3.210637E0,4.2828126E0,0E0,1.6709864E0,0E0,3.7438328E0,0E0,0E0,0E0,0E0],"parents":[2147483647,0,0,1,1,2,2,4,4,6,6],"right_children":[2,4,6,-1,8,-1,10,-1,-1,-1,-1],"split_conditions":[6.176212E-1,1.9721806E0,6.392106E-1,2.3799364E-2,5.612993E-1,-2.1682395E-2,1.0419087E0,1.2719197E-2,-9.444029E-3,5.61577E-4,-4.5144516E-3],"split_indices":[6,21,6,0,6,0,7,0,0,0,0],"split_type":[0,0,0,0,0,0,0,0,0,0,0],"sum_hessian":[3.8729535E2,7.3863E0,3.7990906E2,3.677128E0,3.7091718E0,2.8210356E0,3.77088E2,1.2442083E0,2.4649634E0,3.0640775E2,7.068028E1],"tree_param":{"num_deleted":"0","num_feature":"22","num_nodes":"11","size_leaf_vector":"0"}},{"base_weights":[-1.5983637E-2,6.2560296E-1,-3.0601835E-2,-4.3968794E-1,9.0720206E-1,1.8351357E-1,-7.948683E-2,9.316753E-2,1.1495143E0,-4.4604576E-1,2.8366786E-1,3.174679E-1,-1.231673E-1],"categories":[],"categories_nodes":[],"categories_segments":[],"categories_sizes":[],"default_left":[0,0,0,0,0,0,0,0,0,0,0,0,0],"id":59,"left_children":[1,3,5,-1,7,9,11,-1,-1,-1,-1,-1,-1],"loss_changes":[3.6605875E0,3.007522E0,3.997979E0,0E0,1.3139462E0,4.605792E0,5.4233656E0,0E0,0E0,0E0,0E0,0E0,0E0],"parents":[2147483647,0,0,1,1,2,2,4,4,5,5,6,6],"right_children":[2,4,6,-1,8,10,12,-1,-1,-1,-1,-1,-1],"split_conditions":[1.6980478E-1,1.5812513E-1,9.7503763E-1,-8.793758E-3,2.2357118E-1,6.045431E-1,6.314271E-1,1.8633505E-3,2.2990286E-2,-8.9209145E-3,5.6733573E-3,6.349358E-3,-2.4633459E-3],"split_indices":[7,7,0,0,13,8,10,0,0,0,0,0,0],"split_type":[0,0,0,0,0,0,0,0,0,0,0,0,0],"sum_hessian":[3.8726154E2,7.6958914E0,3.7956564E2,1.4916341E0,6.2042575E0,7.003957E1,3.0952606E2,1.740761E0,4.463496E0,9.139028E0,6.0900547E1,3.0062185E1,2.7946387E2],"tree_param":{"num_deleted":"0","num_feature":"22","num_nodes":"13","size_leaf_vector":"0"}},{"base_weights":[-1.5623101E-2,-2.834836E-3,-7.440845E-1,1.1290466E0,-1.0887098E-2,2.0927098E-1,-1.0001748E0,-7.8320555E-2,1.2764347E-1,-1.2651719E0,-3.308561E-2],"categories":[],"categories_nodes":[],"categories_segments":[],"categories_sizes":[],"default_left":[0,0,0,0,1,0,1,0,0,0,0],"id":60,"left_children":[1,3,5,-1,7,-1,9,-1,-1,-1,-1],"loss_changes":[3.614244E0,3.4985125E0,1.843487E0,0E0,3.5672073E0,0E0,1.3546453E0,0E0,0E0,0E0,0E0],"parents":[2147483647,0,0,1,1,2,2,4,4,6,6],"right_children":[2,4,6,-1,8,-1,10,-1,-1,-1,-1],"split_conditions":[1.8390431E0,1.4968124E-1,9.0571815E-1,2.2580931E-2,2.4934409E0,4.1854195E-3,2.32E0,-1.5664111E-3,2.5528693E-3,-2.5303436E-2,-6.617122E-4],"split_indices":[5,1,2,0,14,0,15,0,0,0,0],"split_type":[0,0,0,0,0,0,0,0,0,0,0],"sum_hessian":[3.871975E2,3.8150406E2,5.693478E0,1.7114823E0,3.7979257E2,1.2442589E0,4.449219E0,2.5573926E2,1.240533E2,3.2503471E0,1.1988717E0],"tree_param":{"num_deleted":"0","num_feature":"22","num_nodes":"11","size_leaf_vector":"0"}},{"base_weights":[-1.5307643E-2,6.3034594E-1,-2.946094E-2,1.1716088E0,-4.0001612E-2,-1.0678457E0,-1.8922037E-2,6.3320386E-1,-4.6468458E-1,2.8473303E-2,-2.2197084E-1],"categories":[],"categories_nodes":[],"categories_segments":[],"categories_sizes":[],"default_left":[0,1,1,0,0,0,0,0,0,0,0],"id":61,"left_children":[1,3,5,-1,7,-1,9,-1,-1,-1,-1],"loss_changes":[3.5657096E0,3.0842016E0,4.1470327E0,0E0,1.639859E0,0E0,3.6439328E0,0E0,0E0,0E0,0E0],"parents":[2147483647,0,0,1,1,2,2,4,4,6,6],"right_children":[2,4,6,-1,8,-1,10,-1,-1,-1,-1],"split_conditions":[6.176212E-1,1.9721806E0,6.392106E-1,2.3432175E-2,5.612993E-1,-2.1356914E-2,1.0419087E0,1.2664077E-2,-9.293691E-3,5.6946604E-4,-4.439417E-3],"split_indices":[6,21,6,0,6,0,7,0,0,0,0],"split_type":[0,0,0,0,0,0,0,0,0,0,0],"sum_hessian":[3.8716913E2,7.371138E0,3.79798E2,3.6645136E0,3.7066245E0,2.8079717E0,3.7699002E2,1.2438598E0,2.4627647E0,3.0634357E2,7.064647E1],"tree_param":{"num_deleted":"0","num_feature":"22","num_nodes":"11","size_leaf_vector":"0"}},{"base_weights":[-1.4998779E-2,5.003588E-1,-3.26395E-2,-4.3375272E-1,6.604509E-1,6.6531904E-2,-1.3339593E-1,-2.248011E-1,8.4283316E-1,1.4775278E-1,-2.3760769E-1,-2.3070472E-1,2.3441072E-1],"categories":[],"categories_nodes":[],"categories_segments":[],"categories_sizes":[],"default_left":[1,0,0,0,1,1,1,0,0,0,0,0,0],"id":62,"left_children":[1,3,5,-1,7,9,11,-1,-1,-1,-1,-1,-1],"loss_changes":[3.5449617E0,2.2166865E0,3.7681859E0,0E0,2.032518E0,4.7352896E0,6.7453346E0,0E0,0E0,0E0,0E0,0E0,0E0],"parents":[2147483647,0,0,1,1,2,2,4,4,5,5,6,6],"right_children":[2,4,6,-1,8,10,12,-1,-1,-1,-1,-1,-1],"split_conditions":[1.735484E-1,1.5812513E-1,9.9933267E-1,-8.675054E-3,1.3279569E-1,2.2272317E0,2.3290322E0,-4.4960217E-3,1.6856663E-2,2.9550556E-3,-4.7521535E-3,-4.6140943E-3,4.688214E-3],"split_indices":[15,7,0,0,14,19,15,0,0,0,0,0,0],"split_type":[0,0,0,0,0,0,0,0,0,0,0,0,0],"sum_hessian":[3.871335E2,1.1907348E1,3.7522617E2,1.4920541E0,1.0415294E1,1.8927167E2,1.859545E2,1.7394968E0,8.6757965E0,1.4978546E2,3.9486202E1,1.4734494E2,3.860957E1],"tree_param":{"num_deleted":"0","num_feature":"22","num_nodes":"13","size_leaf_vector":"0"}},{"base_weights":[-1.4696702E-2,-3.3465852E-3,-8.128325E-1,6.701042E-2,-1.3136825E-1,-1.111464E0,-2.4986477E-1,-1.7157167E-2,5.5607367E-1,1.6980763E-1,-2.591276E-1],"categories":[],"categories_nodes":[],"categories_segments":[],"categories_sizes":[],"default_left":[0,1,1,1,0,0,0,0,0,0,0],"id":63,"left_children":[1,3,5,7,9,-1,-1,-1,-1,-1,-1],"loss_changes":[3.5126572E0,3.4641478E0,6.363449E-1,1.0227382E1,5.292109E0,0E0,0E0,0E0,0E0,0E0,0E0],"parents":[2147483647,0,0,1,1,2,2,3,3,4,4],"right_children":[2,4,6,8,10,-1,-1,-1,-1,-1,-1],"split_conditions":[2.011544E0,2.0028462E0,2.0360181E0,2.3577316E0,7.705239E-1,-2.222928E-2,-4.9972953E-3,-3.4314333E-4,1.1121473E-2,3.3961525E-3,-5.1825517E-3],"split_indices":[1,19,3,16,8,0,0,0,0,0,0],"split_type":[0,0,0,0,0,0,0,0,0,0,0],"sum_hessian":[3.870564E2,3.8261945E2,4.4369555E0,2.4722713E2,1.3539232E2,2.262498E0,2.1744576E0,2.1174995E2,3.5477165E1,4.022888E1,9.516343E1],"tree_param":{"num_deleted":"0","num_feature":"22","num_nodes":"11","size_leaf_vector":"0"}},{"base_weights":[-1.4452216E-2,6.114935E-1,-2.8703084E-2,-4.2829686E-1,8.869086E-1,1.7862175E-1,-7.602477E-2,8.220312E-2,1.1284848E0,-4.453875E-1,2.7793393E-1,3.090567E-1,-1.18408434E-1],"categories":[],"categories_nodes":[],"categories_segments":[],"categories_sizes":[],"default_left":[0,0,0,0,0,0,0,0,0,0,0,0,0],"id":64,"left_children":[1,3,5,-1,7,9,11,-1,-1,-1,-1,-1,-1],"loss_changes":[3.4786026E0,2.8660836E0,3.7448523E0,0E0,1.3048306E0,4.5221624E0,5.1017523E0,0E0,0E0,0E0,0E0,0E0,0E0],"parents":[2147483647,0,0,1,1,2,2,4,4,5,5,6,6],"right_children":[2,4,6,-1,8,10,12,-1,-1,-1,-1,-1,-1],"split_conditions":[1.6980478E-1,1.5812513E-1,9.7503763E-1,-8.565937E-3,2.2357118E-1,6.045431E-1,6.314271E-1,1.6440623E-3,2.2569695E-2,-8.90775E-3,5.5586784E-3,6.181134E-3,-2.3681687E-3],"split_indices":[7,7,0,0,13,8,10,0,0,0,0,0,0],"split_type":[0,0,0,0,0,0,0,0,0,0,0,0,0],"sum_hessian":[3.869985E2,7.681737E0,3.7931674E2,1.4923787E0,6.189358E0,6.997389E1,3.0934286E2,1.7385193E0,4.4508386E0,9.128976E0,6.0844913E1,3.004786E1,2.79295E2],"tree_param":{"num_deleted":"0","num_feature":"22","num_nodes":"13","size_leaf_vector":"0"}},{"base_weights":[-1.4123642E-2,-1.6317561E-3,-7.2942954E-1,1.1076096E0,-9.505495E-3,2.0344165E-1,-9.8142356E-1,-6.0159467E-2,1.6785312E-1,-1.2462007E0,-2.5573501E-2],"categories":[],"categories_nodes":[],"categories_segments":[],"categories_sizes":[],"default_left":[0,0,0,0,1,0,1,0,0,0,0],"id":65,"left_children":[1,3,5,-1,7,-1,9,-1,-1,-1,-1],"loss_changes":[3.4651797E0,3.3492746E0,1.7643881E0,0E0,3.4291298E0,0E0,1.3379078E0,0E0,0E0,0E0,0E0],"parents":[2147483647,0,0,1,1,2,2,4,4,6,6],"right_children":[2,4,6,-1,8,-1,10,-1,-1,-1,-1],"split_conditions":[1.8390431E0,1.4968124E-1,9.0571815E-1,2.2152193E-2,3.2967741E0,4.068833E-3,2.32E0,-1.2031894E-3,3.3570623E-3,-2.4924014E-2,-5.1147E-4],"split_indices":[5,1,2,0,14,0,15,0,0,0,0],"split_type":[0,0,0,0,0,0,0,0,0,0,0],"sum_hessian":[3.8693158E2,3.812754E2,5.6561966E0,1.7028924E0,3.7957248E2,1.2439224E0,4.4122744E0,2.9576285E2,8.3809654E1,3.2172987E0,1.1949756E0],"tree_param":{"num_deleted":"0","num_feature":"22","num_nodes":"11","size_leaf_vector":"0"}},{"base_weights":[-1.3835178E-2,6.210243E-1,-2.7731614E-2,1.1517786E0,-3.557973E-2,-1.0520896E0,-1.7385842E-2,6.297898E-1,-4.5668644E-1,-1.2065568E0,-3.385904E-1,2.9040774E-2,-2.1636194E-1],"categories":[],"categories_nodes":[],"categories_segments":[],"categories_sizes":[],"default_left":[0,1,1,0,0,0,0,0,0,0,0,0,0],"id":66,"left_children":[1,3,5,-1,7,9,11,-1,-1,-1,-1,-1,-1],"loss_changes":[3.4393888E0,2.951481E0,4.014677E0,0E0,1.6054261E0,8.979797E-3,3.495954E0,0E0,0E0,0E0,0E0,0E0,0E0],"parents":[2147483647,0,0,1,1,2,2,4,4,5,5,6,6],"right_children":[2,4,6,-1,8,10,12,-1,-1,-1,-1,-1,-1],"split_conditions":[6.176212E-1,1.9721806E0,6.392106E-1,2.3035571E-2,5.612993E-1,6.2809825E-1,1.0419087E0,1.2595796E-2,-9.133728E-3,-2.4131136E-2,-6.771808E-3,5.808155E-4,-4.3272385E-3],"split_indices":[6,21,6,0,6,8,7,0,0,0,0,0,0],"split_type":[0,0,0,0,0,0,0,0,0,0,0,0,0],"sum_hessian":[3.869003E2,7.3516207E0,3.7954868E2,3.648376E0,3.7032444E0,2.7882185E0,3.7676047E2,1.243265E0,2.4599795E0,1.7239534E0,1.0642651E0,3.0617535E2,7.058511E1],"tree_param":{"num_deleted":"0","num_feature":"22","num_nodes":"13","size_leaf_vector":"0"}},{"base_weights":[-1.35804685E-2,-2.4905882E-3,-7.9724336E-1,7.094186E-2,-1.21754676E-1,-8.188517E-2,-9.853808E-1,-1.2404379E-2,6.3278097E-1,-3.7167665E-1,1.8827774E-2,-1.1134282E0,-3.1563857E-1],"categories":[],"categories_nodes":[],"categories_segments":[],"categories_sizes":[],"default_left":[0,1,0,1,0,0,0,0,0,0,0,0,0],"id":67,"left_children":[1,3,5,7,9,-1,11,-1,-1,-1,-1,-1,-1],"loss_changes":[3.36886E0,3.3669047E0,6.4730096E-1,1.1150948E1,5.154066E0,0E0,8.070469E-3,0E0,0E0,0E0,0E0,0E0,0E0],"parents":[2147483647,0,0,1,1,2,2,3,3,4,4,6,6],"right_children":[2,4,6,8,10,-1,12,-1,-1,-1,-1,-1,-1],"split_conditions":[2.011544E0,1.9645295E0,1.1071482E0,2.3577316E0,9.047402E-1,-1.6377033E-3,1.0352836E0,-2.4808757E-4,1.26556195E-2,-7.4335327E-3,3.7655546E-4,-2.2268564E-2,-6.3127712E-3],"split_indices":[1,19,4,16,13,0,0,0,0,0,0,0,0],"split_type":[0,0,0,0,0,0,0,0,0,0,0,0,0],"sum_hessian":[3.8686688E2,3.8245776E2,4.409112E0,2.3696223E2,1.4549554E2,1.2169862E0,3.1921258E0,2.072026E2,2.9759626E1,5.1786934E1,9.370861E1,2.1236367E0,1.0684891E0],"tree_param":{"num_deleted":"0","num_feature":"22","num_nodes":"13","size_leaf_vector":"0"}},{"base_weights":[-1.33751305E-2,6.0250115E-1,-2.7390374E-2,-4.2259932E-1,8.7448007E-1,6.989576E-2,-1.2559038E-1,1.1128538E0,8.037886E-2,1.4897555E-1,-2.2923848E-1,-2.178856E-1,2.2943527E-1],"categories":[],"categories_nodes":[],"categories_segments":[],"categories_sizes":[],"default_left":[0,0,0,0,0,1,1,0,0,0,0,0,0],"id":68,"left_children":[1,3,5,-1,7,9,11,-1,-1,-1,-1,-1,-1],"loss_changes":[3.363935E0,2.7874494E0,3.6404119E0,0E0,1.2696099E0,4.566523E0,6.2605906E0,0E0,0E0,0E0,0E0,0E0,0E0],"parents":[2147483647,0,0,1,1,2,2,4,4,5,5,6,6],"right_children":[2,4,6,-1,8,10,12,-1,-1,-1,-1,-1,-1],"split_conditions":[1.6980478E-1,1.5812513E-1,9.9933267E-1,-8.451986E-3,1.7465425E-1,2.2272317E0,2.3290322E0,2.2257075E-2,1.6075772E-3,2.979511E-3,-4.5847697E-3,-4.357712E-3,4.588705E-3],"split_indices":[7,7,0,0,1,19,15,0,0,0,0,0,0],"split_type":[0,0,0,0,0,0,0,0,0,0,0,0,0],"sum_hessian":[3.8680884E2,7.672327E0,3.791365E2,1.4926543E0,6.1796727E0,1.9059926E2,1.8853725E2,4.444208E0,1.7354649E0,1.5114436E2,3.9454887E1,1.4994315E2,3.8594097E1],"tree_param":{"num_deleted":"0","num_feature":"22","num_nodes":"13","size_leaf_vector":"0"}},{"base_weights":[-1.3074007E-2,6.15216E-1,-2.6801804E-2,1.1360133E0,-2.9398063E-2,-1.0397701E0,-1.6591493E-2,6.248662E-1,-4.4536698E-1,-1.1923648E0,-3.3336565E-1,4.8614547E-1,-3.4251705E-2],"categories":[],"categories_nodes":[],"categories_segments":[],"categories_sizes":[],"default_left":[0,1,1,0,0,0,1,0,0,0,0,0,0],"id":69,"left_children":[1,3,5,-1,7,9,11,-1,-1,-1,-1,-1,-1],"loss_changes":[3.360683E0,2.8306642E0,3.9171057E0,0E0,1.5569556E0,9.942532E-3,3.3693178E0,0E0,0E0,0E0,0E0,0E0,0E0],"parents":[2147483647,0,0,1,1,2,2,4,4,5,5,6,6],"right_children":[2,4,6,-1,8,10,12,-1,-1,-1,-1,-1,-1],"split_conditions":[6.176212E-1,1.9721806E0,6.392106E-1,2.2720264E-2,5.612993E-1,6.2809825E-1,1.735484E-1,1.2497324E-2,-8.90734E-3,-2.3847295E-2,-6.6673127E-3,9.722909E-3,-6.850341E-4],"split_indices":[6,21,6,0,6,8,15,0,0,0,0,0,0],"split_type":[0,0,0,0,0,0,0,0,0,0,0,0,0],"sum_hessian":[3.8673096E2,7.332313E0,3.7939865E2,3.634007E0,3.698306E0,2.7797856E0,3.7661887E2,1.2422369E0,2.4560692E0,1.7202499E0,1.0595359E0,1.18807E1,3.6473816E2],"tree_param":{"num_deleted":"0","num_feature":"22","num_nodes":"13","size_leaf_vector":"0"}},{"base_weights":[-1.2800877E-2,-6.188824E-4,-7.135387E-1,1.0837319E0,-8.286738E-3,2.04755E-1,-9.639713E-1,-7.283394E-2,1.2430327E-1,-1.2283368E0,-1.88225E-2],"categories":[],"categories_nodes":[],"categories_segments":[],"categories_sizes":[],"default_left":[0,0,0,0,1,0,1,0,0,0,0],"id":70,"left_children":[1,3,5,-1,7,-1,9,-1,-1,-1,-1],"loss_changes":[3.309073E0,3.185767E0,1.7206709E0,0E0,3.2644725E0,0E0,1.3210793E0,0E0,0E0,0E0,0E0],"parents":[2147483647,0,0,1,1,2,2,4,4,6,6],"right_children":[2,4,6,-1,8,-1,10,-1,-1,-1,-1],"split_conditions":[1.8390431E0,1.4968124E-1,9.0571815E-1,2.1674637E-2,2.4934409E0,4.0951E-3,2.32E0,-1.4566787E-3,2.4860653E-3,-2.4566736E-2,-3.7645E-4],"split_indices":[5,1,2,0,14,0,15,0,0,0,0],"split_type":[0,0,0,0,0,0,0,0,0,0,0],"sum_hessian":[3.866951E2,3.8107126E2,5.6238594E0,1.690388E0,3.7938086E2,1.2441537E0,4.379706E0,2.5546605E2,1.239148E2,3.1882927E0,1.1914132E0],"tree_param":{"num_deleted":"0","num_feature":"22","num_nodes":"11","size_leaf_vector":"0"}},{"base_weights":[-1.2541617E-2,-1.6577884E-3,-7.8475064E-1,7.060247E-2,-1.19017564E-1,-1.0868325E0,-2.2844337E-1,-1.088597E-2,6.2017107E-1,-3.612398E-1,1.7156241E-2],"categories":[],"categories_nodes":[],"categories_segments":[],"categories_sizes":[],"default_left":[0,1,1,1,0,0,0,0,0,0,0],"id":71,"left_children":[1,3,5,7,9,-1,-1,-1,-1,-1,-1],"loss_changes":[3.2568474E0,3.2587647E0,6.568098E-1,1.0658318E1,4.8361344E0,0E0,0E0,0E0,0E0,0E0,0E0],"parents":[2147483647,0,0,1,1,2,2,3,3,4,4],"right_children":[2,4,6,8,10,-1,-1,-1,-1,-1,-1],"split_conditions":[2.011544E0,1.9645295E0,2.0360181E0,2.3577316E0,9.047402E-1,-2.173665E-2,-4.5688674E-3,-2.177194E-4,1.2403421E-2,-7.224796E-3,3.4312482E-4],"split_indices":[1,19,3,16,13,0,0,0,0,0,0],"split_type":[0,0,0,0,0,0,0,0,0,0,0],"sum_hessian":[3.8666296E2,3.8227713E2,4.3858232E0,2.3684586E2,1.4543129E2,2.224329E0,2.161494E0,2.0711555E2,2.97303E1,5.1741734E1,9.368956E1],"tree_param":{"num_deleted":"0","num_feature":"22","num_nodes":"11","size_leaf_vector":"0"}},{"base_weights":[-1.2347183E-2,6.077334E-1,-2.5866E-2,1.1182266E0,-2.3818016E-2,-1.0268191E0,-1.581468E-2,6.2062645E-1,-4.3531743E-1,-1.1791764E0,-3.234491E-1,2.9789085E-2,-2.113557E-1],"categories":[],"categories_nodes":[],"categories_segments":[],"categories_sizes":[],"default_left":[0,1,1,0,0,0,0,0,0,0,0,0,0],"id":72,"left_children":[1,3,5,-1,7,9,11,-1,-1,-1,-1,-1,-1],"loss_changes":[3.26487E0,2.7060747E0,3.8098042E0,0E0,1.5149881E0,2.2083998E-2,3.3728244E0,0E0,0E0,0E0,0E0,0E0,0E0],"parents":[2147483647,0,0,1,1,2,2,4,4,5,5,6,6],"right_children":[2,4,6,-1,8,10,12,-1,-1,-1,-1,-1,-1],"split_conditions":[6.176212E-1,1.9721806E0,6.392106E-1,2.2364533E-2,5.612993E-1,6.2809825E-1,1.0419087E0,1.24125285E-2,-8.706348E-3,-2.3583528E-2,-6.468982E-3,5.9578166E-4,-4.227114E-3],"split_indices":[6,21,6,0,6,8,7,0,0,0,0,0,0],"split_type":[0,0,0,0,0,0,0,0,0,0,0,0,0],"sum_hessian":[3.8659927E2,7.3108497E0,3.7928842E2,3.6167605E0,3.694089E0,2.7651525E0,3.7652325E2,1.2415323E0,2.4525566E0,1.7168069E0,1.0483454E0,3.0600494E2,7.0518326E1],"tree_param":{"num_deleted":"0","num_feature":"22","num_nodes":"13","size_leaf_vector":"0"}},{"base_weights":[-1.212083E-2,1.8065923E-1,-5.5268347E-2,-4.455178E-1,2.7966878E-1,5.8819115E-1,-7.729483E-2,3.9335632E-1,-9.8083425E-1,4.0295625E-1,-4.1430283E-1,-9.574703E-3,1.1175265E0,-2.708568E-1,9.33951E-3],"categories":[],"categories_nodes":[],"categories_segments":[],"categories_sizes":[],"default_left":[0,0,0,0,0,0,1,0,0,0,0,0,0,0,0],"id":73,"left_children":[1,3,5,7,9,11,13,-1,-1,-1,-1,-1,-1,-1,-1],"loss_changes":[3.233726E0,4.5334597E0,4.5447216E0,4.919004E0,5.4731483E0,3.3720775E0,5.164502E0,0E0,0E0,0E0,0E0,0E0,0E0,0E0,0E0],"parents":[2147483647,0,0,1,1,2,2,3,3,4,4,5,5,6,6],"right_children":[2,4,6,8,10,12,14,-1,-1,-1,-1,-1,-1,-1,-1],"split_conditions":[9.7503763E-1,6.045431E-1,5.345638E-1,6.234044E-1,1.3978395E0,8.6540353E-1,9.6266365E-1,7.867127E-3,-1.9616684E-2,8.059124E-3,-8.286056E-3,-1.9149405E-4,2.235053E-2,-5.417136E-3,1.867902E-4],"split_indices":[0,8,10,6,1,13,4,0,0,0,0,0,0,0,0],"split_type":[0,0,0,0,0,0,0,0,0,0,0,0,0,0,0],"sum_hessian":[3.8656296E2,7.011354E1,3.164494E2,9.094765E0,6.101878E1,9.623197E0,3.068262E2,3.6461735E0,5.4485917E0,5.216989E1,8.848888E0,4.9806166E0,4.64258E0,9.42106E1,2.126156E2],"tree_param":{"num_deleted":"0","num_feature":"22","num_nodes":"15","size_leaf_vector":"0"}},{"base_weights":[-1.1867924E-2,5.8793885E-1,-2.5508123E-2,-4.236495E-1,8.5777426E-1,6.9852784E-2,-1.21768124E-1,6.77078E-2,1.0977621E0,4.8518397E-2,1.2041179E0,-2.1177109E-1,2.2416507E-1],"categories":[],"categories_nodes":[],"categories_segments":[],"categories_sizes":[],"default_left":[0,0,0,0,0,0,1,0,0,0,0,0,0],"id":74,"left_children":[1,3,5,-1,7,9,11,-1,-1,-1,-1,-1,-1],"loss_changes":[3.1850395E0,2.7264326E0,3.4949353E0,0E0,1.2841392E0,4.5739822E0,5.9437494E0,0E0,0E0,0E0,0E0,0E0,0E0],"parents":[2147483647,0,0,1,1,2,2,4,4,5,5,6,6],"right_children":[2,4,6,-1,8,10,12,-1,-1,-1,-1,-1,-1],"split_conditions":[1.6980478E-1,1.5812513E-1,9.9933267E-1,-8.472989E-3,2.2357118E-1,9.990386E-1,2.3290322E0,1.354156E-3,2.1955242E-2,9.703679E-4,2.4082357E-2,-4.235422E-3,4.483301E-3],"split_indices":[7,7,0,0,13,0,15,0,0,0,0,0,0],"split_type":[0,0,0,0,0,0,0,0,0,0,0,0,0],"sum_hessian":[3.8646545E2,7.657006E0,3.7880847E2,1.4923378E0,6.164668E0,1.9043073E2,1.8837773E2,1.7349967E0,4.4296713E0,1.8793857E2,2.4921603E0,1.497932E2,3.8584534E1],"tree_param":{"num_deleted":"0","num_feature":"22","num_nodes":"13","size_leaf_vector":"0"}}]},"name":"gbtree"},"learner_model_param":{"base_score":"5E-1","boost_from_average":"0","num_class":"0","num_feature":"22","num_target":"1"},"objective":{"name":"binary:logistic","reg_loss_param":{"scale_pos_weight":"1"}}},"version":[1,7,1]}