{"learner":{"attributes":{"best_iteration":"74","best_ntree_limit":"75","scikit_learn":"{\"use_label_encoder\": null, \"n_estimators\": 75, \"objective\": \"binary:logistic\", \"max_depth\": 3, \"max_leaves\": null, \"max_bin\": null, \"grow_policy\": null, \"learning_rate\": 0.02, \"verbosity\": null, \"booster\": null, \"tree_method\": null, \"gamma\": null, \"min_child_weight\": null, \"max_delta_step\": null, \"subsample\": null, \"sampling_method\": null, \"colsample_bytree\": null, \"colsample_bylevel\": null, \"colsample_bynode\": null, \"reg_alpha\": null, \"reg_lambda\": null, \"scale_pos_weight\": null, \"base_score\": null, \"missing\": NaN, \"num_parallel_tree\": null, \"random_state\": 2022, \"n_jobs\": -1, \"monotone_constraints\": null, \"interaction_constraints\": null, \"importance_type\": null, \"gpu_id\": null, \"validate_parameters\": null, \"predictor\": null, \"enable_categorical\": false, \"feature_types\": null, \"max_cat_to_onehot\": null, \"max_cat_threshold\": null, \"eval_metric\": null, \"early_stopping_rounds\": null, \"callbacks\": null, \"classes_\": [0.0, 1.0], \"n_classes_\": 2, \"evals_result_\": {\"validation_0\": {\"logloss\": [0.6921759312871902, 0.6912405331172641, 0.690339587113214, 0.689470538828108, 0.6886296646935599, 0.6878171694467938, 0.6870313612241593, 0.6862456957499187, 0.6855052823112124, 0.684809451708718, 0.6840830019163707, 0.6834225678822351, 0.6827882113153972, 0.682189106903379, 0.6816107793081374, 0.680931595999097, 0.68038047661857, 0.6797715312715561, 0.6792710407953414, 0.6785396118012685, 0.6779713404367841, 0.6773893035404266, 0.6766880164070735, 0.6760810797744327, 0.6754056027011266, 0.6748757628599803, 0.6743298844307188, 0.6736787053327712, 0.6731336210455213, 0.6725033763666002, 0.6719852016274891, 0.6714443455045186, 0.6709491489047096, 0.6703441999829005, 0.6698856696249946, 0.6693000327594697, 0.6688144606446463, 0.6683035447862413, 0.6677377675260816, 0.6672364438715436, 0.666764242062493, 0.6663037640518612, 0.665825383928087, 0.6653595093129173, 0.6648825157067132, 0.664442789384297, 0.6640435414844089, 0.6635814275249602, 0.663283402011508, 0.6628975759422968, 0.6626076672001491, 0.6623242434055087, 0.6619495277745383, 0.6616735515897236, 0.6612784046218508, 0.6608247595173972, 0.6605574459878225, 0.6602921476250603, 0.6599142868935116, 0.6596558517690689, 0.6593309472666846, 0.6588940336779943, 0.6586413847264789, 0.6582995343775976, 0.6580557493179563, 0.6576384856019701, 0.657389149400923, 0.6570830120737591, 0.6567806793772986, 0.6563754915055775, 0.656148335536321, 0.6558546340654767, 0.6554667254478213, 0.6552310206965795, 0.655045922710782]}, \"validation_1\": {\"logloss\": [0.6930417687759787, 0.692950505895663, 0.6928727415007383, 0.6927595294369053, 0.6928892283875325, 0.6927974395037908, 0.6929497181764109, 0.692879458671899, 0.6930499409661075, 0.6928964281445227, 0.6927927278625179, 0.6928470391912509, 0.6926230916819597, 0.6927804679132356, 0.6924863996239483, 0.6925459336205787, 0.6922731426766682, 0.6924637003901041, 0.6922376022726147, 0.6922731644611069, 0.6921359271870047, 0.6920120014151946, 0.6920560530297042, 0.6921525546136846, 0.6922025930155352, 0.6924442794117226, 0.6923336539474235, 0.6923906273648218, 0.6923658988500004, 0.6923150034422801, 0.6922146526690062, 0.6922564122277468, 0.6920608911417463, 0.6921351707828831, 0.6923957144851007, 0.692365688267093, 0.692282022180291, 0.6921537929228719, 0.6922395496350254, 0.6921470684145913, 0.6922147366298637, 0.6921411873725465, 0.6920553779390257, 0.6920315156582043, 0.6922768526119629, 0.6922106084787301, 0.692185280816204, 0.6919740756151035, 0.6918494817115328, 0.6918595916577402, 0.6917229787952404, 0.6916069490504144, 0.6915954720550382, 0.6914665312482621, 0.6914580322915528, 0.6920794377926037, 0.6919277836828668, 0.6918445668244725, 0.6918422178114731, 0.6917442662007918, 0.6916733651899444, 0.6923050106630713, 0.6922285331384784, 0.6923273609676942, 0.6921864173890371, 0.6928269907756506, 0.6927491896194855, 0.6926867886999537, 0.6926249830704655, 0.6932733449990374, 0.6931395252343967, 0.6930825845692968, 0.693738340423797, 0.6936203106708333, 0.693512042161777]}}, \"_estimator_type\": \"classifier\"}"},"feature_names":["Close_Ratio_2","Trend_2","Close_Ratio_5","Trend_5","Close_Ratio_15","Trend_15","Close_Ratio_30","Trend_30","Close_Ratio_60","Trend_60","Close_Ratio_90","Trend_90","Close_Ratio_250","Trend_250","US_inflation","SE_inflation","US_inflation_75","SE_inflation_75","US_inflation_90","SE_inflation_90","US_inflation_250","SE_inflation_250"],"feature_types":["float","float","float","float","float","float","float","float","float","float","float","float","float","float","float","float","float","float","float","float","float","float"],"gradient_booster":{"model":{"gbtree_model_param":{"num_parallel_tree":"1","num_trees":"75","size_leaf_vector":"0"},"tree_info":[0,0,0,0,0,0,0,0,0,0,0,0,0,0,0,0,0,0,0,0,0,0,0,0,0,0,0,0,0,0,0,0,0,0,0,0,0,0,0,0,0,0,0,0,0,0,0,0,0,0,0,0,0,0,0,0,0,0,0,0,0,0,0,0,0,0,0,0,0,0,0,0,0,0,0],"trees":[{"base_weights":[-3.6732107E-2,2.1563342E-1,-2.592152E-1,8.8372093E-1,1.2727273E-1,-5.355191E-1,-4.592902E-2,5.3333336E-1,1.4666667E0,3.7696335E-1,-2.1276596E-1,1.2244898E-1,-6.292835E-1,1.4285715E0,-8.955224E-2],"categories":[],"categories_nodes":[],"categories_segments":[],"categories_sizes":[],"default_left":[0,0,1,0,0,0,0,0,0,0,0,0,0,0,0],"id":0,"left_children":[1,3,5,7,9,11,13,-1,-1,-1,-1,-1,-1,-1,-1],"loss_changes":[2.2219952E1,1.0838088E1,1.2365816E1,3.6093025E0,1.4089443E1,5.7220535E0,7.830546E0,0E0,0E0,0E0,0E0,0E0,0E0,0E0,0E0],"parents":[2147483647,0,0,1,1,2,2,3,3,4,4,5,5,6,6],"right_children":[2,4,6,8,10,12,14,-1,-1,-1,-1,-1,-1,-1,-1],"split_conditions":[9.9824464E-1,2.317968E-1,9.773648E-1,9.9676895E-1,9.8450804E-1,6.8960565E-1,2.1006814E-1,1.0666667E-2,2.9333333E-2,7.5392667E-3,-4.255319E-3,2.4489795E-3,-1.258567E-2,2.8571429E-2,-1.7910447E-3],"split_indices":[0,13,6,2,2,8,13,0,0,0,0,0,0,0,0],"split_type":[0,0,0,0,0,0,0,0,0,0,0,0,0,0,0],"sum_hessian":[3.9375E2,1.845E2,2.0925E2,2.05E1,1.64E2,9.05E1,1.1875E2,1.4E1,6.5E0,9.45E1,6.95E1,1.125E1,7.925E1,2.5E0,1.1625E2],"tree_param":{"num_deleted":"0","num_feature":"22","num_nodes":"15","size_leaf_vector":"0"}},{"base_weights":[-3.5846286E-2,2.1155809E-1,-2.539563E-1,8.679802E-1,1.24748416E-1,-5.249377E-1,-4.478697E-2,5.233917E-1,1.441515E0,3.695082E-1,-2.0857196E-1,1.2020003E-1,-6.168788E-1,1.4083699E0,-8.777653E-2],"categories":[],"categories_nodes":[],"categories_segments":[],"categories_sizes":[],"default_left":[0,0,1,0,0,0,0,0,0,0,0,0,0,0,0],"id":1,"left_children":[1,3,5,7,9,11,13,-1,-1,-1,-1,-1,-1,-1,-1],"loss_changes":[2.135459E1,1.0462017E1,1.1893457E1,3.4942894E0,1.3538198E1,5.501255E0,7.604434E0,0E0,0E0,0E0,0E0,0E0,0E0,0E0,0E0],"parents":[2147483647,0,0,1,1,2,2,3,3,4,4,5,5,6,6],"right_children":[2,4,6,8,10,12,14,-1,-1,-1,-1,-1,-1,-1,-1],"split_conditions":[9.9824464E-1,2.317968E-1,9.773648E-1,9.9676895E-1,9.8450804E-1,6.8960565E-1,2.1006814E-1,1.0467834E-2,2.88303E-2,7.390164E-3,-4.171439E-3,2.4040006E-3,-1.2337576E-2,2.8167397E-2,-1.7555305E-3],"split_indices":[0,13,6,2,2,8,13,0,0,0,0,0,0,0,0],"split_type":[0,0,0,0,0,0,0,0,0,0,0,0,0,0,0],"sum_hessian":[3.937428E2,1.8449655E2,2.0924625E2,2.0498203E1,1.6399835E2,9.049685E1,1.1874939E2,1.3999602E1,6.498602E0,9.449866E1,6.949969E1,1.1249983E1,7.924687E1,2.49949E0,1.162499E2],"tree_param":{"num_deleted":"0","num_feature":"22","num_nodes":"15","size_leaf_vector":"0"}},{"base_weights":[-3.4981642E-2,2.0756792E-1,-2.4881196E-1,8.5265994E-1,1.2227671E-1,-5.1460004E-1,-4.36711E-2,5.136621E-1,1.4173107E0,3.622106E-1,-2.0446235E-1,1.1799277E-1,-6.047649E-1,1.3888525E0,-8.60361E-2],"categories":[],"categories_nodes":[],"categories_segments":[],"categories_sizes":[],"default_left":[0,0,1,0,0,0,0,0,0,0,0,0,0,0,0],"id":2,"left_children":[1,3,5,7,9,11,13,-1,-1,-1,-1,-1,-1,-1,-1],"loss_changes":[2.0523668E1,1.010133E1,1.1440393E1,3.3860617E0,1.300885E1,5.2895947E0,7.386839E0,0E0,0E0,0E0,0E0,0E0,0E0,0E0,0E0],"parents":[2147483647,0,0,1,1,2,2,3,3,4,4,5,5,6,6],"right_children":[2,4,6,8,10,12,14,-1,-1,-1,-1,-1,-1,-1,-1],"split_conditions":[9.9824464E-1,2.317968E-1,9.773648E-1,9.9676895E-1,9.8450804E-1,6.8960565E-1,2.1006814E-1,1.0273241E-2,2.8346214E-2,7.244212E-3,-4.089247E-3,2.3598555E-3,-1.2095298E-2,2.777705E-2,-1.720722E-3],"split_indices":[0,13,6,2,2,8,13,0,0,0,0,0,0,0,0],"split_type":[0,0,0,0,0,0,0,0,0,0,0,0,0,0,0],"sum_hessian":[3.937217E2,1.8448643E2,2.0923526E2,2.0492943E1,1.639935E2,9.0487625E1,1.1874763E2,1.3998437E1,6.494506E0,9.4494736E1,6.9498764E1,1.1249933E1,7.923769E1,2.4979892E0,1.1624964E2],"tree_param":{"num_deleted":"0","num_feature":"22","num_nodes":"15","size_leaf_vector":"0"}},{"base_weights":[-3.41377E-2,2.036604E-1,-2.4377915E-1,8.3774114E-1,1.19856104E-1,-5.0449777E-1,-4.258101E-2,5.0413805E-1,1.3939959E0,3.5506603E-1,-2.0043527E-1,-9.7507143E-1,-3.759801E-1,1.3699841E0,-8.433054E-2],"categories":[],"categories_nodes":[],"categories_segments":[],"categories_sizes":[],"default_left":[0,0,1,0,0,1,0,0,0,0,0,0,0,0,0],"id":3,"left_children":[1,3,5,7,9,11,13,-1,-1,-1,-1,-1,-1,-1,-1],"loss_changes":[1.9725742E1,9.755227E0,1.1005706E1,3.2840595E0,1.2500479E1,5.16539E0,7.177348E0,0E0,0E0,0E0,0E0,0E0,0E0,0E0,0E0],"parents":[2147483647,0,0,1,1,2,2,3,3,4,4,5,5,6,6],"right_children":[2,4,6,8,10,12,14,-1,-1,-1,-1,-1,-1,-1,-1],"split_conditions":[9.9824464E-1,2.317968E-1,9.773648E-1,9.9676895E-1,9.8450804E-1,9.7637814E-1,2.1006814E-1,1.0082761E-2,2.7879916E-2,7.1013207E-3,-4.0087053E-3,-1.9501429E-2,-7.519602E-3,2.7399682E-2,-1.6866107E-3],"split_indices":[0,13,6,2,2,2,13,0,0,0,0,0,0,0,0],"split_type":[0,0,0,0,0,0,0,0,0,0,0,0,0,0,0],"sum_hessian":[3.936875E2,1.8447006E2,2.0921744E2,2.0484402E1,1.6398567E2,9.047271E1,1.1874473E2,1.3996548E1,6.4878535E0,9.448839E1,6.9497284E1,1.7995235E1,7.247747E1,2.495541E0,1.1624919E2],"tree_param":{"num_deleted":"0","num_feature":"22","num_nodes":"15","size_leaf_vector":"0"}},{"base_weights":[-3.335754E-2,1.998334E-1,-2.38933E-1,8.232054E-1,1.1748546E-1,-4.9479222E-1,-4.1515745E-2,4.9481305E-1,1.3715167E0,3.4807086E-1,-1.964892E-1,1.2688933E-1,-5.8357185E-1,1.157335E0,-9.024374E-2],"categories":[],"categories_nodes":[],"categories_segments":[],"categories_sizes":[],"default_left":[0,0,1,0,0,0,0,0,0,0,0,0,0,0,0],"id":4,"left_children":[1,3,5,7,9,11,13,-1,-1,-1,-1,-1,-1,-1,-1],"loss_changes":[1.896637E1,9.422949E0,1.0596733E1,3.187767E0,1.2012248E1,5.121769E0,7.0994105E0,0E0,0E0,0E0,0E0,0E0,0E0,0E0,0E0],"parents":[2147483647,0,0,1,1,2,2,3,3,4,4,5,5,6,6],"right_children":[2,4,6,8,10,12,14,-1,-1,-1,-1,-1,-1,-1,-1],"split_conditions":[9.9824464E-1,2.317968E-1,9.773648E-1,9.9676895E-1,9.8450804E-1,6.8960565E-1,9.8522854E-1,9.896261E-3,2.7430333E-2,6.961417E-3,-3.929784E-3,2.5377865E-3,-1.1671437E-2,2.31467E-2,-1.8048747E-3],"split_indices":[0,13,6,2,2,8,6,0,0,0,0,0,0,0,0],"split_type":[0,0,0,0,0,0,0,0,0,0,0,0,0,0,0],"sum_hessian":[3.9364496E2,1.8444777E2,2.0919717E2,2.047276E1,1.63975E2,9.04564E1,1.1874078E2,1.3993977E1,6.478783E0,9.447976E1,6.9495255E1,1.124984E1,7.920656E1,3.7491765E0,1.1499161E2],"tree_param":{"num_deleted":"0","num_feature":"22","num_nodes":"15","size_leaf_vector":"0"}},{"base_weights":[-3.2561425E-2,1.9608483E-1,-2.3412506E-1,8.0903643E-1,1.15163535E-1,-4.8512608E-1,-4.0507495E-2,4.856821E-1,1.3498241E0,3.412211E-1,-1.9262207E-1,-9.49292E-1,-3.5854968E-1,1.3512914E0,-8.161481E-2],"categories":[],"categories_nodes":[],"categories_segments":[],"categories_sizes":[],"default_left":[0,0,1,0,0,1,0,0,0,0,0,0,0,0,0],"id":5,"left_children":[1,3,5,7,9,11,13,-1,-1,-1,-1,-1,-1,-1,-1],"loss_changes":[1.8231369E1,9.10381E0,1.01943245E1,3.0967236E0,1.1543311E1,5.031496E0,6.9609647E0,0E0,0E0,0E0,0E0,0E0,0E0,0E0,0E0],"parents":[2147483647,0,0,1,1,2,2,3,3,4,4,5,5,6,6],"right_children":[2,4,6,8,10,12,14,-1,-1,-1,-1,-1,-1,-1,-1],"split_conditions":[9.9824464E-1,2.317968E-1,9.773648E-1,9.9676895E-1,9.8450804E-1,9.7637814E-1,2.1006814E-1,9.713641E-3,2.699648E-2,6.8244217E-3,-3.8524412E-3,-1.898584E-2,-7.1709934E-3,2.7025828E-2,-1.6322961E-3],"split_indices":[0,13,6,2,2,2,13,0,0,0,0,0,0,0,0],"split_type":[0,0,0,0,0,0,0,0,0,0,0,0,0,0,0],"sum_hessian":[3.9359177E2,1.844199E2,2.0917186E2,2.0458187E1,1.6396172E2,9.0432205E1,1.18739655E2,1.3990762E1,6.467426E0,9.446899E1,6.949274E1,1.7983927E1,7.244828E1,2.492057E0,1.162476E2],"tree_param":{"num_deleted":"0","num_feature":"22","num_nodes":"15","size_leaf_vector":"0"}},{"base_weights":[-3.181631E-2,1.9241281E-1,-2.2947948E-1,7.952181E-1,1.1288936E-1,-4.758412E-1,-3.948653E-2,4.7673905E-1,1.3288722E0,3.345135E-1,-1.888324E-1,1.3525115E-1,-5.632868E-1,1.1390904E0,-8.739394E-2],"categories":[],"categories_nodes":[],"categories_segments":[],"categories_sizes":[],"default_left":[0,0,1,0,0,0,0,0,0,0,0,0,0,0,0],"id":6,"left_children":[1,3,5,7,9,11,13,-1,-1,-1,-1,-1,-1,-1,-1],"loss_changes":[1.753039E1,8.797144E0,9.817318E0,3.0105104E0,1.1092906E1,4.960745E0,6.860072E0,0E0,0E0,0E0,0E0,0E0,0E0,0E0,0E0],"parents":[2147483647,0,0,1,1,2,2,3,3,4,4,5,5,6,6],"right_children":[2,4,6,8,10,12,14,-1,-1,-1,-1,-1,-1,-1,-1],"split_conditions":[9.9824464E-1,2.317968E-1,9.773648E-1,9.9676895E-1,9.8450804E-1,6.8960565E-1,9.8522854E-1,9.534781E-3,2.6577443E-2,6.6902693E-3,-3.7766478E-3,2.705023E-3,-1.1265735E-2,2.2781808E-2,-1.7478787E-3],"split_indices":[0,13,6,2,2,8,6,0,0,0,0,0,0,0,0],"split_type":[0,0,0,0,0,0,0,0,0,0,0,0,0,0,0],"sum_hessian":[3.9352863E2,1.843868E2,2.0914183E2,2.044085E1,1.6394594E2,9.040725E1,1.1873458E2,1.3986941E1,6.453908E0,9.445621E1,6.948974E1,1.1249081E1,7.915817E1,3.7481797E0,1.14986404E2],"tree_param":{"num_deleted":"0","num_feature":"22","num_nodes":"15","size_leaf_vector":"0"}},{"base_weights":[-3.1054934E-2,1.8881509E-1,-2.2486839E-1,6.6955835E-1,9.197416E-2,-4.665853E-1,-3.8521584E-2,1.4323031E0,3.9752865E-1,5.4506266E-1,-4.5347907E-2,-9.2464703E-1,-3.418838E-1,1.3332256E0,-7.899746E-2],"categories":[],"categories_nodes":[],"categories_segments":[],"categories_sizes":[],"default_left":[0,0,1,0,0,1,0,0,0,0,0,0,0,0,0],"id":7,"left_children":[1,3,5,7,9,11,13,-1,-1,-1,-1,-1,-1,-1,-1],"loss_changes":[1.6851707E1,8.567445E0,9.445918E0,5.8456345E0,9.695511E0,4.9032993E0,6.753175E0,0E0,0E0,0E0,0E0,0E0,0E0,0E0,0E0],"parents":[2147483647,0,0,1,1,2,2,3,3,4,4,5,5,6,6],"right_children":[2,4,6,8,10,12,14,-1,-1,-1,-1,-1,-1,-1,-1],"split_conditions":[9.9824464E-1,2.581936E-1,9.773648E-1,9.726783E-1,9.3638945E-1,9.7637814E-1,2.1006814E-1,2.8646061E-2,7.950573E-3,1.0901253E-2,-9.069581E-4,-1.849294E-2,-6.837676E-3,2.6664512E-2,-1.5799492E-3],"split_indices":[0,13,6,2,2,2,13,0,0,0,0,0,0,0,0],"split_type":[0,0,0,0,0,0,0,0,0,0,0,0,0,0,0],"sum_hessian":[3.9345584E2,1.8434875E2,2.0910709E2,2.9917345E1,1.5443141E2,9.0374855E1,1.1873222E2,6.743628E0,2.3173717E1,3.52282E1,1.1920321E2,1.796602E1,7.240884E1,2.4875968E0,1.1624463E2],"tree_param":{"num_deleted":"0","num_feature":"22","num_nodes":"15","size_leaf_vector":"0"}},{"base_weights":[-3.0321062E-2,1.8531655E-1,-2.2041348E-1,7.71231E-1,1.08132295E-1,-4.5769626E-1,-3.7543073E-2,4.55959E-1,1.3026297E0,3.2345122E-1,-1.8491618E-1,1.4310429E-1,-5.4385394E-1,1.1213738E0,-8.464429E-2],"categories":[],"categories_nodes":[],"categories_segments":[],"categories_sizes":[],"default_left":[0,0,1,0,0,0,0,0,0,0,0,0,0,0,0],"id":8,"left_children":[1,3,5,7,9,11,13,-1,-1,-1,-1,-1,-1,-1,-1],"loss_changes":[1.6207392E1,8.297559E0,9.098103E0,2.9927254E0,1.0465766E1,4.8060303E0,6.630333E0,0E0,0E0,0E0,0E0,0E0,0E0,0E0,0E0],"parents":[2147483647,0,0,1,1,2,2,3,3,4,4,5,5,6,6],"right_children":[2,4,6,8,10,12,14,-1,-1,-1,-1,-1,-1,-1,-1],"split_conditions":[9.9824464E-1,2.317968E-1,9.773648E-1,9.9676895E-1,9.8450804E-1,6.8960565E-1,9.8522854E-1,9.11918E-3,2.6052594E-2,6.4690243E-3,-3.6983236E-3,2.8620856E-3,-1.0877078E-2,2.2427475E-2,-1.6928858E-3],"split_indices":[0,13,6,2,2,8,6,0,0,0,0,0,0,0,0],"split_type":[0,0,0,0,0,0,0,0,0,0,0,0,0,0,0],"sum_hessian":[3.9339185E2,1.843235E2,2.0906834E2,2.0408463E1,1.6391504E2,9.0342255E1,1.1872609E2,1.3975195E1,6.433268E0,9.442905E1,6.948599E1,1.124775E1,7.9094505E1,3.7461052E0,1.1497998E2],"tree_param":{"num_deleted":"0","num_feature":"22","num_nodes":"15","size_leaf_vector":"0"}},{"base_weights":[-2.959261E-2,1.8186072E-1,-2.1599E-1,2.1834348E-1,-9.960487E-1,-4.4882727E-1,-3.661999E-2,7.491866E-1,1.2019611E-1,-2.0045358E-1,-1.449854E0,-9.0105486E-1,-3.25941E-1,1.3157563E0,-7.647516E-2],"categories":[],"categories_nodes":[],"categories_segments":[],"categories_sizes":[],"default_left":[0,0,1,0,0,1,0,0,0,0,0,0,0,0,0],"id":9,"left_children":[1,3,5,7,9,11,13,-1,-1,-1,-1,-1,-1,-1,-1],"loss_changes":[1.5580498E1,8.179522E0,8.75506E0,9.315846E0,1.7839122E0,4.7802277E0,6.553571E0,0E0,0E0,0E0,0E0,0E0,0E0,0E0,0E0],"parents":[2147483647,0,0,1,1,2,2,3,3,4,4,5,5,6,6],"right_children":[2,4,6,8,10,12,14,-1,-1,-1,-1,-1,-1,-1,-1],"split_conditions":[9.9824464E-1,1.2375488E0,9.773648E-1,7.501105E-1,9.3515956E-1,9.7637814E-1,2.1006814E-1,1.4983731E-2,2.4039221E-3,-4.0090713E-3,-2.899708E-2,-1.8021097E-2,-6.51882E-3,2.6315127E-2,-1.5295031E-3],"split_indices":[0,11,6,10,2,2,13,0,0,0,0,0,0,0,0],"split_type":[0,0,0,0,0,0,0,0,0,0,0,0,0,0,0],"sum_hessian":[3.9330356E2,1.842784E2,2.0902515E2,1.7953247E2,4.7459297E0,9.03026E1,1.1872255E2,2.6979105E1,1.5255336E2,2.2474678E0,2.4984617E0,1.7942152E1,7.236044E1,2.4822066E0,1.1624035E2],"tree_param":{"num_deleted":"0","num_feature":"22","num_nodes":"15","size_leaf_vector":"0"}},{"base_weights":[-2.904433E-2,1.7815395E-1,-2.1171656E-1,6.456297E-1,8.4128335E-2,-4.4031173E-1,-3.5682015E-2,1.3992237E0,3.774963E-1,5.2398187E-1,-4.9071316E-2,1.504731E-1,-5.252234E-1,3.2110462E-1,-1.8522306E-1],"categories":[],"categories_nodes":[],"categories_segments":[],"categories_sizes":[],"default_left":[0,0,1,0,0,0,0,0,0,0,0,0,0,0,0],"id":10,"left_children":[1,3,5,7,9,11,13,-1,-1,-1,-1,-1,-1,-1,-1],"loss_changes":[1.4959544E1,8.088894E0,8.433966E0,5.7101727E0,9.129778E0,4.6572094E0,6.4468017E0,0E0,0E0,0E0,0E0,0E0,0E0,0E0,0E0],"parents":[2147483647,0,0,1,1,2,2,3,3,4,4,5,5,6,6],"right_children":[2,4,6,8,10,12,14,-1,-1,-1,-1,-1,-1,-1,-1],"split_conditions":[9.9824464E-1,2.581936E-1,9.773648E-1,9.726783E-1,9.3638945E-1,6.8960565E-1,2.784435E-1,2.7984474E-2,7.5499257E-3,1.0479637E-2,-9.814263E-4,3.009462E-3,-1.0504467E-2,6.422092E-3,-3.704461E-3],"split_indices":[0,13,6,2,2,8,1,0,0,0,0,0,0,0,0],"split_type":[0,0,0,0,0,0,0,0,0,0,0,0,0,0,0],"sum_hessian":[3.9324237E2,1.8426369E2,2.0897867E2,2.9873306E1,1.5439038E2,9.0263245E1,1.1871542E2,6.732659E0,2.3140648E1,3.5204346E1,1.19186035E2,1.1245934E1,7.901731E1,3.47231E1,8.3992325E1],"tree_param":{"num_deleted":"0","num_feature":"22","num_nodes":"15","size_leaf_vector":"0"}},{"base_weights":[-2.8367352E-2,1.748669E-1,-2.0755474E-1,2.1084104E-1,-9.855404E-1,-4.3180817E-1,-3.4946628E-2,7.319739E-1,1.1453627E-1,-2.0496343E-1,-1.4282286E0,-8.7844294E-1,-3.106833E-1,1.1039432E0,-8.122226E-2],"categories":[],"categories_nodes":[],"categories_segments":[],"categories_sizes":[],"default_left":[0,0,1,0,0,1,0,0,0,0,0,0,0,0,0],"id":11,"left_children":[1,3,5,7,9,11,13,-1,-1,-1,-1,-1,-1,-1,-1],"loss_changes":[1.4390413E1,7.9401603E0,8.110856E0,8.974224E0,1.6927876E0,4.661804E0,6.398847E0,0E0,0E0,0E0,0E0,0E0,0E0,0E0,0E0],"parents":[2147483647,0,0,1,1,2,2,3,3,4,4,5,5,6,6],"right_children":[2,4,6,8,10,12,14,-1,-1,-1,-1,-1,-1,-1,-1],"split_conditions":[9.9824464E-1,1.2375488E0,9.773648E-1,7.501105E-1,9.3515956E-1,9.7637814E-1,9.8522854E-1,1.4639477E-2,2.2907255E-3,-4.0992685E-3,-2.8564572E-2,-1.7568858E-2,-6.213666E-3,2.2078864E-2,-1.6244451E-3],"split_indices":[0,11,6,10,2,2,6,0,0,0,0,0,0,0,0],"split_type":[0,0,0,0,0,0,0,0,0,0,0,0,0,0,0],"sum_hessian":[3.9315967E2,1.8423009E2,2.0892958E2,1.7948415E2,4.7459397E0,9.02172E1,1.1871237E2,2.69655E1,1.5251865E2,2.2469563E0,2.4989834E0,1.791291E1,7.230429E1,3.7427871E0,1.1496958E2],"tree_param":{"num_deleted":"0","num_feature":"22","num_nodes":"15","size_leaf_vector":"0"}},{"base_weights":[-2.7853623E-2,1.7130339E-1,-2.03469E-1,7.4407834E-1,9.60388E-2,1.2948562E0,-2.2758727E-1,4.3181613E-1,1.2742219E0,3.044111E-1,-1.87233E-1,8.2949406E-1,-2.6182985E-1],"categories":[],"categories_nodes":[],"categories_segments":[],"categories_sizes":[],"default_left":[0,0,0,0,0,0,1,0,0,0,0,0,0],"id":12,"left_children":[1,3,5,7,9,-1,11,-1,-1,-1,-1,-1,-1],"loss_changes":[1.3818163E1,7.9128966E0,7.879115E0,2.9861984E0,9.787304E0,0E0,7.724674E0,0E0,0E0,0E0,0E0,0E0,0E0],"parents":[2147483647,0,0,1,1,2,2,3,3,4,4,6,6],"right_children":[2,4,6,8,10,-1,12,-1,-1,-1,-1,-1,-1],"split_conditions":[9.9824464E-1,2.317968E-1,2.1006814E-1,9.9676895E-1,9.8450804E-1,2.5897123E-2,1.1935485E-2,8.636323E-3,2.5484437E-2,6.088222E-3,-3.74466E-3,1.658988E-2,-5.236597E-3],"split_indices":[0,13,13,2,2,0,15,0,0,0,0,0,0],"split_type":[0,0,0,0,0,0,0,0,0,0,0,0,0],"sum_hessian":[3.930899E2,1.8421033E2,2.088796E2,2.0362494E1,1.6384782E2,2.4743626E0,2.0640523E2,1.3956462E1,6.4060307E0,9.436161E1,6.948621E1,5.7476964E0,2.0065753E2],"tree_param":{"num_deleted":"0","num_feature":"22","num_nodes":"13","size_leaf_vector":"0"}},{"base_weights":[-2.711494E-2,1.6812442E-1,-1.9925965E-1,1.4675004E0,1.3516514E-1,-4.187112E-1,-3.048803E-2,5.4043794E-1,2.8086655E-2,1.6220485E-1,-5.024779E-1,1.0887883E0,-7.596803E-2],"categories":[],"categories_nodes":[],"categories_segments":[],"categories_sizes":[],"default_left":[0,0,1,0,0,0,0,0,0,0,0,0,0],"id":13,"left_children":[1,3,5,-1,7,9,11,-1,-1,-1,-1,-1,-1],"loss_changes":[1.3275516E1,7.7312746E0,7.759118E0,0E0,7.868926E0,4.5167437E0,6.1757555E0,0E0,0E0,0E0,0E0,0E0,0E0],"parents":[2147483647,0,0,1,1,2,2,4,4,5,5,6,6],"right_children":[2,4,6,-1,8,10,12,-1,-1,-1,-1,-1,-1],"split_conditions":[9.9824464E-1,1.8566689E-1,9.773648E-1,2.9350009E-2,9.3638945E-1,6.8960565E-1,9.8522854E-1,1.0808758E-2,5.617331E-4,3.2440969E-3,-1.0049557E-2,2.1775765E-2,-1.5193605E-3],"split_indices":[0,3,6,0,2,8,6,0,0,0,0,0,0],"split_type":[0,0,0,0,0,0,0,0,0,0,0,0,0],"sum_hessian":[3.9299713E2,1.8415714E2,2.0883998E2,3.4789624E0,1.8067818E2,9.014487E1,1.1869512E2,3.6914883E1,1.4376329E2,1.1242511E1,7.890236E1,3.7389326E0,1.14956184E2],"tree_param":{"num_deleted":"0","num_feature":"22","num_nodes":"13","size_leaf_vector":"0"}},{"base_weights":[-2.6441112E-2,1.6500814E-1,-1.9526626E-1,2.0055607E-1,-9.800403E-1,1.2785751E0,-2.1897238E-1,7.099708E-1,1.06496334E-1,-2.138931E-1,-1.4107393E0,8.1644374E-1,-2.5254717E-1],"categories":[],"categories_nodes":[],"categories_segments":[],"categories_sizes":[],"default_left":[0,0,0,0,0,0,1,0,0,0,0,0,0],"id":14,"left_children":[1,3,5,7,9,-1,11,-1,-1,-1,-1,-1,-1],"loss_changes":[1.2763961E1,7.732056E0,7.6095333E0,8.567597E0,1.5936947E0,0E0,7.413233E0,0E0,0E0,0E0,0E0,0E0,0E0],"parents":[2147483647,0,0,1,1,2,2,3,3,4,4,6,6],"right_children":[2,4,6,8,10,-1,12,-1,-1,-1,-1,-1,-1],"split_conditions":[9.9824464E-1,1.2375488E0,2.1006814E-1,7.501105E-1,9.3515956E-1,2.55715E-2,1.1935485E-2,1.4199415E-2,2.1299266E-3,-4.277862E-3,-2.8214786E-2,1.6328875E-2,-5.0509432E-3],"split_indices":[0,11,13,10,2,0,15,0,0,0,0,0,0],"split_type":[0,0,0,0,0,0,0,0,0,0,0,0,0],"sum_hessian":[3.9290997E2,1.8412881E2,2.0878116E2,1.7938469E2,4.744133E0,2.4670508E0,2.063141E2,2.693895E1,1.5244574E2,2.2458072E0,2.498326E0,5.7475543E0,2.0056654E2],"tree_param":{"num_deleted":"0","num_feature":"22","num_nodes":"13","size_leaf_vector":"0"}},{"base_weights":[-2.5864085E-2,1.616435E-1,-1.9122595E-1,7.274769E-1,8.743139E-2,-4.533078E-1,-5.387963E-2,4.2008433E-1,1.2514122E0,2.8979212E-1,-1.87401E-1,4.227277E-1,-5.355151E-1,2.583758E-1,-2.5365886E-1],"categories":[],"categories_nodes":[],"categories_segments":[],"categories_sizes":[],"default_left":[0,0,1,0,0,1,0,0,0,0,0,0,0,0,0],"id":15,"left_children":[1,3,5,7,9,11,13,-1,-1,-1,-1,-1,-1,-1,-1],"loss_changes":[1.2242551E1,7.709201E0,7.525249E0,2.9089031E0,9.21846E0,5.410454E0,8.721188E0,0E0,0E0,0E0,0E0,0E0,0E0,0E0,0E0],"parents":[2147483647,0,0,1,1,2,2,3,3,4,4,5,5,6,6],"right_children":[2,4,6,8,10,12,14,-1,-1,-1,-1,-1,-1,-1,-1],"split_conditions":[9.9824464E-1,2.317968E-1,1.0007292E0,9.9676895E-1,9.8450804E-1,3.5193548E-1,1.0212345E0,8.401686E-3,2.5028242E-2,5.7958425E-3,-3.74802E-3,8.454554E-3,-1.0710303E-2,5.167516E-3,-5.073177E-3],"split_indices":[0,13,2,2,2,15,2,0,0,0,0,0,0,0,0],"split_type":[0,0,0,0,0,0,0,0,0,0,0,0,0,0,0],"sum_hessian":[3.9284E2,1.8410341E2,2.0873659E2,2.0325802E1,1.637776E2,7.098457E1,1.3775201E2,1.3945671E1,6.3801312E0,9.429397E1,6.948364E1,5.7343802E0,6.525019E1,5.3631905E1,8.41201E1],"tree_param":{"num_deleted":"0","num_feature":"22","num_nodes":"15","size_leaf_vector":"0"}},{"base_weights":[-2.526795E-2,1.5865466E-1,-1.8744564E-1,1.9371901E-1,-9.699167E-1,1.2658792E0,-2.1081251E-1,6.9351256E-1,1.01498194E-1,-2.1495324E-1,-1.3932791E0,8.017342E-1,-2.436729E-1],"categories":[],"categories_nodes":[],"categories_segments":[],"categories_sizes":[],"default_left":[0,0,0,0,0,0,1,0,0,0,0,0,0],"id":16,"left_children":[1,3,5,7,9,-1,11,-1,-1,-1,-1,-1,-1],"loss_changes":[1.177441E1,7.510599E0,7.388196E0,8.239985E0,1.5359507E0,0E0,7.0907564E0,0E0,0E0,0E0,0E0,0E0,0E0],"parents":[2147483647,0,0,1,1,2,2,3,3,4,4,6,6],"right_children":[2,4,6,8,10,-1,12,-1,-1,-1,-1,-1,-1],"split_conditions":[9.9824464E-1,1.2375488E0,2.1006814E-1,7.501105E-1,9.3515956E-1,2.5317583E-2,1.1935485E-2,1.387025E-2,2.0299638E-3,-4.2990646E-3,-2.7865581E-2,1.6034683E-2,-4.873458E-3],"split_indices":[0,11,13,10,2,0,15,0,0,0,0,0,0],"split_type":[0,0,0,0,0,0,0,0,0,0,0,0,0],"sum_hessian":[3.9274463E2,1.8404474E2,2.0869987E2,1.7930222E2,4.742514E0,2.4610076E0,2.0623888E2,2.691507E1,1.5238715E2,2.2456586E0,2.4968553E0,5.7472515E0,2.0049162E2],"tree_param":{"num_deleted":"0","num_feature":"22","num_nodes":"13","size_leaf_vector":"0"}},{"base_weights":[-2.4715884E-2,1.5541898E-1,-1.8356551E-1,7.1371037E-1,8.231131E-2,-3.9701274E-1,-1.9688314E-2,4.1060972E-1,1.2321596E0,2.8036147E-1,-1.8649244E-1,-8.35268E-1,-2.7871856E-1,1.0750372E0,-6.422436E-2],"categories":[],"categories_nodes":[],"categories_segments":[],"categories_sizes":[],"default_left":[0,0,1,0,0,1,0,0,0,0,0,0,0,0,0],"id":17,"left_children":[1,3,5,7,9,11,13,-1,-1,-1,-1,-1,-1,-1,-1],"loss_changes":[1.1293035E1,7.492721E0,7.3255925E0,2.8399305E0,8.821597E0,4.4850225E0,5.902493E0,0E0,0E0,0E0,0E0,0E0,0E0,0E0,0E0],"parents":[2147483647,0,0,1,1,2,2,3,3,4,4,5,5,6,6],"right_children":[2,4,6,8,10,12,14,-1,-1,-1,-1,-1,-1,-1,-1],"split_conditions":[9.9824464E-1,2.317968E-1,9.773648E-1,9.9676895E-1,9.8450804E-1,9.7637814E-1,9.8522854E-1,8.212194E-3,2.4643192E-2,5.607229E-3,-3.729849E-3,-1.670536E-2,-5.574371E-3,2.1500744E-2,-1.2844872E-3],"split_indices":[0,13,6,2,2,2,6,0,0,0,0,0,0,0,0],"split_type":[0,0,0,0,0,0,0,0,0,0,0,0,0,0,0],"sum_hessian":[3.926662E2,1.8401523E2,2.0865096E2,2.0291958E1,1.6372327E2,9.000212E1,1.18648834E2,1.3936354E1,6.3556037E0,9.424334E1,6.9479935E1,1.7841639E1,7.2160484E1,3.7336895E0,1.14915146E2],"tree_param":{"num_deleted":"0","num_feature":"22","num_nodes":"15","size_leaf_vector":"0"}},{"base_weights":[-2.414591E-2,1.5255201E-1,-1.7995898E-1,1.4267784E0,1.2039746E-1,1.2503736E0,-2.0292933E-1,5.117567E-1,1.7153224E-2,7.888306E-1,-2.3514138E-1],"categories":[],"categories_nodes":[],"categories_segments":[],"categories_sizes":[],"default_left":[0,0,0,0,0,0,1,0,0,0,0],"id":18,"left_children":[1,3,5,-1,7,-1,9,-1,-1,-1,-1],"loss_changes":[1.0862368E1,7.4061346E0,7.1398168E0,0E0,7.3245363E0,0E0,6.802785E0,0E0,0E0,0E0,0E0],"parents":[2147483647,0,0,1,1,2,2,4,4,6,6],"right_children":[2,4,6,-1,8,-1,10,-1,-1,-1,-1],"split_conditions":[9.9824464E-1,1.8566689E-1,2.1006814E-1,2.8535567E-2,9.3638945E-1,2.5007471E-2,1.1935485E-2,1.02351345E-2,3.4306446E-4,1.5776612E-2,-4.7028274E-3],"split_indices":[0,3,13,0,2,0,15,0,0,0,0],"split_type":[0,0,0,0,0,0,0,0,0,0,0],"sum_hessian":[3.9254114E2,1.8395273E2,2.0858842E2,3.4601643E0,1.8049257E2,2.4523072E0,2.0613611E2,3.6850334E1,1.4364223E2,5.7457113E0,2.003904E2],"tree_param":{"num_deleted":"0","num_feature":"22","num_nodes":"11","size_leaf_vector":"0"}},{"base_weights":[-2.3476433E-2,6.608835E-1,-6.2206328E-2,-1.265944E-1,1.3074887E0,1.9701762E-1,-1.6916117E-1,1.3263671E0,-7.463254E-1,4.3278083E-1,1.6624914E0,1.3539313E-1,1.1164688E0,-4.2643422E-1,-6.987882E-2],"categories":[],"categories_nodes":[],"categories_segments":[],"categories_sizes":[],"default_left":[0,0,0,0,1,1,1,0,0,0,0,0,0,0,0],"id":19,"left_children":[1,3,5,7,9,11,13,-1,-1,-1,-1,-1,-1,-1,-1],"loss_changes":[1.0469658E1,1.0939939E1,1.0382974E1,1.0401757E1,2.915987E0,6.0528874E0,6.7338576E0,0E0,0E0,0E0,0E0,0E0,0E0,0E0,0E0],"parents":[2147483647,0,0,1,1,2,2,3,3,4,4,5,5,6,6],"right_children":[2,4,6,8,10,12,14,-1,-1,-1,-1,-1,-1,-1,-1],"split_conditions":[9.572253E-1,8.952376E-1,2.7893874E-1,4.5740005E-1,1.8556021E0,2.3618808E0,3.5077575E-1,2.6527341E-2,-1.4926507E-2,8.655616E-3,3.324983E-2,2.7078625E-3,2.2329375E-2,-8.528684E-3,-1.3975763E-3],"split_indices":[0,2,1,7,19,16,1,0,0,0,0,0,0,0,0],"split_type":[0,0,0,0,0,0,0,0,0,0,0,0,0,0,0],"sum_hessian":[3.9245303E2,2.0160028E1,3.7229303E2,9.452444E0,1.0707584E1,1.0849476E2,2.6379825E2,2.4853354E0,6.9671087E0,3.7317767E0,6.9758077E0,1.0275505E2,5.7397103E0,7.253672E1,1.9126154E2],"tree_param":{"num_deleted":"0","num_feature":"22","num_nodes":"15","size_leaf_vector":"0"}},{"base_weights":[-2.283352E-2,1.4985012E-1,-1.75119E-1,1.8443455E-1,-9.618837E-1,-4.171651E-1,-3.485818E-2,6.724123E-1,9.449369E-2,-2.1994253E-1,-1.3755766E0,8.801844E-1,-4.591029E-1,3.9650264E-1,-1.4343682E-1],"categories":[],"categories_nodes":[],"categories_segments":[],"categories_sizes":[],"default_left":[0,0,1,0,0,1,0,0,0,0,0,0,0,0,0],"id":20,"left_children":[1,3,5,7,9,11,13,-1,-1,-1,-1,-1,-1,-1,-1],"loss_changes":[1.03721485E1,7.286663E0,7.098564E0,7.8436646E0,1.4590797E0,4.581403E0,6.3209014E0,0E0,0E0,0E0,0E0,0E0,0E0,0E0,0E0],"parents":[2147483647,0,0,1,1,2,2,3,3,4,4,5,5,6,6],"right_children":[2,4,6,8,10,12,14,-1,-1,-1,-1,-1,-1,-1,-1],"split_conditions":[9.9824464E-1,1.2375488E0,9.870595E-1,7.501105E-1,9.3515956E-1,6.870968E-1,8.668794E-1,1.3448245E-2,1.8898736E-3,-4.3988503E-3,-2.7511531E-2,1.7603688E-2,-9.182057E-3,7.9300525E-3,-2.8687364E-3],"split_indices":[0,11,4,10,2,14,10,0,0,0,0,0,0,0,0],"split_type":[0,0,0,0,0,0,0,0,0,0,0,0,0,0,0],"sum_hessian":[3.9242224E2,1.8390254E2,2.085197E2,1.7916313E2,4.7394032E0,7.577744E1,1.3274226E2,2.6875092E1,1.5228804E2,2.2449083E0,2.4944952E0,1.7469678E0,7.403047E1,2.6160433E1,1.06581825E2],"tree_param":{"num_deleted":"0","num_feature":"22","num_nodes":"15","size_leaf_vector":"0"}},{"base_weights":[-2.2389838E-2,2.0785882E-1,-1.3303052E-1,1.4408675E0,1.0900449E-1,1.2361866E0,-1.5039888E-1,5.228352E-1,-6.532123E-2,-1.1137541E-1,-6.797788E-1],"categories":[],"categories_nodes":[],"categories_segments":[],"categories_sizes":[],"default_left":[0,0,0,0,0,0,0,0,0,0,0],"id":21,"left_children":[1,3,5,-1,7,-1,9,-1,-1,-1,-1],"loss_changes":[1.0047902E1,1.5451233E1,6.51845E0,0E0,8.664525E0,0E0,5.3747725E0,0E0,0E0,0E0,0E0],"parents":[2147483647,0,0,1,1,2,2,4,4,6,6],"right_children":[2,4,6,-1,8,-1,10,-1,-1,-1,-1],"split_conditions":[9.9253964E-1,2.0725074E-1,2.1006814E-1,2.881735E-2,9.367985E-1,2.4723733E-2,1.1212118E0,1.0456704E-2,-1.3064246E-3,-2.227508E-3,-1.3595576E-2],"split_indices":[0,1,13,0,2,0,7,0,0,0,0],"split_type":[0,0,0,0,0,0,0,0,0,0,0],"sum_hessian":[3.9233865E2,1.2705413E2,2.6528452E2,8.422666E0,1.1863146E2,2.4439454E0,2.6284058E2,3.4569046E1,8.4062416E1,2.4592265E2,1.691791E1],"tree_param":{"num_deleted":"0","num_feature":"22","num_nodes":"11","size_leaf_vector":"0"}},{"base_weights":[-2.1826467E-2,6.383238E-1,-5.9138577E-2,-1.3782625E-1,1.2774624E0,1.9291739E-1,-1.6312848E-1,1.2967217E0,-7.4623394E-1,4.1711542E-1,1.6279434E0,1.3220194E-1,1.098766E0,-4.1677606E-1,-6.526267E-2],"categories":[],"categories_nodes":[],"categories_segments":[],"categories_sizes":[],"default_left":[0,0,0,0,1,1,1,0,0,0,0,0,0,0,0],"id":22,"left_children":[1,3,5,7,9,11,13,-1,-1,-1,-1,-1,-1,-1,-1],"loss_changes":[9.724215E0,1.0654331E1,9.8117075E0,1.00809145E1,2.843233E0,5.873726E0,6.5433846E0,0E0,0E0,0E0,0E0,0E0,0E0,0E0,0E0],"parents":[2147483647,0,0,1,1,2,2,3,3,4,4,5,5,6,6],"right_children":[2,4,6,8,10,12,14,-1,-1,-1,-1,-1,-1,-1,-1],"split_conditions":[9.572253E-1,8.952376E-1,2.7893874E-1,4.5740005E-1,1.8556021E0,2.3618808E0,3.5077575E-1,2.5934434E-2,-1.4924678E-2,8.342308E-3,3.2558866E-2,2.6440388E-3,2.1975318E-2,-8.335521E-3,-1.3052534E-3],"split_indices":[0,2,1,7,19,16,1,0,0,0,0,0,0,0,0],"split_type":[0,0,0,0,0,0,0,0,0,0,0,0,0,0,0],"sum_hessian":[3.922536E2,2.012266E1,3.7213095E2,9.441523E0,1.0681137E1,1.0843808E2,2.6369287E2,2.4748366E0,6.9666862E0,3.7256591E0,6.9554777E0,1.02700424E2,5.737661E0,7.25082E1,1.9118466E2],"tree_param":{"num_deleted":"0","num_feature":"22","num_nodes":"15","size_leaf_vector":"0"}},{"base_weights":[-2.122109E-2,1.4509308E-1,-1.6789015E-1,6.914466E-1,7.372191E-2,-4.1931698E-1,-3.6441978E-2,3.913785E-1,1.2082549E0,2.6226747E-1,-1.8180594E-1,3.21794E-1,-5.1317245E-1,2.708411E-1,-2.3328984E-1],"categories":[],"categories_nodes":[],"categories_segments":[],"categories_sizes":[],"default_left":[0,0,1,0,0,0,0,0,0,0,0,0,0,0,0],"id":23,"left_children":[1,3,5,7,9,11,13,-1,-1,-1,-1,-1,-1,-1,-1],"loss_changes":[9.616033E0,7.155172E0,6.905633E0,2.8197937E0,7.976416E0,5.159295E0,8.4474745E0,0E0,0E0,0E0,0E0,0E0,0E0,0E0,0E0],"parents":[2147483647,0,0,1,1,2,2,3,3,4,4,5,5,6,6],"right_children":[2,4,6,8,10,12,14,-1,-1,-1,-1,-1,-1,-1,-1],"split_conditions":[9.9824464E-1,2.317968E-1,1.0007292E0,9.9676895E-1,9.8450804E-1,7.942606E-1,1.0212345E0,7.82757E-3,2.4165098E-2,5.2453494E-3,-3.6361187E-3,6.43588E-3,-1.0263449E-2,5.4168217E-3,-4.6657966E-3],"split_indices":[0,13,2,2,2,6,2,0,0,0,0,0,0,0,0],"split_type":[0,0,0,0,0,0,0,0,0,0,0,0,0,0,0],"sum_hessian":[3.9221188E2,1.8380194E2,2.0840996E2,2.0232449E1,1.635695E2,7.079919E1,1.3761076E2,1.3912122E1,6.3203278E0,9.410566E1,6.946384E1,7.6852827E0,6.3113903E1,5.3586063E1,8.4024704E1],"tree_param":{"num_deleted":"0","num_feature":"22","num_nodes":"15","size_leaf_vector":"0"}},{"base_weights":[-2.0724468E-2,6.2448955E-1,-5.7154756E-2,-1.3885687E-1,1.2544979E0,1.8910396E-1,-1.5874213E-1,1.2774137E0,-7.373606E-1,4.0767285E-1,1.6003852E0,1.2934397E-1,1.0807836E0,-4.0774503E-1,-6.269405E-2],"categories":[],"categories_nodes":[],"categories_segments":[],"categories_sizes":[],"default_left":[0,0,0,0,1,1,1,0,0,0,0,0,0,0,0],"id":24,"left_children":[1,3,5,7,9,11,13,-1,-1,-1,-1,-1,-1,-1,-1],"loss_changes":[9.27569E0,1.0318167E1,9.361504E0,9.789299E0,2.7615204E0,5.68938E0,6.3030725E0,0E0,0E0,0E0,0E0,0E0,0E0,0E0,0E0],"parents":[2147483647,0,0,1,1,2,2,3,3,4,4,5,5,6,6],"right_children":[2,4,6,8,10,12,14,-1,-1,-1,-1,-1,-1,-1,-1],"split_conditions":[9.572253E-1,8.952376E-1,2.7893874E-1,4.5740005E-1,1.8556021E0,2.3618808E0,3.5077575E-1,2.5548274E-2,-1.4747212E-2,8.153457E-3,3.20077E-2,2.5868793E-3,2.1615671E-2,-8.154901E-3,-1.253881E-3],"split_indices":[0,2,1,7,19,16,1,0,0,0,0,0,0,0,0],"split_type":[0,0,0,0,0,0,0,0,0,0,0,0,0,0,0],"sum_hessian":[3.9210217E2,2.0093084E1,3.720091E2,9.437627E0,1.06554575E1,1.0839251E2,2.6361658E2,2.4665518E0,6.9710755E0,3.7218926E0,6.9335647E0,1.026575E2,5.735005E0,7.247673E1,1.9113985E2],"tree_param":{"num_deleted":"0","num_feature":"22","num_nodes":"15","size_leaf_vector":"0"}},{"base_weights":[-2.0144133E-2,1.4252508E-1,-1.635672E-1,1.7656617E-1,-9.5044994E-1,-3.7020868E-1,-5.296948E-3,6.5261006E-1,8.8921025E-2,-2.2086346E-1,-1.3562998E0,-2.0497479E-1,-6.7132497E-1,1.0652947E0,-4.894555E-2],"categories":[],"categories_nodes":[],"categories_segments":[],"categories_sizes":[],"default_left":[0,0,1,0,0,0,0,0,0,0,0,0,0,0,0],"id":25,"left_children":[1,3,5,7,9,11,13,-1,-1,-1,-1,-1,-1,-1,-1],"loss_changes":[9.193399E0,7.039891E0,6.844811E0,7.4507403E0,1.3987541E0,4.3793373E0,5.639334E0,0E0,0E0,0E0,0E0,0E0,0E0,0E0,0E0],"parents":[2147483647,0,0,1,1,2,2,3,3,4,4,5,5,6,6],"right_children":[2,4,6,8,10,12,14,-1,-1,-1,-1,-1,-1,-1,-1],"split_conditions":[9.9824464E-1,1.2375488E0,9.773648E-1,7.501105E-1,9.3515956E-1,9.0087485E-1,9.8522854E-1,1.3052201E-2,1.7784204E-3,-4.417269E-3,-2.7125994E-2,-4.0994957E-3,-1.3426499E-2,2.1305894E-2,-9.78911E-4],"split_indices":[0,11,6,10,2,8,6,0,0,0,0,0,0,0,0],"split_type":[0,0,0,0,0,0,0,0,0,0,0,0,0,0,0],"sum_hessian":[3.9205115E2,1.8370302E2,2.0834811E2,1.7896747E2,4.7355523E0,8.978438E1,1.18563736E2,2.682448E1,1.5214299E2,2.2446315E0,2.4909205E0,5.9057835E1,3.0726545E1,3.7276478E0,1.1483609E2],"tree_param":{"num_deleted":"0","num_feature":"22","num_nodes":"15","size_leaf_vector":"0"}},{"base_weights":[-1.978228E-2,1.9727576E-1,-1.2404213E-1,1.4036807E0,1.00937E-1,1.2207974E0,-1.4108716E-1,4.9975553E-1,-6.669731E-2,-7.537855E-1,-1.07820794E-1],"categories":[],"categories_nodes":[],"categories_segments":[],"categories_sizes":[],"default_left":[0,0,0,0,0,0,1,0,0,0,0],"id":26,"left_children":[1,3,5,-1,7,-1,9,-1,-1,-1,-1],"loss_changes":[8.917005E0,1.4721842E1,6.2710505E0,0E0,8.023087E0,0E0,5.291993E0,0E0,0E0,0E0,0E0],"parents":[2147483647,0,0,1,1,2,2,4,4,6,6],"right_children":[2,4,6,-1,8,-1,10,-1,-1,-1,-1],"split_conditions":[9.9253964E-1,2.0725074E-1,2.1006814E-1,2.8073613E-2,9.367985E-1,2.4415947E-2,6.425594E-1,9.99511E-3,-1.3339461E-3,-1.507571E-2,-2.1564157E-3],"split_indices":[0,1,13,0,2,0,18,0,0,0,0],"split_type":[0,0,0,0,0,0,0,0,0,0,0],"sum_hessian":[3.9194574E2,1.2688739E2,2.6505835E2,8.379877E0,1.18507515E2,2.4335215E0,2.6262482E2,3.4484432E1,8.402308E1,1.2409433E1,2.502154E2],"tree_param":{"num_deleted":"0","num_feature":"22","num_nodes":"11","size_leaf_vector":"0"}},{"base_weights":[-1.9277448E-2,6.035167E-1,-5.43728E-2,-1.4935891E-1,1.2270436E0,1.8694986E-1,-1.5390633E-1,1.2504216E0,-7.368571E-1,3.9287832E-1,1.5694448E0,2.2155766E-1,-1.2357279E0,-3.9838654E-1,-5.9627548E-2],"categories":[],"categories_nodes":[],"categories_segments":[],"categories_sizes":[],"default_left":[0,0,0,0,1,0,1,0,0,0,0,0,0,0,0],"id":27,"left_children":[1,3,5,7,9,11,13,-1,-1,-1,-1,-1,-1,-1,-1],"loss_changes":[8.619654E0,1.0060235E1,8.983828E0,9.492802E0,2.7014713E0,5.656197E0,6.0728316E0,0E0,0E0,0E0,0E0,0E0,0E0,0E0,0E0],"parents":[2147483647,0,0,1,1,2,2,3,3,4,4,5,5,6,6],"right_children":[2,4,6,8,10,12,14,-1,-1,-1,-1,-1,-1,-1,-1],"split_conditions":[9.572253E-1,8.952376E-1,2.7893874E-1,4.5740005E-1,1.8556021E0,1.0508285E0,3.5077575E-1,2.5008433E-2,-1.4737142E-2,7.857567E-3,3.1388894E-2,4.431153E-3,-2.4714557E-2,-7.967731E-3,-1.1925509E-3],"split_indices":[0,2,1,7,19,0,1,0,0,0,0,0,0,0,0],"split_type":[0,0,0,0,0,0,0,0,0,0,0,0,0,0,0],"sum_hessian":[3.9186124E2,2.003997E1,3.718213E2,9.422846E0,1.0617125E1,1.083192E2,2.6350208E2,2.4520874E0,6.970758E0,3.7147028E0,6.902422E0,1.0657104E2,1.7481605E0,7.24366E1,1.9106548E2],"tree_param":{"num_deleted":"0","num_feature":"22","num_nodes":"15","size_leaf_vector":"0"}},{"base_weights":[-1.8842423E-2,1.3800302E-1,-1.5712449E-1,8.1236756E-1,8.2034014E-2,-3.9150813E-1,-2.1612884E-2,-3.594713E-1,1.0043045E0,4.648415E-2,1.2036973E0,-2.7633303E-1,-9.379677E-1,-9.411107E-1,2.8900383E-2],"categories":[],"categories_nodes":[],"categories_segments":[],"categories_sizes":[],"default_left":[0,0,1,0,0,0,1,0,0,0,0,0,0,0,0],"id":28,"left_children":[1,3,5,7,9,11,13,-1,-1,-1,-1,-1,-1,-1,-1],"loss_changes":[8.541118E0,6.9000397E0,6.6367803E0,3.5172863E0,6.7844667E0,4.561286E0,6.233962E0,0E0,0E0,0E0,0E0,0E0,0E0,0E0,0E0],"parents":[2147483647,0,0,1,1,2,2,3,3,4,4,5,5,6,6],"right_children":[2,4,6,8,10,12,14,-1,-1,-1,-1,-1,-1,-1,-1],"split_conditions":[9.9824464E-1,2.230902E-1,9.870595E-1,1.9663972E-1,1.5952595E0,1.0208533E0,7.4240935E-1,-7.1894256E-3,2.0086091E-2,9.29683E-4,2.4073945E-2,-5.5266605E-3,-1.8759353E-2,-1.8822214E-2,5.7800766E-4],"split_indices":[0,13,4,11,6,2,16,0,0,0,0,0,0,0,0],"split_type":[0,0,0,0,0,0,0,0,0,0,0,0,0,0,0],"sum_hessian":[3.9180136E2,1.8357957E2,2.082218E2,1.3032905E1,1.7054666E2,7.559025E1,1.3263156E2,1.7113962E0,1.1321508E1,1.6631688E2,4.229786E0,6.367533E1,1.1914916E1,5.988649E0,1.2664291E2],"tree_param":{"num_deleted":"0","num_feature":"22","num_nodes":"15","size_leaf_vector":"0"}},{"base_weights":[-1.8481262E-2,5.9240156E-1,-5.285582E-2,-1.467172E-1,1.2060076E0,1.8388206E-1,-1.5048712E-1,1.2342036E0,-7.2426146E-1,3.850367E-1,1.5440804E0,1.3224421E-1,1.1857208E0,-9.5590293E-1,-1.21838145E-1],"categories":[],"categories_nodes":[],"categories_segments":[],"categories_sizes":[],"default_left":[0,0,0,0,1,1,1,0,0,0,0,0,0,0,0],"id":29,"left_children":[1,3,5,7,9,11,13,-1,-1,-1,-1,-1,-1,-1,-1],"loss_changes":[8.2779255E0,9.702397E0,8.642239E0,9.20322E0,2.6206875E0,5.4964395E0,5.9852443E0,0E0,0E0,0E0,0E0,0E0,0E0,0E0,0E0],"parents":[2147483647,0,0,1,1,2,2,3,3,4,4,5,5,6,6],"right_children":[2,4,6,8,10,12,14,-1,-1,-1,-1,-1,-1,-1,-1],"split_conditions":[9.572253E-1,8.952376E-1,2.7893874E-1,4.5740005E-1,1.8556021E0,2.337705E0,4.6414655E-1,2.4684072E-2,-1.4485229E-2,7.700734E-3,3.0881606E-2,2.6448842E-3,2.3714416E-2,-1.9118058E-2,-2.436763E-3],"split_indices":[0,2,1,7,19,18,12,0,0,0,0,0,0,0,0],"split_type":[0,0,0,0,0,0,0,0,0,0,0,0,0,0,0],"sum_hessian":[3.9171783E2,2.0003025E1,3.7171478E2,9.418669E0,1.0584356E1,1.0827776E2,2.6343704E2,2.4422386E0,6.97643E0,3.711156E0,6.873201E0,1.0404687E2,4.230894E0,7.9369698E0,2.5550006E2],"tree_param":{"num_deleted":"0","num_feature":"22","num_nodes":"15","size_leaf_vector":"0"}},{"base_weights":[-1.7976563E-2,1.9034009E-1,-1.1798141E-1,1.3729963E0,9.626413E-2,1.2030435E0,-1.3468334E-1,4.8468634E-1,-6.6636615E-2,-7.3924E-1,-1.0187763E-1],"categories":[],"categories_nodes":[],"categories_segments":[],"categories_sizes":[],"default_left":[0,0,0,0,0,0,1,0,0,0,0],"id":30,"left_children":[1,3,5,-1,7,-1,9,-1,-1,-1,-1],"loss_changes":[8.202501E0,1.4080247E1,6.029051E0,0E0,7.587495E0,0E0,5.1505146E0,0E0,0E0,0E0,0E0],"parents":[2147483647,0,0,1,1,2,2,4,4,6,6],"right_children":[2,4,6,-1,8,-1,10,-1,-1,-1,-1],"split_conditions":[9.9253964E-1,2.0725074E-1,2.1006814E-1,2.7459927E-2,9.367985E-1,2.406087E-2,6.425594E-1,9.693727E-3,-1.3327323E-3,-1.47848E-2,-2.0375527E-3],"split_indices":[0,1,13,0,2,0,18,0,0,0,0],"split_type":[0,0,0,0,0,0,0,0,0,0,0],"sum_hessian":[3.9165454E2,1.2674114E2,2.649134E2,8.3372E0,1.18403946E2,2.4206896E0,2.624927E2,3.4401443E1,8.40025E1,1.2402401E1,2.500903E2],"tree_param":{"num_deleted":"0","num_feature":"22","num_nodes":"11","size_leaf_vector":"0"}},{"base_weights":[-1.7509831E-2,1.3401635E-1,-1.5108767E-1,1.6747355E-1,-9.388061E-1,-3.949873E-1,-2.3805687E-2,6.34236E-1,8.1668906E-2,-2.2383359E-1,-1.3348204E0,3.3382607E-1,-4.8763677E-1,2.78543E-1,-2.1771693E-1],"categories":[],"categories_nodes":[],"categories_segments":[],"categories_sizes":[],"default_left":[0,0,1,0,0,0,0,0,0,0,0,0,0,0,0],"id":31,"left_children":[1,3,5,7,9,11,13,-1,-1,-1,-1,-1,-1,-1,-1],"loss_changes":[7.965916E0,6.7779646E0,6.482141E0,7.146238E0,1.323564E0,5.000291E0,8.178778E0,0E0,0E0,0E0,0E0,0E0,0E0,0E0,0E0],"parents":[2147483647,0,0,1,1,2,2,3,3,4,4,5,5,6,6],"right_children":[2,4,6,8,10,12,14,-1,-1,-1,-1,-1,-1,-1,-1],"split_conditions":[9.9824464E-1,1.2375488E0,1.0007292E0,7.501105E-1,9.3515956E-1,7.942606E-1,1.0212345E0,1.268472E-2,1.6333781E-3,-4.4766716E-3,-2.6696406E-2,6.676521E-3,-9.7527355E-3,5.5708596E-3,-4.3543386E-3],"split_indices":[0,11,2,10,2,6,2,0,0,0,0,0,0,0,0],"split_type":[0,0,0,0,0,0,0,0,0,0,0,0,0,0,0],"sum_hessian":[3.9156204E2,1.8345435E2,2.0810768E2,1.7872452E2,4.729836E0,7.0641045E1,1.3746664E2,2.6760487E1,1.5196404E2,2.2438886E0,2.4859476E0,7.6737266E0,6.2967316E1,5.3543907E1,8.392273E1],"tree_param":{"num_deleted":"0","num_feature":"22","num_nodes":"15","size_leaf_vector":"0"}},{"base_weights":[-1.7211739E-2,2.9671535E-1,-7.951008E-2,1.0336089E0,1.7754708E-1,-4.023839E-2,-6.783519E-1,2.2713047E-1,1.2325459E0,-9.7761494E-1,2.4764185E-1,6.422835E-2,-2.4116395E-1,8.354343E-1,-8.443896E-1],"categories":[],"categories_nodes":[],"categories_segments":[],"categories_sizes":[],"default_left":[0,0,0,1,0,1,0,0,0,0,0,0,0,0,0],"id":32,"left_children":[1,3,5,7,9,11,13,-1,-1,-1,-1,-1,-1,-1,-1],"loss_changes":[7.6992364E0,5.541983E0,7.692867E0,1.1429443E0,4.8842573E0,6.5041986E0,5.7675276E0,0E0,0E0,0E0,0E0,0E0,0E0,0E0,0E0],"parents":[2147483647,0,0,1,1,2,2,3,3,4,4,5,5,6,6],"right_children":[2,4,6,8,10,12,14,-1,-1,-1,-1,-1,-1,-1,-1],"split_conditions":[9.7964334E-1,2.6935047E-1,1.0831254E0,3.497724E-1,2.7731538E-1,1.9848816E0,7.344396E-1,4.542609E-3,2.4650916E-2,-1.9552298E-2,4.952837E-3,1.2845669E-3,-4.823279E-3,1.6708685E-2,-1.6887791E-2],"split_indices":[0,13,11,19,13,17,6,0,0,0,0,0,0,0,0],"split_type":[0,0,0,0,0,0,0,0,0,0,0,0,0,0,0],"sum_hessian":[3.9147278E2,6.420004E1,3.2727274E2,7.868786E0,5.6331257E1,3.0813278E2,1.913997E1,1.980733E0,5.888053E0,2.4819338E0,5.3849323E1,2.0317621E2,1.0495657E2,1.4933476E0,1.7646622E1],"tree_param":{"num_deleted":"0","num_feature":"22","num_nodes":"15","size_leaf_vector":"0"}},{"base_weights":[-1.684225E-2,5.687099E-1,-4.9689207E-2,-1.5966584E-1,1.1763136E0,1.7962661E-1,-1.4424796E-1,1.2048705E0,-7.2484505E-1,3.663867E-1,1.5124177E0,2.1360978E-1,-1.2155746E0,-3.8552958E-1,-5.126068E-2],"categories":[],"categories_nodes":[],"categories_segments":[],"categories_sizes":[],"default_left":[0,0,0,0,1,0,1,0,0,0,0,0,0,0,0],"id":33,"left_children":[1,3,5,7,9,11,13,-1,-1,-1,-1,-1,-1,-1,-1],"loss_changes":[7.5756736E0,9.447811E0,8.102789E0,8.89121E0,2.5837507E0,5.4370184E0,5.9098325E0,0E0,0E0,0E0,0E0,0E0,0E0,0E0,0E0],"parents":[2147483647,0,0,1,1,2,2,3,3,4,4,5,5,6,6],"right_children":[2,4,6,8,10,12,14,-1,-1,-1,-1,-1,-1,-1,-1],"split_conditions":[9.572253E-1,8.952376E-1,2.7893874E-1,4.5740005E-1,1.8556021E0,1.0508285E0,3.5077575E-1,2.409741E-2,-1.4496901E-2,7.327734E-3,3.0248353E-2,4.2721955E-3,-2.4311492E-2,-7.7105914E-3,-1.0252136E-3],"split_indices":[0,2,1,7,19,0,1,0,0,0,0,0,0,0,0],"split_type":[0,0,0,0,0,0,0,0,0,0,0,0,0,0,0],"sum_hessian":[3.9140768E2,1.9923521E1,3.7148416E2,9.396509E0,1.0527012E1,1.08196236E2,2.632879E2,2.4205747E0,6.9759345E0,3.7003028E0,6.826709E0,1.064503E2,1.7459319E0,7.236655E1,1.9092137E2],"tree_param":{"num_deleted":"0","num_feature":"22","num_nodes":"15","size_leaf_vector":"0"}},{"base_weights":[-1.6460203E-2,1.3030903E-1,-1.4581764E-1,1.342795E0,1.0009906E-1,-3.451176E-1,6.45557E-3,6.784286E-2,1.173278E0,2.1733491E-1,-4.2736062E-1,1.0573374E0,-3.6463108E-2],"categories":[],"categories_nodes":[],"categories_segments":[],"categories_sizes":[],"default_left":[0,0,1,0,0,0,0,0,0,0,0,0,0],"id":34,"left_children":[1,3,5,-1,7,9,11,-1,-1,-1,-1,-1,-1],"loss_changes":[7.4677043E0,6.6172447E0,6.345207E0,0E0,6.1833944E0,4.2812357E0,5.426679E0,0E0,0E0,0E0,0E0,0E0,0E0],"parents":[2147483647,0,0,1,1,2,2,4,4,5,5,6,6],"right_children":[2,4,6,-1,8,10,12,-1,-1,-1,-1,-1,-1],"split_conditions":[9.9824464E-1,1.8566689E-1,9.773648E-1,2.6855899E-2,1.5952595E0,6.8960565E-1,9.8522854E-1,1.3568572E-3,2.3465559E-2,4.346698E-3,-8.547212E-3,2.1146748E-2,-7.2926213E-4],"split_indices":[0,3,6,0,6,8,6,0,0,0,0,0,0],"split_type":[0,0,0,0,0,0,0,0,0,0,0,0,0],"sum_hessian":[3.913325E2,1.8332462E2,2.0800787E2,3.400386E0,1.7992422E2,8.9543755E1,1.1846412E2,1.757063E2,4.217931E0,1.1213444E1,7.833031E1,3.7208836E0,1.1474323E2],"tree_param":{"num_deleted":"0","num_feature":"22","num_nodes":"13","size_leaf_vector":"0"}},{"base_weights":[-1.5962258E-2,5.5807614E-1,-4.8099626E-2,-1.5685453E-1,1.1563317E0,1.7646264E-1,-1.406891E-1,1.1907837E0,-7.129181E-1,3.5753635E-1,1.489347E0,1.1846664E-1,1.0425402E0,-9.3206555E-1,-1.12606764E-1],"categories":[],"categories_nodes":[],"categories_segments":[],"categories_sizes":[],"default_left":[0,0,0,0,1,1,1,0,0,0,0,0,0,0,0],"id":35,"left_children":[1,3,5,7,9,11,13,-1,-1,-1,-1,-1,-1,-1,-1],"loss_changes":[7.262662E0,9.109348E0,7.7668123E0,8.635035E0,2.5222864E0,5.3589106E0,5.7666316E0,0E0,0E0,0E0,0E0,0E0,0E0,0E0,0E0],"parents":[2147483647,0,0,1,1,2,2,3,3,4,4,5,5,6,6],"right_children":[2,4,6,8,10,12,14,-1,-1,-1,-1,-1,-1,-1,-1],"split_conditions":[9.572253E-1,8.952376E-1,2.7893874E-1,4.5740005E-1,1.8556021E0,2.3618808E0,4.6414655E-1,2.3815675E-2,-1.4258361E-2,7.150727E-3,2.9786939E-2,2.3693326E-3,2.0850804E-2,-1.864131E-2,-2.2521352E-3],"split_indices":[0,2,1,7,19,16,12,0,0,0,0,0,0,0,0],"split_type":[0,0,0,0,0,0,0,0,0,0,0,0,0,0,0],"sum_hessian":[3.9122607E2,1.9873835E1,3.7135223E2,9.390162E0,1.0483672E1,1.08148346E2,2.632039E2,2.4094148E0,6.9807477E0,3.694766E0,6.788906E0,1.0242626E2,5.722085E0,7.916686E0,2.5528719E2],"tree_param":{"num_deleted":"0","num_feature":"22","num_nodes":"15","size_leaf_vector":"0"}},{"base_weights":[-1.55198695E-2,1.7917423E-1,-1.0890472E-1,1.3337431E0,8.793743E-2,1.1868579E0,-1.2526302E-1,4.6412602E-1,-6.9287255E-2,-7.3071814E-1,-9.2441775E-2],"categories":[],"categories_nodes":[],"categories_segments":[],"categories_sizes":[],"default_left":[0,0,0,0,0,0,1,0,0,0,0],"id":36,"left_children":[1,3,5,-1,7,-1,9,-1,-1,-1,-1],"loss_changes":[7.1493473E0,1.3313292E1,5.7795105E0,0E0,7.0842476E0,0E0,5.1635513E0,0E0,0E0,0E0,0E0],"parents":[2147483647,0,0,1,1,2,2,4,4,6,6],"right_children":[2,4,6,-1,8,-1,10,-1,-1,-1,-1],"split_conditions":[9.9253964E-1,2.0725074E-1,2.1006814E-1,2.6674861E-2,9.367985E-1,2.3737159E-2,6.425594E-1,9.28252E-3,-1.3857451E-3,-1.4614362E-2,-1.8488355E-3],"split_indices":[0,1,13,0,2,0,18,0,0,0,0],"split_type":[0,0,0,0,0,0,0,0,0,0,0],"sum_hessian":[3.911482E2,1.264984E2,2.6464978E2,8.266781E0,1.1823162E2,2.407341E0,2.6224246E2,3.4273663E1,8.3957954E1,1.2391543E1,2.498509E2],"tree_param":{"num_deleted":"0","num_feature":"22","num_nodes":"11","size_leaf_vector":"0"}},{"base_weights":[-1.5104819E-2,1.2664337E-1,-1.400338E-1,7.829356E-1,7.2379746E-2,-3.66737E-1,-9.286287E-3,-3.727937E-1,9.740022E-1,3.946008E-2,1.288618E0,-2.539747E-1,-9.035295E-1,4.1876435E-1,-1.17253594E-1],"categories":[],"categories_nodes":[],"categories_segments":[],"categories_sizes":[],"default_left":[0,0,1,0,0,0,0,0,0,0,0,0,0,0,0],"id":37,"left_children":[1,3,5,7,9,11,13,-1,-1,-1,-1,-1,-1,-1,-1],"loss_changes":[6.960293E0,6.5027018E0,6.187444E0,3.4466524E0,6.804555E0,4.39326E0,6.218443E0,0E0,0E0,0E0,0E0,0E0,0E0,0E0,0E0],"parents":[2147483647,0,0,1,1,2,2,3,3,4,4,5,5,6,6],"right_children":[2,4,6,8,10,12,14,-1,-1,-1,-1,-1,-1,-1,-1],"split_conditions":[9.9824464E-1,2.230902E-1,9.870595E-1,1.9663972E-1,9.9802375E-1,1.0208533E0,8.668794E-1,-7.455874E-3,1.9480044E-2,7.892016E-4,2.577236E-2,-5.079494E-3,-1.807059E-2,8.375287E-3,-2.3450719E-3],"split_indices":[0,13,4,11,0,2,10,0,0,0,0,0,0,0,0],"split_type":[0,0,0,0,0,0,0,0,0,0,0,0,0,0,0],"sum_hessian":[3.9104767E2,1.831858E2,2.0786185E2,1.296401E1,1.702218E2,7.537103E1,1.3249081E2,1.704239E0,1.1259771E1,1.6674109E2,3.480702E0,6.350407E1,1.1866965E1,2.6107111E1,1.06383705E2],"tree_param":{"num_deleted":"0","num_feature":"22","num_nodes":"15","size_leaf_vector":"0"}},{"base_weights":[-1.4751244E-2,5.4217577E-1,-4.5842484E-2,-1.6336007E-1,1.1349969E0,1.7356154E-1,-1.362697E-1,1.169753E0,-7.0913064E-1,3.470255E-1,1.465492E0,2.069988E-1,-1.1978394E0,-3.7256554E-1,-4.5267083E-2],"categories":[],"categories_nodes":[],"categories_segments":[],"categories_sizes":[],"default_left":[0,0,0,0,1,0,1,0,0,0,0,0,0,0,0],"id":38,"left_children":[1,3,5,7,9,11,13,-1,-1,-1,-1,-1,-1,-1,-1],"loss_changes":[6.8118606E0,8.886282E0,7.407292E0,8.3763075E0,2.4680843E0,5.248881E0,5.6622186E0,0E0,0E0,0E0,0E0,0E0,0E0,0E0,0E0],"parents":[2147483647,0,0,1,1,2,2,3,3,4,4,5,5,6,6],"right_children":[2,4,6,8,10,12,14,-1,-1,-1,-1,-1,-1,-1,-1],"split_conditions":[9.572253E-1,8.952376E-1,2.7893874E-1,4.5740005E-1,1.8556021E0,1.0508285E0,3.5077575E-1,2.3395058E-2,-1.4182612E-2,6.94051E-3,2.9309839E-2,4.1399756E-3,-2.3956787E-2,-7.4513108E-3,-9.0534164E-4],"split_indices":[0,2,1,7,19,0,1,0,0,0,0,0,0,0,0],"split_type":[0,0,0,0,0,0,0,0,0,0,0,0,0,0,0],"sum_hessian":[3.909602E2,1.9802706E1,3.711575E2,9.372556E0,1.043015E1,1.0805755E2,2.6309995E2,2.3903997E0,6.982156E0,3.687759E0,6.742391E0,1.0631447E2,1.7430801E0,7.229249E1,1.9080746E2],"tree_param":{"num_deleted":"0","num_feature":"22","num_nodes":"15","size_leaf_vector":"0"}},{"base_weights":[-1.4413728E-2,1.3195682E-2,-6.3766587E-1,5.979386E-1,-2.0017607E-2,7.0670784E-1,-8.95399E-1,-1.5085015E-1,1.140249E0,4.938938E-1,-6.398785E-2,5.00813E-2,-1.0968251E0],"categories":[],"categories_nodes":[],"categories_segments":[],"categories_sizes":[],"default_left":[0,0,0,0,0,0,0,0,0,0,0,0,0],"id":39,"left_children":[1,3,5,7,9,-1,11,-1,-1,-1,-1,-1,-1],"loss_changes":[6.7516127E0,7.318806E0,6.399561E0,8.396502E0,8.098115E0,0E0,2.7986813E0,0E0,0E0,0E0,0E0,0E0,0E0],"parents":[2147483647,0,0,1,1,2,2,3,3,4,4,6,6],"right_children":[2,4,6,8,10,-1,12,-1,-1,-1,-1,-1,-1],"split_conditions":[1.112834E0,9.572253E-1,6.2503207E-1,8.8710046E-1,6.9910514E-1,1.41341565E-2,6.715145E-1,-3.017003E-3,2.280498E-2,9.877875E-3,-1.279757E-3,1.001626E-3,-2.1936502E-2],"split_indices":[11,0,8,2,10,0,1,0,0,0,0,0,0],"split_type":[0,0,0,0,0,0,0,0,0,0,0,0,0],"sum_hessian":[3.9087268E2,3.7522925E2,1.5643432E1,1.9253586E1,3.5597568E2,2.2363396E0,1.3407091E1,8.390433E0,1.0863153E1,2.725025E1,3.2872543E2,2.4865882E0,1.0920504E1],"tree_param":{"num_deleted":"0","num_feature":"22","num_nodes":"13","size_leaf_vector":"0"}},{"base_weights":[-1.4071682E-2,1.23942904E-1,-1.3566506E-1,1.3105505E0,9.4568886E-2,-3.729063E-1,-1.210623E-2,1.2662742E-1,-9.0825325E-1,3.367361E-1,-4.634498E-1,2.8284594E-1,-2.0153321E-1],"categories":[],"categories_nodes":[],"categories_segments":[],"categories_sizes":[],"default_left":[0,0,1,0,0,0,0,0,0,0,0,0,0],"id":40,"left_children":[1,3,5,-1,7,9,11,-1,-1,-1,-1,-1,-1],"loss_changes":[6.591997E0,6.2906737E0,6.115299E0,0E0,5.9232693E0,4.7477694E0,7.784676E0,0E0,0E0,0E0,0E0,0E0,0E0],"parents":[2147483647,0,0,1,1,2,2,4,4,5,5,6,6],"right_children":[2,4,6,-1,8,10,12,-1,-1,-1,-1,-1,-1],"split_conditions":[9.9824464E-1,1.8566689E-1,1.0007292E0,2.6211008E-2,1.2375488E0,7.942606E-1,1.0212345E0,2.5325483E-3,-1.8165065E-2,6.7347223E-3,-9.268996E-3,5.656919E-3,-4.030664E-3],"split_indices":[0,3,2,0,11,6,2,0,0,0,0,0,0],"split_type":[0,0,0,0,0,0,0,0,0,0,0,0,0],"sum_hessian":[3.9080768E2,1.8303473E2,2.0777293E2,3.3678873E0,1.7966684E2,7.046239E1,1.3731055E2,1.7494778E2,4.719057E0,7.665368E0,6.2797016E1,5.350541E1,8.3805145E1],"tree_param":{"num_deleted":"0","num_feature":"22","num_nodes":"13","size_leaf_vector":"0"}},{"base_weights":[-1.3769147E-2,1.707373E-1,-1.021856E-1,1.3039405E0,8.171698E-2,1.1757433E0,-1.183047E-1,4.4786352E-1,-7.0837185E-2,-7.1942526E-1,-8.574899E-2],"categories":[],"categories_nodes":[],"categories_segments":[],"categories_sizes":[],"default_left":[0,0,0,0,0,0,1,0,0,0,0],"id":41,"left_children":[1,3,5,-1,7,-1,9,-1,-1,-1,-1],"loss_changes":[6.4076533E0,1.2732702E1,5.606916E0,0E0,6.682738E0,0E0,5.0860233E0,0E0,0E0,0E0,0E0],"parents":[2147483647,0,0,1,1,2,2,4,4,6,6],"right_children":[2,4,6,-1,8,-1,10,-1,-1,-1,-1],"split_conditions":[9.9253964E-1,2.0725074E-1,2.1006814E-1,2.607881E-2,9.367985E-1,2.3514867E-2,6.425594E-1,8.9572705E-3,-1.4167436E-3,-1.4388504E-2,-1.7149798E-3],"split_indices":[0,1,13,0,2,0,18,0,0,0,0],"split_type":[0,0,0,0,0,0,0,0,0,0,0],"sum_hessian":[3.907151E2,1.2627493E2,2.6444016E2,8.203176E0,1.1807176E2,2.397835E0,2.6204233E2,3.4156555E1,8.391521E1,1.2378723E1,2.4966359E2],"tree_param":{"num_deleted":"0","num_feature":"22","num_nodes":"11","size_leaf_vector":"0"}},{"base_weights":[-1.3390733E-2,1.3471171E-2,-6.202451E-1,5.788897E-1,-1.8542476E-2,6.9606256E-1,-8.73061E-1,-1.5939897E-1,1.117026E0,4.832252E-1,-6.1467774E-2,5.2925106E-2,-1.0709727E0],"categories":[],"categories_nodes":[],"categories_segments":[],"categories_sizes":[],"default_left":[0,0,0,0,0,0,0,0,0,0,0,0,0],"id":42,"left_children":[1,3,5,7,9,-1,11,-1,-1,-1,-1,-1,-1],"loss_changes":[6.392072E0,6.816534E0,6.1388106E0,8.194971E0,7.714854E0,0E0,2.6931868E0,0E0,0E0,0E0,0E0,0E0,0E0],"parents":[2147483647,0,0,1,1,2,2,3,3,4,4,6,6],"right_children":[2,4,6,8,10,-1,12,-1,-1,-1,-1,-1,-1],"split_conditions":[1.112834E0,9.572253E-1,6.2503207E-1,8.8710046E-1,6.9910514E-1,1.3921251E-2,6.715145E-1,-3.1879793E-3,2.234052E-2,9.664504E-3,-1.2293555E-3,1.0585021E-3,-2.1419453E-2],"split_indices":[11,0,8,2,10,0,1,0,0,0,0,0,0],"split_type":[0,0,0,0,0,0,0,0,0,0,0,0,0],"sum_hessian":[3.9060873E2,3.74988E2,1.562073E1,1.9178507E1,3.558095E2,2.2343192E0,1.3386412E1,8.382307E0,1.0796199E1,2.7231724E1,3.2857776E2,2.4862707E0,1.0900141E1],"tree_param":{"num_deleted":"0","num_feature":"22","num_nodes":"13","size_leaf_vector":"0"}},{"base_weights":[-1.3070317E-2,1.3278518E-2,-6.0882586E-1,5.695562E-1,-1.8148536E-2,6.868346E-1,-8.578777E-1,-1.5651223E-1,1.1010331E0,9.189087E-2,-2.1462446E-1,5.2168675E-2,-1.0526384E0],"categories":[],"categories_nodes":[],"categories_segments":[],"categories_sizes":[],"default_left":[0,0,0,0,1,0,0,0,0,0,0,0,0],"id":43,"left_children":[1,3,5,7,9,-1,11,-1,-1,-1,-1,-1,-1],"loss_changes":[6.154216E0,6.582442E0,5.94731E0,7.941631E0,7.7337365E0,0E0,2.6022463E0,0E0,0E0,0E0,0E0,0E0,0E0],"parents":[2147483647,0,0,1,1,2,2,3,3,4,4,6,6],"right_children":[2,4,6,8,10,-1,12,-1,-1,-1,-1,-1,-1],"split_conditions":[1.112834E0,9.572253E-1,6.2503207E-1,8.8710046E-1,1.9848064E0,1.3736691E-2,6.715145E-1,-3.1302446E-3,2.2020662E-2,1.8378174E-3,-4.292489E-3,1.0433735E-3,-2.1052768E-2],"split_indices":[11,0,8,2,17,0,1,0,0,0,0,0,0],"split_type":[0,0,0,0,0,0,0,0,0,0,0,0,0],"sum_hessian":[3.9053656E2,3.7493192E2,1.5604626E1,1.9133549E1,3.5579837E2,2.232505E0,1.3372121E1,8.384592E0,1.0748958E1,2.2840749E2,1.2739088E2,2.4863667E0,1.0885755E1],"tree_param":{"num_deleted":"0","num_feature":"22","num_nodes":"13","size_leaf_vector":"0"}},{"base_weights":[-1.2784717E-2,1.1993215E-1,-1.2965186E-1,7.6340026E-1,6.685915E-2,-3.2455954E-1,1.8896012E-2,-3.78294E-1,9.5334196E-1,3.4351826E-2,1.2682415E0,-7.531061E-1,-2.1029139E-1,1.0485644E0,-2.3240207E-2],"categories":[],"categories_nodes":[],"categories_segments":[],"categories_sizes":[],"default_left":[0,0,1,0,0,1,0,0,0,0,0,0,0,0,0],"id":44,"left_children":[1,3,5,7,9,11,13,-1,-1,-1,-1,-1,-1,-1,-1],"loss_changes":[6.0871367E0,6.2264934E0,6.0468683E0,3.3771124E0,6.631032E0,4.263216E0,5.202323E0,0E0,0E0,0E0,0E0,0E0,0E0,0E0,0E0],"parents":[2147483647,0,0,1,1,2,2,3,3,4,4,5,5,6,6],"right_children":[2,4,6,8,10,12,14,-1,-1,-1,-1,-1,-1,-1,-1],"split_conditions":[9.9824464E-1,2.230902E-1,9.773648E-1,1.9663972E-1,9.9802375E-1,9.7637814E-1,9.8522854E-1,-7.5658797E-3,1.9066839E-2,6.870365E-4,2.536483E-2,-1.5062122E-2,-4.2058276E-3,2.0971289E-2,-4.6480412E-4],"split_indices":[0,13,6,11,0,2,6,0,0,0,0,0,0,0,0],"split_type":[0,0,0,0,0,0,0,0,0,0,0,0,0,0,0],"sum_hessian":[3.9045663E2,1.8281815E2,2.0763849E2,1.291005E1,1.699081E2,8.92932E1,1.1834528E2,1.7000179E0,1.1210032E1,1.6643329E2,3.4748025E0,1.7620247E1,7.167295E1,3.7135448E0,1.1463174E2],"tree_param":{"num_deleted":"0","num_feature":"22","num_nodes":"15","size_leaf_vector":"0"}},{"base_weights":[-1.2433367E-2,1.6484329E-1,-9.7311124E-2,1.2828312E0,7.7398635E-2,1.1621014E0,-1.1315678E-1,4.3276718E-1,-7.024736E-2,-7.0672035E-1,-8.102145E-2],"categories":[],"categories_nodes":[],"categories_segments":[],"categories_sizes":[],"default_left":[0,0,0,0,0,0,1,0,0,0,0],"id":45,"left_children":[1,3,5,-1,7,-1,9,-1,-1,-1,-1],"loss_changes":[5.904489E0,1.2323896E1,5.4251904E0,0E0,6.2700677E0,0E0,4.9570184E0,0E0,0E0,0E0,0E0],"parents":[2147483647,0,0,1,1,2,2,4,4,6,6],"right_children":[2,4,6,-1,8,-1,10,-1,-1,-1,-1],"split_conditions":[9.9253964E-1,2.0725074E-1,2.1006814E-1,2.5656624E-2,9.367985E-1,2.3242027E-2,6.425594E-1,8.655343E-3,-1.4049471E-3,-1.4134407E-2,-1.620429E-3],"split_indices":[0,1,13,0,2,0,18,0,0,0,0],"split_type":[0,0,0,0,0,0,0,0,0,0,0],"sum_hessian":[3.9034106E2,1.2607573E2,2.6426532E2,8.154137E0,1.1792159E2,2.3847728E0,2.6188055E2,3.404579E1,8.38758E1,1.2371816E1,2.4950874E2],"tree_param":{"num_deleted":"0","num_feature":"22","num_nodes":"11","size_leaf_vector":"0"}},{"base_weights":[-1.208295E-2,1.37449335E-2,-5.966292E-1,4.4513306E-1,-2.5471522E-2,6.753766E-1,-8.4126246E-1,2.2362183E-1,9.773642E-1,7.408121E-2,-2.4770594E-1,5.504039E-2,-1.0336362E0],"categories":[],"categories_nodes":[],"categories_segments":[],"categories_sizes":[],"default_left":[0,0,0,0,1,0,0,0,0,0,0,0,0],"id":46,"left_children":[1,3,5,7,9,-1,11,-1,-1,-1,-1,-1,-1],"loss_changes":[5.9148326E0,6.3664474E0,5.7266254E0,3.4784012E0,7.6576633E0,0E0,2.5309753E0,0E0,0E0,0E0,0E0,0E0,0E0],"parents":[2147483647,0,0,1,1,2,2,3,3,4,4,6,6],"right_children":[2,4,6,8,10,-1,12,-1,-1,-1,-1,-1,-1],"split_conditions":[1.112834E0,6.9910514E-1,6.2503207E-1,8.438574E-1,2.0396261E0,1.3507532E-2,6.715145E-1,4.4724364E-3,1.9547284E-2,1.4816242E-3,-4.9541187E-3,1.1008078E-3,-2.0672724E-2],"split_indices":[11,10,8,13,19,0,1,0,0,0,0,0,0],"split_type":[0,0,0,0,0,0,0,0,0,0,0,0,0],"sum_hessian":[3.9023004E2,3.7465268E2,1.5577354E1,3.0358042E1,3.4429465E2,2.2286088E0,1.3348746E1,2.2439163E1,7.9188786E0,2.3823907E2,1.0605557E2,2.484927E0,1.0863819E1],"tree_param":{"num_deleted":"0","num_feature":"22","num_nodes":"13","size_leaf_vector":"0"}},{"base_weights":[-1.1805975E-2,1.1693973E-1,-1.2517327E-1,1.4979933E-1,-8.8691014E-1,-3.4571946E-1,1.6882708E-3,1.8224818E-1,-8.678213E-1,-1.2347898E0,2.3687316E-1,-2.3486122E-1,-8.752076E-1,4.21155E-1,-1.04268216E-1],"categories":[],"categories_nodes":[],"categories_segments":[],"categories_sizes":[],"default_left":[0,0,1,0,0,0,0,0,0,0,0,0,0,0,0],"id":47,"left_children":[1,3,5,7,9,11,13,-1,-1,-1,-1,-1,-1,-1,-1],"loss_changes":[5.7242556E0,6.1920033E0,5.8342013E0,6.059637E0,2.6251082E0,4.2638626E0,5.97107E0,0E0,0E0,0E0,0E0,0E0,0E0,0E0,0E0],"parents":[2147483647,0,0,1,1,2,2,3,3,4,4,5,5,6,6],"right_children":[2,4,6,8,10,12,14,-1,-1,-1,-1,-1,-1,-1,-1],"split_conditions":[9.9824464E-1,1.4767578E0,9.870595E-1,1.2375488E0,1.0344342E0,1.0208533E0,8.668794E-1,3.6449635E-3,-1.7356426E-2,-2.4695797E-2,4.7374633E-3,-4.6972246E-3,-1.7504152E-2,8.4231E-3,-2.0853642E-3],"split_indices":[0,1,4,11,2,2,10,0,0,0,0,0,0,0,0],"split_type":[0,0,0,0,0,0,0,0,0,0,0,0,0,0,0],"sum_hessian":[3.9018887E2,1.8268777E2,2.075011E2,1.777211E2,4.9666734E0,7.51424E1,1.3235869E2,1.7302477E2,4.696327E0,3.7171946E0,1.2494787E0,6.332723E1,1.1815175E1,2.6091467E1,1.0626722E2],"tree_param":{"num_deleted":"0","num_feature":"22","num_nodes":"15","size_leaf_vector":"0"}},{"base_weights":[-1.1699887E-2,1.2035221E0,-2.3684638E-2,1.1069228E-1,-1.430225E-1,1.2737529E0,8.214774E-2,7.6176745E-1,-1.7273922E-1],"categories":[],"categories_nodes":[],"categories_segments":[],"categories_sizes":[],"default_left":[0,0,0,0,1,0,0,0,0],"id":48,"left_children":[1,-1,3,5,7,-1,-1,-1,-1],"loss_changes":[5.7245283E0,0E0,6.242079E0,5.9769917E0,5.6723733E0,0E0,0E0,0E0,0E0],"parents":[2147483647,0,0,2,2,3,3,4,4],"right_children":[2,-1,4,6,8,-1,-1,-1,-1],"split_conditions":[2.1015126E-1,2.4070442E-2,9.9824464E-1,1.8566689E-1,1.1935485E-2,2.5475059E-2,1.6429548E-3,1.5235349E-2,-3.4547844E-3],"split_indices":[13,0,0,3,15,0,0,0,0],"split_type":[0,0,0,0,0,0,0,0,0],"sum_hessian":[3.9009943E2,2.838729E0,3.872607E2,1.8218692E2,2.0507379E2,3.3192475E0,1.7886766E2,5.73786E0,1.9933594E2],"tree_param":{"num_deleted":"0","num_feature":"22","num_nodes":"9","size_leaf_vector":"0"}},{"base_weights":[-1.1306952E-2,1.3805933E-2,-5.8049834E-1,4.365156E-1,-2.4605334E-2,6.6827613E-1,-8.212948E-1,1.8146299E-1,8.8093835E-1,6.263436E-1,-5.796092E-2,6.07213E-2,-1.0115408E0],"categories":[],"categories_nodes":[],"categories_segments":[],"categories_sizes":[],"default_left":[0,0,0,0,0,0,0,0,0,0,0,0,0],"id":49,"left_children":[1,3,5,7,9,-1,11,-1,-1,-1,-1,-1,-1],"loss_changes":[5.5969224E0,6.106863E0,5.523978E0,3.391243E0,7.52987E0,0E0,2.4641771E0,0E0,0E0,0E0,0E0,0E0,0E0],"parents":[2147483647,0,0,1,1,2,2,3,3,4,4,6,6],"right_children":[2,4,6,8,10,-1,12,-1,-1,-1,-1,-1,-1],"split_conditions":[1.112834E0,6.9910514E-1,6.2503207E-1,9.3727016E-1,9.572253E-1,1.3365522E-2,6.715145E-1,3.6292598E-3,1.7618766E-2,1.2526872E-2,-1.1592184E-3,1.214426E-3,-2.0230815E-2],"split_indices":[11,10,8,4,0,0,1,0,0,0,0,0,0],"split_type":[0,0,0,0,0,0,0,0,0,0,0,0,0],"sum_hessian":[3.8999576E2,3.7445065E2,1.5545123E1,3.032831E1,3.441223E2,2.2259634E0,1.33191595E1,2.0164366E1,1.0163945E1,1.5907265E1,3.2821506E2,2.4839463E0,1.0835214E1],"tree_param":{"num_deleted":"0","num_feature":"22","num_nodes":"13","size_leaf_vector":"0"}},{"base_weights":[-1.1013735E-2,1.191354E0,-2.2830687E-2,1.0844179E-1,-1.3940318E-1,1.408175E-1,-8.760732E-1,-9.19049E-1,-1.0463925E-1],"categories":[],"categories_nodes":[],"categories_segments":[],"categories_sizes":[],"default_left":[0,0,0,0,1,0,0,0,0],"id":50,"left_children":[1,-1,3,5,7,-1,-1,-1,-1],"loss_changes":[5.5816474E0,0E0,5.9542055E0,5.959746E0,5.487162E0,0E0,0E0,0E0,0E0],"parents":[2147483647,0,0,2,2,3,3,4,4],"right_children":[2,-1,4,6,8,-1,-1,-1,-1],"split_conditions":[2.1015126E-1,2.382708E-2,9.9824464E-1,1.4767578E0,6.425594E-1,2.8163497E-3,-1.7521463E-2,-1.8380981E-2,-2.092785E-3],"split_indices":[13,0,0,1,18,0,0,0,0],"split_type":[0,0,0,0,0,0,0,0,0],"sum_hessian":[3.8992917E2,2.8234894E0,3.8710568E2,1.821058E2,2.049999E2,1.771376E2,4.968189E0,7.664837E0,1.9733505E2],"tree_param":{"num_deleted":"0","num_feature":"22","num_nodes":"9","size_leaf_vector":"0"}},{"base_weights":[-1.0824659E-2,1.178896E0,-2.246902E-2,1.06207155E-1,-1.3674513E-1,1.2578051E0,7.808427E-2,7.518314E-1,-1.6595425E-1],"categories":[],"categories_nodes":[],"categories_segments":[],"categories_sizes":[],"default_left":[0,0,0,0,1,0,0,0,0],"id":51,"left_children":[1,-1,3,5,7,-1,-1,-1,-1],"loss_changes":[5.4410486E0,0E0,5.7204456E0,5.8311033E0,5.4702353E0,0E0,0E0,0E0,0E0],"parents":[2147483647,0,0,2,2,3,3,4,4],"right_children":[2,-1,4,6,8,-1,-1,-1,-1],"split_conditions":[2.1015126E-1,2.357792E-2,9.9824464E-1,1.8566689E-1,1.1935485E-2,2.5156101E-2,1.5616853E-3,1.5036628E-2,-3.3190849E-3],"split_indices":[13,0,0,3,15,0,0,0,0],"split_type":[0,0,0,0,0,0,0,0,0],"sum_hessian":[3.8984323E2,2.8069932E0,3.8703622E2,1.8208127E2,2.0495496E2,3.2982123E0,1.7878307E2,5.7354693E0,1.9921948E2],"tree_param":{"num_deleted":"0","num_feature":"22","num_nodes":"9","size_leaf_vector":"0"}},{"base_weights":[-1.0451339E-2,1.4231829E-2,-5.705031E-1,4.2793372E-1,-2.3358282E-2,6.5822303E-1,-8.075899E-1,2.0902906E-1,9.550404E-1,7.41377E-2,-2.4101354E-1,6.0926933E-2,-9.953326E-1],"categories":[],"categories_nodes":[],"categories_segments":[],"categories_sizes":[],"default_left":[0,0,0,0,1,0,0,0,0,0,0,0,0],"id":52,"left_children":[1,3,5,7,9,-1,11,-1,-1,-1,-1,-1,-1],"loss_changes":[5.409615E0,5.8450646E0,5.343621E0,3.412578E0,7.337112E0,0E0,2.3916607E0,0E0,0E0,0E0,0E0,0E0,0E0],"parents":[2147483647,0,0,1,1,2,2,3,3,4,4,6,6],"right_children":[2,4,6,8,10,-1,12,-1,-1,-1,-1,-1,-1],"split_conditions":[1.112834E0,6.9910514E-1,6.2503207E-1,8.438574E-1,2.0396261E0,1.3164461E-2,6.715145E-1,4.1805813E-3,1.9100808E-2,1.482754E-3,-4.820271E-3,1.2185386E-3,-1.9906651E-2],"split_indices":[11,10,8,13,19,0,1,0,0,0,0,0,0],"split_type":[0,0,0,0,0,0,0,0,0,0,0,0,0],"sum_hessian":[3.897374E2,3.7421902E2,1.5518372E1,3.0305414E1,3.439136E2,2.2227018E0,1.329567E1,2.2399555E1,7.9058595E0,2.3797502E2,1.0593859E2,2.483273E0,1.0812397E1],"tree_param":{"num_deleted":"0","num_feature":"22","num_nodes":"13","size_leaf_vector":"0"}},{"base_weights":[-1.0207205E-2,1.1660037E0,-2.1669962E-2,1.0463342E-1,-1.3384375E-1,1.3646224E-1,-8.6231047E-1,-9.028591E-1,-9.961667E-2],"categories":[],"categories_nodes":[],"categories_segments":[],"categories_sizes":[],"default_left":[0,0,0,0,1,0,0,0,0],"id":53,"left_children":[1,-1,3,5,7,-1,-1,-1,-1],"loss_changes":[5.292769E0,0E0,5.509735E0,5.750408E0,5.329053E0,0E0,0E0,0E0,0E0],"parents":[2147483647,0,0,2,2,3,3,4,4],"right_children":[2,-1,4,6,8,-1,-1,-1,-1],"split_conditions":[2.1015126E-1,2.3320073E-2,9.9824464E-1,1.4767578E0,6.425594E-1,2.7292448E-3,-1.724621E-2,-1.805718E-2,-1.9923334E-3],"split_indices":[13,0,0,1,18,0,0,0,0],"split_type":[0,0,0,0,0,0,0,0,0],"sum_hessian":[3.8968832E2,2.7889488E0,3.8689938E2,1.8201955E2,2.0487982E2,1.7705046E2,4.9690857E0,7.6487556E0,1.9723106E2],"tree_param":{"num_deleted":"0","num_feature":"22","num_nodes":"9","size_leaf_vector":"0"}},{"base_weights":[-1.0033912E-2,9.060381E-3,-7.1464133E-1,5.354939E-1,-2.000748E-2,-9.7758565E-3,-1.153853E0,-1.790712E-1,1.0646005E0,8.431032E-2,-2.0623995E-1,-5.7163537E-1,4.687337E-1,-3.46359E-1,-1.3749423E0],"categories":[],"categories_nodes":[],"categories_segments":[],"categories_sizes":[],"default_left":[0,0,0,0,1,0,0,0,0,0,0,0,0,0,0],"id":54,"left_children":[1,3,5,7,9,11,13,-1,-1,-1,-1,-1,-1,-1,-1],"loss_changes":[5.2615995E0,5.845201E0,3.1830783E0,7.7475123E0,7.055812E0,1.6040745E0,6.571598E-1,0E0,0E0,0E0,0E0,0E0,0E0,0E0,0E0],"parents":[2147483647,0,0,1,1,2,2,3,3,4,4,5,5,6,6],"right_children":[2,4,6,8,10,12,14,-1,-1,-1,-1,-1,-1,-1,-1],"split_conditions":[1.1905923E0,9.572253E-1,8.887427E-1,8.8710046E-1,1.9848064E0,7.6499987E-1,9.718461E-1,-3.581424E-3,2.1292008E-2,1.6862064E-3,-4.124799E-3,-1.1432707E-2,9.3746735E-3,-6.92718E-3,-2.7498845E-2],"split_indices":[11,0,4,2,17,5,7,0,0,0,0,0,0,0,0],"split_type":[0,0,0,0,0,0,0,0,0,0,0,0,0,0,0],"sum_hessian":[3.8959998E2,3.8028177E2,9.318188E0,1.8987444E1,3.6129434E2,3.9697018E0,5.3484864E0,8.359454E0,1.0627991E1,2.319277E2,1.2936662E2,1.7363207E0,2.2333808E0,1.7013116E0,3.6471748E0],"tree_param":{"num_deleted":"0","num_feature":"22","num_nodes":"15","size_leaf_vector":"0"}},{"base_weights":[-9.888957E-3,1.7234613E-1,-8.2133316E-2,1.16755694E-1,1.0210409E0,-3.2435822E-1,6.40073E-3,1.495583E-1,-1.169527E0,1.2855734E0,1.7232725E-1,-2.2163704E-1,-1.34718E0,1.371824E-1,-2.2245054E-1],"categories":[],"categories_nodes":[],"categories_segments":[],"categories_sizes":[],"default_left":[0,1,1,0,0,0,0,0,0,0,0,0,0,0,0],"id":55,"left_children":[1,3,5,7,9,11,13,-1,-1,-1,-1,-1,-1,-1,-1],"loss_changes":[5.1554594E0,5.1264787E0,6.0137625E0,4.6254864E0,1.2840405E0,7.5870705E0,6.2041965E0,0E0,0E0,0E0,0E0,0E0,0E0,0E0,0E0],"parents":[2147483647,0,0,1,1,2,2,3,3,4,4,5,5,6,6],"right_children":[2,4,6,8,10,12,14,-1,-1,-1,-1,-1,-1,-1,-1],"split_conditions":[2.7893874E-1,2.3618808E0,3.5077575E-1,1.0508285E0,1.0146852E0,3.379829E-1,8.507385E-1,2.991166E-3,-2.339054E-2,2.5711467E-2,3.446545E-3,-4.4327406E-3,-2.69436E-2,2.743648E-3,-4.449011E-3],"split_indices":[1,16,1,0,0,3,9,0,0,0,0,0,0,0,0],"split_type":[0,0,0,0,0,0,0,0,0,0,0,0,0,0,0],"sum_hessian":[3.8951468E2,1.1018626E2,2.7932843E2,1.04480255E2,5.7059994E0,7.405469E1,2.0527373E2,1.0274383E2,1.7364309E0,3.9577048E0,1.7482947E0,6.840184E1,5.6528506E0,1.3088017E2,7.4393555E1],"tree_param":{"num_deleted":"0","num_feature":"22","num_nodes":"15","size_leaf_vector":"0"}},{"base_weights":[-9.754862E-3,1.152095E0,-2.1022584E-2,2.4142423E-1,-7.295344E-2,3.036036E-1,-9.3427914E-1,-3.867635E-2,-5.947718E-1],"categories":[],"categories_nodes":[],"categories_segments":[],"categories_sizes":[],"default_left":[0,0,0,0,0,0,0,0,0],"id":56,"left_children":[1,-1,3,5,7,-1,-1,-1,-1],"loss_changes":[5.135988E0,0E0,5.301599E0,4.9824133E0,5.7797894E0,0E0,0E0,0E0,0E0],"parents":[2147483647,0,0,2,2,3,3,4,4],"right_children":[2,-1,4,6,8,-1,-1,-1,-1],"split_conditions":[2.1015126E-1,2.3041898E-2,9.7964334E-1,1.4767578E0,1.0831254E0,6.072072E-3,-1.8685583E-2,-7.73527E-4,-1.1895436E-2],"split_indices":[13,0,0,1,11,0,0,0,0],"split_type":[0,0,0,0,0,0,0,0,0],"sum_hessian":[3.8946753E2,2.7683372E0,3.8669922E2,6.3274616E1,3.234246E2,6.0800816E1,2.4738004E0,3.0449698E2,1.8927612E1],"tree_param":{"num_deleted":"0","num_feature":"22","num_nodes":"9","size_leaf_vector":"0"}},{"base_weights":[-9.56701E-3,1.1406337E0,-2.0670785E-2,1.0172297E-1,-1.2935527E-1,1.2375528E0,7.416641E-2,-8.9094317E-1,-9.550605E-2],"categories":[],"categories_nodes":[],"categories_segments":[],"categories_sizes":[],"default_left":[0,0,0,0,1,0,0,0,0],"id":57,"left_children":[1,-1,3,5,7,-1,-1,-1,-1],"loss_changes":[5.0094156E0,0E0,5.169599E0,5.6322384E0,5.219139E0,0E0,0E0,0E0,0E0],"parents":[2147483647,0,0,2,2,3,3,4,4],"right_children":[2,-1,4,6,8,-1,-1,-1,-1],"split_conditions":[2.1015126E-1,2.2812674E-2,9.9824464E-1,1.8566689E-1,6.425594E-1,2.4751054E-2,1.4833282E-3,-1.7818863E-2,-1.910121E-3],"split_indices":[13,0,0,3,18,0,0,0,0],"split_type":[0,0,0,0,0,0,0,0,0],"sum_hessian":[3.8938565E2,2.7504592E0,3.866352E2,1.818787E2,2.047565E2,3.2680073E0,1.7861069E2,7.635744E0,1.9712076E2],"tree_param":{"num_deleted":"0","num_feature":"22","num_nodes":"9","size_leaf_vector":"0"}},{"base_weights":[-9.302134E-3,9.267929E-3,-6.9618213E-1,5.225843E-1,-1.898811E-2,-3.905374E-3,-1.1305263E0,-1.7830078E-1,1.0449383E0,8.2674526E-2,-2.0049609E-1,-5.574829E-1,4.660099E-1,-3.352938E-1,-1.3498466E0],"categories":[],"categories_nodes":[],"categories_segments":[],"categories_sizes":[],"default_left":[0,0,0,0,1,0,0,0,0,0,0,0,0,0,0],"id":58,"left_children":[1,3,5,7,9,11,13,-1,-1,-1,-1,-1,-1,-1,-1],"loss_changes":[4.984736E0,5.536074E0,3.0887356E0,7.4768286E0,6.6980286E0,1.552501E0,6.4925957E-1,0E0,0E0,0E0,0E0,0E0,0E0,0E0,0E0],"parents":[2147483647,0,0,1,1,2,2,3,3,4,4,5,5,6,6],"right_children":[2,4,6,8,10,12,14,-1,-1,-1,-1,-1,-1,-1,-1],"split_conditions":[1.1905923E0,9.572253E-1,8.887427E-1,8.8710046E-1,1.9848064E0,7.6499987E-1,9.718461E-1,-3.5660155E-3,2.0898767E-2,1.6534905E-3,-4.0099216E-3,-1.1149658E-2,9.320198E-3,-6.705876E-3,-2.6996931E-2],"split_indices":[11,0,4,2,17,5,7,0,0,0,0,0,0,0,0],"split_type":[0,0,0,0,0,0,0,0,0,0,0,0,0,0,0],"sum_hessian":[3.8928818E2,3.8000122E2,9.28697E0,1.8913446E1,3.6108777E2,3.9693837E0,5.3175864E0,8.357784E0,1.0555662E1,2.3180069E2,1.2928708E2,1.7369018E0,2.232482E0,1.6961848E0,3.6214018E0],"tree_param":{"num_deleted":"0","num_feature":"22","num_nodes":"15","size_leaf_vector":"0"}},{"base_weights":[-9.170153E-3,1.1288818E0,-2.0105764E-2,9.9597335E-2,-1.2638213E-1,6.957083E-2,1.1179485E0,7.3684317E-1,-1.5480888E-1],"categories":[],"categories_nodes":[],"categories_segments":[],"categories_sizes":[],"default_left":[0,0,0,0,1,0,0,0,0],"id":59,"left_children":[1,-1,3,5,7,-1,-1,-1,-1],"loss_changes":[4.878829E0,0E0,4.9417915E0,5.511243E0,5.161312E0,0E0,0E0,0E0,0E0],"parents":[2147483647,0,0,2,2,3,3,4,4],"right_children":[2,-1,4,6,8,-1,-1,-1,-1],"split_conditions":[2.1015126E-1,2.2577636E-2,9.9824464E-1,1.5952595E0,1.1935485E-2,1.3914166E-3,2.235897E-2,1.4736863E-2,-3.0961775E-3],"split_indices":[13,0,0,6,15,0,0,0,0],"split_type":[0,0,0,0,0,0,0,0,0],"sum_hessian":[3.8919827E2,2.7312515E0,3.86467E2,1.8178195E2,2.0468506E2,1.7761328E2,4.1686835E0,5.731064E0,1.98954E2],"tree_param":{"num_deleted":"0","num_feature":"22","num_nodes":"9","size_leaf_vector":"0"}},{"base_weights":[-8.839724E-3,9.462138E-3,-6.868565E-1,3.9754984E-1,-2.7548628E-2,-4.634437E-3,-1.1160913E0,1.79649E-1,9.128669E-1,6.2103623E-1,-5.7187803E-2,-5.504986E-1,4.5897314E-1,-3.3060792E-1,-1.3332936E0],"categories":[],"categories_nodes":[],"categories_segments":[],"categories_sizes":[],"default_left":[0,0,0,0,0,0,0,0,0,0,0,0,0,0,0],"id":60,"left_children":[1,3,5,7,9,11,13,-1,-1,-1,-1,-1,-1,-1,-1],"loss_changes":[4.8472567E0,5.4810405E0,3.0013237E0,3.566412E0,6.73708E0,1.5101937E0,6.33656E-1,0E0,0E0,0E0,0E0,0E0,0E0,0E0,0E0],"parents":[2147483647,0,0,1,1,2,2,3,3,4,4,5,5,6,6],"right_children":[2,4,6,8,10,12,14,-1,-1,-1,-1,-1,-1,-1,-1],"split_conditions":[1.1905923E0,6.9910514E-1,8.887427E-1,8.438574E-1,9.546187E-1,7.6499987E-1,9.718461E-1,3.5929799E-3,1.8257337E-2,1.2420724E-2,-1.1437561E-3,-1.1009972E-2,9.179463E-3,-6.6121584E-3,-2.666587E-2],"split_indices":[11,10,4,13,0,5,7,0,0,0,0,0,0,0,0],"split_type":[0,0,0,0,0,0,0,0,0,0,0,0,0,0,0],"sum_hessian":[3.891015E2,3.798346E2,9.266917E0,3.2221783E1,3.4761282E2,3.9691615E0,5.2977552E0,2.3593805E1,8.627977E0,1.4319102E1,3.332937E2,1.736792E0,2.2323697E0,1.693946E0,3.6038094E0],"tree_param":{"num_deleted":"0","num_feature":"22","num_nodes":"15","size_leaf_vector":"0"}},{"base_weights":[-8.669548E-3,1.6777481E-1,-7.859584E-2,1.19458675E-1,1.1279068E0,-3.173073E-1,8.666236E-3,1.5138194E-1,-1.1524942E0,1.4191018E0,9.819418E-2,-2.1639939E-1,-1.3240715E0,1.3439678E-1,-2.1155493E-1],"categories":[],"categories_nodes":[],"categories_segments":[],"categories_sizes":[],"default_left":[0,1,1,0,0,0,0,0,0,0,0,0,0,0,0],"id":61,"left_children":[1,3,5,7,9,11,13,-1,-1,-1,-1,-1,-1,-1,-1],"loss_changes":[4.825414E0,5.015441E0,5.835495E0,4.5118327E0,1.4200497E0,7.331181E0,5.732987E0,0E0,0E0,0E0,0E0,0E0,0E0,0E0,0E0],"parents":[2147483647,0,0,1,1,2,2,3,3,4,4,5,5,6,6],"right_children":[2,4,6,8,10,12,14,-1,-1,-1,-1,-1,-1,-1,-1],"split_conditions":[2.7893874E-1,2.337705E0,3.5077575E-1,1.0508285E0,3.1579974E-1,3.379829E-1,8.507385E-1,3.0276387E-3,-2.3049884E-2,2.8382037E-2,1.9638836E-3,-4.327988E-3,-2.648143E-2,2.6879355E-3,-4.2310986E-3],"split_indices":[1,18,1,0,7,3,9,0,0,0,0,0,0,0,0],"split_type":[0,0,0,0,0,0,0,0,0,0,0,0,0,0,0],"sum_hessian":[3.890299E2,1.1001947E2,2.7901044E2,1.0581883E2,4.200638E0,7.398448E1,2.0502596E2,1.0408745E2,1.7313846E0,2.979815E0,1.2208226E0,6.834883E1,5.6356535E0,1.3076068E2,7.4265274E1],"tree_param":{"num_deleted":"0","num_feature":"22","num_nodes":"15","size_leaf_vector":"0"}},{"base_weights":[-8.554122E-3,1.1170794E0,-1.9318651E-2,9.769563E-2,-1.23208486E-1,1.2204916E0,7.061705E-2,-8.765776E-1,-8.9786254E-2],"categories":[],"categories_nodes":[],"categories_segments":[],"categories_sizes":[],"default_left":[0,0,0,0,1,0,0,0,0],"id":62,"left_children":[1,-1,3,5,7,-1,-1,-1,-1],"loss_changes":[4.7469354E0,0E0,4.719908E0,5.468206E0,5.097677E0,0E0,0E0,0E0,0E0],"parents":[2147483647,0,0,2,2,3,3,4,4],"right_children":[2,-1,4,6,8,-1,-1,-1,-1],"split_conditions":[2.1015126E-1,2.2341587E-2,9.9824464E-1,1.8566689E-1,6.425594E-1,2.4409832E-2,1.412341E-3,-1.7531551E-2,-1.7957251E-3],"split_indices":[13,0,0,3,18,0,0,0,0],"split_type":[0,0,0,0,0,0,0,0,0],"sum_hessian":[3.8898007E2,2.7110853E0,3.8626898E2,1.8168794E2,2.0458104E2,3.240734E0,1.7844722E2,7.6187906E0,1.9696225E2],"tree_param":{"num_deleted":"0","num_feature":"22","num_nodes":"9","size_leaf_vector":"0"}},{"base_weights":[-8.31043E-3,1.4594586E-2,-5.3078365E-1,4.1286466E-1,-2.1565069E-2,6.509059E-1,-7.6139873E-1,1.5787695E-1,8.578883E-1,6.953489E-2,-2.2502096E-1,8.2205795E-2,-9.470841E-1],"categories":[],"categories_nodes":[],"categories_segments":[],"categories_sizes":[],"default_left":[0,0,0,0,1,0,0,0,0,0,0,0,0],"id":63,"left_children":[1,3,5,7,9,-1,11,-1,-1,-1,-1,-1,-1],"loss_changes":[4.6735573E0,5.4019074E0,4.965165E0,3.4071999E0,6.39646E0,0E0,2.299693E0,0E0,0E0,0E0,0E0,0E0,0E0],"parents":[2147483647,0,0,1,1,2,2,3,3,4,4,6,6],"right_children":[2,4,6,8,10,-1,12,-1,-1,-1,-1,-1,-1],"split_conditions":[1.112834E0,6.9910514E-1,6.2503207E-1,9.3727016E-1,2.0396261E0,1.3018118E-2,6.715145E-1,3.157539E-3,1.7157765E-2,1.3906978E-3,-4.500419E-3,1.6441159E-3,-1.8941682E-2],"split_indices":[11,10,8,4,19,0,1,0,0,0,0,0,0],"split_type":[0,0,0,0,0,0,0,0,0,0,0,0,0],"sum_hessian":[3.8888135E2,3.734802E2,1.5401154E1,3.021941E1,3.4326077E2,2.2172604E0,1.3183893E1,2.0072893E1,1.0146517E1,2.3755206E2,1.05708725E2,2.478928E0,1.0704965E1],"tree_param":{"num_deleted":"0","num_feature":"22","num_nodes":"13","size_leaf_vector":"0"}},{"base_weights":[-8.112884E-3,1.1058005E0,-1.8711975E-2,2.2727494E-1,-6.7298956E-2,2.8897896E-1,-9.337336E-1,-3.4795932E-2,-5.643051E-1],"categories":[],"categories_nodes":[],"categories_segments":[],"categories_sizes":[],"default_left":[0,0,0,0,0,0,0,0,0],"id":64,"left_children":[1,-1,3,5,7,-1,-1,-1,-1],"loss_changes":[4.62319E0,0E0,4.642272E0,4.8606567E0,5.2152095E0,0E0,0E0,0E0,0E0],"parents":[2147483647,0,0,2,2,3,3,4,4],"right_children":[2,-1,4,6,8,-1,-1,-1,-1],"split_conditions":[2.1015126E-1,2.211601E-2,9.7964334E-1,1.4767578E0,1.0831254E0,5.7795793E-3,-1.8674672E-2,-6.959186E-4,-1.1286102E-2],"split_indices":[13,0,0,1,11,0,0,0,0],"split_type":[0,0,0,0,0,0,0,0,0],"sum_hessian":[3.8882855E2,2.690968E0,3.8613757E2,6.308289E1,3.230547E2,6.061261E1,2.4702764E0,3.0422885E2,1.8825836E1],"tree_param":{"num_deleted":"0","num_feature":"22","num_nodes":"9","size_leaf_vector":"0"}},{"base_weights":[-7.958973E-3,1.6304377E-1,-7.569797E-2,1.08701E-1,9.934906E-1,-3.120722E-1,1.0700911E-2,1.4049692E-1,-1.1380566E0,1.2543286E0,1.6280463E-1,-2.1286553E-1,-1.3035069E0,1.3163893E-1,-2.0136209E-1],"categories":[],"categories_nodes":[],"categories_segments":[],"categories_sizes":[],"default_left":[0,1,1,0,0,0,0,0,0,0,0,0,0,0,0],"id":65,"left_children":[1,3,5,7,9,11,13,-1,-1,-1,-1,-1,-1,-1,-1],"loss_changes":[4.526949E0,4.8967934E0,5.7184176E0,4.3306713E0,1.2450175E0,7.09345E0,5.307171E0,0E0,0E0,0E0,0E0,0E0,0E0,0E0,0E0],"parents":[2147483647,0,0,1,1,2,2,3,3,4,4,5,5,6,6],"right_children":[2,4,6,8,10,12,14,-1,-1,-1,-1,-1,-1,-1,-1],"split_conditions":[2.7893874E-1,2.3618808E0,3.5077575E-1,1.0508285E0,1.0253825E0,3.379829E-1,8.507385E-1,2.8099385E-3,-2.2761133E-2,2.5086572E-2,3.2560925E-3,-4.2573106E-3,-2.6070137E-2,2.6327786E-3,-4.027242E-3],"split_indices":[1,16,1,0,2,3,9,0,0,0,0,0,0,0,0],"split_type":[0,0,0,0,0,0,0,0,0,0,0,0,0,0,0],"sum_hessian":[3.8874277E2,1.099001E2,2.7884265E2,1.042116E2,5.6885033E0,7.394055E1,2.0490211E2,1.0248524E2,1.7263597E0,3.941019E0,1.7474843E0,6.8319E1,5.621551E0,1.3072807E2,7.417404E1],"tree_param":{"num_deleted":"0","num_feature":"22","num_nodes":"15","size_leaf_vector":"0"}},{"base_weights":[-7.861119E-3,1.0941315E0,-1.8288746E-2,9.109366E-2,-1.2416061E-1,6.2926434E-2,1.0942652E0,-5.112305E-1,-5.217072E-2],"categories":[],"categories_nodes":[],"categories_segments":[],"categories_sizes":[],"default_left":[0,0,0,0,1,0,0,0,0],"id":66,"left_children":[1,-1,3,5,7,-1,-1,-1,-1],"loss_changes":[4.4979424E0,0E0,4.4931483E0,5.326127E0,5.465174E0,0E0,0E0,0E0,0E0],"parents":[2147483647,0,0,2,2,3,3,4,4],"right_children":[2,-1,4,6,8,-1,-1,-1,-1],"split_conditions":[2.1015126E-1,2.1882629E-2,9.991579E-1,1.5952595E0,9.3062866E-1,1.2585287E-3,2.1885304E-2,-1.0224611E-2,-1.0434143E-3],"split_indices":[13,0,0,6,4,0,0,0,0],"split_type":[0,0,0,0,0,0,0,0,0],"sum_hessian":[3.886846E2,2.6692743E0,3.8601532E2,1.8992859E2,1.9608675E2,1.8577509E2,4.1534977E0,2.979355E1,1.662932E2],"tree_param":{"num_deleted":"0","num_feature":"22","num_nodes":"9","size_leaf_vector":"0"}},{"base_weights":[-7.6188617E-3,9.817862E-3,-6.571112E-1,3.848648E-1,-2.5923688E-2,5.238549E-3,-1.0790799E0,1.7172627E-1,8.8934994E-1,6.0629183E-1,-5.4737933E-2,-5.3758085E-1,4.6352765E-1,-3.0972624E-1,-1.2953854E0],"categories":[],"categories_nodes":[],"categories_segments":[],"categories_sizes":[],"default_left":[0,0,0,0,0,0,0,0,0,0,0,0,0,0,0],"id":67,"left_children":[1,3,5,7,9,11,13,-1,-1,-1,-1,-1,-1,-1,-1],"loss_changes":[4.418566E0,5.109008E0,2.8565922E0,3.4127822E0,6.376826E0,1.4842533E0,6.3650703E-1,0E0,0E0,0E0,0E0,0E0,0E0,0E0,0E0],"parents":[2147483647,0,0,1,1,2,2,3,3,4,4,5,5,6,6],"right_children":[2,4,6,8,10,12,14,-1,-1,-1,-1,-1,-1,-1,-1],"split_conditions":[1.1905923E0,6.9910514E-1,8.887427E-1,8.438574E-1,9.546187E-1,7.6499987E-1,9.718461E-1,3.4345253E-3,1.7786998E-2,1.2125837E-2,-1.0947586E-3,-1.0751617E-2,9.270553E-3,-6.1945245E-3,-2.5907706E-2],"split_indices":[11,10,4,13,0,5,7,0,0,0,0,0,0,0,0],"split_type":[0,0,0,0,0,0,0,0,0,0,0,0,0,0,0],"sum_hessian":[3.885901E2,3.7938962E2,9.200474E0,3.2159737E1,3.4722986E2,3.9647412E0,5.2357326E0,2.3550392E1,8.609343E0,1.4262125E1,3.3296774E2,1.7357819E0,2.2289593E0,1.68268E0,3.5530524E0],"tree_param":{"num_deleted":"0","num_feature":"22","num_nodes":"15","size_leaf_vector":"0"}},{"base_weights":[-7.4713347E-3,1.0845349E0,-1.775709E-2,1.3404168E-1,-9.064149E-2,1.21118E0,5.5280726E-2,-6.703392E-1,-5.9463676E-2],"categories":[],"categories_nodes":[],"categories_segments":[],"categories_sizes":[],"default_left":[0,0,0,0,1,0,0,0,0],"id":68,"left_children":[1,-1,3,5,7,-1,-1,-1,-1],"loss_changes":[4.3943176E0,0E0,4.292308E0,1.0613688E1,4.694836E0,0E0,0E0,0E0,0E0],"parents":[2147483647,0,0,2,2,3,3,4,4],"right_children":[2,-1,4,6,8,-1,-1,-1,-1],"split_conditions":[2.1015126E-1,2.1690696E-2,9.9253964E-1,2.0725074E-1,6.425594E-1,2.42236E-2,1.1056145E-3,-1.3406784E-2,-1.1892735E-3],"split_indices":[13,0,0,1,18,0,0,0,0],"split_type":[0,0,0,0,0,0,0,0,0],"sum_hessian":[3.885136E2,2.650756E0,3.8586285E2,1.2489687E2,2.60966E2,7.530568E0,1.173663E2,1.2272856E1,2.4869313E2],"tree_param":{"num_deleted":"0","num_feature":"22","num_nodes":"9","size_leaf_vector":"0"}},{"base_weights":[-7.2387443E-3,1.6061677E-1,-7.3695E-2,1.1352875E-1,1.0980393E0,-3.0526626E-1,1.094116E-2,1.4449103E-1,-1.1218666E0,1.3884873E0,8.1658885E-2,-2.0773359E-1,-1.2824647E0,1.2868509E-1,-1.9563177E-1],"categories":[],"categories_nodes":[],"categories_segments":[],"categories_sizes":[],"default_left":[0,1,1,0,0,0,0,0,0,0,0,0,0,0,0],"id":69,"left_children":[1,3,5,7,9,11,13,-1,-1,-1,-1,-1,-1,-1,-1],"loss_changes":[4.3558035E0,4.764539E0,5.4843807E0,4.238853E0,1.4164677E0,6.870987E0,5.0300045E0,0E0,0E0,0E0,0E0,0E0,0E0,0E0,0E0],"parents":[2147483647,0,0,1,1,2,2,3,3,4,4,5,5,6,6],"right_children":[2,4,6,8,10,12,14,-1,-1,-1,-1,-1,-1,-1,-1],"split_conditions":[2.7893874E-1,2.337705E0,3.5077575E-1,1.0508285E0,3.1579974E-1,3.379829E-1,8.507385E-1,2.8898206E-3,-2.243733E-2,2.7769746E-2,1.6331776E-3,-4.1546714E-3,-2.5649294E-2,2.5737018E-3,-3.912635E-3],"split_indices":[1,18,1,0,7,3,9,0,0,0,0,0,0,0,0],"split_type":[0,0,0,0,0,0,0,0,0,0,0,0,0,0,0],"sum_hessian":[3.8841714E2,1.09762245E2,2.786549E2,1.05579926E2,4.182318E0,7.38871E1,2.0476779E2,1.0385996E2,1.7199657E0,2.96804E0,1.2142782E0,6.8284325E1,5.602772E0,1.3066656E2,7.410123E1],"tree_param":{"num_deleted":"0","num_feature":"22","num_nodes":"15","size_leaf_vector":"0"}},{"base_weights":[-7.150202E-3,1.0733415E0,-1.7269118E-2,2.175117E-1,-6.359592E-2,2.785569E-1,-9.272072E-1,-3.244561E-2,-5.413997E-1],"categories":[],"categories_nodes":[],"categories_segments":[],"categories_sizes":[],"default_left":[0,0,0,0,0,0,0,0,0],"id":70,"left_children":[1,-1,3,5,7,-1,-1,-1,-1],"loss_changes":[4.275542E0,0E0,4.220152E0,4.7277527E0,4.8013396E0,0E0,0E0,0E0,0E0],"parents":[2147483647,0,0,2,2,3,3,4,4],"right_children":[2,-1,4,6,8,-1,-1,-1,-1],"split_conditions":[2.1015126E-1,2.1466829E-2,9.7964334E-1,1.4767578E0,1.0831254E0,5.571138E-3,-1.8544143E-2,-6.4891216E-4,-1.0827994E-2],"split_indices":[13,0,0,1,11,0,0,0,0],"split_type":[0,0,0,0,0,0,0,0,0],"sum_hessian":[3.8835782E2,2.6283782E0,3.8572943E2,6.2959614E1,3.227698E2,6.0490456E1,2.4691572E0,3.0401736E2,1.875244E1],"tree_param":{"num_deleted":"0","num_feature":"22","num_nodes":"9","size_leaf_vector":"0"}},{"base_weights":[-7.01594E-3,9.943042E-3,-6.4071953E-1,3.7790802E-1,-2.5105407E-2,1.0786279E-2,-1.0590541E0,1.6880691E-1,8.7282103E-1,5.932265E-1,-5.3209115E-2,-5.245508E-1,4.6110514E-1,-3.0003527E-1,-1.2742935E0],"categories":[],"categories_nodes":[],"categories_segments":[],"categories_sizes":[],"default_left":[0,0,0,0,0,0,0,0,0,0,0,0,0,0,0],"id":71,"left_children":[1,3,5,7,9,11,13,-1,-1,-1,-1,-1,-1,-1,-1],"loss_changes":[4.1898394E0,4.9115934E0,2.7808523E0,3.2800207E0,6.0787263E0,1.4383713E0,6.302452E-1,0E0,0E0,0E0,0E0,0E0,0E0,0E0,0E0],"parents":[2147483647,0,0,1,1,2,2,3,3,4,4,5,5,6,6],"right_children":[2,4,6,8,10,12,14,-1,-1,-1,-1,-1,-1,-1,-1],"split_conditions":[1.1905923E0,6.9910514E-1,8.887427E-1,8.438574E-1,9.546187E-1,7.6499987E-1,9.718461E-1,3.3761382E-3,1.745642E-2,1.186453E-2,-1.0641823E-3,-1.0491015E-2,9.222102E-3,-6.000705E-3,-2.548587E-2],"split_indices":[11,10,4,13,0,5,7,0,0,0,0,0,0,0,0],"split_type":[0,0,0,0,0,0,0,0,0,0,0,0,0,0,0],"sum_hessian":[3.8826965E2,3.791084E2,9.161273E0,3.2118786E1,3.469896E2,3.9632323E0,5.198041E0,2.3521866E1,8.596921E0,1.4211116E1,3.327785E2,1.7353785E0,2.2278538E0,1.6772739E0,3.5207672E0],"tree_param":{"num_deleted":"0","num_feature":"22","num_nodes":"15","size_leaf_vector":"0"}},{"base_weights":[-6.879883E-3,1.577579E-1,-7.206958E-2,1.0488462E-1,9.671068E-1,-2.9935676E-1,1.0998144E-2,1.3576688E-1,-1.1092211E0,1.2247909E0,1.5326047E-1,-2.0333809E-1,-1.2637603E0,1.2498817E-1,-1.8914509E-1],"categories":[],"categories_nodes":[],"categories_segments":[],"categories_sizes":[],"default_left":[0,1,1,0,0,0,0,0,0,0,0,0,0,0,0],"id":72,"left_children":[1,3,5,7,9,11,13,-1,-1,-1,-1,-1,-1,-1,-1],"loss_changes":[4.188426E0,4.635996E0,5.2800198E0,4.0889564E0,1.2104754E0,6.6733184E0,4.715266E0,0E0,0E0,0E0,0E0,0E0,0E0,0E0,0E0],"parents":[2147483647,0,0,1,1,2,2,3,3,4,4,5,5,6,6],"right_children":[2,4,6,8,10,12,14,-1,-1,-1,-1,-1,-1,-1,-1],"split_conditions":[2.7893874E-1,2.3618808E0,3.5077575E-1,1.0508285E0,1.0253825E0,3.379829E-1,8.507385E-1,2.7153376E-3,-2.2184422E-2,2.4495818E-2,3.0652094E-3,-4.0667616E-3,-2.5275206E-2,2.4997634E-3,-3.7829017E-3],"split_indices":[1,16,1,0,2,3,9,0,0,0,0,0,0,0,0],"split_type":[0,0,0,0,0,0,0,0,0,0,0,0,0,0,0],"sum_hessian":[3.8819022E2,1.0970592E2,2.784843E2,1.0403885E2,5.6670747E0,7.384052E1,2.0464378E2,1.0232428E2,1.7145671E0,3.920732E0,1.7463428E0,6.8255646E1,5.5848765E0,1.3062361E2,7.4020164E1],"tree_param":{"num_deleted":"0","num_feature":"22","num_nodes":"15","size_leaf_vector":"0"}},{"base_weights":[-6.8017296E-3,1.0629628E0,-1.6766906E-2,8.772791E-2,-1.1787799E-1,1.1685378E-1,-8.343404E-1,-4.973191E-1,-4.7514588E-2],"categories":[],"categories_nodes":[],"categories_segments":[],"categories_sizes":[],"default_left":[0,0,0,0,1,0,0,0,0],"id":73,"left_children":[1,-1,3,5,7,-1,-1,-1,-1],"loss_changes":[4.1660304E0,0E0,4.094114E0,5.2176275E0,5.232435E0,0E0,0E0,0E0,0E0],"parents":[2147483647,0,0,2,2,3,3,4,4],"right_children":[2,-1,4,6,8,-1,-1,-1,-1],"split_conditions":[2.1015126E-1,2.1259256E-2,9.991579E-1,1.4767578E0,9.3062866E-1,2.3370755E-3,-1.6686808E-2,-9.946382E-3,-9.5029175E-4],"split_indices":[13,0,0,1,4,0,0,0,0],"split_type":[0,0,0,0,0,0,0,0,0],"sum_hessian":[3.8812338E2,2.606875E0,3.855165E2,1.8965105E2,1.9586545E2,1.846904E2,4.9606447E0,2.969024E1,1.6617522E2],"tree_param":{"num_deleted":"0","num_feature":"22","num_nodes":"9","size_leaf_vector":"0"}},{"base_weights":[-6.6775694E-3,1.053542E0,-1.6500708E-2,7.2372454E-1,-3.0399356E-2,-5.7013597E-2,1.0297852E0,3.5804626E-2,-2.2260456E-1],"categories":[],"categories_nodes":[],"categories_segments":[],"categories_sizes":[],"default_left":[0,0,1,0,0,0,0,0,0],"id":74,"left_children":[1,-1,3,5,7,-1,-1,-1,-1],"loss_changes":[4.0689607E0,0E0,3.9977322E0,1.7702017E0,4.846889E0,0E0,0E0,0E0,0E0],"parents":[2147483647,0,0,2,2,3,3,4,4],"right_children":[2,-1,4,6,8,-1,-1,-1,-1],"split_conditions":[2.1015126E-1,2.107084E-2,9.246773E-1,2.4547642E-1,1.0212739E0,-1.1402719E-3,2.0595703E-2,7.160925E-4,-4.452091E-3],"split_indices":[13,0,20,9,2,0,0,0,0],"split_type":[0,0,0,0,0,0,0,0,0],"sum_hessian":[3.8802536E2,2.5867262E0,3.8543866E2,6.1624494E0,3.7927618E2,1.9646046E0,4.1978445E0,2.8271155E2,9.656466E1],"tree_param":{"num_deleted":"0","num_feature":"22","num_nodes":"9","size_leaf_vector":"0"}}]},"name":"gbtree"},"learner_model_param":{"base_score":"5E-1","boost_from_average":"0","num_class":"0","num_feature":"22","num_target":"1"},"objective":{"name":"binary:logistic","reg_loss_param":{"scale_pos_weight":"1"}}},"version":[1,7,1]}