{"learner":{"attributes":{"best_iteration":"16","best_ntree_limit":"17","best_score":"0.6924683878701086","scikit_learn":"{\"use_label_encoder\": false, \"n_estimators\": 200, \"objective\": \"binary:logistic\", \"max_depth\": 7, \"max_leaves\": null, \"max_bin\": null, \"grow_policy\": null, \"learning_rate\": 0.005, \"verbosity\": null, \"booster\": null, \"tree_method\": null, \"gamma\": 0.7, \"min_child_weight\": 3, \"max_delta_step\": null, \"subsample\": 0.4, \"sampling_method\": null, \"colsample_bytree\": null, \"colsample_bylevel\": null, \"colsample_bynode\": null, \"reg_alpha\": null, \"reg_lambda\": null, \"scale_pos_weight\": null, \"base_score\": null, \"missing\": NaN, \"num_parallel_tree\": null, \"random_state\": 2022, \"n_jobs\": -1, \"monotone_constraints\": null, \"interaction_constraints\": null, \"importance_type\": null, \"gpu_id\": null, \"validate_parameters\": null, \"predictor\": null, \"enable_categorical\": false, \"max_cat_to_onehot\": null, \"eval_metric\": null, \"early_stopping_rounds\": 100, \"callbacks\": null, \"classes_\": [0, 1], \"n_classes_\": 2, \"evals_result_\": {\"validation_0\": {\"logloss\": [0.6906078744592686, 0.6880752612071432, 0.6856328108761215, 0.6831643703383752, 0.6807365144893622, 0.6783488865870579, 0.6760161703053047, 0.6736332253286034, 0.6712857478743146, 0.6689451637794511, 0.6666742580711462, 0.6643759167118437, 0.6620976334924151, 0.6598252299484934, 0.6575297861342217, 0.6553188936978642, 0.653159847482248, 0.6510012774963541, 0.6488959981124619, 0.6467279153011913, 0.6446189458456262, 0.6424970749077523, 0.6404786532092246, 0.6384427847882491, 0.6364763568667596, 0.6344414266557956, 0.6323973143682865, 0.6304104056074867, 0.6284399264430798, 0.626420458638744, 0.6244648162726384, 0.6225930530047974, 0.6206887980934921, 0.6187767851124903, 0.6168501706386574, 0.6149925766983356, 0.6130621416806669, 0.6112187584241231, 0.6094626977691732, 0.6076735831623118, 0.6059408736330182, 0.6040936937251162, 0.6022824551902253, 0.6005635738878999, 0.5988232400766603, 0.5971805459881031, 0.5954437584887138, 0.5937098986783604, 0.5920533191879337, 0.5903846060900678, 0.5887923759006897, 0.5871086011013914, 0.5855290989840359, 0.5839095208548689, 0.5824087341373387, 0.5807924687229651, 0.5792214569898674, 0.5776568107797335, 0.576131382628864, 0.5745572310850625, 0.5729429778146643, 0.5714175270114987, 0.5698996208655607, 0.568457850832848, 0.5669892948524208, 0.5654347777619736, 0.5639959945040903, 0.5625083643160048, 0.5610402781619135, 0.5596598652770818, 0.5581802430932435, 0.5568450714119427, 0.5554394165042099, 0.5540531268038821, 0.5527099315907545, 0.5514112655397686, 0.5500136027543662, 0.5485414085494484, 0.5472227783339798, 0.5458879024866027, 0.5444900622666515, 0.5431351454394638, 0.5417830505695059, 0.5404285176417883, 0.5391704555782796, 0.537806925120627, 0.5365219812231206, 0.5352216883702896, 0.5338909458962215, 0.5326443062086773, 0.5313796704994899, 0.530107909630818, 0.5288925033212973, 0.5276716979192827, 0.5264238163037918, 0.5251994932153422, 0.5239746398100681, 0.5228038390857146, 0.5216634827940834, 0.5204913333089994, 0.5192949821235268, 0.5180944227488937, 0.5169391049700938, 0.5158240238572381, 0.5146305833905619, 0.513484814415059, 0.5123352090138032, 0.5111576462753765, 0.5100483365246191, 0.5089220217585311, 0.5078081168439991, 0.5066916240501809, 0.5055426488256758, 0.5044125819535266, 0.5033319703712585, 0.502271174561952, 0.5012145481418399]}, \"validation_1\": {\"logloss\": [0.693124756545891, 0.6929886805586175, 0.6929468249424608, 0.6928717378647097, 0.692814353164064, 0.6928658767750389, 0.6928562459192777, 0.6927924994094667, 0.6927428736346687, 0.6927428792004674, 0.6926884302056706, 0.6926834623761007, 0.6927583753961456, 0.692772500077816, 0.6926392552605711, 0.6925205247309091, 0.6924683878701086, 0.6926239847327331, 0.6927828318194339, 0.6927195626527628, 0.6927664539000377, 0.692911517336737, 0.6928519649092734, 0.6928799656332045, 0.6929020012376264, 0.6929651466411727, 0.6930396622631869, 0.6930357512270048, 0.6930689235899363, 0.6930133991816251, 0.6929907278617897, 0.6929979099684943, 0.6929956602726404, 0.6929815315431164, 0.6929306545767598, 0.6929128911782606, 0.6929758760844102, 0.6929018935647197, 0.6929839008530453, 0.692989527369598, 0.693007759205959, 0.6931220000587619, 0.693126394712257, 0.693079806244434, 0.6930042714740707, 0.6932330407796772, 0.6932937194212183, 0.6933384748185227, 0.6933106344907919, 0.6933515527252431, 0.6935667181055494, 0.6935297683868019, 0.6936261983800218, 0.6934813869222113, 0.6935484105743253, 0.6937339006336517, 0.6937502914049832, 0.6938658751332294, 0.6938134818409012, 0.6939662948933846, 0.6939736479207089, 0.6940271616589234, 0.6941936312588043, 0.6944204068952992, 0.6942785310421411, 0.6943616295306104, 0.6944122923655097, 0.6943251772930747, 0.6944362179127938, 0.694525383880871, 0.6945250236724957, 0.694748481283366, 0.694808146696544, 0.6949234778387234, 0.695141468317278, 0.6951556186016226, 0.6952347241860699, 0.6953310262671148, 0.6954617637932199, 0.6953382156093578, 0.6954360788463534, 0.6955536476420223, 0.6955048266817232, 0.6955107182820908, 0.6955000794095783, 0.6955058346478765, 0.6956989262221422, 0.6958473503893219, 0.6957415663629315, 0.6957812148868936, 0.6958966312869903, 0.696024760679802, 0.6960116813057348, 0.6960902556093925, 0.6962385863723496, 0.6963227791474509, 0.6963080073151807, 0.6963265582742028, 0.6963477882039567, 0.6964420019973113, 0.6965560674262573, 0.6965591147516701, 0.6966282692951339, 0.6966724330986295, 0.6968256838758854, 0.6969757459058421, 0.697036033777713, 0.6970858502570154, 0.6971200610461988, 0.6971222929820949, 0.6973856352079907, 0.6975461426736543, 0.6976022590805597, 0.697775183995025, 0.6980322004882508, 0.6980899587551888, 0.6983407430717617]}}, \"_estimator_type\": \"classifier\"}"},"feature_names":["Close_Ratio_2","Trend_2","Close_Ratio_5","Trend_5","Close_Ratio_15","Trend_15","Close_Ratio_30","Trend_30","Close_Ratio_60","Trend_60","Close_Ratio_90","Trend_90","Close_Ratio_250","Trend_250","day_of_month","day_of_week","0X_goog30","0X_goog90","0X_goog250"],"feature_types":["float","float","float","float","float","float","float","float","float","float","float","float","float","float","int","int","float","float","float"],"gradient_booster":{"model":{"gbtree_model_param":{"num_parallel_tree":"1","num_trees":"117","size_leaf_vector":"0"},"tree_info":[0,0,0,0,0,0,0,0,0,0,0,0,0,0,0,0,0,0,0,0,0,0,0,0,0,0,0,0,0,0,0,0,0,0,0,0,0,0,0,0,0,0,0,0,0,0,0,0,0,0,0,0,0,0,0,0,0,0,0,0,0,0,0,0,0,0,0,0,0,0,0,0,0,0,0,0,0,0,0,0,0,0,0,0,0,0,0,0,0,0,0,0,0,0,0,0,0,0,0,0,0,0,0,0,0,0,0,0,0,0,0,0,0,0,0,0,0],"trees":[{"base_weights":[-9.9069285E-1,-1.01167314E-1,-1.9824945E0,1.9607843E-1,-3.878327E-1,5.6666666E-1,-1.294964E-1,3.6734694E-1,-5.504587E-1,2.0289855E-1,9.818182E-1,1.6806724E-2,-8.333333E-1,-1.8181819E-1,7.096774E-1,2.6666667E-2,-8.29932E-1,-2.3076923E-1,1.2380953E0,1.255814E0,-0E0,1.8181819E-1,-6.666667E-1,1.1111112E0,1.1764706E-1,6.3414633E-1,-6.315789E-1,-1.0612245E0,-3.3962265E-1,5.714286E-1,-1E0,1.483871E0,5E-1,-6.666667E-1,3.529412E-1,1.2307693E0,-3.1578946E-1,2.2222222E-1,-1.1666666E0,-3.0769232E-1,-1.2631578E0,-1.04E0,2.5E-1,1E0,-0E0,-1.25E0,-5E-1,1E0,1.4492753E-1,-1.5121951E0,-8.717949E-1,8.235294E-1,-3.1578946E-1],"categories":[],"categories_nodes":[],"categories_segments":[],"categories_sizes":[],"default_left":[0,0,0,0,1,0,1,0,0,0,0,0,0,0,0,1,1,0,0,0,0,0,0,0,0,0,0,0,0,0,0,0,0,0,0,0,0,0,0,0,1,0,0,0,0,1,1,0,0,1,1,0,0],"id":0,"left_children":[1,3,-1,5,7,9,11,13,15,17,19,21,-1,-1,23,25,27,29,-1,31,-1,33,-1,-1,-1,35,37,39,41,43,-1,-1,-1,-1,47,-1,-1,-1,-1,-1,-1,-1,51,-1,-1,-1,-1,-1,-1,-1,-1,-1,-1],"loss_changes":[2.1307925E2,1.1025539E1,0E0,7.765087E0,8.277088E0,4.331357E0,3.592336E0,2.4319825E0,8.812498E0,8.029781E0,3.698944E0,3.4764452E0,0E0,0E0,1.711153E0,7.8980913E0,3.8072128E0,8.593407E0,0E0,1.1110268E0,0E0,3.8288767E0,0E0,0E0,0E0,6.1978874E0,4.599416E0,3.3393383E0,5.7316985E0,1.7142856E0,2.5E-1,0E0,0E0,0E0,2.7152603E0,0E0,0E0,0E0,0E0,0E0,5.3349113E-1,0E0,2.8560371E0,0E0,0E0,0E0,0E0,0E0,0E0,0E0,0E0,0E0,0E0],"parents":[2147483647,0,0,1,1,3,3,4,4,5,5,6,6,7,7,8,8,9,9,10,10,11,11,14,14,15,15,16,16,17,17,19,19,21,21,25,25,26,26,27,27,28,28,29,29,30,30,34,34,40,40,42,42],"right_children":[2,4,-1,6,8,10,12,14,16,18,20,22,-1,-1,24,26,28,30,-1,32,-1,34,-1,-1,-1,36,38,40,42,44,-1,-1,-1,-1,48,-1,-1,-1,-1,-1,-1,-1,52,-1,-1,-1,-1,-1,-1,-1,-1,-1,-1],"split_conditions":[1.7889898E0,9.978473E-1,-9.912472E-3,3.1750244E-1,1.1870371E-1,9.718871E-1,3.2092592E-1,1.00964E0,8.076355E-1,2.9360285E-1,1.1508918E0,1.2329302E0,-4.1666664E-3,-9.090909E-4,3.2721418E-1,3.5E0,1.0859559E0,1.9296424E-1,6.1904765E-3,3.2912552E-1,-0E0,3.43133E-1,-3.3333334E-3,5.5555557E-3,5.8823527E-4,7.425989E-1,1.009903E0,2.5320363E-1,2.6150727E-1,2.7051902E-1,-5E-3,7.4193547E-3,2.5E-3,-3.3333334E-3,3.974607E-1,6.153846E-3,-1.5789473E-3,1.1111111E-3,-5.833333E-3,-1.5384615E-3,-6.315789E-3,-5.1999995E-3,1.2560029E0,5E-3,-0E0,-6.2499996E-3,-2.5E-3,5E-3,7.2463765E-4,-7.5609754E-3,-4.3589743E-3,4.117647E-3,-1.5789473E-3],"split_indices":[1,0,0,11,17,6,17,0,10,13,6,10,0,0,7,15,4,1,0,1,0,1,0,0,0,13,0,9,7,13,2,0,0,0,3,0,0,0,0,0,0,0,6,0,0,2147483647,2147483647,0,0,2147483647,2147483647,0,0],"split_type":[0,0,0,0,0,0,0,0,0,0,0,0,0,0,0,0,0,0,0,0,0,0,0,0,0,0,0,0,0,0,0,0,0,0,0,0,0,0,0,0,0,0,0,0,0,0,0,0,0,0,0,0,0],"sum_hessian":[2.4075E2,1.275E2,1.1325E2,6.275E1,6.475E1,2.9E1,3.375E1,1.125E1,5.35E1,1.625E1,1.275E1,2.875E1,5E0,4.5E0,6.75E0,1.775E1,3.575E1,1.2E1,4.25E0,9.75E0,3E0,2.375E1,5E0,3.5E0,3.25E0,9.25E0,8.5E0,2.35E1,1.225E1,6E0,6E0,6.75E0,3E0,3.5E0,2.025E1,5.5E0,3.75E0,3.5E0,5E0,5.5E0,1.8E1,5.25E0,7E0,3E0,3E0,3E0,3E0,4E0,1.625E1,9.25E0,8.75E0,3.25E0,3.75E0],"tree_param":{"num_deleted":"4","num_feature":"19","num_nodes":"53","size_leaf_vector":"0"}},{"base_weights":[-9.962355E-1,-1.3124576E-1,-1.9721061E0,9.0463E-2,-6.4753634E-1,6.66618E-1,-9.5837496E-2,-8.1679624E-1,4.364821E-1,1.0470166E0,-2.8450745E-1,1.5375565E-1,-6.9942814E-1,-5.2201796E-2,-1.0905286E0,3.5192293E-1,1.1995867E0,9.7176176E-1,-4.947724E-2,-1.4547976E0,-3.8626885E-1,7.349207E-1,-6.666396E-1,-1.322144E0,-3.969668E-1,1.5190536E0,7.5872284E-1,1.5351368E0,-1.1851776E-1,-9.6475446E-1,1.3235025E-1,2.2256798E-1,-7.6815426E-1,-5.459572E-1,-1.5445501E0,5.9071946E-1,-1.2912493E0,3.4326902E-1,-6.656948E-1,-1.0762601E0,-1.1618997E-1],"categories":[],"categories_nodes":[],"categories_segments":[],"categories_sizes":[],"default_left":[0,1,0,0,0,0,1,1,0,1,0,0,0,0,0,0,0,0,0,0,0,0,0,0,0,1,1,0,0,0,1,0,1,0,0,0,0,0,0,0,0],"id":1,"left_children":[1,3,-1,5,7,9,11,13,-1,15,-1,17,19,21,23,-1,-1,27,29,-1,31,-1,-1,33,35,-1,-1,-1,-1,-1,37,-1,39,-1,-1,-1,-1,-1,-1,-1,-1],"loss_changes":[1.9747299E2,1.4395388E1,0E0,9.563247E0,7.2828846E0,8.167152E0,1.0314161E1,6.8497486E0,0E0,1.2481251E0,0E0,8.152512E0,4.169054E0,5.2053804E0,3.3706417E0,0E0,6.079693E-1,6.1707087E0,6.7845483E0,0E0,3.7747905E0,0E0,0E0,2.2208862E0,7.3872538E0,0E0,0E0,0E0,0E0,0E0,5.9935317E0,0E0,1.8334603E0,0E0,0E0,0E0,0E0,0E0,0E0,0E0,0E0],"parents":[2147483647,0,0,1,1,3,3,4,4,5,5,6,6,7,7,9,9,11,11,12,12,13,13,14,14,16,16,17,17,18,18,20,20,23,23,24,24,30,30,32,32],"right_children":[2,4,-1,6,8,10,12,14,-1,16,-1,18,20,22,24,-1,-1,28,30,-1,32,-1,-1,34,36,-1,-1,-1,-1,-1,38,-1,40,-1,-1,-1,-1,-1,-1,-1,-1],"split_conditions":[1.3086641E0,4.5E0,-9.8605305E-3,9.7878975E-1,9.664934E-1,6.213312E-1,2.15E1,1.2907407E-1,2.1824106E-3,1.3246667E-1,-1.4225373E-3,2.3090893E-1,2.6056558E-1,1.0005481E0,1.0358129E0,1.7596146E-3,5.9979334E-3,1.3155482E0,2.3600125E-1,-7.273988E-3,9.839853E-1,3.6746033E-3,-3.3331981E-3,9.8040795E-1,1.0881994E0,7.5952676E-3,3.7936142E-3,7.675684E-3,-5.925888E-4,-4.8237722E-3,2.7166665E-1,1.1128399E-3,2.0566666E-1,-2.7297859E-3,-7.7227503E-3,2.9535973E-3,-6.456246E-3,1.7163451E-3,-3.3284738E-3,-5.3813E-3,-5.809498E-4],"split_indices":[2,15,0,0,11,13,14,17,0,18,0,11,13,0,2,0,13,10,1,0,2,0,0,0,2,2147483647,2147483647,0,0,0,17,0,18,0,0,0,0,0,0,0,0],"split_type":[0,0,0,0,0,0,0,0,0,0,0,0,0,0,0,0,0,0,0,0,0,0,0,0,0,0,0,0,0,0,0,0,0,0,0,0,0,0,0,0,0],"sum_hessian":[2.3324667E2,1.2424934E2,1.0899734E2,8.749953E1,3.6749817E1,2.0749916E1,6.674961E1,3.1999836E1,4.7499804E0,1.4749926E1,5.99999E0,4.7749706E1,1.8999903E1,8.749968E0,2.3249868E1,3.2499802E0,1.1499946E1,8.749942E0,3.8999763E1,4.49998E0,1.4499924E1,3.7499835E0,4.999984E0,1.6749914E1,6.499954E0,5.2499804E0,6.249965E0,5.4999547E0,3.2499871E0,5.7499547E0,3.324981E1,5.749974E0,8.749949E0,4.499978E0,1.2249936E1,3.2499785E0,3.2499754E0,2.674984E1,6.4999676E0,5.4999723E0,3.2499776E0],"tree_param":{"num_deleted":"2","num_feature":"19","num_nodes":"41","size_leaf_vector":"0"}},{"base_weights":[-8.664203E-1,7.596908E-2,-1.9445235E0,7.925941E-1,-1.0568837E-1,1.1382992E0,5.287482E-2,9.336639E-1,-1.8620571E-1,1.3414037E0,5.580896E-1,8.8681334E-1,-6.089681E-1,3.509509E-1,1.2966933E0,1.5778825E-1,-4.1133562E-1,7.2407204E-1,1.6064262E0,5.891085E-1,-3.530822E-1,-4.9990782E-1,8.2646644E-1,1.3704555E0,3.4336466E-1,6.2114805E-1,-9.122567E-1,2.4537325E-1,-6.568135E-1,-3.617511E-1,6.1526954E-1,-1.5495013E0,-4.675684E-1,7.300173E-1,-2.6087263E-1,-4.5926788E-1,-1.2526675E0],"categories":[],"categories_nodes":[],"categories_segments":[],"categories_sizes":[],"default_left":[0,0,0,1,0,0,0,1,1,0,0,0,0,0,0,1,1,0,0,0,0,0,0,0,1,0,0,0,0,0,0,0,0,0,0,0,0],"id":2,"left_children":[1,3,-1,5,7,9,11,13,15,17,-1,-1,-1,-1,-1,19,21,-1,-1,23,25,27,-1,-1,29,-1,31,33,35,-1,-1,-1,-1,-1,-1,-1,-1],"loss_changes":[2.3965599E2,1.658393E1,0E0,6.5246506E0,8.709718E0,1.3136044E0,5.6454167E0,1.1314626E0,7.4606633E0,8.4098244E-1,0E0,0E0,0E0,0E0,0E0,8.691333E0,6.7719173E0,0E0,0E0,3.6096334E0,1.0508467E1,6.563504E0,0E0,0E0,3.5777204E0,0E0,2.6759586E0,2.7052429E0,4.7803707E0,0E0,0E0,0E0,0E0,0E0,0E0,0E0,0E0],"parents":[2147483647,0,0,1,1,3,3,4,4,5,5,6,6,7,7,8,8,9,9,15,15,16,16,19,19,20,20,21,21,24,24,26,26,27,27,28,28],"right_children":[2,4,-1,6,8,10,12,14,16,18,-1,-1,-1,-1,-1,20,22,-1,-1,24,26,28,-1,-1,30,-1,32,34,36,-1,-1,-1,-1,-1,-1,-1,-1],"split_conditions":[1.6887367E0,9.788065E-1,-9.722617E-3,2.324074E-1,2.16124E-1,1.1288009E0,9.6164346E-1,2.111111E-1,1.4388889E-1,9.3766725E-1,2.790448E-3,4.434067E-3,-3.0448404E-3,1.7547545E-3,6.4834664E-3,3.5E0,2.3712769E0,3.62036E-3,8.032131E-3,2.4319324E-1,9.9777496E-1,2.33115E-1,4.1323323E-3,6.8522776E-3,9.937947E-1,3.1057403E-3,9.562999E-1,9.994141E-1,1.1777536E0,-1.8087554E-3,3.0763478E-3,-7.7475063E-3,-2.337842E-3,3.6500865E-3,-1.3043631E-3,-2.2963393E-3,-6.2633376E-3],"split_indices":[3,0,0,17,11,10,0,16,16,2,0,0,0,0,0,15,12,0,0,13,0,1,0,0,0,0,6,2,8,0,0,0,0,0,0,0,0],"split_type":[0,0,0,0,0,0,0,0,0,0,0,0,0,0,0,0,0,0,0,0,0,0,0,0,0,0,0,0,0,0,0,0,0,0,0,0,0],"sum_hessian":[2.3473813E2,1.2574857E2,1.0898956E2,2.4749706E1,1.0099886E2,1.6499771E1,8.249936E0,6.4998755E0,9.4498985E1,1.1249807E1,5.2499647E0,3.4999707E0,4.749965E0,3.2499611E0,3.2499144E0,3.749955E1,5.6999435E1,4.4999466E0,6.749861E0,2.0249802E1,1.724975E1,5.374947E1,3.2499664E0,3.749963E0,1.6499838E1,6.249913E0,1.0999837E1,9.249891E0,4.4499577E1,4.4999456E0,1.1999892E1,3.4999266E0,7.4999104E0,4.499943E0,4.749949E0,3.474967E1,9.749909E0],"tree_param":{"num_deleted":"0","num_feature":"19","num_nodes":"37","size_leaf_vector":"0"}},{"base_weights":[-9.256918E-1,-3.0903207E-2,-1.9441664E0,7.583122E-1,-2.1596389E-1,1.1466434E0,2.8430864E-1,4.954057E-1,-3.6191958E-1,3.45581E-1,1.3782133E0,7.562241E-1,-3.3330536E-1,9.37827E-1,-6.102393E-1,-2.0338607E-1,-9.031319E-1,4.805554E-1,1.5961965E0,-5.3582186E-1,3.1340545E-1,-2.9786235E-1,-1.2439942E0,-1.8606612E-1,1.1512687E0,-9.376173E-1,-2.4974999E-1,-2.9566434E-1,7.28144E-1,-8.186357E-1,2.0436962E-1,-1.6182405E0,-3.9640522E-1,-1.3004577E0,-1.514185E-1,3.278429E-1,-6.2221014E-1,3.0652913E-1,-8.746413E-1,1.062597E0,-8.1939876E-2],"categories":[],"categories_nodes":[],"categories_segments":[],"categories_sizes":[],"default_left":[0,1,0,0,0,0,0,0,0,0,0,0,0,0,0,1,0,0,0,1,1,0,0,0,0,0,0,0,1,0,0,0,0,0,0,0,0,0,0,0,0],"id":3,"left_children":[1,3,-1,5,7,9,11,13,15,-1,-1,-1,-1,17,-1,19,21,23,-1,25,27,29,31,-1,-1,33,35,37,39,-1,-1,-1,-1,-1,-1,-1,-1,-1,-1,-1,-1],"loss_changes":[2.1475983E2,1.8639082E1,0E0,4.1376114E0,1.08993845E1,1.9351711E0,3.8224149E0,9.377028E0,7.2164545E0,0E0,0E0,0E0,0E0,3.2218218E0,0E0,1.1850113E1,3.6009302E0,4.3498936E0,0E0,4.5645857E0,7.0986443E0,2.3250544E0,3.164936E0,0E0,0E0,4.6524982E0,5.743494E0,4.364752E0,4.557415E0,0E0,0E0,0E0,0E0,0E0,0E0,0E0,0E0,0E0,0E0,0E0,0E0],"parents":[2147483647,0,0,1,1,3,3,4,4,5,5,6,6,7,7,8,8,13,13,15,15,16,16,17,17,19,19,20,20,21,21,22,22,25,25,26,26,27,27,28,28],"right_children":[2,4,-1,6,8,10,12,14,16,-1,-1,-1,-1,18,-1,20,22,24,-1,26,28,30,32,-1,-1,34,36,38,40,-1,-1,-1,-1,-1,-1,-1,-1,-1,-1,-1,-1],"split_conditions":[1.7868872E0,1.2314815E-1,-9.720832E-3,1.0027747E0,9.731131E-1,9.265098E-1,2.97246E-1,1.1288009E0,6.849233E-1,1.7279049E-3,6.891066E-3,3.7811203E-3,-1.6665268E-3,6.183285E-1,-3.0511965E-3,1.5506667E-1,7.474674E-1,8.989972E-1,7.980983E-3,1.437037E-1,9.999589E-1,3.2607576E-1,1.0256066E0,-9.303306E-4,5.7563432E-3,2.6735932E-1,9.9453855E-1,9.964876E-1,4.5E0,-4.0931785E-3,1.0218481E-3,-8.091202E-3,-1.982026E-3,-6.5022884E-3,-7.570925E-4,1.6392145E-3,-3.1110507E-3,1.5326457E-3,-4.3732063E-3,5.3129853E-3,-4.0969937E-4],"split_indices":[1,17,0,0,0,4,7,10,13,0,0,0,0,1,0,18,10,4,0,17,4,5,2,0,0,11,4,0,15,0,0,0,0,0,0,0,0,0,0,0,0],"split_type":[0,0,0,0,0,0,0,0,0,0,0,0,0,0,0,0,0,0,0,0,0,0,0,0,0,0,0,0,0,0,0,0,0,0,0,0,0,0,0,0,0],"sum_hessian":[2.3472406E2,1.2549756E2,1.09226494E2,2.324948E1,1.0224808E2,1.1999627E1,1.1249852E1,1.699966E1,8.524842E1,3.2498534E0,8.749774E0,6.2499056E0,4.9999466E0,1.2249739E1,4.7499213E0,6.699875E1,1.8249672E1,8.249768E0,3.9999712E0,4.0749226E1,2.6249523E1,7.249888E0,1.0999784E1,4.4999027E0,3.7498653E0,1.5999686E1,2.4749537E1,1.0749827E1,1.5499696E1,3.2499557E0,3.9999325E0,6.9998345E0,3.9999502E0,1.0499794E1,5.4998927E0,9.749807E0,1.499973E1,5.499926E0,5.2499013E0,1.0749798E1,4.7498984E0],"tree_param":{"num_deleted":"0","num_feature":"19","num_nodes":"41","size_leaf_vector":"0"}},{"base_weights":[-1.0236797E0,-1.7667714E-1,-1.9446383E0,3.3147182E-2,-6.3675576E-1,1.3283725E0,-3.622217E-2,-1.6941336E-1,-1.0897882E0,8.002971E-2,-7.8111714E-1,6.555364E-1,-5.2933735E-1,-1.213963E0,-3.439656E-1,-1.6410731E-1,4.6998733E-1,1.1907215E-1,-1.1501708E0,5.906971E-1,-8.894078E-1,-3.481114E-1,-1.3966262E0,3.28209E-1,-6.145618E-1,1.0758556E0,1.511229E-1,-3.5462764E-1,-1.5963476E0,-3.9819476E-1,-1.4217329E0,-1.6379799E0,-8.2191753E-1,-2.8742227E-1,5.658928E-1,-1.6435434E-1,-1.0001738E0,1.3827535E0,3.5334665E-1,1.1063206E0,-1.18545525E-1,-8.2379776E-1,1.2110536E-1],"categories":[],"categories_nodes":[],"categories_segments":[],"categories_sizes":[],"default_left":[0,1,0,0,0,0,1,1,1,0,0,0,0,0,0,0,1,0,0,0,0,0,0,0,0,0,1,0,0,0,0,1,1,0,0,0,0,0,0,0,0,0,0],"id":4,"left_children":[1,3,-1,5,7,-1,9,11,13,15,17,-1,19,21,-1,23,25,-1,27,-1,29,-1,-1,33,35,37,39,-1,-1,41,-1,-1,-1,-1,-1,-1,-1,-1,-1,-1,-1,-1,-1],"loss_changes":[1.8780705E2,1.2256599E1,0E0,7.9546E0,8.230934E0,0E0,7.3796196E0,6.507839E0,1.4345989E0,7.121946E0,3.9574027E0,0E0,6.574568E0,2.1628685E0,0E0,1.0458075E1,5.3914638E0,0E0,2.3622065E0,0E0,2.5062342E0,0E0,5.2618027E-1,3.4914656E0,4.088813E0,1.6732979E0,5.2827215E0,0E0,0E0,1.7573483E0,0E0,0E0,0E0,0E0,0E0,0E0,0E0,0E0,0E0,0E0,0E0,0E0,0E0],"parents":[2147483647,0,0,1,1,3,3,4,4,6,6,7,7,8,8,9,9,10,10,12,12,13,13,15,15,16,16,18,18,20,20,22,22,23,23,24,24,25,25,26,26,29,29],"right_children":[2,4,-1,6,8,-1,10,12,14,16,18,-1,20,22,-1,24,26,-1,28,-1,30,-1,-1,34,36,38,40,-1,-1,42,-1,-1,-1,-1,-1,-1,-1,-1,-1,-1,-1,-1,-1],"split_conditions":[2.049025E0,4.5E0,-9.723191E-3,8.539978E-1,1.0001227E0,6.6418624E-3,3.0259258E-1,1.3222224E-1,2.8518516E-1,1.0312688E0,5.489414E-1,3.277682E-3,8.0866283E-1,2.2323155E-1,-1.7198279E-3,7.5693625E-1,9.5E0,5.953607E-4,5.9540164E-1,2.9534856E-3,1.0041248E0,-1.7405569E-3,-6.983131E-3,9.647994E-1,3.109631E-1,5.473664E-1,1.2111111E-1,-1.7731382E-3,-7.981738E-3,9.486762E-1,-7.108664E-3,-8.189899E-3,-4.1095875E-3,-1.4371113E-3,2.829464E-3,-8.217717E-4,-5.000869E-3,6.913767E-3,1.7667332E-3,5.531603E-3,-5.927276E-4,-4.1189888E-3,6.055268E-4],"split_indices":[1,15,0,2,0,0,17,17,17,12,10,0,8,9,0,12,14,0,13,0,4,0,10,2,9,7,16,0,0,6,0,2147483647,2147483647,0,0,0,0,0,0,0,0,0,0],"split_type":[0,0,0,0,0,0,0,0,0,0,0,0,0,0,0,0,0,0,0,0,0,0,0,0,0,0,0,0,0,0,0,0,0,0,0,0,0,0,0,0,0,0,0],"sum_hessian":[2.4020197E2,1.25745804E2,1.1445617E2,8.6997505E1,3.8748295E1,3.4999096E0,8.34976E1,1.9749214E1,1.8999079E1,7.299778E1,1.0499821E1,5.7496448E0,1.399957E1,1.5749246E1,3.2498336E0,4.5248592E1,2.7749186E1,3.2499523E0,7.249869E0,3.2499084E0,1.0749661E1,3.2499144E0,1.2499331E1,2.1749376E1,2.3499216E1,8.749812E0,1.8999372E1,3.2499495E0,3.9999192E0,6.4998403E0,4.249821E0,7.499677E0,4.999654E0,5.999819E0,1.57495575E1,1.1499548E1,1.1999669E1,5.4998403E0,3.249972E0,3.4998753E0,1.5499498E1,3.2499313E0,3.2499087E0],"tree_param":{"num_deleted":"2","num_feature":"19","num_nodes":"43","size_leaf_vector":"0"}},{"base_weights":[-9.310292E-1,-8.320746E-2,-1.9347394E0,1.04143284E-1,-5.338887E-1,6.9765896E-1,-3.1321164E-2,-6.763928E-2,-1.0695591E0,1.0299909E0,-1.8446663E-1,-3.3563745E-1,3.3301058E-1,5.1088494E-1,-4.3759403E-1,-2.13515E-1,-1.2683282E0,1.2319727E0,3.4802592E-1,-6.506111E-1,1.11722745E-1,7.157345E-1,-1.46761E-1,-2.0236143E-1,1.154119E0,-9.9421674E-1,3.148317E-1,-1.4822398E0,-5.868412E-1,-3.2530114E-1,-1.1989913E0,4.1232142E-1,-8.817171E-1,-6.845652E-4,9.3070686E-1,-1.0345055E0,3.709714E-1,-1.3650005E0,-3.4587073E-1,-6.9599795E-1,1.9498836E-1,-1.5542789E0,-6.6607493E-1,-4.355922E-1,8.700921E-1,5.424245E-1,1.2239479E0,-5.8070916E-1,8.4499454E-1],"categories":[],"categories_nodes":[],"categories_segments":[],"categories_sizes":[],"default_left":[0,1,0,1,0,1,1,1,0,0,0,0,0,1,0,0,1,0,0,0,0,0,1,0,0,0,0,0,0,1,0,1,0,0,1,0,0,0,0,0,0,1,1,0,0,0,0,0,0],"id":5,"left_children":[1,3,-1,5,7,9,11,13,15,17,-1,19,21,23,25,-1,27,-1,-1,29,31,33,35,-1,-1,37,-1,-1,-1,39,-1,43,-1,-1,45,-1,47,-1,-1,-1,-1,-1,-1,-1,-1,-1,-1,-1,-1],"loss_changes":[1.991197E2,1.0862834E1,0E0,7.35812E0,9.355245E0,5.173435E0,8.4546385E0,4.7713976E0,2.7066288E0,1.2929468E0,0E0,5.920155E0,6.485623E0,4.247673E0,5.9667683E0,0E0,1.1708431E0,0E0,0E0,3.9804869E0,5.7386947E0,3.003766E0,7.8521757E0,0E0,0E0,1.4509997E0,0E0,0E0,0E0,3.3661947E0,6.213989E-1,6.007066E0,0E0,0E0,1.0439634E0,0E0,5.4528327E0,0E0,0E0,0E0,0E0,0E0,0E0,0E0,0E0,0E0,0E0,0E0,0E0],"parents":[2147483647,0,0,1,1,3,3,4,4,5,5,6,6,7,7,8,8,9,9,11,11,12,12,13,13,14,14,16,16,19,19,20,20,21,21,22,22,25,25,29,29,30,30,31,31,34,34,36,36],"right_children":[2,4,-1,6,8,10,12,14,16,18,-1,20,22,24,26,-1,28,-1,-1,30,32,34,36,-1,-1,38,-1,-1,-1,40,-1,44,-1,-1,46,-1,48,-1,-1,-1,-1,-1,-1,-1,-1,-1,-1,-1,-1],"split_conditions":[1.0488701E0,4.5E0,-9.673697E-3,1.2296297E-1,9.994184E-1,2.35E1,1.65E1,1.3833334E-1,2.5520563E-1,3.8493448E-1,-9.2233316E-4,1.099679E0,9.98394E-1,1.3693333E-1,3.6373442E-1,-1.067575E-3,2.0206666E-1,6.1598634E-3,1.7401295E-3,9.049696E-1,9.732363E-1,7.539995E-1,1.0097208E0,-1.0118071E-3,5.770595E-3,9.8551697E-1,1.5741584E-3,-7.411199E-3,-2.934206E-3,2.1433334E-1,-5.9949565E-3,1.4E-1,-4.4085854E-3,-3.422826E-6,2.1222222E-1,-5.1725274E-3,2.6068676E-1,-6.8250024E-3,-1.7293537E-3,-3.4799897E-3,9.7494177E-4,-7.771394E-3,-3.3303746E-3,-2.177961E-3,4.3504606E-3,2.7121224E-3,6.1197393E-3,-2.9035457E-3,4.224973E-3],"split_indices":[13,15,0,17,0,14,14,16,13,11,0,12,0,18,5,0,18,0,0,8,7,10,0,0,0,0,0,0,0,18,2,18,0,0,16,0,1,0,0,0,0,2147483647,2147483647,0,0,0,0,0,0],"split_type":[0,0,0,0,0,0,0,0,0,0,0,0,0,0,0,0,0,0,0,0,0,0,0,0,0,0,0,0,0,0,0,0,0,0,0,0,0,0,0,0,0,0,0,0,0,0,0,0,0],"sum_hessian":[2.3318138E2,1.26993996E2,1.0618738E2,9.02468E1,3.674719E1,1.5999118E1,7.424769E1,2.0248817E1,1.6498371E1,1.1499263E1,4.4998555E0,4.0498863E1,3.3748825E1,7.749477E0,1.2499341E1,3.4998128E0,1.2998558E1,8.249463E0,3.2497995E0,2.3499321E1,1.6999542E1,1.8499535E1,1.5249291E1,3.9997628E0,3.749714E0,6.9997673E0,5.499573E0,8.99889E0,3.9996674E0,1.5749568E1,7.749752E0,1.3499706E1,3.4998353E0,4.4999094E0,1.3999625E1,5.2496624E0,9.999629E0,3.7498822E0,3.249885E0,8.99972E0,6.749849E0,3.49988E0,4.2498717E0,4.74996E0,8.749746E0,7.249831E0,6.749794E0,3.2498822E0,6.749747E0],"tree_param":{"num_deleted":"2","num_feature":"19","num_nodes":"49","size_leaf_vector":"0"}},{"base_weights":[-9.000016E-1,1.7803762E-2,-1.9185139E0,1.01421446E-1,-6.597097E-1,2.703431E-1,-3.188859E-1,-1.239239E-1,-1.1599435E0,3.3759367E-1,-1.0512657E0,5.832205E-1,-5.6832856E-1,-7.345137E-1,5.876679E-1,1.7839263E-1,8.182862E-1,1.1078249E0,-1.0947856E-1,-9.5741624E-1,-9.9628486E-2,3.471596E-1,-6.6634285E-1,1.4000566E0,4.7318316E-1,-2.8626248E-3,-1.2608793E0,6.757314E-1,-4.4727546E-1,5.2482337E-1,-1.4238524E-1,1.16759405E-1,-1.0334749E0,-3.4858292E-1,7.6073563E-1,-3.4516552E-1,-1.6003658E0,-1.1139563E0,4.0880898E-1],"categories":[],"categories_nodes":[],"categories_segments":[],"categories_sizes":[],"default_left":[0,1,0,1,0,0,0,1,0,1,0,0,0,0,0,0,0,0,0,1,1,0,1,0,0,0,0,0,0,0,0,0,0,0,0,0,0,0,0],"id":6,"left_children":[1,3,-1,5,7,9,11,13,-1,15,-1,17,19,-1,-1,21,23,-1,-1,25,27,29,31,-1,33,-1,35,-1,37,-1,-1,-1,-1,-1,-1,-1,-1,-1,-1],"loss_changes":[2.2662645E2,7.3463116E0,0E0,8.26839E0,3.6753726E0,7.70932E0,7.8691134E0,3.9075139E0,0E0,5.937648E0,0E0,2.9374015E0,4.7824554E0,0E0,0E0,8.927306E0,3.2524328E0,0E0,0E0,4.196314E0,3.8734493E0,4.553695E0,3.1393542E0,0E0,3.5142508E0,0E0,2.8669434E0,0E0,6.0195217E0,0E0,0E0,0E0,0E0,0E0,0E0,0E0,0E0,0E0,0E0],"parents":[2147483647,0,0,1,1,3,3,4,4,5,5,6,6,7,7,9,9,11,11,12,12,15,15,16,16,19,19,20,20,21,21,22,22,24,24,26,26,28,28],"right_children":[2,4,-1,6,8,10,12,14,-1,16,-1,18,20,-1,-1,22,24,-1,-1,26,28,30,32,-1,34,-1,36,-1,38,-1,-1,-1,-1,-1,-1,-1,-1,-1,-1],"split_conditions":[1.6663368E0,3.0222222E-1,-9.592569E-3,4.5E0,9.9711293E-1,1.1804854E0,7.50659E-1,2.2E-1,-5.7997173E-3,1.234531E0,-5.2563283E-3,9.65135E-1,3.7547427E-1,-3.6725684E-3,2.9383393E-3,1.1257389E0,9.901115E-1,5.5391244E-3,-5.473928E-4,1.1759259E-1,1.575926E-1,9.1060305E-1,9.847263E-1,7.000283E-3,9.965526E-1,-1.4313124E-5,2.328888E-1,3.378657E-3,7.7926016E-1,2.6241168E-3,-7.119262E-4,5.83797E-4,-5.1673744E-3,-1.7429146E-3,3.803678E-3,-1.7258276E-3,-8.001829E-3,-5.5697816E-3,2.044045E-3],"split_indices":[1,17,0,15,0,9,10,18,0,12,0,4,7,0,0,10,0,0,0,17,17,12,2,0,2,0,3,0,11,0,0,0,0,0,0,0,0,0,0],"split_type":[0,0,0,0,0,0,0,0,0,0,0,0,0,0,0,0,0,0,0,0,0,0,0,0,0,0,0,0,0,0,0,0,0,0,0,0,0,0,0],"sum_hessian":[2.4139755E2,1.2749307E2,1.1390449E2,1.142436E2,1.3249469E1,8.174647E1,3.249713E1,6.999858E0,6.249611E0,7.84967E1,3.2497764E0,6.7495117E0,2.5747622E1,3.7499535E0,3.2499042E0,5.9997257E1,1.8499435E1,3.499747E0,3.2497644E0,1.3498906E1,1.2248714E1,5.0497547E1,9.499709E0,5.749715E0,1.2749721E1,3.4997513E0,9.999155E0,3.499662E0,8.749053E0,3.6998226E1,1.3499324E1,3.2497902E0,6.249919E0,3.2499084E0,9.499812E0,3.2498636E0,6.7492914E0,4.7492914E0,3.9997613E0],"tree_param":{"num_deleted":"0","num_feature":"19","num_nodes":"39","size_leaf_vector":"0"}},{"base_weights":[-9.0713596E-1,-4.6021458E-2,-1.9012423E0,2.4314718E-1,-2.6749668E-1,-4.6183035E-2,7.1134394E-1,6.6829455E-1,-3.6394057E-1,6.924074E-1,-2.801758E-1,2.6153728E-1,1.0831208E0,1.1672601E-1,1.0626035E0,7.3148E-1,-4.5036912E-1,1.487581E0,-5.930611E-1,5.0232146E-2,-7.20321E-1,9.5143175E-1,-3.648902E-1,1.328889E0,5.510408E-1,-3.551721E-1,-1.1662343E0,-5.2904356E-1,9.9470454E-1,-1.7448232E-1,-1.5741435E0,-7.86527E-1,-1.5927778E-1,-1.5313951E0,5.1473867E-2,-6.699201E-1,2.8341246E-1,-2.9540667E-1,-1.0833613E0,-2.2396931E-2,-8.4050864E-1],"categories":[],"categories_nodes":[],"categories_segments":[],"categories_sizes":[],"default_left":[0,0,0,0,0,0,1,0,0,1,0,0,1,0,0,0,0,0,0,1,0,0,0,0,0,0,0,0,0,0,0,0,1,0,0,0,0,0,0,0,0],"id":7,"left_children":[1,3,-1,5,7,9,11,13,15,17,19,21,23,-1,-1,-1,25,-1,-1,27,29,-1,-1,-1,-1,31,-1,33,-1,35,-1,37,39,-1,-1,-1,-1,-1,-1,-1,-1],"loss_changes":[2.1273482E2,8.662398E0,0E0,7.990925E0,7.1470065E0,6.6314054E0,3.4791498E0,1.5070586E0,6.956295E0,1.0336868E1,4.253377E0,5.316821E0,8.368807E-1,0E0,0E0,0E0,4.0491962E0,0E0,0E0,1.0100124E1,5.5507674E0,0E0,0E0,0E0,0E0,4.881014E0,0E0,6.770068E0,0E0,2.1748004E0,0E0,2.3403368E0,3.8972926E0,0E0,0E0,0E0,0E0,0E0,0E0,0E0,0E0],"parents":[2147483647,0,0,1,1,3,3,4,4,5,5,6,6,7,7,8,8,9,9,10,10,11,11,12,12,16,16,19,19,20,20,25,25,27,27,29,29,31,31,32,32],"right_children":[2,4,-1,6,8,10,12,14,16,18,20,22,24,-1,-1,-1,26,-1,-1,28,30,-1,-1,-1,-1,32,-1,34,-1,36,-1,38,40,-1,-1,-1,-1,-1,-1,-1,-1],"split_conditions":[1.64927E0,9.9520314E-1,-9.506211E-3,9.8643446E-1,2.1931867E-1,9.1189694E-1,1.5266666E-1,2.1145548E-1,6.58603E-1,2.6666665E-1,9.77821E-1,2.4510495E-1,4.5E0,5.8363006E-4,5.3130174E-3,3.6574E-3,1.0567746E0,7.437905E-3,-2.9653055E-3,2.0706666E-1,3.795256E-1,4.7571585E-3,-1.8244509E-3,6.644445E-3,2.755204E-3,1.0063971E0,-5.8311713E-3,9.0317804E-1,4.9735224E-3,9.807998E-1,-7.870718E-3,2.682691E-1,5.5E0,-7.656975E-3,2.5736933E-4,-3.3496004E-3,1.4170622E-3,-1.4770334E-3,-5.4168063E-3,-1.1198466E-4,-4.2025433E-3],"split_indices":[1,0,0,0,11,2,18,11,8,17,0,9,15,0,0,0,0,0,0,18,9,0,0,0,0,0,0,4,0,0,0,13,15,0,0,0,0,0,0,0,0],"split_type":[0,0,0,0,0,0,0,0,0,0,0,0,0,0,0,0,0,0,0,0,0,0,0,0,0,0,0,0,0,0,0,0,0,0,0,0,0,0,0,0,0],"sum_hessian":[2.4761273E2,1.332421E2,1.1437064E2,5.7746998E1,7.54951E1,3.6248177E1,2.1498821E1,6.499674E0,6.899542E1,8.249573E0,2.7998604E1,1.0499331E1,1.0999489E1,3.2498019E0,3.249872E0,4.4998326E0,6.449559E1,4.9996367E0,3.2499363E0,1.649901E1,1.1499595E1,4.7496476E0,5.749684E0,6.499725E0,4.499764E0,5.8246067E1,6.2495236E0,1.04993E1,5.99971E0,7.749674E0,3.7499204E0,1.7249031E1,4.099704E1,3.2498896E0,7.2494106E0,3.4998386E0,4.2498355E0,7.249587E0,9.999443E0,3.4997757E1,5.999281E0],"tree_param":{"num_deleted":"0","num_feature":"19","num_nodes":"41","size_leaf_vector":"0"}},{"base_weights":[-9.536589E-1,-1.4684601E-1,-1.9081619E0,4.6115837E-1,-3.4139827E-1,-3.2660237E-1,6.846811E-1,7.635939E-1,-4.143699E-1,-8.8906753E-1,3.4584826E-1,2.5646034E-1,1.068461E0,-3.4439623E-1,-1.587524E0,1.0230088E0,-5.740502E-1,5.2909374E-1,1.526427E0,-4.3809777E-1,4.6939066E-1,1.054321E0,-1.2064118E-1,2.1650404E-1,-5.6071204E-1,9.2931163E-1,-3.4444973E-1,8.5304356E-1,-4.0648964E-1,3.7708578E-1,-6.526589E-1],"categories":[],"categories_nodes":[],"categories_segments":[],"categories_sizes":[],"default_left":[0,0,0,1,0,0,1,0,0,0,0,1,0,0,0,0,0,0,0,1,1,0,0,0,0,0,0,0,0,0,0],"id":8,"left_children":[1,3,-1,5,7,9,11,-1,13,-1,-1,15,17,19,-1,-1,-1,21,-1,23,25,-1,-1,27,29,-1,-1,-1,-1,-1,-1],"loss_changes":[1.8325816E2,1.5563353E1,0E0,5.8578334E0,8.318632E0,3.2385507E0,3.875329E0,0E0,7.1486053E0,0E0,0E0,9.021927E0,2.403327E0,7.0488405E0,0E0,0E0,0E0,2.6864984E0,0E0,6.6222754E0,3.969205E0,0E0,0E0,5.699977E0,6.1522655E0,0E0,0E0,0E0,0E0,0E0,0E0],"parents":[2147483647,0,0,1,1,3,3,4,4,5,5,6,6,8,8,11,11,12,12,13,13,17,17,19,19,20,20,23,23,24,24],"right_children":[2,4,-1,6,8,10,12,-1,14,-1,-1,16,18,20,-1,-1,-1,22,-1,24,26,-1,-1,28,30,-1,-1,-1,-1,-1,-1],"split_conditions":[1.7631326E0,9.792108E-1,-9.540809E-3,9.5E0,1.737874E-1,9.696458E-1,1.6592592E-1,3.8179695E-3,1.222152E0,-4.4453377E-3,1.7292412E-3,1.4055556E-1,9.212396E-1,8.5753477E-1,-7.93762E-3,5.115044E-3,-2.870251E-3,8.4901667E-1,7.632135E-3,1.17962964E-1,1.75E1,5.271605E-3,-6.032059E-4,1.075315E0,7.0863414E-1,4.646558E-3,-1.7222486E-3,4.2652176E-3,-2.032448E-3,1.8854288E-3,-3.2632942E-3],"split_indices":[1,0,0,14,3,0,17,0,9,0,0,17,6,5,0,0,0,4,0,17,14,0,0,8,8,0,0,0,0,0,0],"split_type":[0,0,0,0,0,0,0,0,0,0,0,0,0,0,0,0,0,0,0,0,0,0,0,0,0,0,0,0,0,0,0],"sum_hessian":[2.3732892E2,1.2924002E2,1.0808889E2,3.0997602E1,9.824242E1,6.749432E0,2.424817E1,5.499563E0,9.274286E1,3.4998684E0,3.2495635E0,1.2249004E1,1.19991665E1,8.874326E1,3.9995944E0,6.2492547E0,5.99975E0,6.4996047E0,5.499562E0,7.999418E1,8.7490835E0,3.2498355E0,3.2497692E0,1.2499147E1,6.749503E1,5.499371E0,3.2497125E0,5.9997144E0,6.4994326E0,5.7497883E0,6.1745243E1],"tree_param":{"num_deleted":"0","num_feature":"19","num_nodes":"31","size_leaf_vector":"0"}},{"base_weights":[-9.2154264E-1,-1.19217865E-1,-1.8993286E0,6.1458004E-1,-1.9659474E-1,-9.043294E-2,1.0314511E0,3.8462928E-1,-3.1981337E-1,1.3994274E0,3.5582685E-1,9.3503827E-1,-4.2352608E-1,5.244235E-2,-4.797185E-1,3.0297637E-1,1.1526364E0,-1.196281E0,8.125549E-1,-3.1996077E-1,4.514989E-1,-2.0103069E-1,-8.918795E-1,1.34937E0,5.9209216E-1,-5.844537E-1,5.9543943E-1,9.6623373E-1,-5.601018E-2,1.0057082E0,-4.2093104E-1,-1.0689288E0,3.593868E-1,4.400152E-1,-9.870435E-1,3.4634796E-1,1.3369771E0,4.503376E-1,-4.7936141E-1,-1.3551643E-1,-1.1922356E0,-8.5567266E-1,-1.6340791E0],"categories":[],"categories_nodes":[],"categories_segments":[],"categories_sizes":[],"default_left":[0,0,0,0,1,0,0,0,1,0,0,0,0,1,1,0,1,0,0,0,0,1,0,1,1,0,0,0,1,0,0,0,0,0,0,0,0,0,0,0,0,0,0],"id":9,"left_children":[1,3,-1,5,7,-1,9,11,13,-1,-1,15,17,19,21,-1,-1,-1,-1,25,27,29,31,-1,-1,33,-1,35,37,-1,39,41,-1,-1,-1,-1,-1,-1,-1,-1,-1,-1,-1],"loss_changes":[1.8925804E2,7.714338E0,0E0,3.9138112E0,8.841642E0,0E0,1.5530376E0,1.0069909E1,6.0366793E0,0E0,0E0,1.4729605E0,1.0045636E1,4.78813E0,7.9465675E0,0E0,2.486E-1,0E0,0E0,4.403156E0,4.1028695E0,1.1965647E1,6.6418285E0,0E0,0E0,6.0017986E0,0E0,1.3178825E0,2.0914016E0,0E0,8.093059E0,1.6144447E0,0E0,0E0,0E0,0E0,0E0,0E0,0E0,0E0,0E0,0E0,0E0],"parents":[2147483647,0,0,1,1,3,3,4,4,6,6,7,7,8,8,11,11,12,12,13,13,14,14,16,16,19,19,20,20,21,21,22,22,25,25,27,27,28,28,30,30,31,31],"right_children":[2,4,-1,6,8,-1,10,12,14,-1,-1,16,18,20,22,-1,-1,-1,-1,26,28,30,32,-1,-1,34,-1,36,38,-1,40,42,-1,-1,-1,-1,-1,-1,-1,-1,-1,-1,-1],"split_conditions":[1.7758185E0,6.319312E-1,-9.496642E-3,9.279335E-1,1.2314815E-1,-4.521647E-4,6.709056E-1,1.0259973E0,1.2777779E-1,6.997137E-3,1.7791343E-3,8.863077E-1,1.1643234E0,1.4140001E-1,1.9373333E-1,1.5148818E-3,5.763182E-3,-5.981405E-3,4.0627746E-3,1.0106593E0,1.0126076E0,5.5E0,1.0579774E0,6.74685E-3,2.9604607E-3,9.8135555E-1,2.977197E-3,9.9844193E-1,2.0453334E-1,5.028541E-3,1.0292802E0,1.1218675E0,1.7969339E-3,2.200076E-3,-4.9352176E-3,1.7317397E-3,6.6848854E-3,2.251688E-3,-2.396807E-3,-6.7758217E-4,-5.961178E-3,-4.278363E-3,-8.170395E-3],"split_indices":[4,10,0,2,17,0,8,4,16,0,0,6,4,18,18,0,17,0,0,0,2,14,2,2147483647,2147483647,0,0,4,18,0,2,6,0,0,0,0,0,0,0,0,0,0,0],"split_type":[0,0,0,0,0,0,0,0,0,0,0,0,0,0,0,0,0,0,0,0,0,0,0,0,0,0,0,0,0,0,0,0,0,0,0,0,0,0,0,0,0,0,0],"sum_hessian":[2.4053474E2,1.3273808E2,1.07796646E2,1.1999456E1,1.2073863E2,4.7497463E0,7.24971E0,2.0748087E1,9.999055E1,3.99988E0,3.2498298E0,1.2248809E1,8.499278E0,3.0247366E1,6.974318E1,3.7496095E0,8.4992E0,5.2496057E0,3.2496724E0,1.5748724E1,1.4498642E1,4.249643E1,2.7246748E1,5.2495294E0,3.2496703E0,1.2498871E1,3.2498531E0,6.7493362E0,7.749306E0,5.9995356E0,3.6496895E1,2.3996988E1,3.2497592E0,3.499851E0,8.99902E0,3.2498167E0,3.4995196E0,3.4997263E0,4.24958E0,2.7497412E1,8.999483E0,1.9247946E1,4.7490416E0],"tree_param":{"num_deleted":"2","num_feature":"19","num_nodes":"43","size_leaf_vector":"0"}},{"base_weights":[-9.984865E-1,-1.3722655E-1,-1.8678685E0,7.041056E-1,-2.4888942E-1,-7.968399E-1,-1.8918676E0,1.1827812E0,-3.9407134E-1,-7.776104E-2,-6.956369E-1,6.531702E-1,1.4606017E0,6.1882806E-1,-2.5772697E-1,1.2205132E-1,-8.04654E-1,9.226418E-1,-8.31929E-2,-4.011678E-1,9.65201E-1,2.2096795E-1,-9.778719E-1,1.4147387E0,4.2177352E-1,-2.3623554E-1,-1.3561865E0,-1.190809E0,-4.3269718E-1,-4.2890108E-1,8.383769E-1,-7.3007417E-1,-1.4932305E0,1.2993167E-1,-8.679151E-1],"categories":[],"categories_nodes":[],"categories_segments":[],"categories_sizes":[],"default_left":[0,0,0,0,1,0,0,0,0,0,0,1,1,0,0,0,1,1,0,0,0,0,1,0,0,1,0,1,0,0,0,0,0,0,0],"id":10,"left_children":[1,3,5,7,9,-1,-1,-1,-1,13,15,-1,-1,17,19,-1,21,23,-1,25,-1,-1,27,-1,-1,29,-1,31,33,-1,-1,-1,-1,-1,-1],"loss_changes":[1.7287889E2,1.1189039E1,1.4481812E0,7.8243046E0,7.9150367E0,0E0,0E0,5.171175E-1,0E0,9.748948E0,2.6605234E0,0E0,0E0,3.4890895E0,1.1174514E1,0E0,4.745323E0,2.1759586E0,0E0,8.4603E0,0E0,0E0,2.0381088E0,0E0,0E0,1.0452205E1,0E0,1.0342064E0,2.0101666E0,0E0,0E0,0E0,0E0,0E0,0E0],"parents":[2147483647,0,0,1,1,2,2,3,3,4,4,7,7,9,9,10,10,13,13,14,14,16,16,17,17,19,19,22,22,25,25,27,27,28,28],"right_children":[2,4,6,8,10,-1,-1,-1,-1,14,16,-1,-1,18,20,-1,22,24,-1,26,-1,-1,28,-1,-1,30,-1,32,34,-1,-1,-1,-1,-1,-1],"split_conditions":[1.152722E0,9.640317E-1,5.0908536E-1,1.0093904E0,4.5E0,-3.9841994E-3,-9.459338E-3,5.913906E-3,-1.9703566E-3,2.3429841E-1,6.9806457E-1,3.2658512E-3,7.3030083E-3,1.2968987E0,1.7581115E0,6.1025657E-4,1.1981481E-1,1.35E1,-4.159645E-4,7.840252E-1,4.826005E-3,1.1048397E-3,2.05E1,7.073693E-3,2.1088675E-3,2.45E-1,-6.780932E-3,1.8333334E-1,4.2094275E-1,-2.1445053E-3,4.1918843E-3,-3.6503708E-3,-7.4661523E-3,6.496584E-4,-4.3395753E-3],"split_indices":[2,0,9,7,15,0,0,0,0,11,8,2147483647,2147483647,10,12,0,17,14,0,5,0,0,14,0,0,16,0,16,13,0,0,0,0,0,0],"split_type":[0,0,0,0,0,0,0,0,0,0,0,0,0,0,0,0,0,0,0,0,0,0,0,0,0,0,0,0,0,0,0,0,0,0,0],"sum_hessian":[2.3022804E2,1.162359E2,1.13992134E2,1.2997751E1,1.0323815E2,3.2478979E0,1.1074424E2,8.998448E0,3.9993024E0,7.549396E1,2.7744196E1,4.249208E0,4.7492404E0,1.4999034E1,6.0494926E1,3.2497458E0,2.449445E1,1.0249214E1,4.7498198E0,5.4745613E1,5.7493134E0,3.4993224E0,2.0995127E1,4.2495313E0,5.999683E0,4.7747032E1,6.998578E0,1.4246418E1,6.7487097E0,4.099753E1,6.749503E0,6.9984584E0,7.247959E0,3.2494423E0,3.499267E0],"tree_param":{"num_deleted":"2","num_feature":"19","num_nodes":"35","size_leaf_vector":"0"}},{"base_weights":[-9.546799E-1,-1.0422136E-1,-1.8827548E0,1.2443432E0,-1.8113236E-1,4.0445566E-1,-3.2871962E-1,-7.6286527E-3,8.53057E-1,1.8974252E-1,-5.017914E-1,6.562016E-1,-8.826122E-1,1.0273419E-1,1.1361791E0,6.28528E-1,-6.972273E-1,-6.011331E-1,6.704231E-1,9.838874E-2,1.0991939E0,5.0986576E-1,1.5447526E0,1.2225114E0,1.0532548E-1,-1.0028512E-1,-1.1474037E0,8.644658E-2,-7.484881E-1,5.8541197E-1,1.5525154E0,-5.407597E-1,7.322536E-1,4.898978E-1,-8.120254E-1,1.1815117E-2,-9.312369E-1],"categories":[],"categories_nodes":[],"categories_segments":[],"categories_sizes":[],"default_left":[0,1,0,0,0,1,0,0,0,0,1,0,0,0,1,0,1,1,0,0,0,0,0,0,1,0,0,0,1,0,0,0,0,0,0,0,0],"id":11,"left_children":[1,3,-1,-1,5,7,9,11,13,15,17,19,-1,-1,21,23,25,27,-1,-1,-1,-1,-1,29,31,-1,-1,33,35,-1,-1,-1,-1,-1,-1,-1,-1],"loss_changes":[1.838467E2,1.2955324E1,0E0,0E0,1.0243435E1,4.4426894E0,8.528852E0,8.419864E0,2.325924E0,9.875363E0,8.640631E0,1.9302723E0,0E0,0E0,1.3232422E0,5.076282E0,2.1690016E0,6.725399E0,0E0,0E0,0E0,0E0,0E0,7.2043324E-1,4.4461293E0,0E0,0E0,4.9284806E0,7.5475674E0,0E0,0E0,0E0,0E0,0E0,0E0,0E0,0E0],"parents":[2147483647,0,0,1,1,4,4,5,5,6,6,7,7,8,8,9,9,10,10,11,11,14,14,15,15,16,16,17,17,23,23,24,24,27,27,28,28],"right_children":[2,4,-1,-1,6,8,10,12,14,16,18,20,-1,-1,22,24,26,28,-1,-1,-1,-1,-1,30,32,-1,-1,34,36,-1,-1,-1,-1,-1,-1,-1,-1],"split_conditions":[1.788055E0,1.0166667E-1,-9.413774E-3,6.221716E-3,9.793056E-1,1.65E1,2.5417072E-1,5.445845E-1,2.8371322E-1,1.121788E0,1.6327001E0,2.9878038E-1,-4.413061E-3,5.1367097E-4,2.0706666E-1,9.995351E-1,3.5E0,9.555556E-2,3.3521154E-3,4.919437E-4,5.4959697E-3,2.5493288E-3,7.7237627E-3,1.9125694E-1,1.3493332E-1,-5.014256E-4,-5.7370183E-3,1.1314116E0,5.5E0,2.9270598E-3,7.762577E-3,-2.7037985E-3,3.661268E-3,2.449489E-3,-4.060127E-3,5.907558E-5,-4.6561845E-3],"split_indices":[1,17,0,0,0,14,9,1,11,6,8,9,0,0,18,0,15,16,0,0,0,0,0,5,18,0,0,10,14,0,0,0,0,0,0,0,0],"split_type":[0,0,0,0,0,0,0,0,0,0,0,0,0,0,0,0,0,0,0,0,0,0,0,0,0,0,0,0,0,0,0,0,0,0,0,0,0],"sum_hessian":[2.321755E2,1.21734314E2,1.1044119E2,5.7491517E0,1.1598516E2,2.2997316E1,9.298785E1,1.2498872E1,1.0498445E1,2.324818E1,6.973966E1,7.249148E0,5.2497234E0,3.2495172E0,7.248927E0,1.5748665E1,7.499516E0,6.47403E1,4.9993653E0,3.7496789E0,3.4994693E0,3.749356E0,3.4995708E0,6.749487E0,8.999178E0,3.7498782E0,3.7496376E0,1.149876E1,5.324154E1,3.2496765E0,3.4998107E0,4.4995646E0,4.499613E0,8.249249E0,3.2495117E0,1.0498638E1,4.27429E1],"tree_param":{"num_deleted":"0","num_feature":"19","num_nodes":"37","size_leaf_vector":"0"}},{"base_weights":[-9.092956E-1,-1.8746186E0,-8.5375756E-2,-2.4852157E-2,-1.4399552E0,1.009867E0,-1.4677696E-1,1.4733276E0,3.019245E-1,1.730625E-2,-4.9839497E-1,-4.0695295E-1,1.57247E-1,-6.8930507E-1,6.1748517E-1,2.570802E-1,-9.7135526E-1,4.7692937E-1,-3.54849E-1,1.9075702E-1,-9.660181E-1,-3.0894163E-1,1.0622325E0,-1.524319E0,-5.284663E-1,8.9967287E-1,1.8508962E-1,-8.3735824E-1,4.3175346E-1,1.1112478E0,-7.215067E-1,-1.144285E0,-1.6649455E-1],"categories":[],"categories_nodes":[],"categories_segments":[],"categories_sizes":[],"default_left":[1,0,1,0,0,0,0,0,0,0,0,0,0,1,0,1,1,0,1,0,0,0,0,0,0,0,0,0,0,0,0,0,0],"id":12,"left_children":[1,-1,3,5,-1,7,9,-1,-1,11,13,15,17,19,-1,21,23,25,27,29,31,-1,-1,-1,-1,-1,-1,-1,-1,-1,-1,-1,-1],"loss_changes":[1.8843298E2,0E0,1.05383005E1,1.5852194E1,0E0,3.90205E0,6.4836984E0,0E0,0E0,4.66453E0,8.039935E0,7.5573273E0,9.826287E0,7.7318974E0,0E0,4.7711997E0,1.8269243E0,4.366748E0,9.184067E0,7.7287226E0,3.193716E0,0E0,0E0,0E0,0E0,0E0,0E0,0E0,0E0,0E0,0E0,0E0,0E0],"parents":[2147483647,0,0,2,2,3,3,5,5,6,6,9,9,10,10,11,11,12,12,13,13,15,15,16,16,17,17,18,18,19,19,20,20],"right_children":[2,-1,4,6,-1,8,10,-1,-1,12,14,16,18,20,-1,22,24,26,28,30,32,-1,-1,-1,-1,-1,-1,-1,-1,-1,-1,-1,-1],"split_conditions":[4.9585226E-1,-9.373093E-3,3.212963E-1,6.893995E-1,-7.199776E-3,6.4161706E-1,4.3815833E-1,7.366638E-3,1.5096224E-3,8.631716E-1,1.1497666E0,7.7588093E-1,1.1209939E0,1.2833333E-1,3.0874258E-3,1.5013334E-1,1.5E0,9.9379015E-1,2.4388888E-1,1.0106614E0,1.008245E0,-1.5447082E-3,5.311162E-3,-7.621595E-3,-2.6423314E-3,4.4983644E-3,9.254481E-4,-4.186791E-3,2.1587673E-3,5.556239E-3,-3.6075334E-3,-5.7214247E-3,-8.324727E-4],"split_indices":[8,0,17,8,0,10,13,0,0,8,4,8,6,16,0,18,15,0,16,2,9,0,0,0,0,0,0,0,0,0,0,0,0],"split_type":[0,0,0,0,0,0,0,0,0,0,0,0,0,0,0,0,0,0,0,0,0,0,0,0,0,0,0,0,0,0,0,0,0],"sum_hessian":[2.3611989E2,1.0814248E2,1.2797742E2,1.23478645E2,4.4987693E0,1.2248512E1,1.1123013E2,6.749048E0,5.499464E0,7.6487755E1,3.4742374E1,1.8498304E1,5.7989452E1,2.9993261E1,4.7491145E0,8.749184E0,9.74912E0,3.5744297E1,2.2245155E1,7.249017E0,2.2744246E1,5.499401E0,3.249783E0,3.249826E0,6.4992943E0,1.3747558E1,2.199674E1,1.3747677E1,8.497478E0,3.4996672E0,3.7493496E0,1.8245014E1,4.499232E0],"tree_param":{"num_deleted":"0","num_feature":"19","num_nodes":"33","size_leaf_vector":"0"}},{"base_weights":[-9.25185E-1,-5.781888E-2,-1.8587462E0,2.7418783E-1,-3.3166945E-1,7.6103723E-1,2.3728803E-2,-4.0049317E-1,8.1911236E-1,1.3973514E0,5.053797E-2,-4.1336498E-1,5.988358E-1,3.306466E-1,-5.3252786E-1,-3.9696047E-1,5.9980446E-1,-7.7440155E-1,2.242241E-1,8.5670596E-1,-2.0429234E-1,1.2683259E0,-5.474464E-1,4.02044E-1,-6.3612086E-1,5.169047E-1,-1.2616222E0,6.09324E-1,-3.4956825E-1,1.184391E0,-1.1588262E-1,5.532996E-2,-8.103453E-1,-1.4667894E0,-5.9066695E-1,2.0620066E-1,1.6793461E0,-7.8404933E-1,6.265068E-1,-1.6061862E-1,-9.569625E-1],"categories":[],"categories_nodes":[],"categories_segments":[],"categories_sizes":[],"default_left":[0,0,0,0,1,0,0,0,0,0,0,0,1,1,0,0,0,0,0,0,0,0,0,0,1,0,0,0,0,0,0,0,0,1,1,0,0,0,0,0,0],"id":13,"left_children":[1,3,-1,5,7,9,11,13,-1,-1,15,17,19,21,23,-1,-1,25,27,29,-1,-1,-1,-1,31,-1,-1,-1,-1,35,-1,37,39,-1,-1,-1,-1,-1,-1,-1,-1],"loss_changes":[1.9506955E2,1.1545098E1,0E0,6.992176E0,5.831664E0,8.744082E0,1.0049675E1,6.570553E0,0E0,0E0,2.7572992E0,5.4098425E0,3.746911E0,9.544896E0,5.7248535E0,0E0,0E0,9.930694E0,2.201546E0,4.359337E0,0E0,0E0,0E0,0E0,6.2176723E0,0E0,6.4761925E-1,0E0,0E0,4.4944744E0,0E0,5.884217E0,3.7512302E0,0E0,0E0,0E0,0E0,0E0,0E0,0E0,0E0],"parents":[2147483647,0,0,1,1,3,3,4,4,5,5,6,6,7,7,10,10,11,11,12,12,13,13,14,14,17,17,18,18,19,19,24,24,26,26,29,29,31,31,32,32],"right_children":[2,4,-1,6,8,10,12,14,-1,-1,16,18,20,22,24,-1,-1,26,28,30,-1,-1,-1,-1,32,-1,-1,-1,-1,36,-1,38,40,-1,-1,-1,-1,-1,-1,-1,-1],"split_conditions":[1.693145E0,9.9641454E-1,-9.29373E-3,9.5568454E-1,1.9172585E0,4.0937638E-1,9.951929E-1,6.690444E-1,4.095562E-3,6.986757E-3,1.0475982E0,9.90577E-1,2.45E1,2.1111111E-1,2.0814678E-1,-1.9848023E-3,2.9990221E-3,9.7234064E-1,9.3522894E-1,9.9115324E-1,-1.0214617E-3,6.3416297E-3,-2.737232E-3,2.01022E-3,5.5E0,2.5845235E-3,-6.308111E-3,3.04662E-3,-1.7478412E-3,9.76804E-1,-5.794131E-4,9.8182607E-1,7.530155E-1,-7.333947E-3,-2.9533347E-3,1.0310033E-3,8.39673E-3,-3.9202464E-3,3.132534E-3,-8.030931E-4,-4.7848127E-3],"split_indices":[1,0,0,2,8,11,4,10,0,0,7,0,14,16,9,0,0,0,8,0,0,0,0,0,14,0,6,0,0,0,0,4,12,2147483647,2147483647,0,0,0,0,0,0],"split_type":[0,0,0,0,0,0,0,0,0,0,0,0,0,0,0,0,0,0,0,0,0,0,0,0,0,0,0,0,0,0,0,0,0,0,0,0,0,0,0,0,0],"sum_hessian":[2.4003683E2,1.2498031E2,1.1505653E2,5.649118E1,6.848913E1,1.8497208E1,3.7993973E1,6.5239395E1,3.2497296E0,9.248052E0,9.249156E0,2.1747011E1,1.624696E1,9.749188E0,5.5490208E1,5.2495403E0,3.999616E0,1.3747739E1,7.9992733E0,1.2247724E1,3.9992368E0,4.499717E0,5.2494717E0,5.249595E0,5.0240616E1,3.7494497E0,9.998288E0,4.7496376E0,3.249636E0,8.998255E0,3.2494686E0,1.024869E1,3.9991924E1,6.748566E0,3.2497225E0,3.4992387E0,5.499016E0,3.9990907E0,6.249599E0,7.7488394E0,3.2243084E1],"tree_param":{"num_deleted":"2","num_feature":"19","num_nodes":"41","size_leaf_vector":"0"}},{"base_weights":[-8.6507213E-1,-7.250606E-2,-1.8569038E0,4.8140028E-1,-2.4506338E-1,1.0416799E0,-1.5388475E-1,-6.2356555E-1,3.538047E-2,5.7304406E-1,1.3513408E0,5.9221506E-1,-4.583056E-1,-1.9463342E-1,-1.27452E0,7.7273047E-1,-2.2080538E-1,1.0041752E-1,8.4644717E-1,-1.1332649E-1,-1.0404338E0,1.4451039E-1,-1.2460417E0,-1.4464867E0,-5.7237226E-1,-1.6761024E-1,1.1725948E0,-4.120846E-1,6.755609E-1,-5.204021E-1,3.176391E-1,4.148183E-1,-3.635337E-1,-1.7445946E0,-7.227805E-1,1.4692097E0,3.5578337E-1,6.003345E-1,-5.509079E-1,1.2016622E0,-1.02446906E-1,-4.859739E-2,1.0342915E0,3.5097626E-1,-9.2632586E-1,6.269019E-2,-7.38041E-1],"categories":[],"categories_nodes":[],"categories_segments":[],"categories_sizes":[],"default_left":[0,0,0,0,1,1,0,0,0,0,0,0,0,1,0,0,0,0,0,1,0,1,0,1,0,0,0,0,1,0,0,1,0,0,0,0,0,0,1,0,0,0,0,0,0,0,0],"id":14,"left_children":[1,3,-1,5,7,9,11,13,15,17,-1,-1,19,21,23,25,27,-1,-1,29,-1,31,-1,33,-1,-1,35,37,39,-1,-1,41,43,-1,-1,-1,-1,-1,45,-1,-1,-1,-1,-1,-1,-1,-1],"loss_changes":[1.8538739E2,1.2755722E1,0E0,1.145911E1,1.0793709E1,1.6921062E0,3.848109E0,1.1825699E1,1.1360085E1,1.0131736E0,0E0,0E0,2.2413247E0,9.895521E0,1.2242031E0,6.0232487E0,7.9491787E0,0E0,0E0,1.6562742E0,0E0,3.1029825E0,0E0,1.5430641E0,0E0,0E0,2.1418133E0,5.6001472E0,3.4986649E0,0E0,0E0,4.2124557E0,3.5415049E0,0E0,0E0,0E0,0E0,0E0,3.8920374E0,0E0,0E0,0E0,0E0,0E0,0E0,0E0,0E0],"parents":[2147483647,0,0,1,1,3,3,4,4,5,5,6,6,7,7,8,8,9,9,12,12,13,13,14,14,15,15,16,16,19,19,21,21,23,23,26,26,27,27,28,28,31,31,32,32,38,38],"right_children":[2,4,-1,6,8,10,12,14,16,18,-1,-1,20,22,24,26,28,-1,-1,30,-1,32,-1,34,-1,-1,36,38,40,-1,-1,42,44,-1,-1,-1,-1,-1,46,-1,-1,-1,-1,-1,-1,-1,-1],"split_conditions":[2.049025E0,9.613755E-1,-9.284519E-3,4.8956612E-1,9.6759826E-1,2.5E0,8.920061E-1,7.7030635E-1,1.0698082E0,8.528055E-1,6.756704E-3,2.9610752E-3,9.9907136E-1,2.35E1,5.570705E-1,9.84499E-1,1.7478281E0,5.020876E-4,4.2322357E-3,2.5E0,-5.2021686E-3,4.5E0,-6.230208E-3,8.8702995E-1,-2.8618611E-3,-8.380512E-4,1.0801005E0,2.2718379E-1,4.5E0,-2.6020103E-3,1.5881956E-3,1.45E1,9.969508E-1,-8.722973E-3,-3.6139025E-3,7.346048E-3,1.7789168E-3,3.0016724E-3,8.5E0,6.0083107E-3,-5.122345E-4,-2.4298695E-4,5.1714573E-3,1.7548812E-3,-4.631629E-3,3.1345096E-4,-3.6902048E-3],"split_indices":[1,2,0,7,8,15,2,12,8,12,0,0,0,14,5,6,8,0,0,15,0,15,0,8,0,0,6,3,15,0,0,14,0,0,0,0,0,0,14,0,0,0,0,0,0,0,0],"split_type":[0,0,0,0,0,0,0,0,0,0,0,0,0,0,0,0,0,0,0,0,0,0,0,0,0,0,0,0,0,0,0,0,0,0,0,0,0,0,0,0,0,0,0,0,0,0,0],"sum_hessian":[2.3500548E2,1.3122087E2,1.03784615E2,3.0743832E1,1.00477036E2,1.5996376E1,1.4747457E1,4.2241764E1,5.8235268E1,7.4986258E0,8.497749E0,3.9995773E0,1.0747879E1,2.6246325E1,1.59954405E1,1.4496212E1,4.3739056E1,3.2491581E0,4.249468E0,7.498698E0,3.2491806E0,2.0497255E1,5.7490697E0,1.1997084E1,3.9983573E0,4.498395E0,9.997817E0,3.6492123E1,7.24693E0,3.7495108E0,3.7491875E0,1.3498693E1,6.9985614E0,7.4979157E0,4.499168E0,6.7484775E0,3.2493398E0,3.9995446E0,3.249258E1,3.9985259E0,3.248404E0,8.249188E0,5.249505E0,3.2494671E0,3.7490942E0,7.749018E0,2.474356E1],"tree_param":{"num_deleted":"0","num_feature":"19","num_nodes":"47","size_leaf_vector":"0"}},{"base_weights":[-9.1163474E-1,-5.5475622E-2,-1.850528E0,-3.56906E-1,2.1127911E-1,5.613591E-1,-5.657724E-1,9.6148705E-1,9.4449244E-2,4.5152597E-2,1.3255243E0,2.4232917E-1,-7.6624006E-1,2.1356405E-1,1.4193957E0,6.1915857E-1,-1.4286014E-1,8.063032E-1,-6.8376243E-1,-2.2418478E-1,8.882328E-1,1.7968208E-1,-8.9672524E-1,2.2579277E-1,1.3382638E0,-3.6966535E-1,5.245035E-1,-1.0175964E0,7.828397E-3,-1.3002257E-1,6.625036E-1,1.3598953E-1,-1.2097391E0,1.0911328E0,-5.813507E-2,-1.3950934E0,-6.577485E-1,-6.5906405E-1,4.278848E-1,5.0209254E-1,-8.1727946E-1,-1.443937E0,-6.446941E-1],"categories":[],"categories_nodes":[],"categories_segments":[],"categories_sizes":[],"default_left":[0,1,0,0,1,0,0,0,0,0,0,0,1,0,0,1,0,0,0,0,0,0,0,1,0,0,0,1,0,0,0,0,0,0,0,0,0,0,0,0,0,1,1],"id":15,"left_children":[1,3,-1,5,7,9,11,13,15,17,-1,19,21,-1,-1,23,25,-1,-1,-1,-1,-1,27,29,-1,31,33,35,-1,37,-1,39,-1,-1,-1,-1,-1,-1,-1,-1,-1,-1,-1],"loss_changes":[1.8692197E2,9.943424E0,0E0,1.1439617E1,5.6706605E0,4.37704E0,7.919696E0,2.693098E0,7.3088503E0,4.850188E0,0E0,3.287392E0,4.9121895E0,0E0,0E0,4.8590355E0,6.3604813E0,0E0,0E0,0E0,0E0,0E0,3.7245827E0,2.1057382E0,0E0,1.3330164E1,3.6115437E0,3.1567898E0,0E0,2.6426067E0,0E0,7.4763417E0,6.2358284E-1,0E0,0E0,0E0,0E0,0E0,0E0,0E0,0E0,0E0,0E0],"parents":[2147483647,0,0,1,1,3,3,4,4,5,5,6,6,7,7,8,8,9,9,11,11,12,12,15,15,16,16,22,22,23,23,25,25,26,26,27,27,29,29,31,31,32,32],"right_children":[2,4,-1,6,8,10,12,14,16,18,-1,20,22,-1,-1,24,26,-1,-1,-1,-1,-1,28,30,-1,32,34,36,-1,38,-1,40,-1,-1,-1,-1,-1,-1,-1,-1,-1,-1,-1],"split_conditions":[1.3479321E0,1.5526667E-1,-9.2526395E-3,9.5923936E-1,1.598E-1,9.492131E-1,1.9439891E-1,8.0276877E-1,9.773228E-1,8.664104E-1,6.6276216E-3,1.9443066E-1,5.5E0,1.0678202E-3,7.0969784E-3,2.05E1,1.1621304E0,4.031516E-3,-3.418812E-3,-1.1209239E-3,4.441164E-3,8.9841033E-4,1.4526844E0,2.1773332E-1,6.6913185E-3,9.096898E-1,5.8406484E-1,1.85E1,3.914198E-5,9.6528083E-1,3.312518E-3,1.0434606E0,-6.048695E-3,5.455664E-3,-2.9067535E-4,-6.975467E-3,-3.2887426E-3,-3.29532E-3,2.139424E-3,2.5104627E-3,-4.086397E-3,-7.219685E-3,-3.2234704E-3],"split_indices":[2,18,0,2,18,2,5,10,0,4,0,7,14,0,0,14,6,0,0,0,0,0,12,18,0,12,11,14,0,0,0,8,2,0,0,0,0,0,0,0,0,2147483647,2147483647],"split_type":[0,0,0,0,0,0,0,0,0,0,0,0,0,0,0,0,0,0,0,0,0,0,0,0,0,0,0,0,0,0,0,0,0,0,0,0,0,0,0,0,0,0,0],"sum_hessian":[2.316634E2,1.2172434E2,1.09939064E2,5.6989162E1,6.473518E1,1.0247809E1,4.6741352E1,7.748619E0,5.6986565E1,6.748304E0,3.4995055E0,9.249011E0,3.7492344E1,3.4993544E0,4.2492647E0,1.7245768E1,3.9740795E1,3.2492206E0,3.4990833E0,5.74936E0,3.4996512E0,4.499224E0,3.299312E1,1.1997094E1,5.248674E0,2.9993507E1,9.747288E0,2.8993841E1,3.9992764E0,6.9978123E0,4.999282E0,1.9246706E1,1.0746802E1,4.499083E0,5.2482047E0,1.2745899E1,1.6247944E1,3.498761E0,3.4990513E0,1.4248039E1,4.998666E0,6.4980693E0,4.248733E0],"tree_param":{"num_deleted":"2","num_feature":"19","num_nodes":"43","size_leaf_vector":"0"}},{"base_weights":[-9.424061E-1,-1.0464992E-1,-1.8364874E0,5.922893E-1,-2.6077616E-1,8.9369535E-1,-3.1022003E-1,7.833796E-1,-3.7963715E-1,1.3103269E0,4.049056E-1,1.3953689E0,-1.995768E-1,8.5518366E-1,-4.4900733E-1,6.4239067E-1,1.6184746E0,-1.1536807E-1,7.643181E-1,1.1608679E-1,-5.6671184E-1,6.1663234E-1,-8.209891E-1,-8.160479E-1,-2.1706198E-1,-1.9596127E-1,1.2094265E0,-5.82613E-1,-1.1910887E0,3.3150306E-1,-6.2786454E-1],"categories":[],"categories_nodes":[],"categories_segments":[],"categories_sizes":[],"default_left":[0,1,0,1,0,0,0,1,0,0,0,0,0,0,0,0,0,0,0,0,0,1,0,0,1,0,0,0,0,0,0],"id":16,"left_children":[1,3,-1,5,7,9,-1,11,13,15,17,-1,-1,-1,19,-1,-1,-1,-1,21,23,25,-1,27,29,-1,-1,-1,-1,-1,-1],"loss_changes":[1.7812497E2,1.364316E1,0E0,6.5319796E0,1.2953028E1,3.0321455E0,0E0,6.7440243E0,8.28383E0,8.1214905E-1,1.8641253E0,0E0,0E0,0E0,5.9172955E0,0E0,0E0,0E0,0E0,8.008878E0,6.185158E0,5.5343885E0,0E0,3.0038795E0,7.360964E0,0E0,0E0,0E0,0E0,0E0,0E0],"parents":[2147483647,0,0,1,1,3,3,4,4,5,5,7,7,8,8,9,9,10,10,14,14,19,19,20,20,21,21,23,23,24,24],"right_children":[2,4,-1,6,8,10,-1,12,14,16,18,-1,-1,-1,20,-1,-1,-1,-1,22,24,26,-1,28,30,-1,-1,-1,-1,-1,-1],"split_conditions":[1.08039E0,1.2314815E-1,-9.182436E-3,2.35E1,6.7689943E-1,3.1657064E-1,-1.5511002E-3,2.55E-1,1.8947852E-1,2.3409188E-1,3.7178713E-1,6.9768447E-3,-9.97884E-4,4.275918E-3,9.734494E-1,3.2119532E-3,8.092373E-3,-5.768403E-4,3.8215904E-3,1.0114247E0,1.0253558E0,1.6013333E-1,-4.1049453E-3,9.8236597E-1,1.45E1,-9.798063E-4,6.0471324E-3,-2.9130648E-3,-5.9554433E-3,1.6575153E-3,-3.1393226E-3],"split_indices":[0,17,0,14,8,13,0,16,9,13,13,0,0,0,0,0,0,0,0,7,6,18,0,4,14,0,0,0,0,0,0],"split_type":[0,0,0,0,0,0,0,0,0,0,0,0,0,0,0,0,0,0,0,0,0,0,0,0,0,0,0,0,0,0,0],"sum_hessian":[2.370666E2,1.2296509E2,1.14101524E2,2.199352E1,1.00971565E2,1.649466E1,5.4988627E0,9.747977E0,9.122359E1,7.997252E0,8.497407E0,5.749051E0,3.9989264E0,4.24967E0,8.6973915E1,3.498544E0,4.498708E0,3.7491994E0,4.7482076E0,1.4995401E1,7.1978516E1,9.997258E0,4.998143E0,4.1237827E1,3.0740688E1,4.49922E0,5.498038E0,2.699125E1,1.4246578E1,1.3245865E1,1.7494823E1],"tree_param":{"num_deleted":"0","num_feature":"19","num_nodes":"31","size_leaf_vector":"0"}},{"base_weights":[-8.9941543E-1,-7.530086E-2,-1.8343738E0,5.5987597E-1,-2.1101488E-1,9.599712E-1,-6.175356E-2,3.0079684E-1,-3.8599783E-1,1.4562423E0,2.734558E-1,-9.547976E-1,6.556244E-1,6.0133356E-1,-6.113097E-1,3.6634797E-1,-5.012019E-1,-5.914169E-1,8.5307413E-1,1.0438886E0,-2.1493018E-1,4.8608473E-1,-5.740885E-1,1.0806521E0,-1.24035396E-1,-8.562167E-1,-2.127152E-1,3.775529E-1,1.4388453E0,-1.7658317E-1,-1.0083247E0,4.4038687E-2,-7.796454E-1],"categories":[],"categories_nodes":[],"categories_segments":[],"categories_sizes":[],"default_left":[0,1,0,0,0,0,0,1,0,0,0,0,0,0,0,0,0,0,0,0,0,0,0,0,0,0,0,0,0,0,0,0,0],"id":17,"left_children":[1,3,-1,5,7,9,11,13,15,-1,-1,-1,-1,17,-1,19,21,-1,23,-1,-1,-1,25,27,-1,29,31,-1,-1,-1,-1,-1,-1],"loss_changes":[1.8131528E2,1.0997827E1,0E0,5.6535254E0,9.494473E0,4.284815E0,6.8707447E0,7.835298E0,6.985363E0,0E0,0E0,0E0,0E0,6.808494E0,0E0,4.5560865E0,5.2066536E0,0E0,4.080041E0,0E0,0E0,0E0,6.3661175E0,3.1075096E0,0E0,3.5164604E0,4.3269005E0,0E0,0E0,0E0,0E0,0E0,0E0],"parents":[2147483647,0,0,1,1,3,3,4,4,5,5,6,6,7,7,8,8,13,13,15,15,16,16,18,18,22,22,23,23,25,25,26,26],"right_children":[2,4,-1,6,8,10,12,14,16,-1,-1,-1,-1,18,-1,20,22,-1,24,-1,-1,-1,26,28,-1,30,32,-1,-1,-1,-1,-1,-1],"split_conditions":[2.1825738E0,1.22777775E-1,-9.171869E-3,3.1489068E-1,9.8052216E-1,1.0154271E0,1.0003211E0,3.0166668E-1,2.0834294E-1,7.2812117E-3,1.367279E-3,-4.773988E-3,3.2781218E-3,2.4401629E-1,-3.0565485E-3,1.942051E-1,4.1000122E-1,-2.9570844E-3,9.1484463E-1,5.219443E-3,-1.0746509E-3,2.4304236E-3,1.055589E0,2.9021698E-1,-6.2017696E-4,8.897856E-1,1.022485E0,1.8877644E-3,7.194226E-3,-8.8291586E-4,-5.0416235E-3,2.2019343E-4,-3.898227E-3],"split_indices":[6,17,0,9,0,4,4,16,9,0,0,0,0,9,0,3,12,0,7,0,0,0,10,1,0,4,0,0,0,0,0,0,0],"split_type":[0,0,0,0,0,0,0,0,0,0,0,0,0,0,0,0,0,0,0,0,0,0,0,0,0,0,0,0,0,0,0,0,0],"sum_hessian":[2.3449696E2,1.2521092E2,1.0928603E2,2.1492947E1,1.0371798E2,1.2745418E1,8.747529E0,2.6242289E1,7.747569E1,6.746948E0,5.99847E0,3.749244E0,4.9982853E0,1.9994781E1,6.2475076E0,9.998702E0,6.747699E1,3.2494645E0,1.6745317E1,4.2495527E0,5.7491493E0,4.2492747E0,6.322771E1,1.3496003E1,3.249314E0,3.473801E1,2.84897E1,5.248245E0,8.247759E0,6.748035E0,2.7989977E1,2.0243881E1,8.245819E0],"tree_param":{"num_deleted":"0","num_feature":"19","num_nodes":"33","size_leaf_vector":"0"}},{"base_weights":[-8.5333985E-1,-1.8117284E0,-7.09862E-3,1.4154854E-1,-5.0879097E-1,9.832268E-1,6.662388E-2,-1.4159508E-1,-9.2683965E-1,1.3107911E0,4.3711215E-1,-3.6678728E-2,8.284793E-1,6.079608E-1,-6.45638E-1,-1.5782449E-1,-1.2938373E0,4.8666394E-1,-1.5438E-1,1.168742E0,1.344996E-1,-3.281513E-1,-1.0352857E0,-7.681428E-1,-1.5607212E0,4.1960057E-2,1.165321E0,1.9534984E-1,-4.9960688E-1,8.216206E-1,-8.570434E-1,-1.2333422E-1,1.1031901E0,-2.3413284E-2,-9.281917E-1],"categories":[],"categories_nodes":[],"categories_segments":[],"categories_sizes":[],"default_left":[1,0,0,0,1,0,0,0,0,0,0,1,1,0,1,0,0,0,0,0,0,0,0,1,1,0,0,0,1,0,0,0,0,0,0],"id":18,"left_children":[1,-1,3,5,7,9,11,13,15,-1,-1,17,19,-1,21,-1,-1,25,27,-1,-1,-1,-1,-1,-1,29,-1,31,33,-1,-1,-1,-1,-1,-1],"loss_changes":[1.9233829E2,0E0,9.539936E0,6.1601334E0,4.356701E0,8.576026E-1,7.249281E0,6.7189746E0,3.603363E0,0E0,0E0,5.1095543E0,2.4390259E0,0E0,9.588671E-1,0E0,6.29673E-2,4.55273E0,8.245231E0,0E0,0E0,0E0,0E0,0E0,0E0,7.8876276E0,0E0,1.0042689E1,6.9665356E0,0E0,0E0,0E0,0E0,0E0,0E0],"parents":[2147483647,0,0,2,2,3,3,4,4,5,5,6,6,7,7,8,8,11,11,12,12,14,14,16,16,17,17,18,18,25,25,27,27,28,28],"right_children":[2,-1,4,6,8,10,12,14,16,-1,-1,18,20,-1,22,-1,-1,26,28,-1,-1,-1,-1,-1,-1,30,-1,32,34,-1,-1,-1,-1,-1,-1],"split_conditions":[5.390657E-1,-9.058641E-3,6.994623E-1,7.012559E-1,2.3222223E-1,2.2366196E-1,5.0221324E-1,9.9885976E-1,8.207945E-1,6.5539554E-3,2.1855608E-3,6.5E0,3.2666665E-1,3.039804E-3,1.85E1,-7.891224E-4,-6.4691864E-3,3.0557877E-1,9.795252E-1,5.8437097E-3,6.7249796E-4,-1.6407564E-3,-5.1764282E-3,-3.840714E-3,-7.8036054E-3,2.6627687E-1,5.826605E-3,8.6773914E-1,1.4074074E-1,4.108103E-3,-4.285217E-3,-6.166711E-4,5.5159503E-3,-1.1706642E-4,-4.6409583E-3],"split_indices":[8,0,9,8,16,5,1,0,6,0,0,14,16,0,14,0,4,5,10,0,0,0,0,2147483647,2147483647,13,0,10,17,0,0,0,0,0,0],"split_type":[0,0,0,0,0,0,0,0,0,0,0,0,0,0,0,0,0,0,0,0,0,0,0,0,0,0,0,0,0,0,0,0,0,0,0],"sum_hessian":[2.3616959E2,1.102115E2,1.25958084E2,9.77218E1,2.823628E1,6.9970007E0,9.07248E1,1.5745138E1,1.2491142E1,3.4984107E0,3.4985902E0,8.073018E1,9.994628E0,6.247858E0,9.49728E0,4.4973454E0,7.993797E0,1.42472E1,6.648298E1,6.247381E0,3.7472463E0,6.2483063E0,3.2489738E0,3.9976387E0,3.9961581E0,9.248657E0,4.9985433E0,3.3241764E1,3.324121E1,4.9991884E0,4.249469E0,2.5244274E1,7.997489E0,1.6245611E1,1.6995602E1],"tree_param":{"num_deleted":"2","num_feature":"19","num_nodes":"35","size_leaf_vector":"0"}},{"base_weights":[-8.1740135E-1,1.521192E-2,-1.8112572E0,2.3803799E-1,-2.0450895E-1,7.265699E-1,-6.601009E-4,4.2370055E-3,-7.5678504E-1,-8.073942E-2,1.1014782E0,1.0877014E0,-1.18656345E-1,7.496431E-1,-2.1092129E-1,3.876508E-1,-1.0306094E0,-6.729937E-1,5.655599E-1,1.5483638E0,6.180714E-1,3.6744457E-1,-4.0767586E-1,1.1584668E0,6.9018174E-3,-1.0805078E0,8.599301E-2,-3.4734464E-1,-1.1901026E0,9.0205526E-1,1.0510145E-1,-1.6465609E-1,9.5527035E-1,-1.3143442E0,-1.3570353E-1,-3.453733E-1,-1.3833135E0,-1.3854377E-1,1.0073658E0,-1.3700403E0,-5.5000705E-1,-6.699837E-1,5.8751947E-1,1.3210723E0,3.4291732E-1,-4.6431974E-1,9.045853E-1,1.9803667E-1,-7.5884104E-1],"categories":[],"categories_nodes":[],"categories_segments":[],"categories_sizes":[],"default_left":[0,0,0,1,1,1,0,0,0,0,0,0,1,0,0,0,1,0,0,0,0,0,1,0,0,0,0,0,0,0,0,1,0,0,0,0,0,0,0,1,1,0,0,0,0,0,0,0,0],"id":19,"left_children":[1,3,-1,5,7,9,11,13,15,17,19,-1,21,23,25,-1,27,-1,-1,-1,29,31,33,-1,-1,35,37,-1,-1,-1,-1,41,43,-1,45,-1,-1,47,-1,-1,-1,-1,-1,-1,-1,-1,-1,-1,-1],"loss_changes":[1.9766748E2,6.4601507E0,0E0,7.6362E0,7.6667514E0,6.5942554E0,5.906357E0,8.054475E0,6.1152534E0,3.3462458E0,2.2284546E0,0E0,5.9785585E0,3.4074187E0,1.0159168E1,0E0,1.2203035E0,0E0,0E0,0E0,1.1795218E0,5.160436E0,6.354366E0,0E0,0E0,1.7476768E0,6.3439646E0,0E0,5.9887123E-1,0E0,0E0,3.9090257E0,1.28228E0,0E0,7.767999E0,0E0,0E0,5.368251E0,0E0,0E0,0E0,0E0,0E0,0E0,0E0,0E0,0E0,0E0,0E0],"parents":[2147483647,0,0,1,1,3,3,4,4,5,5,6,6,7,7,8,8,9,9,10,10,12,12,13,13,14,14,16,16,20,20,21,21,22,22,25,25,26,26,28,28,31,31,32,32,34,34,37,37],"right_children":[2,4,-1,6,8,10,12,14,16,18,20,-1,22,24,26,-1,28,-1,-1,-1,30,32,34,-1,-1,36,38,-1,-1,-1,-1,42,44,-1,46,-1,-1,48,-1,-1,-1,-1,-1,-1,-1,-1,-1,-1,-1],"split_conditions":[1.2376935E0,9.9816525E-1,-9.056286E-3,1.3777778E-1,4.5E0,4.1666664E-2,8.722969E-1,2.4093269E-1,6.686206E-1,2.6299345E-1,8.4718704E-1,5.438507E-3,1.4703703E-1,2.229784E-1,3.001476E-1,1.9382539E-3,1.2666667E-1,-3.3649686E-3,2.8277996E-3,7.7418187E-3,2.7211308E-1,1.0619056E0,1.6740741E-1,5.7923337E-3,3.4509085E-5,9.624789E-1,1.355087E0,-1.7367231E-3,-5.950513E-3,4.510276E-3,5.2550726E-4,3.5E0,1.0217187E0,-6.571721E-3,9.97447E-1,-1.7268665E-3,-6.9165677E-3,1.033803E0,5.036829E-3,-6.850201E-3,-2.7500351E-3,-3.3499184E-3,2.9375972E-3,6.6053616E-3,1.7145866E-3,-2.3215986E-3,4.5229266E-3,9.901833E-4,-3.7942051E-3],"split_indices":[2,0,0,16,15,16,2,9,12,11,10,0,17,5,9,0,17,0,0,0,11,12,17,0,0,4,10,0,9,0,0,15,4,0,2,0,0,4,0,2147483647,2147483647,0,0,0,0,0,0,0,0],"split_type":[0,0,0,0,0,0,0,0,0,0,0,0,0,0,0,0,0,0,0,0,0,0,0,0,0,0,0,0,0,0,0,0,0,0,0,0,0,0,0,0,0,0,0,0,0,0,0,0,0],"sum_hessian":[2.378405E2,1.2995447E2,1.0788603E2,6.447992E1,6.547455E1,2.0493328E1,4.398659E1,4.823522E1,1.7239326E1,6.747733E0,1.3745594E1,3.4985867E0,4.0488007E1,1.0247853E1,3.798737E1,3.2481484E0,1.3991178E1,3.4995344E0,3.2481987E0,5.9978538E0,7.7477407E0,1.4995604E1,2.5492401E1,6.248695E0,3.9991586E0,8.997335E0,2.8990032E1,3.2492554E0,1.0741922E1,4.4987206E0,3.24902E0,8.248732E0,6.7468724E0,4.9980087E0,2.0494392E1,3.2493436E0,5.747992E0,2.3992693E1,4.9973397E0,7.49471E0,3.247212E0,4.99934E0,3.2493913E0,3.4991887E0,3.247684E0,1.5995308E1,4.4990854E0,1.5994586E1,7.998107E0],"tree_param":{"num_deleted":"2","num_feature":"19","num_nodes":"49","size_leaf_vector":"0"}},{"base_weights":[-8.45904E-1,-5.0603773E-2,-1.8035792E0,1.1645017E0,-1.1192632E-1,-4.1091332E-1,1.14701696E-1,3.4830014E-3,-1.2400703E0,7.1465325E-1,-1.2751003E-1,7.5348896E-1,-2.883451E-1,-1.4886007E0,-1.0035159E-1,1.185491E0,3.354025E-1,1.939015E-1,-3.5707507E-1,1.3906151E0,-3.104065E-1,-4.7501144E-1,8.225213E-1,-1.686278E0,-8.1878644E-1,-5.4931974E-1,8.8475907E-1,1.1802788E0,-9.087221E-2,-1.0911397E0,-4.4022888E-2,8.415262E-2,-9.244331E-1,1.2966546E0,3.0820763E-1,-2.8379518E-1,6.0006374E-1,-4.258038E-1,-1.4370645E0,6.711552E-1,-3.3401564E-1],"categories":[],"categories_nodes":[],"categories_segments":[],"categories_sizes":[],"default_left":[0,0,0,0,0,0,0,0,0,0,0,1,1,1,0,0,1,1,0,0,0,1,0,1,1,0,0,0,1,0,1,0,0,0,0,0,0,0,0,0,0],"id":20,"left_children":[1,3,-1,-1,5,7,9,11,13,15,17,19,21,-1,-1,-1,25,27,29,-1,-1,31,-1,-1,-1,-1,33,-1,35,37,39,-1,-1,-1,-1,-1,-1,-1,-1,-1,-1],"loss_changes":[1.77204E2,9.682987E0,0E0,0E0,8.378335E0,1.8294765E1,1.0368097E1,8.204E0,4.8759975E0,3.2614574E0,3.8492644E0,7.5476193E0,5.987855E0,5.382881E-1,0E0,0E0,6.68003E0,6.2850432E0,6.9004707E0,0E0,0E0,6.044415E0,0E0,0E0,0E0,0E0,1.5584378E0,0E0,2.5689392E0,1.4589977E0,4.8365273E0,0E0,0E0,0E0,0E0,0E0,0E0,0E0,0E0,0E0,0E0],"parents":[2147483647,0,0,1,1,4,4,5,5,6,6,7,7,8,8,9,9,10,10,11,11,12,12,13,13,16,16,17,17,18,18,21,21,26,26,28,28,29,29,30,30],"right_children":[2,4,-1,-1,6,8,10,12,14,16,18,20,22,-1,-1,-1,26,28,30,-1,-1,32,-1,-1,-1,-1,34,-1,36,38,40,-1,-1,-1,-1,-1,-1,-1,-1,-1,-1],"split_conditions":[1.2419661E0,2.3082104E-1,-9.017896E-3,5.822508E-3,9.540317E-1,9.2713547E-1,9.8901933E-1,6.3643956E-1,1.2496047E0,1.0042217E0,3.2872763E-1,2.4944445E-1,5.5E0,-7.4430034E-3,-5.017579E-4,5.9274547E-3,1.4906666E-1,1.1777778E-1,3.6817694E-1,6.9530755E-3,-1.5520325E-3,1.5166667E-1,4.1126064E-3,-8.43139E-3,-4.093932E-3,-2.7465986E-3,3.9638424E-1,5.901394E-3,2.1277778E-1,1.0077968E0,1.461111E-1,4.2076307E-4,-4.6221656E-3,6.4832726E-3,1.5410382E-3,-1.4189759E-3,3.0003185E-3,-2.129019E-3,-7.1853227E-3,3.355776E-3,-1.6700781E-3],"split_indices":[2,13,0,0,6,12,0,10,5,4,5,16,15,15,0,0,18,17,7,0,0,16,0,2147483647,2147483647,0,9,0,16,0,17,0,0,0,0,0,0,0,0,0,0],"split_type":[0,0,0,0,0,0,0,0,0,0,0,0,0,0,0,0,0,0,0,0,0,0,0,0,0,0,0,0,0,0,0,0,0,0,0,0,0,0,0,0,0],"sum_hessian":[2.3178113E2,1.27200485E2,1.0458065E2,5.246734E0,1.2195375E2,5.223186E1,6.972189E1,3.5490307E1,1.6741556E1,1.949149E1,5.02304E1,9.498065E0,2.599224E1,1.3493099E1,3.2484562E0,7.747338E0,1.1744152E1,2.0993284E1,2.9237116E1,5.7484446E0,3.749621E0,2.2742981E1,3.24926E0,9.246668E0,4.246431E0,4.498891E0,7.2452617E0,3.9986045E0,1.6994678E1,7.997823E0,2.1239294E1,1.0496339E1,1.2246642E1,3.49757E0,3.7476916E0,1.37458315E1,3.248848E0,3.4989738E0,4.4988494E0,5.7483544E0,1.5490938E1],"tree_param":{"num_deleted":"2","num_feature":"19","num_nodes":"41","size_leaf_vector":"0"}},{"base_weights":[-9.386868E-1,-1.4735804E-1,-1.8054916E0,4.169792E-1,-2.929316E-1,1.7546509E-1,1.0886627E0,4.5492557E-1,-4.2392135E-1,-2.70951E-1,5.3095084E-1,1.0134577E0,-8.2890886E-1,-1.3000065E-1,-6.3443416E-1,2.4295852E-1,-8.0768055E-1,-1.855015E-1,1.0891246E0,1.357517E0,1.2744775E-1,-6.078138E-1,3.4835663E-1,-1.2033885E0,-3.9655697E-1,2.5240186E-1,-8.182683E-1,-5.5424994E-1,7.989491E-1,-4.0140542E-1,-1.4772991E0,1.3384345E-1,-8.1206983E-1,-1.0782197E0,-2.9245967E-1,1.1305248E0,2.4674423E-1,-7.974746E-1,-1.6789067E0,1.0048659E0,-2.1146896E-1,-1.3714978E0,-2.668219E-1],"categories":[],"categories_nodes":[],"categories_segments":[],"categories_sizes":[],"default_left":[0,0,0,1,1,1,0,0,0,0,0,0,0,0,1,0,0,0,0,0,0,1,1,1,1,0,1,0,0,0,1,0,1,0,0,0,0,1,1,0,0,0,0],"id":21,"left_children":[1,3,-1,5,7,9,-1,11,13,15,17,19,-1,21,23,-1,-1,-1,-1,-1,-1,25,27,29,31,-1,33,-1,35,-1,-1,39,41,-1,-1,-1,-1,-1,-1,-1,-1,-1,-1],"loss_changes":[1.635679E2,1.0469269E1,0E0,4.0656285E0,1.0058594E1,3.3958776E0,0E0,1.1949482E1,5.252139E0,2.8845916E0,4.899267E0,3.2552252E0,0E0,8.72314E0,6.2869987E0,0E0,0E0,0E0,0E0,0E0,0E0,3.6451535E0,8.2696085E0,2.5359497E0,8.204695E0,0E0,1.8027716E0,0E0,2.1463308E0,0E0,6.5179825E-2,5.3242373E0,5.9603033E0,0E0,0E0,0E0,0E0,0E0,0E0,0E0,0E0,0E0,0E0],"parents":[2147483647,0,0,1,1,3,3,4,4,5,5,7,7,8,8,9,9,10,10,11,11,13,13,14,14,21,21,22,22,23,23,24,24,26,26,28,28,30,30,31,31,32,32],"right_children":[2,4,-1,6,8,10,-1,12,14,16,18,20,-1,22,24,-1,-1,-1,-1,-1,-1,26,28,30,32,-1,34,-1,36,-1,-1,40,42,-1,-1,-1,-1,-1,-1,-1,-1,-1,-1],"split_conditions":[1.8364623E0,9.7933626E-1,-9.027458E-3,2.1766666E-1,5.5E0,1.45E1,5.4433136E-3,4.6528375E-1,1.0003692E0,3.2689536E-1,9.657769E-1,3.6968452E-1,-4.1445442E-3,9.8174363E-1,1.0091156E0,1.2147926E-3,-4.038403E-3,-9.2750747E-4,5.445623E-3,6.787585E-3,6.372387E-4,9.5E0,1.3953334E-1,1.2351852E-1,1.6777778E-1,1.2620093E-3,2.55E1,-2.7712497E-3,1.005168E0,-2.0070272E-3,-7.3864954E-3,6.947107E-1,1.8425927E-1,-5.391098E-3,-1.4622983E-3,5.6526237E-3,1.2337212E-3,-3.987373E-3,-8.394533E-3,5.0243293E-3,-1.0573448E-3,-6.857489E-3,-1.3341095E-3],"split_indices":[1,0,0,18,14,14,0,11,0,13,0,13,0,6,0,0,0,0,0,0,0,14,18,17,16,0,14,0,2,0,2,12,17,0,0,0,0,2147483647,2147483647,0,0,0,0],"split_type":[0,0,0,0,0,0,0,0,0,0,0,0,0,0,0,0,0,0,0,0,0,0,0,0,0,0,0,0,0,0,0,0,0,0,0,0,0,0,0,0,0,0,0],"sum_hessian":[2.3785027E2,1.2495007E2,1.1290019E2,2.5239819E1,9.971026E1,1.9492296E1,5.747522E0,1.4492952E1,8.521731E1,8.746418E0,1.0745878E1,1.0246022E1,4.2469296E0,3.623837E1,4.8978935E1,4.747807E0,3.9986105E0,4.9981236E0,5.747755E0,6.9968176E0,3.249205E0,1.7994106E1,1.8244265E1,1.32437315E1,3.5735203E1,3.4978027E0,1.4496304E1,5.9984307E0,1.2245833E1,3.9993873E0,9.244345E0,1.59952345E1,1.973997E1,8.997494E0,5.49881E0,6.9970865E0,5.248747E0,3.2479093E0,5.9964347E0,3.9987338E0,1.1996501E1,8.995333E0,1.0744636E1],"tree_param":{"num_deleted":"2","num_feature":"19","num_nodes":"43","size_leaf_vector":"0"}},{"base_weights":[-8.587024E-1,1.6248854E-2,-1.7968274E0,5.2913445E-1,-1.4732248E-1,-4.5138413E-1,7.42011E-1,-5.5879176E-1,4.433145E-2,1.1506367E0,3.679966E-1,5.502575E-1,-7.8734416E-1,7.4137425E-1,-1.768908E-1,1.4374018E0,7.0279986E-1,7.3459333E-1,-5.007729E-1,-4.6930513E-3,-1.0167438E0,1.3097266E0,-6.632845E-2,2.1562018E-1,-4.3919483E-1,1.1145627E-1,1.0079535E0,-1.2847355E-1,-1.1947305E0,5.702785E-1,1.6283587E0,6.513347E-1,-5.572249E-1,-6.7596585E-1,1.2420281E-1,-1.4361411E0,-4.49913E-1,7.396685E-2,1.3366681E0,-1.0398577E0,2.2383898E-2,-8.1286263E-1,-1.0218152E-3,-2.4205226E-1,5.413666E-1],"categories":[],"categories_nodes":[],"categories_segments":[],"categories_sizes":[],"default_left":[0,0,0,0,0,0,0,0,0,1,0,0,0,0,1,1,1,0,0,0,0,0,0,0,1,0,0,0,0,0,0,0,0,0,1,0,0,0,0,0,0,0,0,0,0],"id":22,"left_children":[1,3,-1,5,7,-1,9,11,13,-1,17,-1,19,21,23,-1,-1,25,-1,-1,27,29,-1,31,33,-1,-1,-1,35,-1,-1,37,39,41,43,-1,-1,-1,-1,-1,-1,-1,-1,-1,-1],"loss_changes":[1.8556598E2,9.973102E0,0E0,6.333519E0,7.1387453E0,0E0,3.2430773E0,7.7180405E0,9.76424E0,4.0175915E-1,4.825392E0,0E0,4.347333E0,7.0841827E0,5.0601387E0,0E0,0E0,1.6333041E0,0E0,0E0,2.809496E0,1.1907597E0,0E0,7.094313E0,3.9842439E0,0E0,0E0,0E0,2.1394825E0,0E0,0E0,5.141677E0,2.1900575E0,1.9156733E0,1.581986E0,0E0,0E0,0E0,0E0,0E0,0E0,0E0,0E0,0E0,0E0],"parents":[2147483647,0,0,1,1,3,3,4,4,6,6,7,7,8,8,9,9,10,10,12,12,13,13,14,14,17,17,20,20,21,21,23,23,24,24,28,28,31,31,32,32,33,33,34,34],"right_children":[2,4,-1,6,8,-1,10,12,14,-1,18,-1,20,22,24,-1,-1,26,-1,-1,28,30,-1,32,34,-1,-1,-1,36,-1,-1,38,40,42,44,-1,-1,-1,-1,-1,-1,-1,-1,-1,-1],"split_conditions":[1.7468753E0,2.39044E-1,-8.984137E-3,1.6831824E-1,9.1829747E-1,-2.2569206E-3,2.4039097E-1,6.717263E-1,9.770849E-1,5.7531833E-3,7.7181244E-1,2.7512875E-3,6.4132464E-1,1.1032612E0,1.35E1,7.187009E-3,3.5139993E-3,9.278428E-1,-2.5038645E-3,-2.3465256E-5,9.70458E-1,9.5527494E-1,-3.3164225E-4,4.5185024E-1,2.0346667E-1,5.572813E-4,5.0397674E-3,-6.4236776E-4,9.9290365E-1,2.8513926E-3,8.141793E-3,1.1122937E0,7.680447E-1,1.7916372E0,2.1E1,-7.1807057E-3,-2.249565E-3,3.6983425E-4,6.6833403E-3,-5.1992885E-3,1.1191949E-4,-4.064313E-3,-5.109076E-6,-1.2102613E-3,2.7068327E-3],"split_indices":[4,1,0,1,6,0,11,6,2,17,12,0,10,8,14,2147483647,2147483647,4,0,0,0,2,0,13,18,0,0,0,2,0,0,6,11,12,14,0,0,0,0,0,0,0,0,0,0],"split_type":[0,0,0,0,0,0,0,0,0,0,0,0,0,0,0,0,0,0,0,0,0,0,0,0,0,0,0,0,0,0,0,0,0,0,0,0,0,0,0,0,0,0,0,0,0],"sum_hessian":[2.2504008E2,1.1694908E2,1.08091E2,2.7738579E1,8.92105E1,4.7481217E0,2.2990456E1,2.7739616E1,6.147089E1,9.994555E0,1.2995901E1,4.4992847E0,2.3240332E1,1.4242703E1,4.7228188E1,4.745924E0,5.2486315E0,9.247961E0,3.74794E0,5.499147E0,1.7741184E1,7.9952083E0,6.247495E0,1.898983E1,2.8238356E1,3.249135E0,5.9988256E0,3.2488942E0,1.449229E1,3.247808E0,4.7474003E0,1.2244086E1,6.7457447E0,1.9741905E1,8.49645E0,1.0243865E1,4.2484255E0,7.2468305E0,4.997256E0,3.2475135E0,3.4982312E0,1.624304E1,3.4988647E0,4.747809E0,3.7486415E0],"tree_param":{"num_deleted":"2","num_feature":"19","num_nodes":"45","size_leaf_vector":"0"}},{"base_weights":[-9.593456E-1,-2.3441254E-1,-1.7828614E0,4.0425125E-1,-3.4862602E-1,8.6808157E-1,-1.4857522E-1,-4.2318296E-1,6.268731E-1,1.0983837E-1,1.1821328E0,-8.242141E-1,7.363493E-1,-6.9189453E-1,-1.8612565E-1,9.423041E-1,1.2684906E-1,1.4875894E0,5.986272E-1,-8.403567E-1,-6.5683484E-2,1.7258507E-1,-5.446535E-1,-2.1531907E-1,-1.0161319E0,8.4401244E-1,-6.2887347E-1,1.2006167E0,-2.10403E-1,-1.0414872E0,-9.284596E-2,2.6465842E-1,-7.5107974E-1,-2.4988171E-1,-1.1559138E0,5.727222E-1,1.5267394E0,-7.824192E-1,1.4179508E-1,-3.3368015E-1,-1.2432532E0,8.698107E-1,-5.3401744E-1],"categories":[],"categories_nodes":[],"categories_segments":[],"categories_sizes":[],"default_left":[0,0,0,0,1,0,1,1,1,0,0,0,0,0,0,0,0,1,1,1,0,1,1,0,0,0,0,0,1,1,0,0,0,0,0,0,0,0,0,0,0,0,0],"id":23,"left_children":[1,3,-1,5,7,9,11,13,15,-1,-1,-1,-1,19,21,-1,-1,-1,-1,23,25,27,29,31,33,-1,-1,35,37,39,41,-1,-1,-1,-1,-1,-1,-1,-1,-1,-1,-1,-1],"loss_changes":[1.3909631E2,9.290874E0,0E0,5.1271486E0,8.043458E0,2.4289436E0,6.434452E0,6.2379837E0,1.1416936E0,0E0,4.4552803E-1,0E0,0E0,4.265873E0,7.0993004E0,0E0,0E0,0E0,0E0,3.8997154E0,5.650105E0,1.1271988E1,6.0724335E0,2.6409712E0,2.8161716E0,0E0,0E0,7.1168995E-1,4.390398E0,1.4404526E0,7.043659E0,0E0,0E0,0E0,0E0,0E0,0E0,0E0,0E0,0E0,0E0,0E0,0E0],"parents":[2147483647,0,0,1,1,3,3,4,4,5,5,6,6,7,7,8,8,10,10,13,13,14,14,19,19,20,20,21,21,22,22,23,23,24,24,27,27,28,28,29,29,30,30],"right_children":[2,4,-1,6,8,10,12,14,16,-1,-1,-1,-1,20,22,-1,-1,-1,-1,24,26,28,30,32,34,-1,-1,36,38,40,42,-1,-1,-1,-1,-1,-1,-1,-1,-1,-1,-1,-1],"split_conditions":[1.726296E0,2.0571992E-1,-8.914307E-3,1.0155854E0,2.3493543E0,9.834541E-1,1.6092592E-1,1.45E1,4.077778E-1,5.4919184E-4,5.910664E-3,-4.1210703E-3,3.6817463E-3,6.6402274E-1,1.0001061E0,4.7115204E-3,6.342453E-4,7.4379467E-3,2.993136E-3,1.2685186E-1,8.1748897E-1,1.3944444E-1,1.0143521E0,1.0135515E0,2.5725845E-1,4.220062E-3,-3.1443674E-3,3.542558E-1,2.1222222E-1,1.85E1,7.99229E-1,1.323292E-3,-3.7553986E-3,-1.2494086E-3,-5.779569E-3,2.8636109E-3,7.633697E-3,-3.912096E-3,7.089754E-4,-1.6684007E-3,-6.216266E-3,4.3490534E-3,-2.6700872E-3],"split_indices":[3,7,0,4,12,0,17,14,16,0,11,0,0,1,0,0,0,2147483647,2147483647,17,13,16,0,6,9,0,0,13,16,14,10,0,0,0,0,0,0,0,0,0,0,0,0],"split_type":[0,0,0,0,0,0,0,0,0,0,0,0,0,0,0,0,0,0,0,0,0,0,0,0,0,0,0,0,0,0,0,0,0,0,0,0,0,0,0,0,0,0,0],"sum_hessian":[2.3269467E2,1.2443786E2,1.08256805E2,1.8492315E1,1.0594554E2,9.745459E0,8.746857E0,9.89491E1,6.996447E0,3.2495396E0,6.4959188E0,4.9988475E0,3.7480097E0,4.5478817E1,5.347028E1,3.7477376E0,3.2487097E0,3.2468438E0,3.2490747E0,3.6486603E1,8.992214E0,2.698757E1,2.648271E1,8.497035E0,2.7989567E1,3.2477076E0,5.744507E0,6.7456803E0,2.024189E1,1.1991264E1,1.44914465E1,4.7487426E0,3.748292E0,4.7482862E0,2.324128E1,3.2481215E0,3.497559E0,7.2482467E0,1.2993642E1,3.2486415E0,8.742622E0,4.2487917E0,1.0242654E1],"tree_param":{"num_deleted":"2","num_feature":"19","num_nodes":"43","size_leaf_vector":"0"}},{"base_weights":[-8.287549E-1,-1.7603905E0,-4.6462045E-4,-1.783271E0,-7.795412E-1,5.3729707E-1,-1.23216294E-1,8.470058E-1,-6.7063874E-1,5.276317E-1,-2.2351691E-1,1.3263216E0,3.2020745E-1,1.5044842E0,8.19932E-2,8.862822E-1,-2.799963E-1,-1.6169918E-1,1.0388497E0,6.880537E-1,-8.7877035E-1,-1.3068485E0,-1.9896469E-1,-7.307154E-1,-3.708606E-2,4.3372113E-1,-1.0314356E0,5.846212E-1,-2.139982E-1],"categories":[],"categories_nodes":[],"categories_segments":[],"categories_sizes":[],"default_left":[1,1,0,0,0,1,1,0,0,0,0,0,0,0,0,0,0,0,0,0,0,0,1,0,0,0,0,0,0],"id":24,"left_children":[1,3,5,-1,-1,7,9,11,-1,13,15,-1,17,-1,19,-1,21,-1,-1,-1,-1,-1,23,25,27,-1,-1,-1,-1],"loss_changes":[1.7738248E2,1.0378113E0,8.164775E0,0E0,0E0,9.167534E0,6.6915627E0,4.3066025E0,0E0,5.8596225E0,5.76121E0,0E0,3.7159865E0,0E0,6.7161202E0,0E0,6.767275E0,0E0,0E0,0E0,0E0,0E0,6.8125296E0,6.922083E0,6.9407344E0,0E0,0E0,0E0,0E0],"parents":[2147483647,0,0,1,1,2,2,5,5,6,6,7,7,9,9,10,10,12,12,14,14,16,16,22,22,23,23,24,24],"right_children":[2,4,6,-1,-1,8,10,12,-1,14,16,-1,18,-1,20,-1,22,-1,-1,-1,-1,-1,24,26,28,-1,-1,-1,-1],"split_conditions":[3.829596E-1,2.483637E-1,9.723664E-1,-8.916355E-3,-3.8977058E-3,2.8851852E-1,1.16111115E-1,1.0175135E0,-3.3531936E-3,1.0257431E0,9.2172265E-1,6.6316077E-3,1.078933E0,7.5224205E-3,2.997769E-1,4.431411E-3,9.4698286E-1,-8.0849585E-4,5.1942486E-3,3.4402686E-3,-4.393852E-3,-6.5342425E-3,1.3486665E-1,1.9367622E-1,9.802098E-1,2.1686056E-3,-5.157178E-3,2.9231058E-3,-1.0699909E-3],"split_indices":[12,3,0,0,0,17,17,12,0,6,2,0,4,0,11,0,2,0,0,0,0,0,18,7,2,0,0,0,0],"split_type":[0,0,0,0,0,0,0,0,0,0,0,0,0,0,0,0,0,0,0,0,0,0,0,0,0,0,0,0,0],"sum_hessian":[2.2887094E2,1.07186035E2,1.2168491E2,1.0394324E2,3.2427943E0,2.1986658E1,9.969826E1,1.773762E1,4.2490387E0,1.2743771E1,8.695448E1,8.4927E0,9.244921E0,3.248013E0,9.495758E0,3.4994497E0,8.345503E1,5.9978676E0,3.2470524E0,5.996773E0,3.498985E0,4.9975266E0,7.8457504E1,1.749026E1,6.0967247E1,3.4990616E0,1.3991198E1,1.2995099E1,4.797215E1],"tree_param":{"num_deleted":"0","num_feature":"19","num_nodes":"29","size_leaf_vector":"0"}},{"base_weights":[-8.508492E-1,-5.191756E-2,-1.7767491E0,1.4679646E-1,-6.2506676E-1,2.2736849E-1,-1.0205352E0,-9.208967E-1,-2.4292689E-2,8.295328E-1,6.2438253E-2,1.6005786E-1,-1.2967045E0,5.5828196E-1,-1.0871114E0,1.1422014E0,-4.3194073E-1,1.0916988E0,-4.543686E-2,-1.5037931E0,-3.5816896E-1,-9.5633835E-2,1.0024751E0,4.822862E-1,1.4104745E0,-3.4993428E-1,2.2969794E-1,-1.7314403E0,-8.7820995E-1,3.8878404E-2,-8.639864E-1,-4.3750137E-1,4.710364E-1],"categories":[],"categories_nodes":[],"categories_segments":[],"categories_sizes":[],"default_left":[0,1,0,1,1,0,0,0,0,0,0,0,1,1,0,1,0,0,0,0,0,0,0,0,0,1,0,1,1,0,0,0,0],"id":25,"left_children":[1,3,-1,5,7,9,-1,11,13,15,17,-1,19,21,-1,23,-1,-1,25,-1,-1,-1,-1,-1,-1,29,31,-1,-1,-1,-1,-1,-1],"loss_changes":[1.7132915E2,1.4376959E1,0E0,9.068042E0,5.750371E0,8.757248E0,0E0,9.037767E0,7.8784733E0,7.9831524E0,7.9005013E0,0E0,2.6176434E0,2.491214E0,0E0,2.0623817E0,0E0,0E0,5.522663E0,3.295231E-1,0E0,0E0,0E0,0E0,0E0,6.2758017E0,5.79826E0,0E0,0E0,0E0,0E0,0E0,0E0],"parents":[2147483647,0,0,1,1,3,3,4,4,5,5,7,7,8,8,9,9,10,10,12,12,13,13,15,15,18,18,19,19,25,25,26,26],"right_children":[2,4,-1,6,8,10,-1,12,14,16,18,-1,20,22,-1,24,-1,-1,26,-1,-1,-1,-1,-1,-1,30,32,-1,-1,-1,-1,-1,-1],"split_conditions":[1.67606E0,2.35E1,-8.883745E-3,3.1814814E-1,1.0782721E0,9.616797E-1,-5.102676E-3,8.502333E-1,6.60322E-1,7.7670264E-1,1.81003E-1,8.002893E-4,1.0491302E0,1.4713332E-1,-5.4355566E-3,1.5E0,-2.1597035E-3,5.4584937E-3,3.0423033E-1,-7.5189653E-3,-1.7908447E-3,-4.7816915E-4,5.012376E-3,2.411431E-3,7.0523727E-3,1.35E1,9.6257997E-1,-8.657201E-3,-4.3910495E-3,1.94392E-4,-4.319932E-3,-2.1875068E-3,2.355182E-3],"split_indices":[1,14,0,17,10,2,0,6,1,13,1,0,8,18,0,15,0,0,9,5,0,0,0,0,0,14,4,2147483647,2147483647,0,0,0,0],"split_type":[0,0,0,0,0,0,0,0,0,0,0,0,0,0,0,0,0,0,0,0,0,0,0,0,0,0,0,0,0,0,0,0,0],"sum_hessian":[2.3073486E2,1.2442676E2,1.06308105E2,9.29458E1,3.1480953E1,8.769791E1,5.2478952E0,2.073693E1,1.074402E1,1.7989222E1,6.970869E1,5.4977055E0,1.5239226E1,7.246585E0,3.4974358E0,1.4491829E1,3.4973922E0,5.747783E0,6.3960903E1,1.1991103E1,3.248123E0,3.2487152E0,3.99787E0,4.9971833E0,9.494646E0,3.0231361E1,3.372954E1,7.4957194E0,4.4953837E0,1.7738724E1,1.2492639E1,8.743801E0,2.4985743E1],"tree_param":{"num_deleted":"2","num_feature":"19","num_nodes":"33","size_leaf_vector":"0"}},{"base_weights":[-9.171299E-1,-9.0284474E-2,-1.7708948E0,2.3008318E-1,-3.5901776E-1,-4.159745E-1,5.239299E-1,-7.154099E-1,2.2017246E-2,4.6083215E-1,-8.472416E-1,8.664369E-1,7.953279E-2,-1.2436072E0,-3.3529112E-1,6.766965E-1,-3.4447134E-1,-1.2837172E0,-2.227349E-1,1.1176505E-1,9.9472386E-1,7.4057937E-1,-2.7764782E-1,-4.341156E-1,-1.4776956E0,5.887541E-1,-6.8092364E-1,8.107446E-2,1.3098147E0,-5.996759E-1,8.326917E-1,1.2223701E0,3.2611427E-1,-1.2749503E0,2.2424899E-1,-1.6883304E0,-7.827329E-1,1.2435376E-1,-1.0400914E0,-5.3932115E-2,-8.794723E-1,5.1730555E-1,1.4462241E0,6.5342736E-1,-2.972853E-1,-4.879336E-1,-1.2584914E0,-1.5408822E0,-3.9208817E-1],"categories":[],"categories_nodes":[],"categories_segments":[],"categories_sizes":[],"default_left":[0,0,0,0,1,0,1,1,0,0,0,0,0,0,0,0,0,0,0,0,1,0,0,0,0,0,0,0,0,0,0,0,0,0,0,1,1,0,1,0,0,0,0,0,0,0,0,0,0],"id":26,"left_children":[1,3,-1,5,7,9,11,13,15,-1,17,19,21,23,25,27,29,-1,-1,-1,31,-1,33,-1,-1,-1,37,-1,-1,39,-1,41,-1,-1,43,-1,-1,-1,45,-1,47,-1,-1,-1,-1,-1,-1,-1,-1],"loss_changes":[1.639849E2,1.034297E1,0E0,1.0654515E1,8.870045E0,7.100319E0,5.750124E0,6.3533134E0,8.026519E0,0E0,3.0522537E0,1.9692993E0,4.3945594E0,1.9625912E0,7.1008244E0,4.4170156E0,6.954401E0,0E0,0E0,0E0,2.3776875E0,0E0,6.415142E0,0E0,1.7801094E-1,0E0,4.6792097E0,0E0,0E0,2.737761E0,0E0,1.3421154E0,0E0,0E0,2.2078843E0,0E0,0E0,0E0,7.1071243E-1,0E0,3.2617998E0,0E0,0E0,0E0,0E0,0E0,0E0,0E0,0E0],"parents":[2147483647,0,0,1,1,3,3,4,4,5,5,6,6,7,7,8,8,10,10,11,11,12,12,13,13,14,14,15,15,16,16,20,20,22,22,24,24,26,26,29,29,31,31,34,34,38,38,40,40],"right_children":[2,4,-1,6,8,10,12,14,16,-1,18,20,22,24,26,28,30,-1,-1,-1,32,-1,34,-1,-1,-1,38,-1,-1,40,-1,42,-1,-1,44,-1,-1,-1,46,-1,48,-1,-1,-1,-1,-1,-1,-1,-1],"split_conditions":[1.717747E0,9.967078E-1,-8.854474E-3,9.1283435E-1,1.0171463E0,8.422879E-1,1.9777778E-1,1.4648148E-1,1.0431556E0,2.3041607E-3,9.817502E-1,9.24975E-1,9.775902E-1,6.722558E-1,2.5596178E-1,1.0139577E0,2.0769353E0,-6.418586E-3,-1.1136745E-3,5.588252E-4,4.5E0,3.7028966E-3,9.837377E-1,-2.1705779E-3,-7.3884777E-3,2.9437705E-3,9.211165E-1,4.053723E-4,6.5490734E-3,2.9106808E-1,4.1634585E-3,2.474945E-1,1.6305713E-3,-6.374751E-3,3.813309E-1,-8.441652E-3,-3.9136643E-3,6.2176876E-4,1.7666668E-1,-2.6966058E-4,3.5932475E-1,2.5865277E-3,7.2311205E-3,3.2671366E-3,-1.4864265E-3,-2.439668E-3,-6.2924568E-3,-7.704411E-3,-1.9604408E-3],"split_indices":[3,0,0,4,6,4,16,17,4,0,0,6,0,12,3,4,12,0,0,0,15,0,0,0,10,0,4,0,0,5,0,13,0,0,9,2147483647,2147483647,0,17,0,7,0,0,0,0,0,0,0,0],"split_type":[0,0,0,0,0,0,0,0,0,0,0,0,0,0,0,0,0,0,0,0,0,0,0,0,0,0,0,0,0,0,0,0,0,0,0,0,0,0,0,0,0,0,0,0,0,0,0,0,0],"sum_hessian":[2.3152223E2,1.1817708E2,1.1334516E2,5.397507E1,6.4202E1,1.6744543E1,3.7230526E1,3.27203E1,3.1481707E1,5.498012E0,1.1246531E1,2.048928E1,1.6741245E1,1.2742384E1,1.9977917E1,1.0994743E1,2.0486963E1,5.99852E0,5.2480106E0,3.2488031E0,1.7240477E1,5.496072E0,1.1245174E1,3.4985812E0,9.243803E0,5.246918E0,1.4730998E1,6.24637E0,4.748374E0,1.7239975E1,3.2469869E0,1.22435875E1,4.9968896E0,3.2489767E0,7.996197E0,5.9968476E0,3.2469554E0,4.745362E0,9.985636E0,6.247318E0,1.0992658E1,3.7483745E0,8.4952135E0,4.2477584E0,3.7484388E0,3.7468925E0,6.238744E0,3.746667E0,7.2459908E0],"tree_param":{"num_deleted":"2","num_feature":"19","num_nodes":"49","size_leaf_vector":"0"}},{"base_weights":[-8.6898416E-1,-7.420257E-2,-1.7466927E0,4.2615584E-1,-4.2450508E-1,8.8754076E-1,9.620853E-2,7.309858E-1,-5.2488273E-1,1.145481E0,-1.1653557E-1,-3.0393434E-1,3.6494228E-1,-1.1855644E0,-2.2844343E-1,5.6261134E-1,1.4744285E0,-7.8703636E-1,4.4212872E-1,7.274184E-1,-5.35931E-2,-5.8296126E-1,-1.5369912E0,6.1042595E-1,-3.6869398E-1,-2.2471082E-1,1.2639227E0,-1.259394E-1,-1.1915572E0,1.1519331E0,1.0376275E-1,7.045991E-1,-8.3757913E-1,-1.087241E0,1.2365994E-1,1.7963971E-1,-5.8307946E-1,8.9320135E-1,-1.9715688E-1,-9.695446E-1,-1.4042797E-2],"categories":[],"categories_nodes":[],"categories_segments":[],"categories_sizes":[],"default_left":[0,0,0,1,0,0,0,0,0,0,0,1,0,0,0,1,0,1,0,1,0,0,0,0,0,0,0,0,0,0,0,0,0,0,0,0,0,0,0,0,0],"id":27,"left_children":[1,3,-1,5,7,9,11,-1,13,15,-1,17,19,21,23,25,-1,27,-1,29,31,33,-1,-1,35,-1,-1,-1,-1,-1,-1,-1,-1,-1,-1,37,39,-1,-1,-1,-1],"loss_changes":[1.6221085E2,2.1770172E1,0E0,7.7121944E0,8.844933E0,5.633259E0,3.442921E0,0E0,1.2988789E1,2.4275265E0,0E0,5.0316467E0,2.920137E0,3.4940128E0,5.86908E0,4.560707E0,0E0,2.0554552E0,0E0,2.5930686E0,6.382971E0,3.4295397E0,0E0,0E0,5.0096045E0,0E0,0E0,0E0,0E0,0E0,0E0,0E0,0E0,0E0,0E0,3.5348723E0,6.634735E0,0E0,0E0,0E0,0E0],"parents":[2147483647,0,0,1,1,3,3,4,4,5,5,6,6,8,8,9,9,11,11,12,12,13,13,14,14,15,15,17,17,19,19,20,20,21,21,24,24,35,35,36,36],"right_children":[2,4,-1,6,8,10,12,-1,14,16,-1,18,20,22,24,26,-1,28,-1,30,32,34,-1,-1,36,-1,-1,-1,-1,-1,-1,-1,-1,-1,-1,38,40,-1,-1,-1,-1],"split_conditions":[1.6777899E0,9.9342954E-1,-8.7334635E-3,1.5888888E-1,6.2476265E-1,1.0299847E0,9.418912E-1,3.654929E-3,9.359651E-1,9.128067E-1,-5.8267784E-4,2.0373333E-1,1.0718817E0,7.5506186E-1,1.9500053E-1,1.55E1,7.3721423E-3,1.5666667E-1,2.2106436E-3,3.5E0,3.0103546E-1,2.4935001E-1,-7.684956E-3,3.0521296E-3,1.0029414E0,-1.1235541E-3,6.319613E-3,-6.29697E-4,-5.9577855E-3,5.7596653E-3,5.1881373E-4,3.5229954E-3,-4.1878955E-3,-5.4362053E-3,6.182997E-4,3.028082E-1,1.1703839E0,4.4660065E-3,-9.857843E-4,-4.847723E-3,-7.021398E-5],"split_indices":[1,0,0,16,10,4,4,0,6,6,0,18,10,10,7,14,0,17,0,15,13,7,0,0,2,0,0,0,0,0,0,0,0,0,0,3,12,0,0,0,0],"split_type":[0,0,0,0,0,0,0,0,0,0,0,0,0,0,0,0,0,0,0,0,0,0,0,0,0,0,0,0,0,0,0,0,0,0,0,0,0,0,0,0,0],"sum_hessian":[2.3171732E2,1.2217242E2,1.0954489E2,5.022148E1,7.1950935E1,2.0235306E1,2.9986177E1,5.248686E0,6.670225E1,1.5987418E1,4.2478876E0,1.1994884E1,1.7991293E1,1.973005E1,4.69722E1,6.7454095E0,9.242008E0,7.2471685E0,4.747715E0,9.245843E0,8.745451E0,8.247178E0,1.1482871E1,6.248163E0,4.0724037E1,3.4979951E0,3.2474144E0,3.248905E0,3.9982636E0,4.9972267E0,4.2486157E0,4.497339E0,4.2481117E0,4.4983125E0,3.748866E0,1.1492289E1,2.9231749E1,3.4977956E0,7.9944925E0,1.6989428E1,1.2242321E1],"tree_param":{"num_deleted":"0","num_feature":"19","num_nodes":"41","size_leaf_vector":"0"}},{"base_weights":[-8.3921677E-1,-6.0899988E-2,-1.7485734E0,5.4137456E-1,-2.0564596E-1,8.2999223E-1,-2.8082034E-1,4.8602113E-1,-3.5213777E-1,-2.9378738E-2,1.0198283E0,1.07087955E-1,-6.026587E-1,7.6128185E-1,-5.1426023E-1,2.0161323E-1,-4.4888845E-1,1.2439209E0,1.08051695E-1,1.2066194E0,2.799224E-1,-2.9061732E-1,8.585135E-1,5.932149E-1,-5.032478E-1,8.19539E-1,1.4997844E0,5.549501E-1,1.5537081E0,7.820161E-1,-3.0741334E-1,5.1548165E-1,-9.9808747E-1,-1.1755381E0,-4.2014444E-1,4.4188455E-2,-5.958422E-1],"categories":[],"categories_nodes":[],"categories_segments":[],"categories_sizes":[],"default_left":[0,0,0,1,0,0,0,0,1,0,0,0,0,1,0,1,0,1,0,0,0,0,0,0,0,1,1,0,0,0,0,0,0,0,0,0,0],"id":28,"left_children":[1,3,-1,5,7,9,11,13,15,-1,17,-1,-1,19,-1,21,23,-1,-1,27,29,31,-1,-1,33,-1,-1,-1,-1,-1,-1,-1,-1,-1,35,-1,-1],"loss_changes":[1.7279552E2,1.1676746E1,0E0,6.3984346E0,1.1082168E1,3.2084875E0,1.0005908E0,5.689306E0,4.8825235E0,0E0,3.1319466E0,0E0,0E0,2.9832335E0,0E0,4.774167E0,4.6293106E0,1.5392876E-1,0E0,8.8960266E-1,2.8198698E0,5.502454E0,0E0,0E0,3.5958347E0,0E0,0E0,0E0,0E0,0E0,0E0,0E0,0E0,0E0,5.4682293E0,0E0,0E0],"parents":[2147483647,0,0,1,1,3,3,4,4,5,5,6,6,7,7,8,8,10,10,13,13,15,15,16,16,17,17,19,19,20,20,21,21,24,24,34,34],"right_children":[2,4,-1,6,8,10,12,14,16,-1,18,-1,-1,20,-1,22,24,-1,-1,28,30,32,-1,-1,34,-1,-1,-1,-1,-1,-1,-1,-1,-1,36,-1,-1],"split_conditions":[1.732066E0,9.7799563E-1,-8.742867E-3,2.827778E-1,2.3263821E-1,2.575643E-1,6.17104E-1,2.9263985E-1,1.1925926E-1,-1.4689368E-4,7.8574896E-1,5.3543976E-4,-3.0132935E-3,1.35E1,-2.571301E-3,1.2666667E-1,5.345638E-1,6.2196045E-3,5.402585E-4,2.3124878E-1,1.0264783E0,9.1997015E-1,4.2925673E-3,2.9660745E-3,9.840492E-1,4.097695E-3,7.4989214E-3,2.7747506E-3,7.76854E-3,3.9100805E-3,-1.5370667E-3,2.5774082E-3,-4.990437E-3,-5.8776904E-3,9.980018E-1,2.2094227E-4,-2.9792108E-3],"split_indices":[3,0,0,17,11,13,13,5,17,0,13,0,0,14,0,16,10,18,0,13,2,12,0,0,0,2147483647,2147483647,0,0,0,0,0,0,0,0,0,0],"split_type":[0,0,0,0,0,0,0,0,0,0,0,0,0,0,0,0,0,0,0,0,0,0,0,0,0,0,0,0,0,0,0,0,0,0,0,0,0],"sum_hessian":[2.4329207E2,1.3166618E2,1.11625885E2,2.498127E1,1.0668491E2,1.8483473E1,6.497797E0,1.8241096E1,8.844382E1,3.4972003E0,1.4986273E1,3.2490337E0,3.248763E0,1.4492057E1,3.74904E0,1.2993256E1,7.545056E1,1.1737256E1,3.2490165E0,6.7450624E0,7.746995E0,7.7463384E0,5.2469172E0,3.249164E0,7.220139E1,5.9956846E0,5.741572E0,3.2472067E0,3.497856E0,3.9978783E0,3.7491164E0,3.7476263E0,3.9987118E0,6.4969344E0,6.570446E1,1.8242306E1,4.7462154E1],"tree_param":{"num_deleted":"2","num_feature":"19","num_nodes":"37","size_leaf_vector":"0"}},{"base_weights":[-8.353333E-1,-1.2743376E-2,-1.7500967E0,1.7038856E-1,-4.2166114E-1,3.1379896E-1,-3.347265E-1,3.015116E-1,-6.077792E-1,1.2450522E0,1.848073E-1,1.9122206E-1,-7.8250736E-1,1.1167815E0,-4.545754E-1,-8.5303026E-1,-1.0136143E-2,5.7215613E-1,1.5680232E0,-5.363404E-2,5.2248967E-1,-3.9822575E-1,6.5067434E-1,-1.1170726E0,-1.5724014E-1,-4.97958E-1,-1.5316117E0,4.0075397E-1,-6.243546E-1,5.451441E-1,-3.1724504E-1,8.0600363E-1,-9.463924E-2,8.5583955E-2,-9.774524E-1,1.0132966E0,-4.341557E-1,4.0351853E-1,-5.4797935E-1,1.1675645E0,1.8888286E-1,4.4948086E-1,-8.0851036E-1,-5.073495E-1,6.924249E-1,-1.5174937E0,-3.5787472E-1],"categories":[],"categories_nodes":[],"categories_segments":[],"categories_sizes":[],"default_left":[0,1,0,1,0,0,0,0,1,1,1,0,0,0,0,0,0,0,0,0,0,0,0,0,0,0,0,0,0,1,0,0,0,0,0,0,0,0,0,0,0,0,0,0,0,0,0],"id":29,"left_children":[1,3,-1,5,7,9,11,13,15,17,19,21,23,-1,-1,25,27,-1,-1,29,31,-1,-1,-1,-1,33,-1,-1,-1,35,37,39,41,43,45,-1,-1,-1,-1,-1,-1,-1,-1,-1,-1,-1,-1],"loss_changes":[1.7954417E2,9.556505E0,0E0,6.493434E0,5.494994E0,8.08304E0,4.856449E0,5.8989444E0,4.6403847E0,8.9476013E-1,5.0168343E0,2.9657917E0,2.1236715E0,0E0,0E0,4.6531506E0,2.8347661E0,0E0,0E0,6.0483985E0,4.579229E0,0E0,0E0,0E0,0E0,4.627101E0,0E0,0E0,0E0,5.825034E0,4.6243773E0,3.7377033E0,3.8579268E0,3.3175464E0,2.4663382E0,0E0,0E0,0E0,0E0,0E0,0E0,0E0,0E0,0E0,0E0,0E0,0E0],"parents":[2147483647,0,0,1,1,3,3,4,4,5,5,6,6,7,7,8,8,9,9,10,10,11,11,12,12,15,15,16,16,19,19,20,20,25,25,29,29,30,30,31,31,32,32,33,33,34,34],"right_children":[2,4,-1,6,8,10,12,14,16,18,20,22,24,-1,-1,26,28,-1,-1,30,32,-1,-1,-1,-1,34,-1,-1,-1,36,38,40,42,44,46,-1,-1,-1,-1,-1,-1,-1,-1,-1,-1,-1,-1],"split_conditions":[1.7255859E0,4.5E0,-8.750483E-3,2.45E1,7.741053E-1,1.9535449E-1,9.8936236E-1,9.9388087E-1,1.0954592E0,8.5E0,1.0353019E0,9.292206E-1,4.3109083E-1,5.583907E-3,-2.272877E-3,1.1403852E0,1.1104062E0,2.8607806E-3,7.840116E-3,7.1816444E-1,4.7764677E-1,-1.9911288E-3,3.2533717E-3,-5.5853627E-3,-7.862007E-4,1.0059589E0,-7.6580583E-3,2.0037699E-3,-3.121773E-3,2.951852E-1,9.79095E-1,1.0653791E0,1.2943922E0,9.149689E-1,8.1030893E-1,5.066483E-3,-2.1707786E-3,2.0175925E-3,-2.7398968E-3,5.8378223E-3,9.444143E-4,2.2474043E-3,-4.042552E-3,-2.5367474E-3,3.4621244E-3,-7.5874683E-3,-1.7893736E-3],"split_indices":[3,15,0,14,8,3,2,0,4,14,6,4,7,0,0,12,2,0,0,10,13,0,0,0,0,4,0,0,0,17,0,2,8,8,12,0,0,0,0,0,0,0,0,0,0,0,0],"split_type":[0,0,0,0,0,0,0,0,0,0,0,0,0,0,0,0,0,0,0,0,0,0,0,0,0,0,0,0,0,0,0,0,0,0,0,0,0,0,0,0,0,0,0,0,0,0,0],"sum_hessian":[2.3763441E2,1.256548E2,1.1197962E2,8.719033E1,3.846447E1,6.820467E1,1.8985659E1,7.7461915E0,3.0718279E1,7.2452817E0,6.095939E1,8.994258E0,9.991402E0,3.4976778E0,4.2485137E0,2.1477407E1,9.240872E0,3.248569E0,3.9967124E0,3.6223053E1,2.4736338E1,3.998149E0,4.9961085E0,5.9963493E0,3.9950523E0,1.5237897E1,6.2395096E0,5.745127E0,3.4957457E0,1.0746034E1,2.547702E1,1.6739859E1,7.9964786E0,7.2437754E0,7.9941216E0,7.2469344E0,3.4990993E0,5.9964805E0,1.948054E1,9.993108E0,6.746751E0,4.747923E0,3.2485557E0,3.7467966E0,3.4969788E0,3.4968925E0,4.497229E0],"tree_param":{"num_deleted":"0","num_feature":"19","num_nodes":"47","size_leaf_vector":"0"}},{"base_weights":[-8.155189E-1,-4.333596E-2,-1.7360629E0,5.3643614E-1,-2.0475055E-1,1.1278045E0,9.207512E-2,1.2818534E0,-2.660437E-1,5.114225E-1,1.5169582E0,-8.028814E-1,4.1685158E-1,-4.9301E-1,-2.8082253E-2,-3.624957E-1,6.994224E-1,-8.775143E-2,-9.4564986E-1,2.6434404E-1,-4.5825312E-1,1.3414228E0,1.22539476E-1,1.4731625E-1,-8.8829935E-1,-8.4430344E-2,-1.0765363E0,-5.912496E-1,4.783586E-1,4.0372273E-1,-7.8154486E-1,-4.7661394E-1,5.4196656E-1,-3.2280886E-1,-1.2654916E0,9.2272604E-1,1.5356968E-1,2.0449804E-2,-1.0222802E0],"categories":[],"categories_nodes":[],"categories_segments":[],"categories_sizes":[],"default_left":[0,0,0,1,0,0,0,0,1,0,0,0,0,0,0,0,0,1,1,1,1,0,0,1,0,0,0,0,1,0,0,0,0,0,0,0,0,0,0],"id":30,"left_children":[1,3,-1,5,7,9,11,-1,13,-1,-1,-1,15,17,19,-1,21,23,25,27,29,-1,-1,31,-1,-1,33,-1,35,-1,37,-1,-1,-1,-1,-1,-1,-1,-1],"loss_changes":[1.6935396E2,1.2336385E1,0E0,7.445503E0,9.718926E0,2.159356E0,5.4189324E0,0E0,5.3693843E0,0E0,0E0,0E0,3.224912E0,9.263896E0,6.3753285E0,0E0,3.6294794E0,5.397455E0,2.6108055E0,5.81858E0,6.0243835E0,0E0,0E0,5.796567E0,0E0,0E0,2.5425453E0,0E0,3.4282894E0,0E0,2.96307E0,0E0,0E0,0E0,0E0,0E0,0E0,0E0,0E0],"parents":[2147483647,0,0,1,1,3,3,4,4,5,5,6,6,8,8,12,12,13,13,14,14,16,16,17,17,18,18,19,19,20,20,23,23,26,26,28,28,30,30],"right_children":[2,4,-1,6,8,10,12,-1,14,-1,-1,-1,16,18,20,-1,22,24,26,28,30,-1,-1,32,-1,-1,34,-1,36,-1,38,-1,-1,-1,-1,-1,-1,-1,-1],"split_conditions":[1.6912279E0,9.793123E-1,-8.680314E-3,1.5111111E-1,2.0724235E-1,9.6773285E-1,2.9701018E-1,6.409267E-3,9.9375075E-1,2.5571126E-3,7.584791E-3,-4.014407E-3,7.172309E-1,7.564341E-1,1.0136344E0,-1.8124784E-3,8.924432E-1,2.35E1,3.0000001E-2,1.366E-1,8.5E0,6.7071137E-3,6.126974E-4,1.5074074E-1,-4.4414965E-3,-4.221517E-4,7.493328E-1,-2.956248E-3,1.5900001E-1,2.0186135E-3,9.0570235E-1,-2.3830696E-3,2.7098327E-3,-1.6140443E-3,-6.3274577E-3,4.61363E-3,7.678484E-4,1.0224902E-4,-5.111401E-3],"split_indices":[3,0,0,16,11,0,9,0,8,0,0,0,6,12,0,0,8,14,16,18,14,0,0,17,0,0,8,0,18,0,12,0,0,0,0,0,0,0,0],"split_type":[0,0,0,0,0,0,0,0,0,0,0,0,0,0,0,0,0,0,0,0,0,0,0,0,0,0,0,0,0,0,0,0,0,0,0,0,0,0,0],"sum_hessian":[2.3735455E2,1.296483E2,1.07706245E2,2.7728651E1,1.01919655E2,1.1236611E1,1.6492039E1,3.2472537E0,9.86724E1,5.244314E0,5.9922976E0,3.9993353E0,1.2492703E1,4.995438E1,4.871802E1,3.2489781E0,9.243726E0,2.6986568E1,2.2967812E1,2.9231916E1,1.9486103E1,3.7476985E0,5.496027E0,2.1491829E1,5.49474E0,3.2471256E0,1.9720688E1,5.4962378E0,2.373568E1,5.2471404E0,1.4238964E1,8.246568E0,1.3245261E1,4.495777E0,1.522491E1,9.245387E0,1.4490292E1,3.4986126E0,1.0740351E1],"tree_param":{"num_deleted":"0","num_feature":"19","num_nodes":"39","size_leaf_vector":"0"}},{"base_weights":[-7.942393E-1,1.5280938E-2,-1.7369739E0,7.986698E-2,-1.0286459E0,1.785845E-1,-4.6802723E-1,-3.2148787E-1,-1.4937881E0,2.4054196E-1,-8.225343E-1,4.8492903E-1,-7.808798E-1,2.9215526E-2,5.8446014E-1,-1.0718336E0,1.7374848E-1,8.006664E-1,-1.2196373E-1,1.0799025E0,-1.2237467E-1,-2.0615394E-1,-1.4363586E0,1.2265524E0,-1.6216576E-2,1.0431395E0,-2.2004439E-1,1.0158501E-1,1.2753994E0,-6.547403E-1,3.2444102E-1],"categories":[],"categories_nodes":[],"categories_segments":[],"categories_sizes":[],"default_left":[0,1,0,0,0,0,1,0,0,0,0,0,0,0,0,0,0,1,0,1,1,0,0,0,0,0,0,0,0,0,0],"id":31,"left_children":[1,3,-1,5,7,9,11,-1,-1,13,-1,-1,15,17,19,21,-1,23,25,27,29,-1,-1,-1,-1,-1,-1,-1,-1,-1,-1],"loss_changes":[1.793297E2,8.67158E0,0E0,6.6227407E0,1.9849582E0,6.5969863E0,5.963946E0,0E0,0E0,7.100252E0,0E0,0E0,4.2100086E0,7.2946463E0,1.316607E1,3.2515717E0,0E0,3.5836582E0,6.224999E0,4.0749207E0,4.0743847E0,0E0,0E0,0E0,0E0,0E0,0E0,0E0,0E0,0E0,0E0],"parents":[2147483647,0,0,1,1,3,3,4,4,5,5,6,6,9,9,12,12,13,13,14,14,15,15,17,17,18,18,19,19,20,20],"right_children":[2,4,-1,6,8,10,12,-1,-1,14,-1,-1,16,18,20,22,-1,24,26,28,30,-1,-1,-1,-1,-1,-1,-1,-1,-1,-1],"split_conditions":[1.2257061E0,2.3773333E-1,-8.684869E-3,1.0284309E0,9.5907277E-1,1.2616355E0,7.5E0,-1.6074394E-3,-7.46894E-3,3.6421448E-1,-4.1126716E-3,2.424645E-3,7.2397166E-1,1.9566202E-1,8.6207867E-1,2.2541527E-1,8.6874235E-4,1.85E1,6.5271854E-1,1.4793333E-1,2.0386666E-1,-1.0307697E-3,-7.1817925E-3,6.1327615E-3,-8.108288E-5,5.215697E-3,-1.1002219E-3,5.0792505E-4,6.376997E-3,-3.2737013E-3,1.622205E-3],"split_indices":[2,18,0,0,12,3,14,0,0,9,0,0,9,7,13,9,0,14,10,18,18,0,0,0,0,0,0,0,0,0,0],"split_type":[0,0,0,0,0,0,0,0,0,0,0,0,0,0,0,0,0,0,0,0,0,0,0,0,0,0,0,0,0,0,0],"sum_hessian":[2.3394745E2,1.2639589E2,1.0755155E2,1.1990129E2,6.4946036E0,1.0216724E2,1.7734055E1,3.2479262E0,3.2466774E0,9.6928246E1,5.23899E0,4.2471414E0,1.3486914E1,6.070931E1,3.6218933E1,1.0242428E1,3.2444859E0,9.243684E0,5.1465626E1,2.0983294E1,1.5235639E1,3.4988492E0,6.743579E0,5.746312E0,3.497372E0,3.247923E0,4.8217705E1,3.7478251E0,1.7235468E1,6.7399144E0,8.495725E0],"tree_param":{"num_deleted":"0","num_feature":"19","num_nodes":"31","size_leaf_vector":"0"}},{"base_weights":[-8.394213E-1,-1.0291218E-1,-1.729278E0,1.25062E-1,-3.43288E-1,2.772561E-1,-5.419297E-1,-1.84019E-1,-1.292415E0,8.1086636E-1,1.2920414E-1,-1.0762767E0,1.7855386E-1,-4.2823824E-1,4.0714732E-1,-6.2099564E-1,-1.5928551E0,1.0582837E0,9.6134186E-2,-2.7855593E-1,5.5804235E-1,-1.323208E0,-5.61247E-1,-9.7687714E-2,-8.6665255E-1,7.1370447E-1,-1.756689E-1,5.560011E-1,1.3487954E0,3.7328246E-1,-7.8235483E-1,-2.1507475E-1,8.3225375E-1,-4.7733232E-1,3.729753E-1,-1.2554071E0,-4.4944847E-1,1.0935878E0,1.8307231E-1,8.5034263E-1,-3.9258698E-1,3.1154713E-1,-1.212945E0,1.057661E0,-9.277463E-2,-1.0190504E0,9.105937E-2,9.7624135E-1,-1.9639248E-1,-5.6788844E-1,-1.572824E0,-9.100821E-1,3.876261E-1],"categories":[],"categories_nodes":[],"categories_segments":[],"categories_sizes":[],"default_left":[0,0,0,1,1,0,0,1,1,1,0,0,0,1,1,0,0,0,0,1,1,1,1,1,0,0,0,1,1,0,0,0,0,1,0,0,0,0,0,0,0,0,0,0,0,0,0,0,0,0,0,0,0],"id":32,"left_children":[1,3,-1,5,7,9,11,13,15,17,19,-1,-1,23,25,-1,-1,-1,-1,29,31,-1,-1,33,35,37,-1,-1,-1,39,41,-1,43,45,47,49,51,-1,-1,-1,-1,-1,-1,-1,-1,-1,-1,-1,-1,-1,-1,-1,-1],"loss_changes":[1.5892496E2,7.3799744E0,0E0,7.200282E0,9.654329E0,4.414837E0,5.2899466E0,8.432809E0,8.741627E-1,2.0619993E0,8.194415E0,2.4234772E-1,0E0,5.852135E0,3.2047205E0,0E0,0E0,5.617924E-1,0E0,8.249932E0,4.9998813E0,0E0,0E0,4.552867E0,2.2713327E0,2.116314E0,0E0,0E0,0E0,4.440979E0,6.968195E0,0E0,3.6410503E0,4.40067E0,4.1392612E0,9.601135E-1,4.204997E0,0E0,0E0,0E0,0E0,0E0,0E0,0E0,0E0,0E0,0E0,0E0,0E0,0E0,0E0,0E0,0E0],"parents":[2147483647,0,0,1,1,3,3,4,4,5,5,6,6,7,7,8,8,9,9,10,10,11,11,13,13,14,14,17,17,19,19,20,20,23,23,24,24,25,25,29,29,30,30,32,32,33,33,34,34,35,35,36,36],"right_children":[2,4,-1,6,8,10,12,14,16,18,20,-1,-1,24,26,-1,-1,-1,-1,30,32,-1,-1,34,36,38,-1,-1,-1,40,42,-1,44,46,48,50,52,-1,-1,-1,-1,-1,-1,-1,-1,-1,-1,-1,-1,-1,-1,-1,-1],"split_conditions":[1.8539E0,9.99315E-1,-8.6463895E-3,3.0166668E-1,5.5E0,9.640274E-1,8.353785E-1,2.3666666E-1,1.5366668E-1,3.5E0,9.876677E-1,-5.381383E-3,8.927693E-4,1.75E1,3.638889E-1,-3.1049782E-3,-7.964275E-3,5.291418E-3,4.8067092E-4,1.4462963E-1,5.2222222E-2,-6.6160397E-3,-2.8062349E-3,1.5148148E-1,2.8596362E-1,1.3463074E0,-8.7834446E-4,2.7800056E-3,6.743977E-3,9.812305E-1,7.954534E-1,-1.0753737E-3,1.1141492E0,8.5E0,1.0027878E0,2.271673E-1,9.938739E-1,5.4679387E-3,9.1536157E-4,4.251713E-3,-1.9629349E-3,1.5577356E-3,-6.0647246E-3,5.288305E-3,-4.6387315E-4,-5.095252E-3,4.5529686E-4,4.8812064E-3,-9.819623E-4,-2.839442E-3,-7.8641195E-3,-4.5504104E-3,1.9381305E-3],"split_indices":[1,0,0,16,15,0,5,16,18,15,0,0,0,14,16,0,0,2,0,17,16,2147483647,2147483647,17,11,12,0,2147483647,2147483647,0,8,0,8,14,6,5,10,0,0,0,0,0,0,0,0,0,0,0,0,0,0,0,0],"split_type":[0,0,0,0,0,0,0,0,0,0,0,0,0,0,0,0,0,0,0,0,0,0,0,0,0,0,0,0,0,0,0,0,0,0,0,0,0,0,0,0,0,0,0,0,0,0,0,0,0,0,0,0,0],"sum_hessian":[2.417616E2,1.328889E2,1.088727E2,6.845007E1,6.443883E1,5.6208694E1,1.2241375E1,5.6201733E1,8.237093E0,1.123576E1,4.4972935E1,6.7450676E0,5.4963074E0,3.9966576E1,1.6235159E1,3.4945257E0,4.742567E0,7.9894104E0,3.2463496E0,2.3232649E1,2.1740286E1,3.4985144E0,3.2465534E0,2.3483545E1,1.648303E1,1.049191E1,5.7432485E0,3.9953997E0,3.9940104E0,1.0241189E1,1.2991461E1,5.7485037E0,1.5991782E1,1.2990788E1,1.0492756E1,7.492424E0,8.990606E0,5.4962153E0,4.995694E0,6.2424617E0,3.9987273E0,3.747502E0,9.243958E0,1.2743189E1,3.2485933E0,6.2455063E0,6.745282E0,4.7477427E0,5.7450137E0,3.247499E0,4.244925E0,5.7430477E0,3.2475586E0],"tree_param":{"num_deleted":"4","num_feature":"19","num_nodes":"53","size_leaf_vector":"0"}},{"base_weights":[-7.8655183E-1,1.6157413E-2,-1.7153684E0,7.4478805E-1,-1.5820906E-1,1.0759256E0,-1.4319261E-2,-2.6718363E-1,6.208869E-1,6.7588717E-1,1.4536607E0,-4.832073E-1,5.6828606E-1,-8.88857E-2,-9.663991E-1,1.3622712E-1,1.2570488E0,-1.388978E-1,1.1676073E0,4.298508E-1,-2.7274844E-1,-1.1402936E0,-1.7208649E-1,5.809923E-1,-2.4995938E-1,1.1969193E0,-6.0345616E-2,-5.148276E-1,2.9040572E-1,-3.7167224E-1,-1.3862498E0,5.3776246E-1,-7.4131817E-1,-9.286198E-2,-8.911199E-1,-3.1173202E-1,7.8535914E-1],"categories":[],"categories_nodes":[],"categories_segments":[],"categories_sizes":[],"default_left":[0,0,0,1,1,1,1,0,0,1,0,0,0,1,0,1,0,0,0,0,0,0,0,0,0,0,0,0,0,0,0,0,0,0,0,0,0],"id":33,"left_children":[1,3,-1,5,7,9,11,13,15,17,-1,-1,-1,19,21,23,-1,-1,-1,25,27,29,-1,-1,-1,-1,31,33,35,-1,-1,-1,-1,-1,-1,-1,-1],"loss_changes":[1.7535492E2,1.6269966E1,0E0,6.2303333E0,8.945486E0,1.6207886E0,2.595599E0,1.1311173E1,3.8338962E0,4.2631893E0,0E0,0E0,0E0,7.1698623E0,2.3554802E0,1.6042659E0,0E0,0E0,0E0,7.4943256E0,7.6756725E0,2.3163185E0,0E0,0E0,0E0,0E0,5.691399E0,6.1050253E0,5.3817167E0,0E0,0E0,0E0,0E0,0E0,0E0,0E0,0E0],"parents":[2147483647,0,0,1,1,3,3,4,4,5,5,6,6,7,7,8,8,9,9,13,13,14,14,15,15,19,19,20,20,21,21,26,26,27,27,28,28],"right_children":[2,4,-1,6,8,10,12,14,16,18,-1,-1,-1,20,22,24,-1,-1,-1,26,28,30,-1,-1,-1,-1,32,34,36,-1,-1,-1,-1,-1,-1,-1,-1],"split_conditions":[1.67606E0,9.7499424E-1,-8.576842E-3,2.4148148E-1,1.2613244E0,1.7944445E-1,2.376E-1,5.964685E-1,8.835395E-1,1.6E1,7.2683035E-3,-2.4160363E-3,2.8414303E-3,8.5E0,1.272258E0,1.4740741E-1,6.285244E-3,-6.94489E-4,5.8380365E-3,2.4131551E-1,3.49239E-1,7.852061E-1,-8.6043245E-4,2.9049614E-3,-1.2497968E-3,5.9845964E-3,1.0152128E0,9.964533E-1,3.428546E-1,-1.8583612E-3,-6.9312486E-3,2.6888123E-3,-3.7065907E-3,-4.6430988E-4,-4.4555995E-3,-1.5586601E-3,3.9267954E-3],"split_indices":[1,0,0,17,6,16,18,3,1,14,0,0,0,14,7,17,0,0,0,11,7,12,0,0,0,0,0,2,13,0,0,0,0,0,0,0,0],"split_type":[0,0,0,0,0,0,0,0,0,0,0,0,0,0,0,0,0,0,0,0,0,0,0,0,0,0,0,0,0,0,0,0,0,0,0,0,0],"sum_hessian":[2.341587E2,1.2613335E2,1.0802537E2,2.3724333E1,1.0240901E2,1.6228004E1,7.4963293E0,9.04189E1,1.1990113E1,9.2359915E0,6.9920125E0,4.248053E0,